 i = 1
-0.0336137 -0.042972 -0.11412 
0.0865934 -0.146019 -0.0280914 
-0.314227 0.231913 -0.206506 
0.120433 -0.413319 0.215795 


 i = 2
-0.00459935 -0.0454549 -0.0731275 
0.154923 -0.170366 -0.047331 
-0.407063 0.252779 -0.0657366 
0.0765646 -0.409496 0.282449 


 i = 3
0.0195916 -0.0463483 -0.10241 
0.213348 -0.191973 -0.100751 
-0.486904 0.270512 0.0264312 
0.0389778 -0.407206 0.332861 


 i = 4
0.0387788 -0.0463134 -0.133087 
0.262758 -0.211517 -0.147661 
-0.556132 0.285421 0.101573 
0.0066037 -0.406253 0.375569 


 i = 5
0.0544353 -0.0455098 -0.161264 
0.305103 -0.22935 -0.18728 
-0.616424 0.298001 0.164789 
-0.0214469 -0.406399 0.412569 


 i = 6
0.0675389 -0.0440616 -0.187119 
0.341918 -0.245749 -0.221023 
-0.669401 0.308652 0.218807 
-0.0459946 -0.407453 0.445121 


 i = 7
0.0787374 -0.0420714 -0.210981 
0.374353 -0.260943 -0.250141 
-0.71642 0.317697 0.265774 
-0.0677091 -0.409258 0.474229 


 i = 8
0.0884736 -0.039625 -0.23316 
0.403265 -0.275116 -0.275625 
-0.758553 0.325397 0.307301 
-0.0871149 -0.411689 0.500652 


 i = 9
0.097059 -0.0367936 -0.253926 
0.429299 -0.28842 -0.298232 
-0.796643 0.331966 0.344579 
-0.104619 -0.414641 0.524954 


 i = 10
0.10472 -0.0336373 -0.273497 
0.452948 -0.300981 -0.318537 
-0.831349 0.337579 0.378487 
-0.120538 -0.41803 0.547556 


 i = 11
0.111623 -0.0302067 -0.29205 
0.474594 -0.312905 -0.336979 
-0.863192 0.34238 0.409683 
-0.135122 -0.421785 0.568771 


 i = 12
0.117898 -0.0265444 -0.30973 
0.494536 -0.324279 -0.353893 
-0.892588 0.34649 0.438661 
-0.148567 -0.425847 0.588839 


 i = 13
0.123642 -0.0226867 -0.326653 
0.513015 -0.335176 -0.369542 
-0.919872 0.35001 0.465801 
-0.161033 -0.430166 0.607942 


 i = 14
0.128934 -0.0186644 -0.342913 
0.530224 -0.345658 -0.38413 
-0.945317 0.353025 0.491397 
-0.172649 -0.434701 0.626223 


 i = 15
0.133837 -0.0145038 -0.358588 
0.546323 -0.355777 -0.397822 
-0.969148 0.355604 0.515681 
-0.18352 -0.439417 0.643797 


 i = 16
0.1384 -0.0102274 -0.373742 
0.561442 -0.36558 -0.410746 
-0.991554 0.35781 0.538836 
-0.193735 -0.444283 0.660753 


 i = 17
0.142667 -0.00585448 -0.388429 
0.575692 -0.375103 -0.423011 
-1.01269 0.359693 0.561013 
-0.203367 -0.449276 0.677166 


 i = 18
0.146671 -0.00140166 -0.402693 
0.589166 -0.384379 -0.434702 
-1.03269 0.361297 0.58233 
-0.212478 -0.454373 0.693094 


 i = 19
0.150442 0.00311678 -0.416573 
0.601941 -0.393436 -0.445892 
-1.05167 0.36266 0.602888 
-0.221121 -0.459555 0.708588 


 i = 20
0.154005 0.00768855 -0.430101 
0.614087 -0.402298 -0.456638 
-1.06973 0.363814 0.622769 
-0.229342 -0.464807 0.723689 


 i = 21
0.15738 0.012303 -0.443304 
0.62566 -0.410987 -0.466992 
-1.08695 0.364787 0.642041 
-0.23718 -0.470115 0.738432 


 i = 22
0.160585 0.016951 -0.456207 
0.636713 -0.41952 -0.476996 
-1.1034 0.365602 0.660764 
-0.244669 -0.475467 0.752847 


 i = 23
0.163637 0.0216245 -0.468829 
0.647289 -0.427911 -0.486684 
-1.11915 0.36628 0.678986 
-0.251838 -0.480853 0.76696 


 i = 24
0.166548 0.0263167 -0.48119 
0.657427 -0.436176 -0.496087 
-1.13425 0.36684 0.69675 
-0.258715 -0.486265 0.780791 


 i = 25
0.169332 0.0310217 -0.493305 
0.667163 -0.444326 -0.505232 
-1.14877 0.367296 0.714092 
-0.265321 -0.491695 0.79436 


 i = 26
0.171998 0.0357342 -0.505188 
0.676525 -0.45237 -0.514141 
-1.16273 0.367662 0.731043 
-0.271678 -0.497135 0.807684 


 i = 27
0.174555 0.0404498 -0.516851 
0.685543 -0.460318 -0.522833 
-1.17618 0.36795 0.747631 
-0.277804 -0.502582 0.820777 


 i = 28
0.177012 0.0451647 -0.528307 
0.694239 -0.468177 -0.531325 
-1.18916 0.368169 0.76388 
-0.283715 -0.508029 0.833652 


 i = 29
0.179376 0.0498754 -0.539564 
0.702637 -0.475954 -0.539633 
-1.2017 0.368329 0.779811 
-0.289426 -0.513473 0.84632 


 i = 30
0.181654 0.054579 -0.550632 
0.710755 -0.483655 -0.547769 
-1.21383 0.368437 0.795443 
-0.29495 -0.518909 0.858792 


 i = 31
0.183852 0.0592731 -0.561519 
0.718612 -0.491284 -0.555745 
-1.22557 0.368499 0.810793 
-0.300299 -0.524336 0.871077 


 i = 32
0.185974 0.0639554 -0.572233 
0.726224 -0.498848 -0.563572 
-1.23694 0.368522 0.825874 
-0.305484 -0.529749 0.883183 


 i = 33
0.188027 0.068624 -0.582781 
0.733605 -0.506348 -0.571257 
-1.24798 0.368511 0.840702 
-0.310515 -0.535147 0.895118 


 i = 34
0.190014 0.0732774 -0.593168 
0.74077 -0.51379 -0.57881 
-1.2587 0.36847 0.855288 
-0.315401 -0.540527 0.906888 


 i = 35
0.191939 0.0779141 -0.603401 
0.74773 -0.521176 -0.586237 
-1.26911 0.368403 0.869642 
-0.320151 -0.545889 0.918501 


 i = 36
0.193806 0.082533 -0.613484 
0.754497 -0.528508 -0.593546 
-1.27923 0.368314 0.883775 
-0.324771 -0.55123 0.92996 


 i = 37
0.195619 0.087133 -0.623424 
0.761081 -0.535789 -0.600742 
-1.28909 0.368204 0.897696 
-0.329269 -0.556548 0.941273 


 i = 38
0.19738 0.0917131 -0.633224 
0.767492 -0.543021 -0.607831 
-1.29869 0.368078 0.911413 
-0.333651 -0.561844 0.952444 


 i = 39
0.199092 0.0962727 -0.642889 
0.773739 -0.550206 -0.614817 
-1.30804 0.367937 0.924933 
-0.337923 -0.567116 0.963476 


 i = 40
0.200758 0.100811 -0.652423 
0.77983 -0.557346 -0.621706 
-1.31717 0.367782 0.938265 
-0.34209 -0.572363 0.974376 


 i = 41
0.20238 0.105328 -0.661829 
0.785772 -0.564442 -0.6285 
-1.32607 0.367617 0.951414 
-0.346159 -0.577585 0.985147 


 i = 42
0.20396 0.109822 -0.671112 
0.791573 -0.571495 -0.635204 
-1.33476 0.367442 0.964386 
-0.350132 -0.58278 0.995791 


 i = 43
0.205501 0.114294 -0.680275 
0.797239 -0.578506 -0.641821 
-1.34326 0.367258 0.977187 
-0.354016 -0.58795 1.00631 


 i = 44
0.207004 0.118743 -0.68932 
0.802776 -0.585477 -0.648355 
-1.35156 0.367068 0.989822 
-0.357813 -0.593092 1.01672 


 i = 45
0.208471 0.123169 -0.698252 
0.80819 -0.592408 -0.654808 
-1.35968 0.366871 1.0023 
-0.361528 -0.598207 1.02701 


 i = 46
0.209904 0.127572 -0.707072 
0.813487 -0.599301 -0.661184 
-1.36762 0.366669 1.01462 
-0.365164 -0.603295 1.03718 


 i = 47
0.211305 0.131951 -0.715785 
0.818671 -0.606155 -0.667484 
-1.3754 0.366462 1.02678 
-0.368725 -0.608355 1.04725 


 i = 48
0.212674 0.136307 -0.724391 
0.823747 -0.612972 -0.673711 
-1.38302 0.366252 1.0388 
-0.372214 -0.613388 1.05721 


 i = 49
0.214013 0.140639 -0.732894 
0.82872 -0.619752 -0.679867 
-1.39048 0.366038 1.05068 
-0.375634 -0.618392 1.06706 


 i = 50
0.215324 0.144947 -0.741297 
0.833593 -0.626497 -0.685955 
-1.39779 0.365822 1.06242 
-0.378986 -0.623369 1.07681 


 i = 51
0.216607 0.149231 -0.749601 
0.838371 -0.633205 -0.691977 
-1.40497 0.365603 1.07402 
-0.382275 -0.628318 1.08647 


 i = 52
0.217864 0.153492 -0.757809 
0.843057 -0.639879 -0.697933 
-1.412 0.365383 1.08548 
-0.385503 -0.633239 1.09602 


 i = 53
0.219096 0.157729 -0.765923 
0.847654 -0.646517 -0.703827 
-1.41891 0.365161 1.09682 
-0.388671 -0.638132 1.10548 


 i = 54
0.220303 0.161942 -0.773946 
0.852167 -0.653122 -0.709659 
-1.42569 0.364938 1.10803 
-0.391782 -0.642997 1.11485 


 i = 55
0.221487 0.166132 -0.781878 
0.856598 -0.659692 -0.715432 
-1.43234 0.364714 1.11912 
-0.394839 -0.647835 1.12412 


 i = 56
0.222649 0.170298 -0.789722 
0.860949 -0.666229 -0.721146 
-1.43888 0.364489 1.13008 
-0.397842 -0.652644 1.13331 


 i = 57
0.223789 0.17444 -0.79748 
0.865225 -0.672732 -0.726804 
-1.44531 0.364264 1.14093 
-0.400795 -0.657426 1.14241 


 i = 58
0.224908 0.178559 -0.805153 
0.869426 -0.679202 -0.732406 
-1.45162 0.364038 1.15166 
-0.403698 -0.662181 1.15142 


 i = 59
0.226007 0.182654 -0.812744 
0.873557 -0.68564 -0.737954 
-1.45783 0.363812 1.16228 
-0.406553 -0.666908 1.16035 


 i = 60
0.227087 0.186727 -0.820254 
0.877619 -0.692045 -0.743449 
-1.46394 0.363587 1.17279 
-0.409362 -0.671608 1.1692 


 i = 61
0.228148 0.190776 -0.827684 
0.881614 -0.698419 -0.748892 
-1.46995 0.363361 1.18319 
-0.412127 -0.67628 1.17796 


 i = 62
0.229191 0.194802 -0.835037 
0.885546 -0.70476 -0.754285 
-1.47586 0.363136 1.19348 
-0.414849 -0.680926 1.18665 


 i = 63
0.230217 0.198805 -0.842313 
0.889414 -0.71107 -0.759628 
-1.48168 0.362911 1.20367 
-0.417529 -0.685545 1.19526 


 i = 64
0.231225 0.202786 -0.849514 
0.893223 -0.717348 -0.764923 
-1.48741 0.362686 1.21376 
-0.420168 -0.690137 1.20379 


 i = 65
0.232218 0.206743 -0.856642 
0.896973 -0.723595 -0.77017 
-1.49306 0.362462 1.22374 
-0.422768 -0.694702 1.21225 


 i = 66
0.233194 0.210678 -0.863699 
0.900666 -0.729811 -0.77537 
-1.49862 0.362238 1.23363 
-0.42533 -0.699241 1.22063 


 i = 67
0.234155 0.214591 -0.870684 
0.904305 -0.735997 -0.780525 
-1.50409 0.362015 1.24343 
-0.427855 -0.703754 1.22895 


 i = 68
0.235102 0.218482 -0.8776 
0.90789 -0.742152 -0.785635 
-1.50949 0.361793 1.25313 
-0.430345 -0.708241 1.23719 


 i = 69
0.236033 0.22235 -0.884448 
0.911423 -0.748276 -0.790702 
-1.51481 0.361571 1.26273 
-0.432799 -0.712702 1.24536 


 i = 70
0.236951 0.226196 -0.891229 
0.914906 -0.754371 -0.795725 
-1.52005 0.36135 1.27225 
-0.43522 -0.717137 1.25347 


 i = 71
0.237856 0.23002 -0.897945 
0.91834 -0.760435 -0.800706 
-1.52522 0.361129 1.28167 
-0.437608 -0.721546 1.2615 


 i = 72
0.238747 0.233823 -0.904596 
0.921726 -0.76647 -0.805646 
-1.53033 0.36091 1.29101 
-0.439963 -0.72593 1.26947 


 i = 73
0.239625 0.237604 -0.911184 
0.925067 -0.772476 -0.810545 
-1.53536 0.360691 1.30026 
-0.442288 -0.730289 1.27738 


 i = 74
0.240491 0.241364 -0.91771 
0.928362 -0.778452 -0.815404 
-1.54032 0.360473 1.30943 
-0.444583 -0.734623 1.28522 


 i = 75
0.241345 0.245102 -0.924174 
0.931613 -0.784399 -0.820224 
-1.54522 0.360255 1.31852 
-0.446848 -0.738932 1.293 


 i = 76
0.242188 0.248819 -0.930579 
0.934822 -0.790317 -0.825006 
-1.55006 0.360039 1.32752 
-0.449084 -0.743216 1.30072 


 i = 77
0.243018 0.252515 -0.936925 
0.937989 -0.796206 -0.829749 
-1.55483 0.359823 1.33644 
-0.451293 -0.747475 1.30838 


 i = 78
0.243838 0.25619 -0.943212 
0.941116 -0.802066 -0.834455 
-1.55954 0.359609 1.34529 
-0.453474 -0.751711 1.31598 


 i = 79
0.244647 0.259844 -0.949443 
0.944203 -0.807899 -0.839125 
-1.5642 0.359395 1.35405 
-0.455629 -0.755922 1.32352 


 i = 80
0.245445 0.263478 -0.955618 
0.947252 -0.813703 -0.843759 
-1.56879 0.359182 1.36274 
-0.457757 -0.760109 1.331 


 i = 81
0.246234 0.267091 -0.961737 
0.950263 -0.819479 -0.848357 
-1.57334 0.35897 1.37136 
-0.459861 -0.764272 1.33843 


 i = 82
0.247012 0.270684 -0.967803 
0.953238 -0.825227 -0.852921 
-1.57782 0.358758 1.3799 
-0.46194 -0.768411 1.3458 


 i = 83
0.24778 0.274257 -0.973815 
0.956177 -0.830947 -0.85745 
-1.58225 0.358548 1.38837 
-0.463995 -0.772527 1.35311 


 i = 84
0.248539 0.277809 -0.979774 
0.959082 -0.83664 -0.861946 
-1.58664 0.358339 1.39677 
-0.466026 -0.776619 1.36037 


 i = 85
0.249288 0.281342 -0.985682 
0.961952 -0.842305 -0.866408 
-1.59097 0.35813 1.4051 
-0.468035 -0.780689 1.36758 


 i = 86
0.250029 0.284855 -0.99154 
0.964789 -0.847943 -0.870838 
-1.59525 0.357922 1.41336 
-0.470021 -0.784735 1.37474 


 i = 87
0.250761 0.288348 -0.997347 
0.967594 -0.853555 -0.875235 
-1.59948 0.357715 1.42155 
-0.471985 -0.788758 1.38184 


 i = 88
0.251484 0.291822 -1.00311 
0.970366 -0.859139 -0.879601 
-1.60366 0.357509 1.42968 
-0.473928 -0.792759 1.38889 


 i = 89
0.252199 0.295276 -1.00882 
0.973108 -0.864697 -0.883936 
-1.6078 0.357304 1.43774 
-0.47585 -0.796737 1.3959 


 i = 90
0.252905 0.298711 -1.01448 
0.97582 -0.870228 -0.888241 
-1.61189 0.3571 1.44573 
-0.477752 -0.800693 1.40285 


 i = 91
0.253604 0.302127 -1.02009 
0.978502 -0.875733 -0.892515 
-1.61594 0.356896 1.45366 
-0.479633 -0.804627 1.40975 


 i = 92
0.254294 0.305524 -1.02566 
0.981154 -0.881212 -0.896759 
-1.61995 0.356694 1.46153 
-0.481495 -0.808539 1.41661 


 i = 93
0.254977 0.308902 -1.03119 
0.983779 -0.886664 -0.900974 
-1.62391 0.356492 1.46934 
-0.483338 -0.812428 1.42342 


 i = 94
0.255653 0.312261 -1.03667 
0.986376 -0.892091 -0.90516 
-1.62783 0.356292 1.47709 
-0.485162 -0.816296 1.43019 


 i = 95
0.256321 0.315602 -1.0421 
0.988945 -0.897492 -0.909317 
-1.63171 0.356092 1.48477 
-0.486967 -0.820143 1.4369 


 i = 96
0.256982 0.318924 -1.04749 
0.991488 -0.902868 -0.913447 
-1.63555 0.355893 1.4924 
-0.488755 -0.823968 1.44358 


 i = 97
0.257635 0.322228 -1.05284 
0.994005 -0.908218 -0.917548 
-1.63936 0.355694 1.49997 
-0.490525 -0.827772 1.4502 


 i = 98
0.258283 0.325514 -1.05815 
0.996496 -0.913543 -0.921623 
-1.64312 0.355497 1.50748 
-0.492278 -0.831554 1.45679 


 i = 99
0.258923 0.328782 -1.06341 
0.998962 -0.918843 -0.925671 
-1.64685 0.355301 1.51493 
-0.494014 -0.835316 1.46333 


 i = 100
0.259557 0.332032 -1.06864 
1.0014 -0.924118 -0.929692 
-1.65054 0.355105 1.52233 
-0.495733 -0.839057 1.46983 


 i = 101
0.260184 0.335264 -1.07382 
1.00382 -0.929368 -0.933687 
-1.65419 0.35491 1.52968 
-0.497436 -0.842777 1.47629 


 i = 102
0.260805 0.338478 -1.07897 
1.00622 -0.934594 -0.937656 
-1.65781 0.354716 1.53697 
-0.499123 -0.846477 1.4827 


 i = 103
0.26142 0.341675 -1.08407 
1.00859 -0.939795 -0.941599 
-1.66139 0.354523 1.54421 
-0.500795 -0.850157 1.48908 


 i = 104
0.262028 0.344854 -1.08914 
1.01094 -0.944972 -0.945518 
-1.66494 0.354331 1.55139 
-0.502451 -0.853816 1.49541 


 i = 105
0.262631 0.348016 -1.09417 
1.01326 -0.950125 -0.949412 
-1.66846 0.354139 1.55852 
-0.504092 -0.857456 1.5017 


 i = 106
0.263228 0.351161 -1.09916 
1.01557 -0.955254 -0.953281 
-1.67194 0.353949 1.56561 
-0.505718 -0.861075 1.50796 


 i = 107
0.263819 0.354289 -1.10412 
1.01785 -0.960359 -0.957126 
-1.6754 0.353759 1.57264 
-0.50733 -0.864675 1.51418 


 i = 108
0.264405 0.357399 -1.10903 
1.02011 -0.96544 -0.960948 
-1.67882 0.35357 1.57962 
-0.508928 -0.868255 1.52035 


 i = 109
0.264985 0.360493 -1.11392 
1.02235 -0.970498 -0.964746 
-1.68221 0.353382 1.58655 
-0.510512 -0.871816 1.52649 


 i = 110
0.265559 0.36357 -1.11876 
1.02457 -0.975533 -0.96852 
-1.68557 0.353195 1.59344 
-0.512082 -0.875357 1.5326 


 i = 111
0.266129 0.366631 -1.12358 
1.02677 -0.980544 -0.972272 
-1.6889 0.353008 1.60027 
-0.513638 -0.878879 1.53866 


 i = 112
0.266693 0.369675 -1.12835 
1.02896 -0.985532 -0.976001 
-1.6922 0.352822 1.60706 
-0.515181 -0.882382 1.54469 


 i = 113
0.267252 0.372703 -1.1331 
1.03112 -0.990497 -0.979708 
-1.69547 0.352637 1.61381 
-0.516712 -0.885867 1.55069 


 i = 114
0.267806 0.375714 -1.13781 
1.03326 -0.99544 -0.983393 
-1.69871 0.352453 1.6205 
-0.518229 -0.889332 1.55665 


 i = 115
0.268355 0.37871 -1.14248 
1.03539 -1.00036 -0.987056 
-1.70193 0.35227 1.62716 
-0.519734 -0.892779 1.56257 


 i = 116
0.2689 0.381689 -1.14713 
1.03749 -1.00526 -0.990698 
-1.70512 0.352087 1.63376 
-0.521227 -0.896207 1.56846 


 i = 117
0.269439 0.384653 -1.15174 
1.03958 -1.01013 -0.994318 
-1.70828 0.351905 1.64033 
-0.522707 -0.899617 1.57432 


 i = 118
0.269974 0.3876 -1.15632 
1.04165 -1.01498 -0.997918 
-1.71142 0.351724 1.64685 
-0.524176 -0.903009 1.58014 


 i = 119
0.270504 0.390532 -1.16087 
1.04371 -1.01982 -1.0015 
-1.71453 0.351544 1.65333 
-0.525632 -0.906383 1.58593 


 i = 120
0.27103 0.393449 -1.16539 
1.04575 -1.02462 -1.00505 
-1.71761 0.351365 1.65976 
-0.527078 -0.909739 1.59169 


 i = 121
0.271552 0.39635 -1.16988 
1.04777 -1.02941 -1.00859 
-1.72067 0.351186 1.66616 
-0.528512 -0.913077 1.59741 


 i = 122
0.272069 0.399235 -1.17433 
1.04977 -1.03418 -1.01211 
-1.7237 0.351008 1.67251 
-0.529934 -0.916397 1.6031 


 i = 123
0.272581 0.402105 -1.17876 
1.05176 -1.03892 -1.01561 
-1.72672 0.350831 1.67882 
-0.531346 -0.9197 1.60876 


 i = 124
0.27309 0.404961 -1.18316 
1.05373 -1.04364 -1.01909 
-1.7297 0.350655 1.68509 
-0.532747 -0.922985 1.61439 


 i = 125
0.273594 0.407801 -1.18753 
1.05569 -1.04834 -1.02255 
-1.73267 0.350479 1.69132 
-0.534137 -0.926253 1.61999 


 i = 126
0.274095 0.410626 -1.19187 
1.05763 -1.05302 -1.02599 
-1.73561 0.350304 1.69752 
-0.535517 -0.929504 1.62556 


 i = 127
0.274591 0.413436 -1.19618 
1.05955 -1.05768 -1.02941 
-1.73852 0.35013 1.70367 
-0.536887 -0.932738 1.6311 


 i = 128
0.275084 0.416232 -1.20047 
1.06146 -1.06232 -1.03281 
-1.74142 0.349957 1.70978 
-0.538246 -0.935955 1.63661 


 i = 129
0.275572 0.419013 -1.20472 
1.06336 -1.06694 -1.0362 
-1.74429 0.349784 1.71586 
-0.539596 -0.939155 1.64209 


 i = 130
0.276057 0.42178 -1.20895 
1.06524 -1.07154 -1.03956 
-1.74714 0.349612 1.7219 
-0.540935 -0.942338 1.64754 


 i = 131
0.276538 0.424532 -1.21316 
1.06711 -1.07611 -1.04291 
-1.74997 0.349441 1.72791 
-0.542265 -0.945505 1.65296 


 i = 132
0.277015 0.427269 -1.21733 
1.06896 -1.08067 -1.04624 
-1.75278 0.34927 1.73387 
-0.543585 -0.948655 1.65835 


 i = 133
0.277489 0.429993 -1.22148 
1.0708 -1.08521 -1.04956 
-1.75557 0.3491 1.7398 
-0.544896 -0.951789 1.66372 


 i = 134
0.277959 0.432702 -1.22561 
1.07263 -1.08972 -1.05285 
-1.75834 0.348931 1.7457 
-0.546198 -0.954907 1.66905 


 i = 135
0.278425 0.435398 -1.2297 
1.07444 -1.09422 -1.05613 
-1.76109 0.348763 1.75156 
-0.54749 -0.958008 1.67436 


 i = 136
0.278889 0.438079 -1.23378 
1.07624 -1.09869 -1.05939 
-1.76381 0.348596 1.75739 
-0.548774 -0.961094 1.67965 


 i = 137
0.279348 0.440747 -1.23783 
1.07803 -1.10315 -1.06264 
-1.76652 0.348429 1.76318 
-0.550048 -0.964164 1.6849 


 i = 138
0.279804 0.443401 -1.24185 
1.0798 -1.10759 -1.06586 
-1.76921 0.348262 1.76893 
-0.551314 -0.967218 1.69013 


 i = 139
0.280257 0.446041 -1.24585 
1.08156 -1.11201 -1.06908 
-1.77188 0.348097 1.77466 
-0.552571 -0.970256 1.69533 


 i = 140
0.280707 0.448668 -1.24982 
1.08331 -1.1164 -1.07227 
-1.77453 0.347932 1.78035 
-0.55382 -0.973279 1.70051 


 i = 141
0.281154 0.451281 -1.25377 
1.08504 -1.12078 -1.07545 
-1.77717 0.347768 1.78601 
-0.55506 -0.976287 1.70566 


 i = 142
0.281597 0.453881 -1.2577 
1.08677 -1.12514 -1.07861 
-1.77978 0.347605 1.79163 
-0.556292 -0.979279 1.71079 


 i = 143
0.282037 0.456468 -1.26161 
1.08848 -1.12948 -1.08176 
-1.78238 0.347442 1.79723 
-0.557516 -0.982256 1.71589 


 i = 144
0.282474 0.459041 -1.26549 
1.09018 -1.13381 -1.08489 
-1.78496 0.34728 1.80279 
-0.558732 -0.985217 1.72097 


 i = 145
0.282908 0.461602 -1.26935 
1.09187 -1.13811 -1.08801 
-1.78752 0.347118 1.80832 
-0.55994 -0.988164 1.72602 


 i = 146
0.283339 0.464149 -1.27318 
1.09355 -1.14239 -1.09111 
-1.79007 0.346958 1.81382 
-0.56114 -0.991096 1.73105 


 i = 147
0.283767 0.466684 -1.277 
1.09521 -1.14666 -1.0942 
-1.79259 0.346798 1.81929 
-0.562333 -0.994013 1.73605 


 i = 148
0.284193 0.469205 -1.28079 
1.09687 -1.15091 -1.09727 
-1.7951 0.346638 1.82472 
-0.563518 -0.996915 1.74103 


 i = 149
0.284615 0.471714 -1.28456 
1.09851 -1.15514 -1.10032 
-1.7976 0.34648 1.83013 
-0.564695 -0.999803 1.74599 


 i = 150
0.285035 0.474211 -1.28831 
1.10014 -1.15935 -1.10336 
-1.80008 0.346322 1.83551 
-0.565865 -1.00268 1.75092 


 i = 151
0.285451 0.476694 -1.29203 
1.10176 -1.16354 -1.10639 
-1.80254 0.346164 1.84086 
-0.567027 -1.00554 1.75583 


 i = 152
0.285865 0.479166 -1.29574 
1.10338 -1.16772 -1.1094 
-1.80499 0.346008 1.84618 
-0.568183 -1.00838 1.76072 


 i = 153
0.286276 0.481625 -1.29942 
1.10498 -1.17188 -1.1124 
-1.80742 0.345852 1.85147 
-0.569331 -1.01121 1.76558 


 i = 154
0.286685 0.484071 -1.30309 
1.10657 -1.17602 -1.11539 
-1.80983 0.345696 1.85674 
-0.570472 -1.01403 1.77042 


 i = 155
0.287091 0.486506 -1.30673 
1.10815 -1.18014 -1.11836 
-1.81223 0.345541 1.86197 
-0.571606 -1.01683 1.77524 


 i = 156
0.287494 0.488928 -1.31036 
1.10972 -1.18425 -1.12131 
-1.81462 0.345387 1.86718 
-0.572733 -1.01962 1.78004 


 i = 157
0.287895 0.491338 -1.31396 
1.11128 -1.18833 -1.12425 
-1.81699 0.345234 1.87236 
-0.573854 -1.02239 1.78482 


 i = 158
0.288293 0.493736 -1.31755 
1.11283 -1.1924 -1.12718 
-1.81934 0.345081 1.87751 
-0.574968 -1.02515 1.78957 


 i = 159
0.288689 0.496122 -1.32111 
1.11437 -1.19646 -1.1301 
-1.82168 0.344929 1.88264 
-0.576075 -1.0279 1.79431 


 i = 160
0.289082 0.498497 -1.32466 
1.1159 -1.20049 -1.133 
-1.82401 0.344777 1.88774 
-0.577176 -1.03064 1.79902 


 i = 161
0.289472 0.50086 -1.32819 
1.11743 -1.20451 -1.13589 
-1.82632 0.344626 1.89281 
-0.57827 -1.03336 1.80371 


 i = 162
0.289861 0.503211 -1.33169 
1.11894 -1.20852 -1.13877 
-1.82862 0.344476 1.89786 
-0.579358 -1.03606 1.80838 


 i = 163
0.290247 0.50555 -1.33518 
1.12044 -1.2125 -1.14163 
-1.83091 0.344326 1.90288 
-0.580439 -1.03876 1.81304 


 i = 164
0.29063 0.507878 -1.33865 
1.12194 -1.21647 -1.14448 
-1.83318 0.344177 1.90788 
-0.581515 -1.04144 1.81767 


 i = 165
0.291011 0.510195 -1.34211 
1.12342 -1.22042 -1.14732 
-1.83544 0.344029 1.91285 
-0.582584 -1.04411 1.82228 


 i = 166
0.29139 0.5125 -1.34554 
1.1249 -1.22436 -1.15014 
-1.83768 0.343881 1.91779 
-0.583647 -1.04676 1.82687 


 i = 167
0.291767 0.514794 -1.34896 
1.12637 -1.22828 -1.15296 
-1.83991 0.343734 1.92272 
-0.584704 -1.0494 1.83144 


 i = 168
0.292141 0.517077 -1.35236 
1.12783 -1.23218 -1.15576 
-1.84213 0.343587 1.92761 
-0.585755 -1.05203 1.83599 


 i = 169
0.292513 0.519348 -1.35574 
1.12928 -1.23607 -1.15855 
-1.84434 0.343441 1.93248 
-0.586801 -1.05465 1.84052 


 i = 170
0.292883 0.521609 -1.3591 
1.13072 -1.23994 -1.16132 
-1.84653 0.343296 1.93733 
-0.58784 -1.05725 1.84504 


 i = 171
0.293251 0.523859 -1.36245 
1.13215 -1.2438 -1.16409 
-1.84871 0.343151 1.94216 
-0.588874 -1.05985 1.84953 


 i = 172
0.293617 0.526097 -1.36578 
1.13358 -1.24764 -1.16684 
-1.85088 0.343007 1.94696 
-0.589902 -1.06243 1.85401 


 i = 173
0.293981 0.528325 -1.36909 
1.135 -1.25146 -1.16958 
-1.85303 0.342863 1.95173 
-0.590925 -1.06499 1.85847 


 i = 174
0.294342 0.530542 -1.37239 
1.13641 -1.25527 -1.17231 
-1.85518 0.34272 1.95649 
-0.591942 -1.06755 1.86291 


 i = 175
0.294702 0.532749 -1.37567 
1.13781 -1.25906 -1.17502 
-1.85731 0.342577 1.96122 
-0.592953 -1.07009 1.86733 


 i = 176
0.295059 0.534944 -1.37893 
1.1392 -1.26284 -1.17773 
-1.85943 0.342435 1.96593 
-0.59396 -1.07262 1.87173 


 i = 177
0.295414 0.53713 -1.38218 
1.14059 -1.2666 -1.18043 
-1.86154 0.342294 1.97061 
-0.59496 -1.07514 1.87612 


 i = 178
0.295768 0.539304 -1.38541 
1.14197 -1.27035 -1.18311 
-1.86363 0.342153 1.97528 
-0.595956 -1.07764 1.88048 


 i = 179
0.296119 0.541469 -1.38862 
1.14334 -1.27408 -1.18578 
-1.86572 0.342013 1.97992 
-0.596946 -1.08014 1.88483 


 i = 180
0.296469 0.543623 -1.39182 
1.1447 -1.2778 -1.18844 
-1.86779 0.341874 1.98454 
-0.597931 -1.08262 1.88916 


 i = 181
0.296816 0.545766 -1.39501 
1.14606 -1.2815 -1.19109 
-1.86985 0.341735 1.98914 
-0.598911 -1.08509 1.89348 


 i = 182
0.297162 0.5479 -1.39818 
1.1474 -1.28519 -1.19373 
-1.87191 0.341596 1.99372 
-0.599886 -1.08755 1.89778 


 i = 183
0.297506 0.550023 -1.40133 
1.14874 -1.28886 -1.19636 
-1.87395 0.341458 1.99827 
-0.600856 -1.09 1.90206 


 i = 184
0.297847 0.552136 -1.40447 
1.15008 -1.29252 -1.19898 
-1.87598 0.341321 2.00281 
-0.601821 -1.09243 1.90632 


 i = 185
0.298188 0.55424 -1.40759 
1.15141 -1.29616 -1.20158 
-1.87799 0.341184 2.00732 
-0.602781 -1.09486 1.91057 


 i = 186
0.298526 0.556333 -1.4107 
1.15272 -1.29979 -1.20418 
-1.88 0.341048 2.01181 
-0.603736 -1.09727 1.9148 


 i = 187
0.298862 0.558416 -1.41379 
1.15404 -1.3034 -1.20677 
-1.882 0.340912 2.01629 
-0.604686 -1.09968 1.91902 


 i = 188
0.299197 0.56049 -1.41687 
1.15534 -1.307 -1.20934 
-1.88399 0.340777 2.02074 
-0.605632 -1.10207 1.92322 


 i = 189
0.29953 0.562554 -1.41994 
1.15664 -1.31059 -1.21191 
-1.88597 0.340643 2.02517 
-0.606573 -1.10445 1.9274 


 i = 190
0.299861 0.564608 -1.42299 
1.15793 -1.31416 -1.21446 
-1.88793 0.340508 2.02959 
-0.607509 -1.10682 1.93157 


 i = 191
0.30019 0.566652 -1.42602 
1.15922 -1.31771 -1.21701 
-1.88989 0.340375 2.03398 
-0.608441 -1.10917 1.93572 


 i = 192
0.300518 0.568687 -1.42905 
1.1605 -1.32126 -1.21954 
-1.89184 0.340242 2.03835 
-0.609368 -1.11152 1.93985 


 i = 193
0.300844 0.570712 -1.43205 
1.16177 -1.32479 -1.22207 
-1.89377 0.34011 2.04271 
-0.61029 -1.11386 1.94397 


 i = 194
0.301169 0.572728 -1.43505 
1.16304 -1.3283 -1.22459 
-1.8957 0.339978 2.04704 
-0.611208 -1.11618 1.94808 


 i = 195
0.301491 0.574735 -1.43803 
1.1643 -1.3318 -1.22709 
-1.89762 0.339846 2.05136 
-0.612122 -1.1185 1.95217 


 i = 196
0.301813 0.576732 -1.441 
1.16555 -1.33529 -1.22959 
-1.89953 0.339715 2.05566 
-0.613031 -1.1208 1.95624 


 i = 197
0.302132 0.57872 -1.44395 
1.16679 -1.33876 -1.23207 
-1.90143 0.339585 2.05994 
-0.613936 -1.1231 1.9603 


 i = 198
0.30245 0.580698 -1.44689 
1.16804 -1.34222 -1.23455 
-1.90332 0.339455 2.0642 
-0.614837 -1.12538 1.96434 


 i = 199
0.302766 0.582668 -1.44982 
1.16927 -1.34567 -1.23702 
-1.9052 0.339326 2.06844 
-0.615733 -1.12765 1.96837 


 i = 200
0.303081 0.584628 -1.45273 
1.1705 -1.3491 -1.23948 
-1.90707 0.339197 2.07266 
-0.616626 -1.12992 1.97239 


 i = 201
0.303394 0.586579 -1.45564 
1.17172 -1.35252 -1.24193 
-1.90893 0.339069 2.07687 
-0.617514 -1.13217 1.97639 


 i = 202
0.303706 0.588522 -1.45853 
1.17294 -1.35593 -1.24437 
-1.91078 0.338941 2.08106 
-0.618398 -1.13441 1.98037 


 i = 203
0.304016 0.590455 -1.4614 
1.17415 -1.35932 -1.2468 
-1.91263 0.338814 2.08523 
-0.619277 -1.13664 1.98434 


 i = 204
0.304324 0.59238 -1.46426 
1.17535 -1.3627 -1.24922 
-1.91446 0.338687 2.08938 
-0.620153 -1.13887 1.9883 


 i = 205
0.304632 0.594295 -1.46712 
1.17655 -1.36607 -1.25163 
-1.91629 0.338561 2.09352 
-0.621025 -1.14108 1.99224 


 i = 206
0.304937 0.596202 -1.46995 
1.17774 -1.36943 -1.25403 
-1.91811 0.338435 2.09763 
-0.621893 -1.14328 1.99617 


 i = 207
0.305241 0.598101 -1.47278 
1.17893 -1.37277 -1.25643 
-1.91992 0.33831 2.10173 
-0.622757 -1.14547 2.00009 


 i = 208
0.305544 0.59999 -1.4756 
1.18011 -1.3761 -1.25882 
-1.92172 0.338186 2.10582 
-0.623617 -1.14765 2.00399 


 i = 209
0.305846 0.601871 -1.4784 
1.18129 -1.37941 -1.26119 
-1.92351 0.338061 2.10989 
-0.624473 -1.14983 2.00788 


 i = 210
0.306145 0.603743 -1.48119 
1.18246 -1.38272 -1.26356 
-1.92529 0.337938 2.11394 
-0.625325 -1.15199 2.01175 


 i = 211
0.306444 0.605607 -1.48397 
1.18362 -1.38601 -1.26592 
-1.92707 0.337814 2.11797 
-0.626173 -1.15414 2.01562 


 i = 212
0.306741 0.607463 -1.48673 
1.18478 -1.38929 -1.26827 
-1.92884 0.337692 2.12199 
-0.627018 -1.15629 2.01946 


 i = 213
0.307037 0.60931 -1.48949 
1.18594 -1.39255 -1.27062 
-1.9306 0.337569 2.12599 
-0.627859 -1.15842 2.0233 


 i = 214
0.307331 0.611149 -1.49223 
1.18708 -1.39581 -1.27295 
-1.93235 0.337448 2.12998 
-0.628696 -1.16055 2.02712 


 i = 215
0.307624 0.612979 -1.49496 
1.18823 -1.39905 -1.27528 
-1.93409 0.337326 2.13395 
-0.62953 -1.16266 2.03093 


 i = 216
0.307916 0.614801 -1.49768 
1.18937 -1.40228 -1.2776 
-1.93583 0.337206 2.1379 
-0.63036 -1.16477 2.03473 


 i = 217
0.308206 0.616615 -1.50039 
1.1905 -1.4055 -1.27991 
-1.93756 0.337085 2.14184 
-0.631187 -1.16686 2.03851 


 i = 218
0.308495 0.618421 -1.50309 
1.19163 -1.4087 -1.28221 
-1.93928 0.336965 2.14576 
-0.63201 -1.16895 2.04228 


 i = 219
0.308783 0.620219 -1.50578 
1.19275 -1.41189 -1.2845 
-1.94099 0.336846 2.14967 
-0.632829 -1.17103 2.04604 


 i = 220
0.309069 0.622008 -1.50846 
1.19387 -1.41508 -1.28679 
-1.94269 0.336727 2.15356 
-0.633645 -1.1731 2.04978 


 i = 221
0.309354 0.62379 -1.51112 
1.19498 -1.41824 -1.28907 
-1.94439 0.336609 2.15743 
-0.634457 -1.17516 2.05351 


 i = 222
0.309638 0.625564 -1.51378 
1.19609 -1.4214 -1.29134 
-1.94608 0.336491 2.16129 
-0.635266 -1.17721 2.05724 


 i = 223
0.309921 0.627329 -1.51642 
1.19719 -1.42455 -1.2936 
-1.94776 0.336373 2.16514 
-0.636072 -1.17925 2.06094 


 i = 224
0.310202 0.629087 -1.51905 
1.19829 -1.42768 -1.29585 
-1.94944 0.336256 2.16897 
-0.636874 -1.18129 2.06464 


 i = 225
0.310483 0.630837 -1.52168 
1.19938 -1.43081 -1.2981 
-1.95111 0.336139 2.17279 
-0.637673 -1.18331 2.06832 


 i = 226
0.310761 0.63258 -1.52429 
1.20047 -1.43392 -1.30034 
-1.95277 0.336023 2.17659 
-0.638469 -1.18533 2.072 


 i = 227
0.311039 0.634314 -1.52689 
1.20155 -1.43702 -1.30257 
-1.95442 0.335908 2.18038 
-0.639261 -1.18734 2.07566 


 i = 228
0.311316 0.636041 -1.52948 
1.20263 -1.4401 -1.30479 
-1.95607 0.335792 2.18415 
-0.64005 -1.18934 2.07931 


 i = 229
0.311591 0.637761 -1.53206 
1.20371 -1.44318 -1.30701 
-1.95771 0.335678 2.18791 
-0.640836 -1.19133 2.08294 


 i = 230
0.311865 0.639473 -1.53463 
1.20478 -1.44625 -1.30922 
-1.95934 0.335563 2.19165 
-0.641618 -1.19331 2.08657 


 i = 231
0.312138 0.641177 -1.5372 
1.20584 -1.4493 -1.31142 
-1.96097 0.335449 2.19538 
-0.642398 -1.19528 2.09018 


 i = 232
0.31241 0.642874 -1.53975 
1.2069 -1.45234 -1.31361 
-1.96259 0.335336 2.1991 
-0.643174 -1.19724 2.09378 


 i = 233
0.312681 0.644563 -1.54229 
1.20796 -1.45538 -1.3158 
-1.9642 0.335223 2.2028 
-0.643947 -1.1992 2.09738 


 i = 234
0.31295 0.646245 -1.54482 
1.20901 -1.4584 -1.31798 
-1.96581 0.33511 2.20649 
-0.644717 -1.20115 2.10096 


 i = 235
0.313219 0.647919 -1.54734 
1.21006 -1.46141 -1.32015 
-1.9674 0.334998 2.21017 
-0.645485 -1.20309 2.10452 


 i = 236
0.313486 0.649587 -1.54985 
1.2111 -1.46441 -1.32232 
-1.969 0.334886 2.21383 
-0.646248 -1.20502 2.10808 


 i = 237
0.313752 0.651247 -1.55236 
1.21214 -1.4674 -1.32447 
-1.97058 0.334775 2.21748 
-0.647009 -1.20694 2.11163 


 i = 238
0.314017 0.652899 -1.55485 
1.21317 -1.47037 -1.32662 
-1.97216 0.334664 2.22111 
-0.647767 -1.20886 2.11516 


 i = 239
0.314281 0.654545 -1.55733 
1.2142 -1.47334 -1.32877 
-1.97373 0.334554 2.22473 
-0.648522 -1.21076 2.11869 


 i = 240
0.314544 0.656183 -1.55981 
1.21523 -1.4763 -1.33091 
-1.9753 0.334444 2.22834 
-0.649274 -1.21266 2.1222 


 i = 241
0.314806 0.657815 -1.56227 
1.21625 -1.47924 -1.33304 
-1.97686 0.334334 2.23194 
-0.650024 -1.21455 2.1257 


 i = 242
0.315067 0.659439 -1.56473 
1.21727 -1.48218 -1.33516 
-1.97842 0.334225 2.23552 
-0.65077 -1.21644 2.1292 


 i = 243
0.315327 0.661056 -1.56718 
1.21828 -1.4851 -1.33728 
-1.97996 0.334117 2.23909 
-0.651513 -1.21831 2.13268 


 i = 244
0.315585 0.662666 -1.56961 
1.21929 -1.48802 -1.33938 
-1.9815 0.334008 2.24265 
-0.652254 -1.22018 2.13615 


 i = 245
0.315843 0.66427 -1.57204 
1.22029 -1.49092 -1.34149 
-1.98304 0.3339 2.24619 
-0.652991 -1.22204 2.13961 


 i = 246
0.3161 0.665866 -1.57446 
1.2213 -1.49381 -1.34358 
-1.98457 0.333793 2.24972 
-0.653726 -1.22389 2.14306 


 i = 247
0.316355 0.667456 -1.57687 
1.22229 -1.4967 -1.34567 
-1.98609 0.333686 2.25324 
-0.654458 -1.22573 2.1465 


 i = 248
0.31661 0.669038 -1.57927 
1.22329 -1.49957 -1.34776 
-1.98761 0.333579 2.25675 
-0.655188 -1.22757 2.14993 


 i = 249
0.316864 0.670614 -1.58167 
1.22427 -1.50243 -1.34983 
-1.98912 0.333473 2.26025 
-0.655914 -1.2294 2.15335 


 i = 250
0.317116 0.672183 -1.58405 
1.22526 -1.50528 -1.3519 
-1.99063 0.333367 2.26373 
-0.656638 -1.23122 2.15676 


 i = 251
0.317368 0.673746 -1.58643 
1.22624 -1.50813 -1.35397 
-1.99213 0.333262 2.2672 
-0.657359 -1.23303 2.16016 


 i = 252
0.317619 0.675302 -1.5888 
1.22722 -1.51096 -1.35602 
-1.99362 0.333157 2.27066 
-0.658078 -1.23484 2.16355 


 i = 253
0.317868 0.676851 -1.59115 
1.22819 -1.51378 -1.35807 
-1.99511 0.333052 2.2741 
-0.658794 -1.23664 2.16693 


 i = 254
0.318117 0.678394 -1.5935 
1.22916 -1.51659 -1.36012 
-1.99659 0.332948 2.27754 
-0.659507 -1.23843 2.1703 


 i = 255
0.318365 0.67993 -1.59585 
1.23013 -1.5194 -1.36216 
-1.99807 0.332844 2.28096 
-0.660218 -1.24021 2.17366 


 i = 256
0.318612 0.681459 -1.59818 
1.23109 -1.52219 -1.36419 
-1.99954 0.332741 2.28437 
-0.660926 -1.24199 2.17701 


 i = 257
0.318857 0.682982 -1.60051 
1.23205 -1.52497 -1.36621 
-2.00101 0.332638 2.28777 
-0.661631 -1.24376 2.18035 


 i = 258
0.319102 0.684499 -1.60282 
1.233 -1.52775 -1.36823 
-2.00247 0.332535 2.29116 
-0.662334 -1.24552 2.18368 


 i = 259
0.319346 0.686009 -1.60513 
1.23396 -1.53051 -1.37025 
-2.00392 0.332433 2.29454 
-0.663034 -1.24727 2.18701 


 i = 260
0.31959 0.687513 -1.60743 
1.2349 -1.53327 -1.37225 
-2.00537 0.332331 2.2979 
-0.663732 -1.24902 2.19032 


 i = 261
0.319832 0.68901 -1.60973 
1.23585 -1.53601 -1.37425 
-2.00681 0.33223 2.30126 
-0.664428 -1.25076 2.19362 


 i = 262
0.320073 0.690501 -1.61201 
1.23679 -1.53875 -1.37625 
-2.00825 0.332129 2.3046 
-0.66512 -1.25249 2.19692 


 i = 263
0.320313 0.691986 -1.61429 
1.23772 -1.54147 -1.37824 
-2.00969 0.332028 2.30793 
-0.665811 -1.25422 2.2002 


 i = 264
0.320553 0.693465 -1.61656 
1.23866 -1.54419 -1.38022 
-2.01111 0.331928 2.31125 
-0.666499 -1.25594 2.20348 


 i = 265
0.320792 0.694937 -1.61882 
1.23959 -1.5469 -1.3822 
-2.01254 0.331828 2.31456 
-0.667184 -1.25765 2.20674 


 i = 266
0.321029 0.696404 -1.62107 
1.24052 -1.54959 -1.38417 
-2.01395 0.331728 2.31786 
-0.667867 -1.25936 2.21 


 i = 267
0.321266 0.697864 -1.62332 
1.24144 -1.55228 -1.38614 
-2.01537 0.331629 2.32115 
-0.668548 -1.26106 2.21325 


 i = 268
0.321502 0.699318 -1.62556 
1.24236 -1.55496 -1.3881 
-2.01677 0.331531 2.32442 
-0.669227 -1.26275 2.21649 


 i = 269
0.321737 0.700766 -1.62779 
1.24327 -1.55763 -1.39005 
-2.01818 0.331432 2.32769 
-0.669903 -1.26443 2.21972 


 i = 270
0.321972 0.702208 -1.63001 
1.24419 -1.56029 -1.392 
-2.01957 0.331334 2.33095 
-0.670576 -1.26611 2.22294 


 i = 271
0.322205 0.703644 -1.63223 
1.2451 -1.56295 -1.39394 
-2.02096 0.331237 2.33419 
-0.671248 -1.26778 2.22615 


 i = 272
0.322438 0.705074 -1.63444 
1.246 -1.56559 -1.39588 
-2.02235 0.331139 2.33743 
-0.671917 -1.26945 2.22936 


 i = 273
0.32267 0.706498 -1.63664 
1.24691 -1.56822 -1.39781 
-2.02373 0.331042 2.34065 
-0.672583 -1.2711 2.23255 


 i = 274
0.322901 0.707916 -1.63883 
1.24781 -1.57085 -1.39974 
-2.02511 0.330946 2.34387 
-0.673248 -1.27276 2.23574 


 i = 275
0.323131 0.709329 -1.64102 
1.2487 -1.57347 -1.40166 
-2.02648 0.33085 2.34707 
-0.67391 -1.2744 2.23892 


 i = 276
0.32336 0.710735 -1.6432 
1.2496 -1.57607 -1.40357 
-2.02785 0.330754 2.35026 
-0.67457 -1.27604 2.24208 


 i = 277
0.323589 0.712136 -1.64537 
1.25049 -1.57867 -1.40548 
-2.02921 0.330658 2.35345 
-0.675228 -1.27767 2.24525 


 i = 278
0.323816 0.713531 -1.64754 
1.25137 -1.58126 -1.40738 
-2.03057 0.330563 2.35662 
-0.675883 -1.2793 2.2484 


 i = 279
0.324043 0.71492 -1.64969 
1.25226 -1.58384 -1.40928 
-2.03192 0.330469 2.35978 
-0.676537 -1.28091 2.25154 


 i = 280
0.324269 0.716304 -1.65185 
1.25314 -1.58642 -1.41118 
-2.03327 0.330374 2.36294 
-0.677188 -1.28253 2.25468 


 i = 281
0.324495 0.717681 -1.65399 
1.25402 -1.58898 -1.41306 
-2.03462 0.33028 2.36608 
-0.677837 -1.28413 2.25781 


 i = 282
0.324719 0.719054 -1.65613 
1.25489 -1.59154 -1.41495 
-2.03596 0.330186 2.36922 
-0.678484 -1.28573 2.26092 


 i = 283
0.324943 0.72042 -1.65826 
1.25576 -1.59408 -1.41682 
-2.03729 0.330093 2.37234 
-0.679128 -1.28733 2.26404 


 i = 284
0.325166 0.721781 -1.66038 
1.25663 -1.59662 -1.41869 
-2.03862 0.33 2.37546 
-0.679771 -1.28891 2.26714 


 i = 285
0.325389 0.723137 -1.6625 
1.2575 -1.59915 -1.42056 
-2.03995 0.329908 2.37856 
-0.680412 -1.29049 2.27023 


 i = 286
0.32561 0.724486 -1.66461 
1.25836 -1.60167 -1.42242 
-2.04127 0.329815 2.38166 
-0.68105 -1.29207 2.27332 


 i = 287
0.325831 0.725831 -1.66671 
1.25922 -1.60419 -1.42428 
-2.04258 0.329723 2.38474 
-0.681686 -1.29364 2.2764 


 i = 288
0.326051 0.72717 -1.66881 
1.26008 -1.60669 -1.42613 
-2.0439 0.329632 2.38782 
-0.682321 -1.2952 2.27947 


 i = 289
0.32627 0.728503 -1.6709 
1.26093 -1.60919 -1.42798 
-2.0452 0.329541 2.39089 
-0.682953 -1.29676 2.28253 


 i = 290
0.326489 0.729831 -1.67298 
1.26178 -1.61168 -1.42982 
-2.04651 0.32945 2.39394 
-0.683583 -1.29831 2.28559 


 i = 291
0.326707 0.731154 -1.67506 
1.26263 -1.61416 -1.43165 
-2.04781 0.329359 2.39699 
-0.684211 -1.29985 2.28864 


 i = 292
0.326924 0.732471 -1.67713 
1.26347 -1.61663 -1.43348 
-2.0491 0.329269 2.40003 
-0.684838 -1.30139 2.29168 


 i = 293
0.32714 0.733783 -1.67919 
1.26432 -1.6191 -1.43531 
-2.05039 0.329179 2.40306 
-0.685462 -1.30292 2.29471 


 i = 294
0.327356 0.73509 -1.68125 
1.26516 -1.62155 -1.43713 
-2.05168 0.329089 2.40609 
-0.686084 -1.30445 2.29773 


 i = 295
0.327571 0.736392 -1.6833 
1.26599 -1.624 -1.43895 
-2.05296 0.329 2.4091 
-0.686704 -1.30597 2.30075 


 i = 296
0.327785 0.737688 -1.68534 
1.26683 -1.62644 -1.44076 
-2.05424 0.328911 2.4121 
-0.687322 -1.30749 2.30376 


 i = 297
0.327999 0.738979 -1.68738 
1.26766 -1.62887 -1.44256 
-2.05551 0.328823 2.4151 
-0.687939 -1.309 2.30676 


 i = 298
0.328211 0.740265 -1.68941 
1.26849 -1.6313 -1.44437 
-2.05678 0.328735 2.41808 
-0.688553 -1.3105 2.30975 


 i = 299
0.328424 0.741545 -1.69144 
1.26931 -1.63371 -1.44616 
-2.05805 0.328647 2.42106 
-0.689166 -1.312 2.31274 


 i = 300
0.328635 0.742821 -1.69346 
1.27013 -1.63612 -1.44795 
-2.05931 0.328559 2.42403 
-0.689776 -1.31349 2.31572 


 i = 301
0.328846 0.744091 -1.69547 
1.27096 -1.63852 -1.44974 
-2.06056 0.328472 2.42699 
-0.690385 -1.31497 2.31869 


 i = 302
0.329056 0.745356 -1.69748 
1.27177 -1.64092 -1.45152 
-2.06182 0.328385 2.42994 
-0.690992 -1.31645 2.32166 


 i = 303
0.329265 0.746617 -1.69948 
1.27259 -1.6433 -1.4533 
-2.06307 0.328298 2.43288 
-0.691597 -1.31793 2.32461 


 i = 304
0.329474 0.747872 -1.70148 
1.2734 -1.64568 -1.45507 
-2.06431 0.328212 2.43581 
-0.6922 -1.3194 2.32756 


 i = 305
0.329682 0.749122 -1.70347 
1.27421 -1.64805 -1.45684 
-2.06555 0.328126 2.43874 
-0.692801 -1.32086 2.33051 


 i = 306
0.32989 0.750367 -1.70545 
1.27502 -1.65041 -1.45861 
-2.06679 0.328041 2.44166 
-0.693401 -1.32232 2.33344 


 i = 307
0.330097 0.751608 -1.70743 
1.27582 -1.65277 -1.46036 
-2.06802 0.327955 2.44457 
-0.693998 -1.32377 2.33637 


 i = 308
0.330303 0.752843 -1.7094 
1.27662 -1.65512 -1.46212 
-2.06925 0.32787 2.44747 
-0.694594 -1.32522 2.33929 


 i = 309
0.330508 0.754074 -1.71137 
1.27742 -1.65746 -1.46387 
-2.07048 0.327786 2.45036 
-0.695188 -1.32666 2.34221 


 i = 310
0.330713 0.755299 -1.71333 
1.27822 -1.65979 -1.46561 
-2.0717 0.327701 2.45324 
-0.69578 -1.3281 2.34511 


 i = 311
0.330917 0.75652 -1.71528 
1.27901 -1.66211 -1.46736 
-2.07292 0.327617 2.45612 
-0.696371 -1.32953 2.34802 


 i = 312
0.331121 0.757736 -1.71723 
1.2798 -1.66443 -1.46909 
-2.07413 0.327533 2.45899 
-0.696959 -1.33095 2.35091 


 i = 313
0.331324 0.758947 -1.71917 
1.28059 -1.66674 -1.47082 
-2.07534 0.32745 2.46185 
-0.697546 -1.33237 2.3538 


 i = 314
0.331526 0.760153 -1.72111 
1.28138 -1.66905 -1.47255 
-2.07655 0.327367 2.4647 
-0.698132 -1.33379 2.35668 


 i = 315
0.331728 0.761355 -1.72304 
1.28216 -1.67134 -1.47427 
-2.07775 0.327284 2.46754 
-0.698715 -1.3352 2.35955 


 i = 316
0.331929 0.762552 -1.72497 
1.28295 -1.67363 -1.47599 
-2.07895 0.327202 2.47038 
-0.699297 -1.3366 2.36241 


 i = 317
0.33213 0.763744 -1.72689 
1.28373 -1.67591 -1.47771 
-2.08015 0.327119 2.4732 
-0.699877 -1.338 2.36527 


 i = 318
0.33233 0.764931 -1.7288 
1.2845 -1.67819 -1.47942 
-2.08134 0.327037 2.47602 
-0.700455 -1.33939 2.36813 


 i = 319
0.332529 0.766114 -1.73071 
1.28528 -1.68045 -1.48112 
-2.08253 0.326956 2.47884 
-0.701032 -1.34078 2.37097 


 i = 320
0.332727 0.767292 -1.73262 
1.28605 -1.68271 -1.48282 
-2.08371 0.326874 2.48164 
-0.701607 -1.34216 2.37381 


 i = 321
0.332926 0.768466 -1.73452 
1.28682 -1.68497 -1.48452 
-2.08489 0.326793 2.48444 
-0.70218 -1.34354 2.37665 


 i = 322
0.333123 0.769635 -1.73641 
1.28759 -1.68721 -1.48621 
-2.08607 0.326713 2.48723 
-0.702752 -1.34492 2.37947 


 i = 323
0.33332 0.770799 -1.7383 
1.28835 -1.68945 -1.4879 
-2.08724 0.326632 2.49001 
-0.703322 -1.34628 2.38229 


 i = 324
0.333516 0.771959 -1.74018 
1.28911 -1.69168 -1.48959 
-2.08841 0.326552 2.49278 
-0.70389 -1.34765 2.3851 


 i = 325
0.333712 0.773115 -1.74206 
1.28987 -1.69391 -1.49127 
-2.08958 0.326472 2.49555 
-0.704457 -1.349 2.38791 


 i = 326
0.333907 0.774266 -1.74393 
1.29063 -1.69613 -1.49294 
-2.09074 0.326393 2.49831 
-0.705022 -1.35036 2.39071 


 i = 327
0.334102 0.775412 -1.74579 
1.29139 -1.69834 -1.49462 
-2.0919 0.326314 2.50106 
-0.705585 -1.35171 2.39351 


 i = 328
0.334296 0.776554 -1.74766 
1.29214 -1.70054 -1.49628 
-2.09306 0.326235 2.5038 
-0.706147 -1.35305 2.39629 


 i = 329
0.334489 0.777691 -1.74951 
1.29289 -1.70274 -1.49795 
-2.09421 0.326156 2.50654 
-0.706708 -1.35439 2.39908 


 i = 330
0.334682 0.778824 -1.75136 
1.29364 -1.70493 -1.49961 
-2.09536 0.326078 2.50927 
-0.707266 -1.35572 2.40185 


 i = 331
0.334874 0.779953 -1.75321 
1.29439 -1.70711 -1.50126 
-2.09651 0.325999 2.51199 
-0.707824 -1.35705 2.40462 


 i = 332
0.335066 0.781078 -1.75505 
1.29513 -1.70929 -1.50291 
-2.09765 0.325922 2.51471 
-0.708379 -1.35837 2.40738 


 i = 333
0.335257 0.782198 -1.75689 
1.29588 -1.71146 -1.50456 
-2.09879 0.325844 2.51741 
-0.708933 -1.35969 2.41014 


 i = 334
0.335448 0.783313 -1.75872 
1.29662 -1.71362 -1.50621 
-2.09993 0.325767 2.52012 
-0.709486 -1.361 2.41289 


 i = 335
0.335638 0.784425 -1.76054 
1.29735 -1.71578 -1.50784 
-2.10106 0.32569 2.52281 
-0.710037 -1.36231 2.41563 


 i = 336
0.335827 0.785532 -1.76236 
1.29809 -1.71793 -1.50948 
-2.10219 0.325613 2.5255 
-0.710586 -1.36362 2.41837 


 i = 337
0.336016 0.786634 -1.76418 
1.29882 -1.72008 -1.51111 
-2.10332 0.325537 2.52818 
-0.711134 -1.36492 2.4211 


 i = 338
0.336205 0.787733 -1.76599 
1.29956 -1.72221 -1.51274 
-2.10444 0.325461 2.53085 
-0.71168 -1.36621 2.42383 


 i = 339
0.336393 0.788827 -1.7678 
1.30029 -1.72435 -1.51436 
-2.10556 0.325385 2.53351 
-0.712225 -1.3675 2.42655 


 i = 340
0.33658 0.789918 -1.7696 
1.30101 -1.72647 -1.51598 
-2.10668 0.325309 2.53617 
-0.712769 -1.36879 2.42926 


 i = 341
0.336767 0.791004 -1.77139 
1.30174 -1.72859 -1.5176 
-2.10779 0.325234 2.53882 
-0.713311 -1.37007 2.43197 


 i = 342
0.336953 0.792085 -1.77319 
1.30246 -1.7307 -1.51921 
-2.1089 0.325159 2.54147 
-0.713851 -1.37134 2.43467 


 i = 343
0.337139 0.793163 -1.77497 
1.30318 -1.73281 -1.52082 
-2.11001 0.325084 2.54411 
-0.71439 -1.37261 2.43737 


 i = 344
0.337324 0.794237 -1.77676 
1.3039 -1.7349 -1.52243 
-2.11112 0.32501 2.54674 
-0.714928 -1.37388 2.44006 


 i = 345
0.337509 0.795306 -1.77853 
1.30462 -1.737 -1.52403 
-2.11222 0.324936 2.54936 
-0.715464 -1.37514 2.44274 


 i = 346
0.337693 0.796372 -1.78031 
1.30533 -1.73908 -1.52562 
-2.11332 0.324862 2.55198 
-0.715998 -1.3764 2.44542 


 i = 347
0.337877 0.797433 -1.78207 
1.30605 -1.74116 -1.52722 
-2.11441 0.324788 2.55459 
-0.716532 -1.37766 2.44809 


 i = 348
0.33806 0.79849 -1.78384 
1.30676 -1.74324 -1.52881 
-2.1155 0.324715 2.5572 
-0.717063 -1.3789 2.45076 


 i = 349
0.338243 0.799543 -1.7856 
1.30747 -1.74531 -1.53039 
-2.11659 0.324641 2.55979 
-0.717594 -1.38015 2.45342 


 i = 350
0.338425 0.800593 -1.78735 
1.30817 -1.74737 -1.53198 
-2.11768 0.324569 2.56239 
-0.718123 -1.38139 2.45608 


 i = 351
0.338607 0.801638 -1.7891 
1.30888 -1.74942 -1.53356 
-2.11876 0.324496 2.56497 
-0.71865 -1.38262 2.45873 


 i = 352
0.338788 0.802679 -1.79084 
1.30958 -1.75147 -1.53513 
-2.11984 0.324424 2.56755 
-0.719177 -1.38386 2.46137 


 i = 353
0.338969 0.803717 -1.79258 
1.31028 -1.75351 -1.5367 
-2.12092 0.324352 2.57012 
-0.719701 -1.38508 2.46401 


 i = 354
0.339149 0.80475 -1.79432 
1.31098 -1.75555 -1.53827 
-2.12199 0.32428 2.57269 
-0.720225 -1.3863 2.46664 


 i = 355
0.339329 0.80578 -1.79605 
1.31168 -1.75758 -1.53983 
-2.12306 0.324208 2.57525 
-0.720747 -1.38752 2.46927 


 i = 356
0.339508 0.806805 -1.79778 
1.31237 -1.75961 -1.5414 
-2.12413 0.324137 2.5778 
-0.721267 -1.38874 2.47189 


 i = 357
0.339687 0.807827 -1.7995 
1.31307 -1.76163 -1.54295 
-2.1252 0.324066 2.58035 
-0.721787 -1.38995 2.47451 


 i = 358
0.339865 0.808845 -1.80122 
1.31376 -1.76364 -1.54451 
-2.12626 0.323995 2.58289 
-0.722305 -1.39115 2.47712 


 i = 359
0.340043 0.809859 -1.80293 
1.31445 -1.76565 -1.54606 
-2.12732 0.323924 2.58542 
-0.722821 -1.39235 2.47973 


 i = 360
0.34022 0.810869 -1.80464 
1.31513 -1.76765 -1.5476 
-2.12838 0.323854 2.58795 
-0.723337 -1.39355 2.48233 


 i = 361
0.340397 0.811876 -1.80635 
1.31582 -1.76964 -1.54915 
-2.12943 0.323784 2.59047 
-0.723851 -1.39474 2.48492 


 i = 362
0.340573 0.812878 -1.80805 
1.3165 -1.77163 -1.55069 
-2.13048 0.323714 2.59299 
-0.724363 -1.39593 2.48751 


 i = 363
0.340749 0.813877 -1.80974 
1.31718 -1.77361 -1.55222 
-2.13153 0.323645 2.5955 
-0.724875 -1.39711 2.4901 


 i = 364
0.340925 0.814873 -1.81144 
1.31786 -1.77559 -1.55375 
-2.13258 0.323576 2.598 
-0.725385 -1.39829 2.49268 


 i = 365
0.3411 0.815864 -1.81312 
1.31854 -1.77756 -1.55528 
-2.13362 0.323507 2.6005 
-0.725893 -1.39947 2.49525 


 i = 366
0.341274 0.816852 -1.81481 
1.31922 -1.77953 -1.55681 
-2.13466 0.323438 2.60299 
-0.726401 -1.40064 2.49782 


 i = 367
0.341449 0.817836 -1.81649 
1.31989 -1.78149 -1.55833 
-2.1357 0.323369 2.60548 
-0.726907 -1.40181 2.50038 


 i = 368
0.341622 0.818816 -1.81816 
1.32057 -1.78345 -1.55985 
-2.13673 0.323301 2.60795 
-0.727412 -1.40297 2.50294 


 i = 369
0.341795 0.819793 -1.81983 
1.32124 -1.78539 -1.56137 
-2.13776 0.323233 2.61043 
-0.727915 -1.40413 2.50549 


 i = 370
0.341968 0.820766 -1.8215 
1.32191 -1.78734 -1.56288 
-2.13879 0.323165 2.6129 
-0.728418 -1.40529 2.50804 


 i = 371
0.34214 0.821735 -1.82316 
1.32257 -1.78928 -1.56439 
-2.13982 0.323098 2.61536 
-0.728919 -1.40644 2.51058 


 i = 372
0.342312 0.822701 -1.82482 
1.32324 -1.79121 -1.5659 
-2.14084 0.32303 2.61781 
-0.729419 -1.40759 2.51312 


 i = 373
0.342484 0.823663 -1.82648 
1.3239 -1.79313 -1.5674 
-2.14186 0.322963 2.62026 
-0.729917 -1.40873 2.51565 


 i = 374
0.342655 0.824622 -1.82813 
1.32457 -1.79505 -1.5689 
-2.14288 0.322896 2.62271 
-0.730414 -1.40987 2.51818 


 i = 375
0.342825 0.825577 -1.82977 
1.32523 -1.79697 -1.57039 
-2.1439 0.32283 2.62515 
-0.730911 -1.41101 2.5207 


 i = 376
0.342995 0.826529 -1.83142 
1.32588 -1.79888 -1.57189 
-2.14491 0.322764 2.62758 
-0.731405 -1.41214 2.52321 


 i = 377
0.343165 0.827476 -1.83306 
1.32654 -1.80078 -1.57338 
-2.14592 0.322697 2.63001 
-0.731899 -1.41327 2.52573 


 i = 378
0.343334 0.828421 -1.83469 
1.3272 -1.80268 -1.57486 
-2.14693 0.322632 2.63243 
-0.732392 -1.41439 2.52823 


 i = 379
0.343503 0.829362 -1.83632 
1.32785 -1.80458 -1.57634 
-2.14793 0.322566 2.63485 
-0.732883 -1.41551 2.53074 


 i = 380
0.343671 0.830299 -1.83795 
1.3285 -1.80646 -1.57782 
-2.14894 0.322501 2.63726 
-0.733373 -1.41663 2.53323 


 i = 381
0.343839 0.831233 -1.83957 
1.32915 -1.80835 -1.5793 
-2.14994 0.322435 2.63966 
-0.733862 -1.41774 2.53572 


 i = 382
0.344007 0.832164 -1.84119 
1.3298 -1.81022 -1.58078 
-2.15094 0.32237 2.64206 
-0.734349 -1.41885 2.53821 


 i = 383
0.344174 0.833091 -1.8428 
1.33045 -1.8121 -1.58225 
-2.15193 0.322306 2.64445 
-0.734836 -1.41995 2.54069 


 i = 384
0.344341 0.834015 -1.84442 
1.33109 -1.81396 -1.58371 
-2.15292 0.322241 2.64684 
-0.735321 -1.42105 2.54317 


 i = 385
0.344507 0.834935 -1.84602 
1.33174 -1.81582 -1.58518 
-2.15391 0.322177 2.64923 
-0.735805 -1.42215 2.54564 


 i = 386
0.344673 0.835852 -1.84763 
1.33238 -1.81768 -1.58664 
-2.1549 0.322113 2.6516 
-0.736288 -1.42324 2.54811 


 i = 387
0.344838 0.836766 -1.84923 
1.33302 -1.81953 -1.5881 
-2.15589 0.322049 2.65397 
-0.73677 -1.42433 2.55057 


 i = 388
0.345003 0.837676 -1.85082 
1.33366 -1.82137 -1.58955 
-2.15687 0.321986 2.65634 
-0.737251 -1.42542 2.55303 


 i = 389
0.345168 0.838583 -1.85241 
1.33429 -1.82321 -1.591 
-2.15785 0.321922 2.6587 
-0.73773 -1.4265 2.55549 


 i = 390
0.345332 0.839486 -1.854 
1.33493 -1.82505 -1.59245 
-2.15883 0.321859 2.66106 
-0.738208 -1.42758 2.55793 


 i = 391
0.345496 0.840387 -1.85559 
1.33556 -1.82688 -1.5939 
-2.1598 0.321796 2.66341 
-0.738686 -1.42866 2.56038 


 i = 392
0.345659 0.841283 -1.85717 
1.33619 -1.8287 -1.59534 
-2.16078 0.321734 2.66575 
-0.739162 -1.42973 2.56282 


 i = 393
0.345822 0.842177 -1.85875 
1.33682 -1.83052 -1.59678 
-2.16175 0.321671 2.66809 
-0.739637 -1.43079 2.56525 


 i = 394
0.345985 0.843067 -1.86032 
1.33745 -1.83234 -1.59822 
-2.16272 0.321609 2.67043 
-0.740111 -1.43186 2.56768 


 i = 395
0.346147 0.843954 -1.86189 
1.33808 -1.83415 -1.59965 
-2.16368 0.321547 2.67276 
-0.740583 -1.43292 2.57011 


 i = 396
0.346309 0.844838 -1.86346 
1.33871 -1.83595 -1.60108 
-2.16465 0.321485 2.67508 
-0.741055 -1.43398 2.57253 


 i = 397
0.346471 0.845719 -1.86502 
1.33933 -1.83775 -1.60251 
-2.16561 0.321424 2.6774 
-0.741525 -1.43503 2.57494 


 i = 398
0.346632 0.846596 -1.86658 
1.33995 -1.83954 -1.60393 
-2.16657 0.321362 2.67972 
-0.741995 -1.43608 2.57736 


 i = 399
0.346792 0.847471 -1.86813 
1.34058 -1.84133 -1.60536 
-2.16752 0.321301 2.68203 
-0.742463 -1.43713 2.57976 


 i = 400
0.346953 0.848342 -1.86969 
1.34119 -1.84312 -1.60677 
-2.16848 0.32124 2.68433 
-0.74293 -1.43817 2.58217 


 i = 401
0.347113 0.849209 -1.87123 
1.34181 -1.8449 -1.60819 
-2.16943 0.32118 2.68663 
-0.743397 -1.43921 2.58456 


 i = 402
0.347272 0.850074 -1.87278 
1.34243 -1.84667 -1.6096 
-2.17038 0.321119 2.68892 
-0.743862 -1.44024 2.58696 


 i = 403
0.347431 0.850936 -1.87432 
1.34304 -1.84844 -1.61101 
-2.17133 0.321059 2.69121 
-0.744326 -1.44128 2.58935 


 i = 404
0.34759 0.851794 -1.87586 
1.34366 -1.8502 -1.61242 
-2.17227 0.320999 2.6935 
-0.744789 -1.44231 2.59173 


 i = 405
0.347749 0.852649 -1.87739 
1.34427 -1.85196 -1.61383 
-2.17322 0.320939 2.69577 
-0.74525 -1.44333 2.59411 


 i = 406
0.347907 0.853502 -1.87892 
1.34488 -1.85372 -1.61523 
-2.17416 0.32088 2.69805 
-0.745711 -1.44435 2.59649 


 i = 407
0.348064 0.854351 -1.88045 
1.34549 -1.85547 -1.61663 
-2.17509 0.32082 2.70032 
-0.746171 -1.44537 2.59886 


 i = 408
0.348222 0.855197 -1.88198 
1.3461 -1.85721 -1.61802 
-2.17603 0.320761 2.70258 
-0.74663 -1.44639 2.60122 


 i = 409
0.348378 0.85604 -1.8835 
1.3467 -1.85895 -1.61942 
-2.17696 0.320702 2.70484 
-0.747087 -1.4474 2.60359 


 i = 410
0.348535 0.85688 -1.88501 
1.34731 -1.86069 -1.62081 
-2.1779 0.320643 2.7071 
-0.747544 -1.44841 2.60595 


 i = 411
0.348691 0.857716 -1.88653 
1.34791 -1.86242 -1.62219 
-2.17883 0.320585 2.70935 
-0.748 -1.44941 2.6083 


 i = 412
0.348847 0.85855 -1.88804 
1.34851 -1.86414 -1.62358 
-2.17975 0.320526 2.71159 
-0.748454 -1.45041 2.61065 


 i = 413
0.349003 0.859381 -1.88955 
1.34911 -1.86586 -1.62496 
-2.18068 0.320468 2.71383 
-0.748908 -1.45141 2.61299 


 i = 414
0.349158 0.860209 -1.89105 
1.34971 -1.86758 -1.62634 
-2.1816 0.32041 2.71607 
-0.74936 -1.45241 2.61534 


 i = 415
0.349312 0.861034 -1.89255 
1.35031 -1.86929 -1.62772 
-2.18252 0.320353 2.7183 
-0.749812 -1.4534 2.61767 


 i = 416
0.349467 0.861856 -1.89405 
1.35091 -1.871 -1.62909 
-2.18344 0.320295 2.72052 
-0.750262 -1.45439 2.62 


 i = 417
0.349621 0.862675 -1.89554 
1.3515 -1.8727 -1.63046 
-2.18436 0.320238 2.72274 
-0.750712 -1.45537 2.62233 


 i = 418
0.349775 0.863491 -1.89703 
1.3521 -1.8744 -1.63183 
-2.18527 0.320181 2.72496 
-0.751161 -1.45636 2.62466 


 i = 419
0.349928 0.864304 -1.89852 
1.35269 -1.87609 -1.6332 
-2.18619 0.320124 2.72717 
-0.751608 -1.45734 2.62698 


 i = 420
0.350081 0.865114 -1.9 
1.35328 -1.87778 -1.63456 
-2.1871 0.320067 2.72938 
-0.752055 -1.45831 2.62929 


 i = 421
0.350234 0.865921 -1.90148 
1.35387 -1.87946 -1.63592 
-2.188 0.320011 2.73158 
-0.7525 -1.45928 2.6316 


 i = 422
0.350386 0.866725 -1.90296 
1.35445 -1.88114 -1.63728 
-2.18891 0.319954 2.73378 
-0.752945 -1.46025 2.63391 


 i = 423
0.350538 0.867527 -1.90444 
1.35504 -1.88282 -1.63863 
-2.18981 0.319898 2.73597 
-0.753388 -1.46122 2.63622 


 i = 424
0.35069 0.868325 -1.90591 
1.35563 -1.88449 -1.63999 
-2.19072 0.319842 2.73816 
-0.753831 -1.46218 2.63851 


 i = 425
0.350841 0.869121 -1.90738 
1.35621 -1.88615 -1.64134 
-2.19162 0.319787 2.74035 
-0.754273 -1.46314 2.64081 


 i = 426
0.350992 0.869914 -1.90884 
1.35679 -1.88781 -1.64269 
-2.19251 0.319731 2.74253 
-0.754713 -1.4641 2.6431 


 i = 427
0.351142 0.870704 -1.9103 
1.35737 -1.88947 -1.64403 
-2.19341 0.319676 2.7447 
-0.755153 -1.46505 2.64539 


 i = 428
0.351293 0.871491 -1.91176 
1.35795 -1.89112 -1.64537 
-2.1943 0.319621 2.74687 
-0.755592 -1.466 2.64767 


 i = 429
0.351443 0.872275 -1.91322 
1.35853 -1.89277 -1.64671 
-2.1952 0.319566 2.74904 
-0.75603 -1.46695 2.64995 


 i = 430
0.351592 0.873057 -1.91467 
1.35911 -1.89441 -1.64805 
-2.19609 0.319511 2.7512 
-0.756467 -1.46789 2.65222 


 i = 431
0.351742 0.873836 -1.91612 
1.35968 -1.89605 -1.64938 
-2.19697 0.319456 2.75336 
-0.756903 -1.46884 2.6545 


 i = 432
0.351891 0.874612 -1.91757 
1.36026 -1.89769 -1.65072 
-2.19786 0.319402 2.75551 
-0.757338 -1.46977 2.65676 


 i = 433
0.352039 0.875385 -1.91901 
1.36083 -1.89932 -1.65204 
-2.19874 0.319348 2.75766 
-0.757772 -1.47071 2.65903 


 i = 434
0.352187 0.876155 -1.92045 
1.3614 -1.90094 -1.65337 
-2.19963 0.319294 2.75981 
-0.758205 -1.47164 2.66129 


 i = 435
0.352335 0.876923 -1.92189 
1.36197 -1.90257 -1.6547 
-2.20051 0.31924 2.76195 
-0.758637 -1.47257 2.66354 


 i = 436
0.352483 0.877688 -1.92332 
1.36254 -1.90418 -1.65602 
-2.20138 0.319186 2.76408 
-0.759068 -1.4735 2.66579 


 i = 437
0.35263 0.87845 -1.92475 
1.36311 -1.9058 -1.65734 
-2.20226 0.319133 2.76621 
-0.759499 -1.47442 2.66804 


 i = 438
0.352777 0.87921 -1.92618 
1.36368 -1.9074 -1.65865 
-2.20313 0.31908 2.76834 
-0.759928 -1.47534 2.67028 


 i = 439
0.352924 0.879967 -1.92761 
1.36424 -1.90901 -1.65997 
-2.20401 0.319027 2.77046 
-0.760357 -1.47626 2.67252 


 i = 440
0.35307 0.880721 -1.92903 
1.36481 -1.91061 -1.66128 
-2.20488 0.318974 2.77258 
-0.760785 -1.47717 2.67476 


 i = 441
0.353217 0.881472 -1.93045 
1.36537 -1.9122 -1.66259 
-2.20574 0.318921 2.7747 
-0.761211 -1.47808 2.67699 


 i = 442
0.353362 0.882221 -1.93186 
1.36593 -1.9138 -1.6639 
-2.20661 0.318869 2.77681 
-0.761637 -1.47899 2.67922 


 i = 443
0.353508 0.882967 -1.93328 
1.36649 -1.91538 -1.6652 
-2.20748 0.318817 2.77891 
-0.762062 -1.4799 2.68144 


 i = 444
0.353653 0.883711 -1.93469 
1.36705 -1.91697 -1.6665 
-2.20834 0.318764 2.78102 
-0.762486 -1.4808 2.68366 


 i = 445
0.353798 0.884452 -1.9361 
1.36761 -1.91855 -1.6678 
-2.2092 0.318713 2.78311 
-0.76291 -1.4817 2.68588 


 i = 446
0.353942 0.88519 -1.9375 
1.36817 -1.92012 -1.6691 
-2.21006 0.318661 2.78521 
-0.763332 -1.48259 2.68809 


 i = 447
0.354086 0.885926 -1.9389 
1.36872 -1.92169 -1.6704 
-2.21092 0.318609 2.7873 
-0.763753 -1.48349 2.6903 


 i = 448
0.35423 0.886659 -1.9403 
1.36927 -1.92326 -1.67169 
-2.21177 0.318558 2.78938 
-0.764174 -1.48438 2.69251 


 i = 449
0.354374 0.887389 -1.9417 
1.36983 -1.92482 -1.67298 
-2.21262 0.318507 2.79146 
-0.764594 -1.48527 2.69471 


 i = 450
0.354517 0.888117 -1.94309 
1.37038 -1.92638 -1.67427 
-2.21348 0.318456 2.79354 
-0.765013 -1.48615 2.69691 


 i = 451
0.35466 0.888842 -1.94448 
1.37093 -1.92793 -1.67555 
-2.21433 0.318405 2.79561 
-0.765431 -1.48703 2.6991 


 i = 452
0.354803 0.889565 -1.94587 
1.37148 -1.92948 -1.67683 
-2.21517 0.318354 2.79768 
-0.765848 -1.48791 2.70129 


 i = 453
0.354945 0.890285 -1.94725 
1.37203 -1.93103 -1.67811 
-2.21602 0.318304 2.79975 
-0.766264 -1.48879 2.70348 


 i = 454
0.355087 0.891003 -1.94864 
1.37257 -1.93257 -1.67939 
-2.21686 0.318253 2.80181 
-0.76668 -1.48967 2.70566 


 i = 455
0.355229 0.891718 -1.95002 
1.37312 -1.93411 -1.68067 
-2.21771 0.318203 2.80387 
-0.767094 -1.49054 2.70784 


 i = 456
0.35537 0.892431 -1.95139 
1.37366 -1.93564 -1.68194 
-2.21855 0.318153 2.80592 
-0.767508 -1.49141 2.71002 


 i = 457
0.355512 0.893141 -1.95277 
1.37421 -1.93717 -1.68321 
-2.21939 0.318104 2.80797 
-0.767921 -1.49227 2.71219 


 i = 458
0.355653 0.893848 -1.95414 
1.37475 -1.9387 -1.68448 
-2.22022 0.318054 2.81002 
-0.768333 -1.49313 2.71436 


 i = 459
0.355793 0.894553 -1.95551 
1.37529 -1.94022 -1.68575 
-2.22106 0.318005 2.81206 
-0.768744 -1.49399 2.71653 


 i = 460
0.355934 0.895256 -1.95687 
1.37583 -1.94174 -1.68701 
-2.22189 0.317955 2.8141 
-0.769155 -1.49485 2.71869 


 i = 461
0.356074 0.895956 -1.95823 
1.37637 -1.94325 -1.68828 
-2.22273 0.317906 2.81613 
-0.769564 -1.49571 2.72085 


 i = 462
0.356213 0.896654 -1.95959 
1.37691 -1.94476 -1.68954 
-2.22356 0.317857 2.81816 
-0.769973 -1.49656 2.723 


 i = 463
0.356353 0.897349 -1.96095 
1.37744 -1.94627 -1.6908 
-2.22438 0.317809 2.82019 
-0.770381 -1.49741 2.72515 


 i = 464
0.356492 0.898042 -1.96231 
1.37798 -1.94777 -1.69205 
-2.22521 0.31776 2.82221 
-0.770788 -1.49826 2.7273 


 i = 465
0.356631 0.898732 -1.96366 
1.37851 -1.94927 -1.6933 
-2.22604 0.317712 2.82423 
-0.771194 -1.4991 2.72945 


 i = 466
0.356769 0.89942 -1.96501 
1.37905 -1.95077 -1.69455 
-2.22686 0.317664 2.82624 
-0.7716 -1.49994 2.73159 


 i = 467
0.356908 0.900106 -1.96636 
1.37958 -1.95226 -1.6958 
-2.22768 0.317616 2.82825 
-0.772005 -1.50078 2.73372 


 i = 468
0.357046 0.900789 -1.9677 
1.38011 -1.95375 -1.69705 
-2.2285 0.317568 2.83026 
-0.772408 -1.50162 2.73586 


 i = 469
0.357184 0.90147 -1.96904 
1.38064 -1.95523 -1.69829 
-2.22932 0.31752 2.83226 
-0.772812 -1.50245 2.73799 


 i = 470
0.357321 0.902148 -1.97038 
1.38117 -1.95671 -1.69954 
-2.23014 0.317472 2.83426 
-0.773214 -1.50328 2.74012 


 i = 471
0.357458 0.902824 -1.97172 
1.3817 -1.95818 -1.70078 
-2.23095 0.317425 2.83626 
-0.773615 -1.50411 2.74224 


 i = 472
0.357595 0.903498 -1.97305 
1.38222 -1.95966 -1.70201 
-2.23176 0.317378 2.83825 
-0.774016 -1.50494 2.74436 


 i = 473
0.357732 0.904169 -1.97438 
1.38275 -1.96113 -1.70325 
-2.23258 0.317331 2.84024 
-0.774416 -1.50576 2.74648 


 i = 474
0.357868 0.904838 -1.97571 
1.38327 -1.96259 -1.70448 
-2.23339 0.317284 2.84222 
-0.774815 -1.50658 2.74859 


 i = 475
0.358004 0.905505 -1.97704 
1.38379 -1.96405 -1.70572 
-2.23419 0.317237 2.84421 
-0.775214 -1.5074 2.7507 


 i = 476
0.35814 0.906169 -1.97836 
1.38432 -1.96551 -1.70694 
-2.235 0.317191 2.84618 
-0.775611 -1.50821 2.75281 


 i = 477
0.358276 0.906831 -1.97968 
1.38484 -1.96696 -1.70817 
-2.23581 0.317144 2.84816 
-0.776008 -1.50903 2.75491 


 i = 478
0.358411 0.90749 -1.981 
1.38536 -1.96841 -1.7094 
-2.23661 0.317098 2.85013 
-0.776404 -1.50984 2.75701 


 i = 479
0.358546 0.908148 -1.98232 
1.38588 -1.96986 -1.71062 
-2.23741 0.317052 2.85209 
-0.776799 -1.51064 2.7591 


 i = 480
0.358681 0.908803 -1.98363 
1.38639 -1.9713 -1.71184 
-2.23821 0.317006 2.85406 
-0.777194 -1.51145 2.7612 


 i = 481
0.358815 0.909456 -1.98494 
1.38691 -1.97274 -1.71306 
-2.23901 0.31696 2.85602 
-0.777588 -1.51225 2.76329 


 i = 482
0.35895 0.910106 -1.98625 
1.38743 -1.97417 -1.71428 
-2.23981 0.316915 2.85797 
-0.777981 -1.51305 2.76537 


 i = 483
0.359084 0.910754 -1.98756 
1.38794 -1.97561 -1.71549 
-2.2406 0.316869 2.85993 
-0.778373 -1.51385 2.76746 


 i = 484
0.359217 0.9114 -1.98886 
1.38845 -1.97703 -1.7167 
-2.2414 0.316824 2.86188 
-0.778765 -1.51465 2.76954 


 i = 485
0.359351 0.912044 -1.99016 
1.38897 -1.97846 -1.71791 
-2.24219 0.316779 2.86382 
-0.779155 -1.51544 2.77161 


 i = 486
0.359484 0.912686 -1.99146 
1.38948 -1.97988 -1.71912 
-2.24298 0.316734 2.86576 
-0.779545 -1.51623 2.77369 


 i = 487
0.359617 0.913325 -1.99275 
1.38999 -1.9813 -1.72033 
-2.24377 0.316689 2.8677 
-0.779935 -1.51702 2.77576 


 i = 488
0.359749 0.913962 -1.99405 
1.3905 -1.98271 -1.72153 
-2.24455 0.316645 2.86964 
-0.780323 -1.5178 2.77783 


 i = 489
0.359882 0.914597 -1.99534 
1.39101 -1.98412 -1.72273 
-2.24534 0.3166 2.87157 
-0.780711 -1.51859 2.77989 


 i = 490
0.360014 0.915229 -1.99663 
1.39151 -1.98553 -1.72393 
-2.24613 0.316556 2.8735 
-0.781098 -1.51937 2.78195 


 i = 491
0.360146 0.91586 -1.99792 
1.39202 -1.98693 -1.72513 
-2.24691 0.316512 2.87542 
-0.781484 -1.52015 2.78401 


 i = 492
0.360278 0.916488 -1.9992 
1.39253 -1.98833 -1.72633 
-2.24769 0.316468 2.87734 
-0.78187 -1.52092 2.78606 


 i = 493
0.360409 0.917114 -2.00048 
1.39303 -1.98972 -1.72752 
-2.24847 0.316424 2.87926 
-0.782255 -1.5217 2.78811 


 i = 494
0.36054 0.917738 -2.00176 
1.39353 -1.99112 -1.72871 
-2.24925 0.31638 2.88117 
-0.782639 -1.52247 2.79016 


 i = 495
0.360671 0.91836 -2.00304 
1.39404 -1.99251 -1.7299 
-2.25002 0.316337 2.88309 
-0.783022 -1.52324 2.79221 


 i = 496
0.360802 0.918979 -2.00431 
1.39454 -1.99389 -1.73109 
-2.2508 0.316293 2.88499 
-0.783405 -1.524 2.79425 


 i = 497
0.360932 0.919597 -2.00558 
1.39504 -1.99527 -1.73228 
-2.25157 0.31625 2.8869 
-0.783787 -1.52477 2.79629 


 i = 498
0.361062 0.920212 -2.00685 
1.39554 -1.99665 -1.73346 
-2.25234 0.316207 2.8888 
-0.784169 -1.52553 2.79832 


 i = 499
0.361192 0.920825 -2.00812 
1.39603 -1.99803 -1.73464 
-2.25312 0.316164 2.8907 
-0.784549 -1.52629 2.80035 


 i = 500
0.361322 0.921436 -2.00939 
1.39653 -1.9994 -1.73582 
-2.25388 0.316121 2.89259 
-0.784929 -1.52705 2.80238 


 i = 501
0.361451 0.922045 -2.01065 
1.39703 -2.00077 -1.737 
-2.25465 0.316079 2.89448 
-0.785308 -1.5278 2.80441 


 i = 502
0.36158 0.922652 -2.01191 
1.39752 -2.00213 -1.73818 
-2.25542 0.316036 2.89637 
-0.785687 -1.52856 2.80643 


 i = 503
0.361709 0.923257 -2.01317 
1.39802 -2.00349 -1.73935 
-2.25618 0.315994 2.89825 
-0.786064 -1.52931 2.80845 


 i = 504
0.361838 0.923859 -2.01443 
1.39851 -2.00485 -1.74052 
-2.25695 0.315952 2.90013 
-0.786442 -1.53005 2.81047 


 i = 505
0.361966 0.92446 -2.01568 
1.399 -2.00621 -1.74169 
-2.25771 0.31591 2.90201 
-0.786818 -1.5308 2.81248 


 i = 506
0.362095 0.925058 -2.01693 
1.3995 -2.00756 -1.74286 
-2.25847 0.315868 2.90389 
-0.787194 -1.53154 2.81449 


 i = 507
0.362223 0.925655 -2.01818 
1.39999 -2.00891 -1.74403 
-2.25923 0.315826 2.90576 
-0.787569 -1.53228 2.8165 


 i = 508
0.36235 0.926249 -2.01943 
1.40048 -2.01025 -1.74519 
-2.25999 0.315784 2.90763 
-0.787943 -1.53302 2.81851 


 i = 509
0.362478 0.926841 -2.02067 
1.40096 -2.0116 -1.74636 
-2.26074 0.315743 2.90949 
-0.788317 -1.53376 2.82051 


 i = 510
0.362605 0.927431 -2.02192 
1.40145 -2.01293 -1.74752 
-2.2615 0.315702 2.91135 
-0.78869 -1.53449 2.82251 


 i = 511
0.362732 0.92802 -2.02316 
1.40194 -2.01427 -1.74868 
-2.26225 0.315661 2.91321 
-0.789062 -1.53523 2.8245 


 i = 512
0.362859 0.928606 -2.0244 
1.40242 -2.0156 -1.74983 
-2.263 0.31562 2.91507 
-0.789434 -1.53596 2.8265 


 i = 513
0.362985 0.92919 -2.02563 
1.40291 -2.01693 -1.75099 
-2.26375 0.315579 2.91692 
-0.789805 -1.53669 2.82849 


 i = 514
0.363112 0.929772 -2.02687 
1.40339 -2.01826 -1.75214 
-2.2645 0.315538 2.91877 
-0.790175 -1.53741 2.83047 


 i = 515
0.363238 0.930352 -2.0281 
1.40388 -2.01958 -1.75329 
-2.26525 0.315497 2.92062 
-0.790545 -1.53813 2.83246 


 i = 516
0.363364 0.93093 -2.02933 
1.40436 -2.0209 -1.75444 
-2.26599 0.315457 2.92246 
-0.790914 -1.53886 2.83444 


 i = 517
0.363489 0.931507 -2.03055 
1.40484 -2.02221 -1.75559 
-2.26674 0.315417 2.9243 
-0.791282 -1.53957 2.83642 


 i = 518
0.363615 0.932081 -2.03178 
1.40532 -2.02353 -1.75673 
-2.26748 0.315376 2.92614 
-0.791649 -1.54029 2.83839 


 i = 519
0.36374 0.932653 -2.033 
1.4058 -2.02483 -1.75788 
-2.26822 0.315336 2.92797 
-0.792016 -1.54101 2.84037 


 i = 520
0.363865 0.933223 -2.03422 
1.40628 -2.02614 -1.75902 
-2.26897 0.315297 2.9298 
-0.792383 -1.54172 2.84233 


 i = 521
0.36399 0.933791 -2.03544 
1.40676 -2.02744 -1.76016 
-2.2697 0.315257 2.93163 
-0.792749 -1.54243 2.8443 


 i = 522
0.364114 0.934358 -2.03666 
1.40723 -2.02874 -1.7613 
-2.27044 0.315217 2.93345 
-0.793114 -1.54314 2.84627 


 i = 523
0.364238 0.934922 -2.03787 
1.40771 -2.03004 -1.76244 
-2.27118 0.315178 2.93527 
-0.793478 -1.54384 2.84823 


 i = 524
0.364362 0.935484 -2.03908 
1.40818 -2.03133 -1.76357 
-2.27191 0.315138 2.93709 
-0.793842 -1.54455 2.85018 


 i = 525
0.364486 0.936045 -2.0403 
1.40866 -2.03262 -1.7647 
-2.27265 0.315099 2.93891 
-0.794205 -1.54525 2.85214 


 i = 526
0.36461 0.936603 -2.0415 
1.40913 -2.03391 -1.76584 
-2.27338 0.31506 2.94072 
-0.794567 -1.54595 2.85409 


 i = 527
0.364733 0.93716 -2.04271 
1.4096 -2.0352 -1.76697 
-2.27411 0.315021 2.94253 
-0.794929 -1.54665 2.85604 


 i = 528
0.364856 0.937715 -2.04391 
1.41007 -2.03648 -1.76809 
-2.27484 0.314983 2.94434 
-0.79529 -1.54734 2.85799 


 i = 529
0.364979 0.938268 -2.04512 
1.41054 -2.03776 -1.76922 
-2.27557 0.314944 2.94614 
-0.795651 -1.54804 2.85993 


 i = 530
0.365102 0.938818 -2.04631 
1.41101 -2.03903 -1.77034 
-2.2763 0.314905 2.94794 
-0.796011 -1.54873 2.86187 


 i = 531
0.365224 0.939367 -2.04751 
1.41148 -2.0403 -1.77147 
-2.27702 0.314867 2.94974 
-0.79637 -1.54942 2.86381 


 i = 532
0.365347 0.939915 -2.04871 
1.41195 -2.04157 -1.77259 
-2.27775 0.314829 2.95153 
-0.796729 -1.55011 2.86575 


 i = 533
0.365469 0.94046 -2.0499 
1.41242 -2.04284 -1.77371 
-2.27847 0.314791 2.95332 
-0.797087 -1.55079 2.86768 


 i = 534
0.365591 0.941003 -2.05109 
1.41288 -2.0441 -1.77482 
-2.27919 0.314753 2.95511 
-0.797444 -1.55148 2.86961 


 i = 535
0.365712 0.941545 -2.05228 
1.41335 -2.04536 -1.77594 
-2.27991 0.314715 2.9569 
-0.797801 -1.55216 2.87154 


 i = 536
0.365834 0.942084 -2.05347 
1.41381 -2.04662 -1.77705 
-2.28063 0.314677 2.95868 
-0.798157 -1.55284 2.87346 


 i = 537
0.365955 0.942622 -2.05466 
1.41428 -2.04787 -1.77816 
-2.28135 0.31464 2.96046 
-0.798513 -1.55351 2.87538 


 i = 538
0.366076 0.943158 -2.05584 
1.41474 -2.04912 -1.77927 
-2.28207 0.314602 2.96224 
-0.798868 -1.55419 2.8773 


 i = 539
0.366197 0.943692 -2.05702 
1.4152 -2.05037 -1.78038 
-2.28278 0.314565 2.96401 
-0.799222 -1.55486 2.87922 


 i = 540
0.366317 0.944225 -2.0582 
1.41566 -2.05162 -1.78149 
-2.2835 0.314528 2.96578 
-0.799576 -1.55553 2.88113 


 i = 541
0.366438 0.944755 -2.05938 
1.41612 -2.05286 -1.78259 
-2.28421 0.314491 2.96755 
-0.799929 -1.5562 2.88304 


 i = 542
0.366558 0.945284 -2.06055 
1.41658 -2.0541 -1.7837 
-2.28492 0.314454 2.96932 
-0.800282 -1.55687 2.88495 


 i = 543
0.366678 0.945811 -2.06173 
1.41704 -2.05533 -1.7848 
-2.28563 0.314417 2.97108 
-0.800634 -1.55754 2.88686 


 i = 544
0.366797 0.946336 -2.0629 
1.4175 -2.05657 -1.7859 
-2.28634 0.314381 2.97284 
-0.800985 -1.5582 2.88876 


 i = 545
0.366917 0.946859 -2.06407 
1.41795 -2.0578 -1.787 
-2.28705 0.314344 2.9746 
-0.801336 -1.55886 2.89066 


 i = 546
0.367036 0.94738 -2.06524 
1.41841 -2.05902 -1.78809 
-2.28776 0.314308 2.97635 
-0.801686 -1.55952 2.89256 


 i = 547
0.367155 0.9479 -2.0664 
1.41887 -2.06025 -1.78919 
-2.28846 0.314272 2.9781 
-0.802035 -1.56018 2.89445 


 i = 548
0.367274 0.948418 -2.06757 
1.41932 -2.06147 -1.79028 
-2.28917 0.314235 2.97985 
-0.802384 -1.56083 2.89634 


 i = 549
0.367393 0.948934 -2.06873 
1.41977 -2.06269 -1.79137 
-2.28987 0.314199 2.9816 
-0.802733 -1.56149 2.89823 


 i = 550
0.367512 0.949448 -2.06989 
1.42023 -2.0639 -1.79246 
-2.29057 0.314164 2.98334 
-0.803081 -1.56214 2.90012 


 i = 551
0.36763 0.949961 -2.07105 
1.42068 -2.06512 -1.79355 
-2.29127 0.314128 2.98508 
-0.803428 -1.56279 2.902 


 i = 552
0.367748 0.950472 -2.0722 
1.42113 -2.06633 -1.79464 
-2.29197 0.314092 2.98682 
-0.803774 -1.56344 2.90389 


 i = 553
0.367866 0.950981 -2.07336 
1.42158 -2.06753 -1.79572 
-2.29267 0.314057 2.98856 
-0.80412 -1.56408 2.90577 


 i = 554
0.367984 0.951488 -2.07451 
1.42203 -2.06874 -1.79681 
-2.29336 0.314021 2.99029 
-0.804466 -1.56473 2.90764 


 i = 555
0.368101 0.951994 -2.07566 
1.42248 -2.06994 -1.79789 
-2.29406 0.313986 2.99202 
-0.804811 -1.56537 2.90952 


 i = 556
0.368218 0.952497 -2.07681 
1.42293 -2.07114 -1.79897 
-2.29475 0.313951 2.99375 
-0.805155 -1.56601 2.91139 


 i = 557
0.368335 0.953 -2.07795 
1.42337 -2.07234 -1.80005 
-2.29545 0.313916 2.99547 
-0.805499 -1.56665 2.91326 


 i = 558
0.368452 0.9535 -2.0791 
1.42382 -2.07353 -1.80112 
-2.29614 0.313881 2.99719 
-0.805842 -1.56728 2.91512 


 i = 559
0.368569 0.953999 -2.08024 
1.42426 -2.07472 -1.8022 
-2.29683 0.313846 2.99891 
-0.806185 -1.56792 2.91699 


 i = 560
0.368686 0.954496 -2.08138 
1.42471 -2.07591 -1.80327 
-2.29752 0.313812 3.00063 
-0.806527 -1.56855 2.91885 


 i = 561
0.368802 0.954991 -2.08252 
1.42515 -2.07709 -1.80435 
-2.29821 0.313777 3.00234 
-0.806868 -1.56918 2.9207 


 i = 562
0.368918 0.955485 -2.08366 
1.4256 -2.07827 -1.80542 
-2.29889 0.313743 3.00405 
-0.807209 -1.56981 2.92256 


 i = 563
0.369034 0.955977 -2.0848 
1.42604 -2.07945 -1.80649 
-2.29958 0.313709 3.00576 
-0.80755 -1.57044 2.92441 


 i = 564
0.36915 0.956467 -2.08593 
1.42648 -2.08063 -1.80755 
-2.30027 0.313675 3.00747 
-0.807889 -1.57106 2.92627 


 i = 565
0.369265 0.956955 -2.08706 
1.42692 -2.0818 -1.80862 
-2.30095 0.313641 3.00917 
-0.808229 -1.57169 2.92811 


 i = 566
0.369381 0.957442 -2.08819 
1.42736 -2.08297 -1.80968 
-2.30163 0.313607 3.01087 
-0.808567 -1.57231 2.92996 


 i = 567
0.369496 0.957927 -2.08932 
1.4278 -2.08414 -1.81075 
-2.30231 0.313573 3.01257 
-0.808905 -1.57293 2.9318 


 i = 568
0.369611 0.958411 -2.09045 
1.42824 -2.08531 -1.81181 
-2.30299 0.313539 3.01426 
-0.809243 -1.57355 2.93364 


 i = 569
0.369725 0.958893 -2.09157 
1.42868 -2.08647 -1.81287 
-2.30367 0.313506 3.01596 
-0.80958 -1.57416 2.93548 


 i = 570
0.36984 0.959373 -2.09269 
1.42911 -2.08763 -1.81392 
-2.30435 0.313472 3.01765 
-0.809917 -1.57478 2.93732 


 i = 571
0.369954 0.959852 -2.09381 
1.42955 -2.08879 -1.81498 
-2.30503 0.313439 3.01933 
-0.810252 -1.57539 2.93915 


 i = 572
0.370069 0.960329 -2.09493 
1.42999 -2.08995 -1.81604 
-2.3057 0.313406 3.02102 
-0.810588 -1.576 2.94098 


 i = 573
0.370183 0.960804 -2.09605 
1.43042 -2.0911 -1.81709 
-2.30638 0.313373 3.0227 
-0.810923 -1.57661 2.94281 


 i = 574
0.370297 0.961278 -2.09717 
1.43086 -2.09225 -1.81814 
-2.30705 0.31334 3.02438 
-0.811257 -1.57722 2.94464 


 i = 575
0.37041 0.96175 -2.09828 
1.43129 -2.09339 -1.81919 
-2.30772 0.313307 3.02606 
-0.811591 -1.57782 2.94646 


 i = 576
0.370524 0.96222 -2.09939 
1.43172 -2.09454 -1.82024 
-2.30839 0.313274 3.02773 
-0.811924 -1.57843 2.94828 


 i = 577
0.370637 0.962689 -2.1005 
1.43215 -2.09568 -1.82129 
-2.30906 0.313242 3.02941 
-0.812257 -1.57903 2.9501 


 i = 578
0.37075 0.963157 -2.10161 
1.43258 -2.09682 -1.82233 
-2.30973 0.313209 3.03108 
-0.812589 -1.57963 2.95192 


 i = 579
0.370863 0.963622 -2.10272 
1.43301 -2.09796 -1.82338 
-2.3104 0.313177 3.03274 
-0.812921 -1.58023 2.95373 


 i = 580
0.370976 0.964086 -2.10382 
1.43344 -2.09909 -1.82442 
-2.31107 0.313145 3.03441 
-0.813252 -1.58083 2.95554 


 i = 581
0.371088 0.964549 -2.10493 
1.43387 -2.10022 -1.82546 
-2.31173 0.313113 3.03607 
-0.813582 -1.58142 2.95735 


 i = 582
0.371201 0.96501 -2.10603 
1.4343 -2.10135 -1.8265 
-2.3124 0.313081 3.03773 
-0.813912 -1.58201 2.95916 


 i = 583
0.371313 0.965469 -2.10713 
1.43473 -2.10248 -1.82754 
-2.31306 0.313049 3.03939 
-0.814242 -1.58261 2.96096 


 i = 584
0.371425 0.965927 -2.10823 
1.43516 -2.1036 -1.82858 
-2.31372 0.313017 3.04104 
-0.814571 -1.5832 2.96277 


 i = 585
0.371537 0.966383 -2.10932 
1.43558 -2.10472 -1.82961 
-2.31438 0.312985 3.0427 
-0.814899 -1.58379 2.96457 


 i = 586
0.371648 0.966838 -2.11042 
1.43601 -2.10584 -1.83064 
-2.31504 0.312954 3.04435 
-0.815227 -1.58437 2.96636 


 i = 587
0.37176 0.967291 -2.11151 
1.43643 -2.10696 -1.83168 
-2.3157 0.312922 3.04599 
-0.815555 -1.58496 2.96816 


 i = 588
0.371871 0.967742 -2.1126 
1.43686 -2.10807 -1.83271 
-2.31636 0.312891 3.04764 
-0.815882 -1.58554 2.96995 


 i = 589
0.371982 0.968192 -2.11369 
1.43728 -2.10918 -1.83374 
-2.31702 0.31286 3.04928 
-0.816208 -1.58612 2.97174 


 i = 590
0.372093 0.968641 -2.11478 
1.4377 -2.11029 -1.83476 
-2.31767 0.312829 3.05092 
-0.816534 -1.5867 2.97353 


 i = 591
0.372204 0.969088 -2.11587 
1.43812 -2.11139 -1.83579 
-2.31833 0.312798 3.05256 
-0.81686 -1.58728 2.97531 


 i = 592
0.372314 0.969533 -2.11695 
1.43854 -2.1125 -1.83682 
-2.31898 0.312767 3.0542 
-0.817184 -1.58786 2.9771 


 i = 593
0.372425 0.969977 -2.11803 
1.43896 -2.1136 -1.83784 
-2.31963 0.312736 3.05583 
-0.817509 -1.58843 2.97888 


 i = 594
0.372535 0.970419 -2.11912 
1.43938 -2.1147 -1.83886 
-2.32028 0.312705 3.05746 
-0.817833 -1.589 2.98066 


 i = 595
0.372645 0.97086 -2.1202 
1.4398 -2.11579 -1.83988 
-2.32093 0.312675 3.05909 
-0.818156 -1.58958 2.98243 


 i = 596
0.372755 0.9713 -2.12127 
1.44022 -2.11689 -1.8409 
-2.32158 0.312644 3.06072 
-0.818479 -1.59015 2.98421 


 i = 597
0.372865 0.971737 -2.12235 
1.44064 -2.11798 -1.84192 
-2.32223 0.312614 3.06234 
-0.818801 -1.59071 2.98598 


 i = 598
0.372974 0.972174 -2.12342 
1.44106 -2.11907 -1.84294 
-2.32288 0.312584 3.06396 
-0.819123 -1.59128 2.98775 


 i = 599
0.373084 0.972609 -2.1245 
1.44147 -2.12015 -1.84395 
-2.32353 0.312554 3.06558 
-0.819445 -1.59185 2.98952 


 i = 600
0.373193 0.973042 -2.12557 
1.44189 -2.12124 -1.84496 
-2.32417 0.312524 3.0672 
-0.819766 -1.59241 2.99128 


 i = 601
0.373302 0.973474 -2.12664 
1.4423 -2.12232 -1.84598 
-2.32481 0.312494 3.06881 
-0.820086 -1.59297 2.99304 


 i = 602
0.373411 0.973904 -2.12771 
1.44272 -2.1234 -1.84699 
-2.32546 0.312464 3.07042 
-0.820406 -1.59353 2.9948 


 i = 603
0.373519 0.974333 -2.12877 
1.44313 -2.12447 -1.848 
-2.3261 0.312434 3.07203 
-0.820725 -1.59409 2.99656 


 i = 604
0.373628 0.974761 -2.12984 
1.44354 -2.12555 -1.84901 
-2.32674 0.312405 3.07364 
-0.821044 -1.59465 2.99832 


 i = 605
0.373736 0.975187 -2.1309 
1.44396 -2.12662 -1.85001 
-2.32738 0.312375 3.07525 
-0.821363 -1.5952 3.00007 


 i = 606
0.373845 0.975611 -2.13197 
1.44437 -2.12769 -1.85102 
-2.32802 0.312346 3.07685 
-0.821681 -1.59576 3.00182 


 i = 607
0.373953 0.976034 -2.13303 
1.44478 -2.12875 -1.85202 
-2.32866 0.312317 3.07845 
-0.821998 -1.59631 3.00357 


 i = 608
0.37406 0.976456 -2.13408 
1.44519 -2.12982 -1.85302 
-2.3293 0.312287 3.08005 
-0.822315 -1.59686 3.00532 


 i = 609
0.374168 0.976876 -2.13514 
1.4456 -2.13088 -1.85402 
-2.32993 0.312258 3.08164 
-0.822631 -1.59741 3.00707 


 i = 610
0.374276 0.977295 -2.1362 
1.44601 -2.13194 -1.85502 
-2.33057 0.312229 3.08324 
-0.822947 -1.59796 3.00881 


 i = 611
0.374383 0.977712 -2.13725 
1.44641 -2.133 -1.85602 
-2.3312 0.312201 3.08483 
-0.823263 -1.5985 3.01055 


 i = 612
0.37449 0.978128 -2.1383 
1.44682 -2.13405 -1.85702 
-2.33183 0.312172 3.08642 
-0.823578 -1.59905 3.01229 


 i = 613
0.374597 0.978543 -2.13935 
1.44723 -2.1351 -1.85801 
-2.33246 0.312143 3.08801 
-0.823893 -1.59959 3.01402 


 i = 614
0.374704 0.978956 -2.1404 
1.44763 -2.13615 -1.85901 
-2.3331 0.312115 3.08959 
-0.824207 -1.60013 3.01576 


 i = 615
0.374811 0.979367 -2.14145 
1.44804 -2.1372 -1.86 
-2.33373 0.312086 3.09117 
-0.82452 -1.60067 3.01749 


 i = 616
0.374917 0.979777 -2.1425 
1.44845 -2.13825 -1.86099 
-2.33435 0.312058 3.09275 
-0.824834 -1.60121 3.01922 


 i = 617
0.375024 0.980186 -2.14354 
1.44885 -2.13929 -1.86198 
-2.33498 0.31203 3.09433 
-0.825146 -1.60175 3.02094 


 i = 618
0.37513 0.980594 -2.14458 
1.44925 -2.14033 -1.86297 
-2.33561 0.312002 3.09591 
-0.825459 -1.60228 3.02267 


 i = 619
0.375236 0.981 -2.14563 
1.44966 -2.14137 -1.86396 
-2.33624 0.311974 3.09748 
-0.82577 -1.60282 3.02439 


 i = 620
0.375342 0.981404 -2.14667 
1.45006 -2.14241 -1.86495 
-2.33686 0.311946 3.09905 
-0.826082 -1.60335 3.02611 


 i = 621
0.375448 0.981808 -2.14771 
1.45046 -2.14344 -1.86593 
-2.33749 0.311918 3.10062 
-0.826392 -1.60388 3.02783 


 i = 622
0.375553 0.982209 -2.14874 
1.45086 -2.14447 -1.86691 
-2.33811 0.31189 3.10219 
-0.826703 -1.60441 3.02955 


 i = 623
0.375659 0.98261 -2.14978 
1.45126 -2.1455 -1.8679 
-2.33873 0.311863 3.10376 
-0.827013 -1.60494 3.03126 


 i = 624
0.375764 0.983009 -2.15081 
1.45166 -2.14653 -1.86888 
-2.33935 0.311835 3.10532 
-0.827322 -1.60546 3.03298 


 i = 625
0.375869 0.983407 -2.15184 
1.45206 -2.14755 -1.86986 
-2.33997 0.311808 3.10688 
-0.827631 -1.60599 3.03469 


 i = 626
0.375974 0.983803 -2.15288 
1.45246 -2.14858 -1.87084 
-2.34059 0.31178 3.10844 
-0.82794 -1.60651 3.03639 


 i = 627
0.376079 0.984198 -2.1539 
1.45286 -2.1496 -1.87181 
-2.34121 0.311753 3.10999 
-0.828248 -1.60703 3.0381 


 i = 628
0.376183 0.984592 -2.15493 
1.45325 -2.15062 -1.87279 
-2.34183 0.311726 3.11155 
-0.828555 -1.60755 3.0398 


 i = 629
0.376288 0.984984 -2.15596 
1.45365 -2.15163 -1.87376 
-2.34244 0.311699 3.1131 
-0.828863 -1.60807 3.04151 


 i = 630
0.376392 0.985375 -2.15698 
1.45405 -2.15265 -1.87474 
-2.34306 0.311672 3.11465 
-0.829169 -1.60859 3.04321 


 i = 631
0.376496 0.985765 -2.15801 
1.45444 -2.15366 -1.87571 
-2.34367 0.311645 3.1162 
-0.829476 -1.6091 3.0449 


 i = 632
0.3766 0.986153 -2.15903 
1.45484 -2.15467 -1.87668 
-2.34429 0.311618 3.11775 
-0.829781 -1.60962 3.0466 


 i = 633
0.376704 0.98654 -2.16005 
1.45523 -2.15567 -1.87765 
-2.3449 0.311592 3.11929 
-0.830087 -1.61013 3.04829 


 i = 634
0.376808 0.986925 -2.16107 
1.45562 -2.15668 -1.87862 
-2.34551 0.311565 3.12083 
-0.830392 -1.61064 3.04999 


 i = 635
0.376912 0.98731 -2.16209 
1.45602 -2.15768 -1.87958 
-2.34612 0.311539 3.12237 
-0.830696 -1.61115 3.05167 


 i = 636
0.377015 0.987692 -2.1631 
1.45641 -2.15868 -1.88055 
-2.34673 0.311513 3.12391 
-0.831 -1.61166 3.05336 


 i = 637
0.377118 0.988074 -2.16412 
1.4568 -2.15968 -1.88151 
-2.34734 0.311486 3.12544 
-0.831304 -1.61217 3.05505 


 i = 638
0.377221 0.988454 -2.16513 
1.45719 -2.16068 -1.88247 
-2.34795 0.31146 3.12698 
-0.831607 -1.61268 3.05673 


 i = 639
0.377324 0.988833 -2.16614 
1.45758 -2.16167 -1.88344 
-2.34856 0.311434 3.12851 
-0.83191 -1.61318 3.05841 


 i = 640
0.377427 0.989211 -2.16715 
1.45797 -2.16266 -1.8844 
-2.34916 0.311408 3.13004 
-0.832212 -1.61368 3.06009 


 i = 641
0.37753 0.989588 -2.16816 
1.45836 -2.16365 -1.88536 
-2.34977 0.311382 3.13156 
-0.832514 -1.61418 3.06177 


 i = 642
0.377632 0.989963 -2.16917 
1.45875 -2.16464 -1.88631 
-2.35037 0.311357 3.13309 
-0.832815 -1.61468 3.06344 


 i = 643
0.377735 0.990336 -2.17018 
1.45914 -2.16563 -1.88727 
-2.35098 0.311331 3.13461 
-0.833116 -1.61518 3.06512 


 i = 644
0.377837 0.990709 -2.17118 
1.45953 -2.16661 -1.88823 
-2.35158 0.311305 3.13613 
-0.833417 -1.61568 3.06679 


 i = 645
0.377939 0.99108 -2.17218 
1.45991 -2.16759 -1.88918 
-2.35218 0.31128 3.13765 
-0.833717 -1.61618 3.06846 


 i = 646
0.378041 0.99145 -2.17319 
1.4603 -2.16857 -1.89013 
-2.35278 0.311254 3.13917 
-0.834017 -1.61667 3.07012 


 i = 647
0.378142 0.991819 -2.17419 
1.46069 -2.16955 -1.89108 
-2.35338 0.311229 3.14069 
-0.834316 -1.61716 3.07179 


 i = 648
0.378244 0.992186 -2.17519 
1.46107 -2.17052 -1.89203 
-2.35398 0.311204 3.1422 
-0.834615 -1.61766 3.07345 


 i = 649
0.378346 0.992552 -2.17618 
1.46146 -2.17149 -1.89298 
-2.35458 0.311179 3.14371 
-0.834913 -1.61815 3.07511 


 i = 650
0.378447 0.992917 -2.17718 
1.46184 -2.17246 -1.89393 
-2.35518 0.311154 3.14522 
-0.835211 -1.61864 3.07677 


 i = 651
0.378548 0.993281 -2.17818 
1.46222 -2.17343 -1.89488 
-2.35577 0.311129 3.14673 
-0.835509 -1.61912 3.07843 


 i = 652
0.378649 0.993643 -2.17917 
1.46261 -2.1744 -1.89582 
-2.35637 0.311104 3.14823 
-0.835806 -1.61961 3.08008 


 i = 653
0.37875 0.994004 -2.18016 
1.46299 -2.17536 -1.89677 
-2.35696 0.311079 3.14973 
-0.836103 -1.62009 3.08174 


 i = 654
0.378851 0.994364 -2.18115 
1.46337 -2.17632 -1.89771 
-2.35756 0.311055 3.15124 
-0.836399 -1.62058 3.08339 


 i = 655
0.378951 0.994723 -2.18214 
1.46375 -2.17728 -1.89865 
-2.35815 0.31103 3.15273 
-0.836695 -1.62106 3.08504 


 i = 656
0.379052 0.99508 -2.18313 
1.46413 -2.17824 -1.89959 
-2.35874 0.311006 3.15423 
-0.83699 -1.62154 3.08669 


 i = 657
0.379152 0.995436 -2.18412 
1.46451 -2.1792 -1.90053 
-2.35933 0.310981 3.15573 
-0.837285 -1.62202 3.08833 


 i = 658
0.379252 0.995791 -2.1851 
1.46489 -2.18015 -1.90147 
-2.35992 0.310957 3.15722 
-0.83758 -1.6225 3.08998 


 i = 659
0.379352 0.996145 -2.18609 
1.46527 -2.18111 -1.90241 
-2.36051 0.310933 3.15871 
-0.837874 -1.62298 3.09162 


 i = 660
0.379452 0.996497 -2.18707 
1.46565 -2.18206 -1.90335 
-2.3611 0.310909 3.1602 
-0.838168 -1.62345 3.09326 


 i = 661
0.379552 0.996849 -2.18805 
1.46603 -2.183 -1.90428 
-2.36169 0.310885 3.16169 
-0.838462 -1.62393 3.09489 


 i = 662
0.379651 0.997199 -2.18903 
1.4664 -2.18395 -1.90521 
-2.36228 0.310861 3.16317 
-0.838755 -1.6244 3.09653 


 i = 663
0.379751 0.997547 -2.19001 
1.46678 -2.18489 -1.90615 
-2.36286 0.310837 3.16466 
-0.839047 -1.62487 3.09816 


 i = 664
0.37985 0.997895 -2.19098 
1.46716 -2.18583 -1.90708 
-2.36345 0.310813 3.16614 
-0.839339 -1.62534 3.0998 


 i = 665
0.379949 0.998241 -2.19196 
1.46753 -2.18677 -1.90801 
-2.36403 0.31079 3.16762 
-0.839631 -1.62581 3.10143 


 i = 666
0.380049 0.998587 -2.19293 
1.46791 -2.18771 -1.90894 
-2.36461 0.310766 3.1691 
-0.839922 -1.62628 3.10305 


 i = 667
0.380147 0.998931 -2.19391 
1.46828 -2.18865 -1.90986 
-2.3652 0.310742 3.17057 
-0.840213 -1.62674 3.10468 


 i = 668
0.380246 0.999273 -2.19488 
1.46865 -2.18958 -1.91079 
-2.36578 0.310719 3.17205 
-0.840504 -1.62721 3.1063 


 i = 669
0.380345 0.999615 -2.19585 
1.46903 -2.19051 -1.91172 
-2.36636 0.310696 3.17352 
-0.840794 -1.62767 3.10793 


 i = 670
0.380443 0.999955 -2.19682 
1.4694 -2.19144 -1.91264 
-2.36694 0.310673 3.17499 
-0.841084 -1.62813 3.10955 


 i = 671
0.380542 1.00029 -2.19779 
1.46977 -2.19237 -1.91356 
-2.36752 0.310649 3.17646 
-0.841373 -1.6286 3.11117 


 i = 672
0.38064 1.00063 -2.19875 
1.47014 -2.1933 -1.91449 
-2.3681 0.310626 3.17792 
-0.841662 -1.62906 3.11278 


 i = 673
0.380738 1.00097 -2.19972 
1.47052 -2.19422 -1.91541 
-2.36868 0.310603 3.17939 
-0.841951 -1.62951 3.1144 


 i = 674
0.380836 1.00131 -2.20068 
1.47089 -2.19514 -1.91633 
-2.36925 0.31058 3.18085 
-0.842239 -1.62997 3.11601 


 i = 675
0.380934 1.00164 -2.20165 
1.47126 -2.19606 -1.91725 
-2.36983 0.310558 3.18231 
-0.842527 -1.63043 3.11762 


 i = 676
0.381031 1.00197 -2.20261 
1.47163 -2.19698 -1.91816 
-2.3704 0.310535 3.18377 
-0.842814 -1.63088 3.11923 


 i = 677
0.381129 1.00231 -2.20357 
1.47199 -2.1979 -1.91908 
-2.37098 0.310512 3.18523 
-0.843101 -1.63134 3.12084 


 i = 678
0.381226 1.00264 -2.20453 
1.47236 -2.19881 -1.91999 
-2.37155 0.31049 3.18668 
-0.843388 -1.63179 3.12245 


 i = 679
0.381324 1.00297 -2.20548 
1.47273 -2.19972 -1.92091 
-2.37212 0.310467 3.18814 
-0.843674 -1.63224 3.12405 


 i = 680
0.381421 1.0033 -2.20644 
1.4731 -2.20063 -1.92182 
-2.3727 0.310445 3.18959 
-0.84396 -1.63269 3.12565 


 i = 681
0.381518 1.00362 -2.2074 
1.47346 -2.20154 -1.92273 
-2.37327 0.310423 3.19104 
-0.844245 -1.63314 3.12725 


 i = 682
0.381615 1.00395 -2.20835 
1.47383 -2.20245 -1.92364 
-2.37384 0.310401 3.19249 
-0.84453 -1.63358 3.12885 


 i = 683
0.381711 1.00427 -2.2093 
1.4742 -2.20335 -1.92455 
-2.37441 0.310378 3.19393 
-0.844815 -1.63403 3.13045 


 i = 684
0.381808 1.0046 -2.21025 
1.47456 -2.20426 -1.92546 
-2.37497 0.310356 3.19538 
-0.845099 -1.63448 3.13204 


 i = 685
0.381905 1.00492 -2.2112 
1.47493 -2.20516 -1.92637 
-2.37554 0.310334 3.19682 
-0.845383 -1.63492 3.13363 


 i = 686
0.382001 1.00524 -2.21215 
1.47529 -2.20606 -1.92727 
-2.37611 0.310313 3.19826 
-0.845666 -1.63536 3.13523 


 i = 687
0.382097 1.00556 -2.2131 
1.47565 -2.20695 -1.92818 
-2.37668 0.310291 3.1997 
-0.84595 -1.6358 3.13682 


 i = 688
0.382193 1.00588 -2.21405 
1.47602 -2.20785 -1.92908 
-2.37724 0.310269 3.20114 
-0.846232 -1.63624 3.1384 


 i = 689
0.382289 1.0062 -2.21499 
1.47638 -2.20874 -1.92999 
-2.37781 0.310247 3.20258 
-0.846515 -1.63668 3.13999 


 i = 690
0.382385 1.00652 -2.21593 
1.47674 -2.20963 -1.93089 
-2.37837 0.310226 3.20401 
-0.846797 -1.63712 3.14157 


 i = 691
0.382481 1.00684 -2.21688 
1.4771 -2.21052 -1.93179 
-2.37893 0.310204 3.20544 
-0.847078 -1.63755 3.14316 


 i = 692
0.382576 1.00715 -2.21782 
1.47746 -2.21141 -1.93269 
-2.3795 0.310183 3.20687 
-0.847359 -1.63799 3.14474 


 i = 693
0.382672 1.00747 -2.21876 
1.47783 -2.2123 -1.93359 
-2.38006 0.310162 3.2083 
-0.84764 -1.63842 3.14631 


 i = 694
0.382767 1.00778 -2.2197 
1.47819 -2.21318 -1.93449 
-2.38062 0.310141 3.20973 
-0.847921 -1.63886 3.14789 


 i = 695
0.382862 1.00809 -2.22063 
1.47854 -2.21406 -1.93538 
-2.38118 0.310119 3.21115 
-0.848201 -1.63929 3.14947 


 i = 696
0.382957 1.0084 -2.22157 
1.4789 -2.21494 -1.93628 
-2.38174 0.310098 3.21257 
-0.848481 -1.63972 3.15104 


 i = 697
0.383052 1.00871 -2.22251 
1.47926 -2.21582 -1.93717 
-2.3823 0.310077 3.214 
-0.84876 -1.64015 3.15261 


 i = 698
0.383147 1.00902 -2.22344 
1.47962 -2.2167 -1.93806 
-2.38285 0.310057 3.21542 
-0.849039 -1.64058 3.15418 


 i = 699
0.383242 1.00933 -2.22437 
1.47998 -2.21757 -1.93896 
-2.38341 0.310036 3.21683 
-0.849318 -1.641 3.15575 


 i = 700
0.383336 1.00963 -2.2253 
1.48033 -2.21845 -1.93985 
-2.38397 0.310015 3.21825 
-0.849596 -1.64143 3.15732 


 i = 701
0.383431 1.00994 -2.22623 
1.48069 -2.21932 -1.94074 
-2.38452 0.309994 3.21966 
-0.849874 -1.64185 3.15888 


 i = 702
0.383525 1.01024 -2.22716 
1.48105 -2.22019 -1.94163 
-2.38508 0.309974 3.22108 
-0.850151 -1.64228 3.16044 


 i = 703
0.383619 1.01055 -2.22809 
1.4814 -2.22105 -1.94251 
-2.38563 0.309953 3.22249 
-0.850428 -1.6427 3.162 


 i = 704
0.383713 1.01085 -2.22902 
1.48176 -2.22192 -1.9434 
-2.38618 0.309933 3.2239 
-0.850705 -1.64312 3.16356 


 i = 705
0.383807 1.01115 -2.22994 
1.48211 -2.22278 -1.94429 
-2.38674 0.309913 3.22531 
-0.850982 -1.64354 3.16512 


 i = 706
0.383901 1.01145 -2.23087 
1.48247 -2.22365 -1.94517 
-2.38729 0.309892 3.22671 
-0.851258 -1.64396 3.16668 


 i = 707
0.383995 1.01175 -2.23179 
1.48282 -2.22451 -1.94606 
-2.38784 0.309872 3.22812 
-0.851533 -1.64437 3.16823 


 i = 708
0.384088 1.01205 -2.23271 
1.48317 -2.22537 -1.94694 
-2.38839 0.309852 3.22952 
-0.851809 -1.64479 3.16978 


 i = 709
0.384182 1.01234 -2.23363 
1.48353 -2.22622 -1.94782 
-2.38894 0.309832 3.23092 
-0.852084 -1.64521 3.17133 


 i = 710
0.384275 1.01264 -2.23455 
1.48388 -2.22708 -1.9487 
-2.38949 0.309812 3.23232 
-0.852358 -1.64562 3.17288 


 i = 711
0.384368 1.01293 -2.23547 
1.48423 -2.22793 -1.94958 
-2.39003 0.309792 3.23372 
-0.852633 -1.64603 3.17443 


 i = 712
0.384461 1.01323 -2.23639 
1.48458 -2.22878 -1.95046 
-2.39058 0.309772 3.23511 
-0.852907 -1.64644 3.17598 


 i = 713
0.384554 1.01352 -2.2373 
1.48493 -2.22963 -1.95134 
-2.39113 0.309753 3.23651 
-0.85318 -1.64685 3.17752 


 i = 714
0.384647 1.01381 -2.23822 
1.48528 -2.23048 -1.95221 
-2.39167 0.309733 3.2379 
-0.853453 -1.64726 3.17906 


 i = 715
0.38474 1.0141 -2.23913 
1.48563 -2.23133 -1.95309 
-2.39222 0.309713 3.23929 
-0.853726 -1.64767 3.1806 


 i = 716
0.384832 1.01439 -2.24005 
1.48598 -2.23217 -1.95396 
-2.39276 0.309694 3.24068 
-0.853999 -1.64808 3.18214 


 i = 717
0.384925 1.01468 -2.24096 
1.48633 -2.23301 -1.95484 
-2.39331 0.309674 3.24207 
-0.854271 -1.64849 3.18368 


 i = 718
0.385017 1.01497 -2.24187 
1.48668 -2.23386 -1.95571 
-2.39385 0.309655 3.24345 
-0.854543 -1.64889 3.18522 


 i = 719
0.385109 1.01525 -2.24278 
1.48702 -2.2347 -1.95658 
-2.39439 0.309636 3.24484 
-0.854814 -1.64929 3.18675 


 i = 720
0.385201 1.01554 -2.24368 
1.48737 -2.23553 -1.95745 
-2.39493 0.309617 3.24622 
-0.855085 -1.6497 3.18828 


 i = 721
0.385293 1.01582 -2.24459 
1.48772 -2.23637 -1.95832 
-2.39547 0.309598 3.2476 
-0.855356 -1.6501 3.18981 


 i = 722
0.385385 1.01611 -2.2455 
1.48806 -2.2372 -1.95919 
-2.39601 0.309579 3.24898 
-0.855626 -1.6505 3.19134 


 i = 723
0.385477 1.01639 -2.2464 
1.48841 -2.23804 -1.96005 
-2.39655 0.30956 3.25036 
-0.855896 -1.6509 3.19287 


 i = 724
0.385569 1.01667 -2.24731 
1.48875 -2.23887 -1.96092 
-2.39709 0.309541 3.25173 
-0.856166 -1.6513 3.19439 


 i = 725
0.38566 1.01695 -2.24821 
1.4891 -2.2397 -1.96179 
-2.39763 0.309522 3.25311 
-0.856436 -1.65169 3.19592 


 i = 726
0.385752 1.01723 -2.24911 
1.48944 -2.24052 -1.96265 
-2.39816 0.309503 3.25448 
-0.856705 -1.65209 3.19744 


 i = 727
0.385843 1.01751 -2.25001 
1.48979 -2.24135 -1.96351 
-2.3987 0.309484 3.25585 
-0.856973 -1.65249 3.19896 


 i = 728
0.385934 1.01779 -2.25091 
1.49013 -2.24217 -1.96438 
-2.39924 0.309466 3.25722 
-0.857242 -1.65288 3.20048 


 i = 729
0.386025 1.01806 -2.25181 
1.49047 -2.243 -1.96524 
-2.39977 0.309447 3.25859 
-0.85751 -1.65327 3.202 


 i = 730
0.386116 1.01834 -2.2527 
1.49082 -2.24382 -1.9661 
-2.4003 0.309429 3.25996 
-0.857777 -1.65366 3.20351 


 i = 731
0.386207 1.01861 -2.2536 
1.49116 -2.24464 -1.96696 
-2.40084 0.309411 3.26132 
-0.858045 -1.65406 3.20503 


 i = 732
0.386297 1.01889 -2.25449 
1.4915 -2.24545 -1.96782 
-2.40137 0.309392 3.26269 
-0.858312 -1.65444 3.20654 


 i = 733
0.386388 1.01916 -2.25539 
1.49184 -2.24627 -1.96867 
-2.4019 0.309374 3.26405 
-0.858578 -1.65483 3.20805 


 i = 734
0.386479 1.01943 -2.25628 
1.49218 -2.24708 -1.96953 
-2.40243 0.309356 3.26541 
-0.858845 -1.65522 3.20956 


 i = 735
0.386569 1.0197 -2.25717 
1.49252 -2.2479 -1.97038 
-2.40296 0.309338 3.26677 
-0.859111 -1.65561 3.21107 


 i = 736
0.386659 1.01997 -2.25806 
1.49286 -2.24871 -1.97124 
-2.40349 0.30932 3.26812 
-0.859376 -1.65599 3.21257 


 i = 737
0.386749 1.02024 -2.25895 
1.4932 -2.24952 -1.97209 
-2.40402 0.309302 3.26948 
-0.859642 -1.65638 3.21408 


 i = 738
0.386839 1.02051 -2.25984 
1.49354 -2.25032 -1.97295 
-2.40455 0.309284 3.27083 
-0.859907 -1.65676 3.21558 


 i = 739
0.386929 1.02077 -2.26072 
1.49388 -2.25113 -1.9738 
-2.40508 0.309266 3.27218 
-0.860171 -1.65714 3.21708 


 i = 740
0.387019 1.02104 -2.26161 
1.49422 -2.25193 -1.97465 
-2.40561 0.309248 3.27354 
-0.860435 -1.65752 3.21858 


 i = 741
0.387109 1.02131 -2.26249 
1.49455 -2.25274 -1.9755 
-2.40613 0.309231 3.27488 
-0.860699 -1.6579 3.22008 


 i = 742
0.387198 1.02157 -2.26338 
1.49489 -2.25354 -1.97635 
-2.40666 0.309213 3.27623 
-0.860963 -1.65828 3.22158 


 i = 743
0.387288 1.02183 -2.26426 
1.49523 -2.25434 -1.97719 
-2.40718 0.309196 3.27758 
-0.861226 -1.65866 3.22307 


 i = 744
0.387377 1.02209 -2.26514 
1.49556 -2.25513 -1.97804 
-2.40771 0.309178 3.27892 
-0.861489 -1.65904 3.22457 


 i = 745
0.387466 1.02235 -2.26602 
1.4959 -2.25593 -1.97889 
-2.40823 0.309161 3.28027 
-0.861752 -1.65942 3.22606 


 i = 746
0.387555 1.02261 -2.2669 
1.49623 -2.25673 -1.97973 
-2.40876 0.309143 3.28161 
-0.862015 -1.65979 3.22755 


 i = 747
0.387644 1.02287 -2.26778 
1.49657 -2.25752 -1.98058 
-2.40928 0.309126 3.28295 
-0.862277 -1.66016 3.22904 


 i = 748
0.387733 1.02313 -2.26866 
1.4969 -2.25831 -1.98142 
-2.4098 0.309109 3.28429 
-0.862538 -1.66054 3.23053 


 i = 749
0.387822 1.02339 -2.26953 
1.49724 -2.2591 -1.98226 
-2.41032 0.309092 3.28562 
-0.8628 -1.66091 3.23201 


 i = 750
0.387911 1.02365 -2.27041 
1.49757 -2.25989 -1.9831 
-2.41084 0.309075 3.28696 
-0.863061 -1.66128 3.23349 


 i = 751
0.387999 1.0239 -2.27128 
1.4979 -2.26068 -1.98394 
-2.41136 0.309058 3.28829 
-0.863321 -1.66165 3.23498 


 i = 752
0.388088 1.02416 -2.27215 
1.49824 -2.26146 -1.98478 
-2.41188 0.309041 3.28963 
-0.863582 -1.66202 3.23646 


 i = 753
0.388176 1.02441 -2.27302 
1.49857 -2.26224 -1.98562 
-2.4124 0.309024 3.29096 
-0.863842 -1.66239 3.23794 


 i = 754
0.388264 1.02466 -2.2739 
1.4989 -2.26303 -1.98646 
-2.41292 0.309007 3.29229 
-0.864102 -1.66275 3.23942 


 i = 755
0.388352 1.02491 -2.27477 
1.49923 -2.26381 -1.98729 
-2.41343 0.308991 3.29361 
-0.864361 -1.66312 3.24089 


 i = 756
0.388441 1.02516 -2.27563 
1.49956 -2.26458 -1.98813 
-2.41395 0.308974 3.29494 
-0.86462 -1.66349 3.24237 


 i = 757
0.388528 1.02541 -2.2765 
1.49989 -2.26536 -1.98896 
-2.41447 0.308958 3.29627 
-0.864879 -1.66385 3.24384 


 i = 758
0.388616 1.02566 -2.27737 
1.50022 -2.26614 -1.9898 
-2.41498 0.308941 3.29759 
-0.865138 -1.66421 3.24531 


 i = 759
0.388704 1.02591 -2.27823 
1.50055 -2.26691 -1.99063 
-2.4155 0.308925 3.29891 
-0.865396 -1.66457 3.24678 


 i = 760
0.388792 1.02616 -2.2791 
1.50088 -2.26768 -1.99146 
-2.41601 0.308908 3.30023 
-0.865654 -1.66494 3.24825 


 i = 761
0.388879 1.0264 -2.27996 
1.50121 -2.26846 -1.99229 
-2.41652 0.308892 3.30155 
-0.865911 -1.6653 3.24972 


 i = 762
0.388966 1.02665 -2.28082 
1.50154 -2.26923 -1.99312 
-2.41703 0.308876 3.30287 
-0.866169 -1.66565 3.25118 


 i = 763
0.389054 1.02689 -2.28169 
1.50187 -2.26999 -1.99395 
-2.41755 0.30886 3.30418 
-0.866426 -1.66601 3.25265 


 i = 764
0.389141 1.02714 -2.28255 
1.50219 -2.27076 -1.99478 
-2.41806 0.308843 3.3055 
-0.866682 -1.66637 3.25411 


 i = 765
0.389228 1.02738 -2.28341 
1.50252 -2.27153 -1.99561 
-2.41857 0.308827 3.30681 
-0.866939 -1.66673 3.25557 


 i = 766
0.389315 1.02762 -2.28426 
1.50285 -2.27229 -1.99643 
-2.41908 0.308811 3.30812 
-0.867195 -1.66708 3.25703 


 i = 767
0.389402 1.02786 -2.28512 
1.50317 -2.27305 -1.99726 
-2.41959 0.308796 3.30943 
-0.86745 -1.66744 3.25849 


 i = 768
0.389488 1.0281 -2.28598 
1.5035 -2.27381 -1.99809 
-2.4201 0.30878 3.31074 
-0.867706 -1.66779 3.25995 


 i = 769
0.389575 1.02834 -2.28683 
1.50383 -2.27457 -1.99891 
-2.4206 0.308764 3.31205 
-0.867961 -1.66814 3.2614 


 i = 770
0.389662 1.02858 -2.28769 
1.50415 -2.27533 -1.99973 
-2.42111 0.308748 3.31336 
-0.868216 -1.66849 3.26286 


 i = 771
0.389748 1.02882 -2.28854 
1.50448 -2.27608 -2.00055 
-2.42162 0.308733 3.31466 
-0.86847 -1.66884 3.26431 


 i = 772
0.389834 1.02905 -2.28939 
1.5048 -2.27684 -2.00137 
-2.42212 0.308717 3.31597 
-0.868724 -1.66919 3.26576 


 i = 773
0.389921 1.02929 -2.29024 
1.50512 -2.27759 -2.0022 
-2.42263 0.308702 3.31727 
-0.868978 -1.66954 3.26721 


 i = 774
0.390007 1.02952 -2.29109 
1.50545 -2.27834 -2.00301 
-2.42314 0.308686 3.31857 
-0.869232 -1.66989 3.26866 


 i = 775
0.390093 1.02976 -2.29194 
1.50577 -2.27909 -2.00383 
-2.42364 0.308671 3.31987 
-0.869485 -1.67023 3.2701 


 i = 776
0.390179 1.02999 -2.29279 
1.50609 -2.27984 -2.00465 
-2.42414 0.308655 3.32116 
-0.869738 -1.67058 3.27155 


 i = 777
0.390265 1.03022 -2.29364 
1.50641 -2.28059 -2.00547 
-2.42465 0.30864 3.32246 
-0.869991 -1.67092 3.27299 


 i = 778
0.39035 1.03045 -2.29449 
1.50674 -2.28133 -2.00628 
-2.42515 0.308625 3.32375 
-0.870243 -1.67127 3.27443 


 i = 779
0.390436 1.03068 -2.29533 
1.50706 -2.28208 -2.0071 
-2.42565 0.30861 3.32505 
-0.870495 -1.67161 3.27587 


 i = 780
0.390521 1.03091 -2.29618 
1.50738 -2.28282 -2.00791 
-2.42615 0.308595 3.32634 
-0.870747 -1.67195 3.27731 


 i = 781
0.390607 1.03114 -2.29702 
1.5077 -2.28356 -2.00873 
-2.42665 0.30858 3.32763 
-0.870998 -1.67229 3.27875 


 i = 782
0.390692 1.03137 -2.29786 
1.50802 -2.2843 -2.00954 
-2.42715 0.308565 3.32892 
-0.87125 -1.67263 3.28019 


 i = 783
0.390777 1.0316 -2.2987 
1.50834 -2.28504 -2.01035 
-2.42765 0.30855 3.33021 
-0.8715 -1.67297 3.28162 


 i = 784
0.390862 1.03182 -2.29954 
1.50866 -2.28578 -2.01116 
-2.42815 0.308535 3.33149 
-0.871751 -1.67331 3.28305 


 i = 785
0.390947 1.03205 -2.30038 
1.50898 -2.28651 -2.01197 
-2.42865 0.30852 3.33278 
-0.872001 -1.67365 3.28449 


 i = 786
0.391032 1.03227 -2.30122 
1.50929 -2.28724 -2.01278 
-2.42915 0.308506 3.33406 
-0.872251 -1.67398 3.28592 


 i = 787
0.391117 1.03249 -2.30206 
1.50961 -2.28798 -2.01359 
-2.42964 0.308491 3.33534 
-0.872501 -1.67432 3.28735 


 i = 788
0.391202 1.03272 -2.3029 
1.50993 -2.28871 -2.01439 
-2.43014 0.308477 3.33662 
-0.87275 -1.67465 3.28877 


 i = 789
0.391286 1.03294 -2.30373 
1.51025 -2.28944 -2.0152 
-2.43063 0.308462 3.3379 
-0.872999 -1.67499 3.2902 


 i = 790
0.391371 1.03316 -2.30457 
1.51056 -2.29017 -2.01601 
-2.43113 0.308448 3.33918 
-0.873248 -1.67532 3.29162 


 i = 791
0.391455 1.03338 -2.3054 
1.51088 -2.29089 -2.01681 
-2.43162 0.308433 3.34046 
-0.873497 -1.67565 3.29305 


 i = 792
0.39154 1.0336 -2.30623 
1.5112 -2.29162 -2.01761 
-2.43212 0.308419 3.34173 
-0.873745 -1.67598 3.29447 


 i = 793
0.391624 1.03382 -2.30707 
1.51151 -2.29234 -2.01842 
-2.43261 0.308405 3.34301 
-0.873993 -1.67631 3.29589 


 i = 794
0.391708 1.03404 -2.3079 
1.51183 -2.29306 -2.01922 
-2.4331 0.30839 3.34428 
-0.874241 -1.67664 3.29731 


 i = 795
0.391792 1.03425 -2.30873 
1.51214 -2.29379 -2.02002 
-2.4336 0.308376 3.34555 
-0.874488 -1.67697 3.29873 


 i = 796
0.391876 1.03447 -2.30956 
1.51246 -2.29451 -2.02082 
-2.43409 0.308362 3.34682 
-0.874735 -1.6773 3.30014 


 i = 797
0.39196 1.03468 -2.31038 
1.51277 -2.29522 -2.02162 
-2.43458 0.308348 3.34809 
-0.874982 -1.67762 3.30156 


 i = 798
0.392043 1.0349 -2.31121 
1.51308 -2.29594 -2.02242 
-2.43507 0.308334 3.34936 
-0.875228 -1.67795 3.30297 


 i = 799
0.392127 1.03511 -2.31204 
1.5134 -2.29666 -2.02322 
-2.43556 0.30832 3.35062 
-0.875475 -1.67828 3.30438 


 i = 800
0.392211 1.03533 -2.31286 
1.51371 -2.29737 -2.02401 
-2.43605 0.308307 3.35189 
-0.875721 -1.6786 3.30579 


 i = 801
0.392294 1.03554 -2.31369 
1.51402 -2.29808 -2.02481 
-2.43653 0.308293 3.35315 
-0.875966 -1.67892 3.3072 


 i = 802
0.392377 1.03575 -2.31451 
1.51434 -2.29879 -2.02561 
-2.43702 0.308279 3.35441 
-0.876212 -1.67924 3.30861 


 i = 803
0.392461 1.03596 -2.31533 
1.51465 -2.2995 -2.0264 
-2.43751 0.308265 3.35567 
-0.876457 -1.67956 3.31002 


 i = 804
0.392544 1.03617 -2.31615 
1.51496 -2.30021 -2.02719 
-2.438 0.308252 3.35693 
-0.876702 -1.67989 3.31142 


 i = 805
0.392627 1.03638 -2.31698 
1.51527 -2.30092 -2.02799 
-2.43848 0.308238 3.35819 
-0.876946 -1.6802 3.31283 


 i = 806
0.39271 1.03659 -2.31779 
1.51558 -2.30163 -2.02878 
-2.43897 0.308225 3.35945 
-0.87719 -1.68052 3.31423 


 i = 807
0.392793 1.03679 -2.31861 
1.51589 -2.30233 -2.02957 
-2.43945 0.308211 3.3607 
-0.877434 -1.68084 3.31563 


 i = 808
0.392875 1.037 -2.31943 
1.5162 -2.30303 -2.03036 
-2.43994 0.308198 3.36196 
-0.877678 -1.68116 3.31703 


 i = 809
0.392958 1.0372 -2.32025 
1.51651 -2.30374 -2.03115 
-2.44042 0.308185 3.36321 
-0.877922 -1.68147 3.31843 


 i = 810
0.393041 1.03741 -2.32106 
1.51682 -2.30444 -2.03194 
-2.44091 0.308172 3.36446 
-0.878165 -1.68179 3.31982 


 i = 811
0.393123 1.03761 -2.32188 
1.51713 -2.30513 -2.03273 
-2.44139 0.308158 3.36571 
-0.878408 -1.6821 3.32122 


 i = 812
0.393205 1.03782 -2.32269 
1.51744 -2.30583 -2.03352 
-2.44187 0.308145 3.36696 
-0.87865 -1.68242 3.32261 


 i = 813
0.393288 1.03802 -2.32351 
1.51774 -2.30653 -2.0343 
-2.44235 0.308132 3.36821 
-0.878892 -1.68273 3.32401 


 i = 814
0.39337 1.03822 -2.32432 
1.51805 -2.30722 -2.03509 
-2.44283 0.308119 3.36945 
-0.879134 -1.68304 3.3254 


 i = 815
0.393452 1.03842 -2.32513 
1.51836 -2.30792 -2.03587 
-2.44331 0.308106 3.3707 
-0.879376 -1.68335 3.32679 


 i = 816
0.393534 1.03862 -2.32594 
1.51867 -2.30861 -2.03666 
-2.44379 0.308093 3.37194 
-0.879618 -1.68366 3.32818 


 i = 817
0.393616 1.03882 -2.32675 
1.51897 -2.3093 -2.03744 
-2.44427 0.30808 3.37318 
-0.879859 -1.68397 3.32956 


 i = 818
0.393698 1.03902 -2.32756 
1.51928 -2.30999 -2.03822 
-2.44475 0.308068 3.37443 
-0.8801 -1.68428 3.33095 


 i = 819
0.39378 1.03922 -2.32837 
1.51958 -2.31068 -2.039 
-2.44523 0.308055 3.37567 
-0.880341 -1.68459 3.33233 


 i = 820
0.393861 1.03942 -2.32918 
1.51989 -2.31137 -2.03979 
-2.44571 0.308042 3.3769 
-0.880581 -1.68489 3.33372 


 i = 821
0.393943 1.03961 -2.32998 
1.5202 -2.31205 -2.04057 
-2.44618 0.30803 3.37814 
-0.880821 -1.6852 3.3351 


 i = 822
0.394024 1.03981 -2.33079 
1.5205 -2.31274 -2.04134 
-2.44666 0.308017 3.37938 
-0.881061 -1.6855 3.33648 


 i = 823
0.394106 1.04 -2.33159 
1.5208 -2.31342 -2.04212 
-2.44714 0.308005 3.38061 
-0.881301 -1.68581 3.33786 


 i = 824
0.394187 1.0402 -2.33239 
1.52111 -2.3141 -2.0429 
-2.44761 0.307992 3.38185 
-0.88154 -1.68611 3.33924 


 i = 825
0.394268 1.04039 -2.3332 
1.52141 -2.31478 -2.04368 
-2.44809 0.30798 3.38308 
-0.881779 -1.68641 3.34061 


 i = 826
0.394349 1.04058 -2.334 
1.52172 -2.31546 -2.04445 
-2.44856 0.307967 3.38431 
-0.882018 -1.68672 3.34199 


 i = 827
0.39443 1.04077 -2.3348 
1.52202 -2.31614 -2.04523 
-2.44903 0.307955 3.38554 
-0.882256 -1.68702 3.34336 


 i = 828
0.394511 1.04097 -2.3356 
1.52232 -2.31681 -2.046 
-2.44951 0.307943 3.38677 
-0.882495 -1.68732 3.34474 


 i = 829
0.394592 1.04116 -2.3364 
1.52262 -2.31749 -2.04678 
-2.44998 0.307931 3.38799 
-0.882732 -1.68762 3.34611 


 i = 830
0.394673 1.04135 -2.3372 
1.52292 -2.31816 -2.04755 
-2.45045 0.307919 3.38922 
-0.88297 -1.68791 3.34748 


 i = 831
0.394753 1.04153 -2.33799 
1.52323 -2.31884 -2.04832 
-2.45092 0.307907 3.39044 
-0.883208 -1.68821 3.34885 


 i = 832
0.394834 1.04172 -2.33879 
1.52353 -2.31951 -2.04909 
