0.257558 -0.340994 -0.0208005 
0.271242 -0.342084 -0.0244301 
0.28283 -0.342544 -0.0401836 
0.292479 -0.342547 -0.0548708 
0.300647 -0.342172 -0.0679978 
0.307679 -0.341481 -0.0798114 
0.313824 -0.340525 -0.090557 
0.319263 -0.339347 -0.100438 
0.324131 -0.337979 -0.109616 
0.32853 -0.336452 -0.118217 
0.332537 -0.334788 -0.126338 
0.336213 -0.333009 -0.134055 
0.339606 -0.331131 -0.14143 
0.342754 -0.329169 -0.14851 
0.34569 -0.327134 -0.155334 
0.348439 -0.325037 -0.161935 
0.351023 -0.322886 -0.168337 
0.353459 -0.32069 -0.174563 
0.355763 -0.318455 -0.18063 
0.357948 -0.316186 -0.186554 
0.360026 -0.313888 -0.192348 
0.362005 -0.311566 -0.198022 
0.363896 -0.309223 -0.203586 
0.365705 -0.306862 -0.209048 
0.367439 -0.304486 -0.214415 
0.369103 -0.302097 -0.219694 
0.370703 -0.299698 -0.22489 
0.372244 -0.29729 -0.230008 
0.37373 -0.294874 -0.235052 
0.375164 -0.292453 -0.240026 
0.376549 -0.290027 -0.244934 
0.37789 -0.287597 -0.249778 
0.379188 -0.285164 -0.254563 
0.380447 -0.282729 -0.259289 
0.381668 -0.280293 -0.26396 
0.382853 -0.277856 -0.268577 
0.384005 -0.275419 -0.273143 
0.385126 -0.272982 -0.27766 
0.386216 -0.270545 -0.282128 
0.387278 -0.26811 -0.286551 
0.388313 -0.265676 -0.290929 
0.389323 -0.263243 -0.295263 
0.390308 -0.260812 -0.299555 
0.391269 -0.258384 -0.303806 
0.392209 -0.255957 -0.308018 
0.393127 -0.253533 -0.312191 
0.394024 -0.251111 -0.316326 
0.394902 -0.248692 -0.320425 
0.395762 -0.246275 -0.324488 
0.396603 -0.243861 -0.328515 
0.397428 -0.24145 -0.332509 
0.398236 -0.239042 -0.33647 
0.399028 -0.236637 -0.340398 
0.399804 -0.234235 -0.344294 
0.400566 -0.231836 -0.348159 
0.401314 -0.229441 -0.351994 
0.402048 -0.227048 -0.355799 
0.402769 -0.224659 -0.359575 
0.403478 -0.222272 -0.363322 
0.404174 -0.219889 -0.367041 
0.404858 -0.21751 -0.370733 
0.40553 -0.215133 -0.374398 
0.406192 -0.21276 -0.378036 
0.406843 -0.21039 -0.381649 
0.407483 -0.208023 -0.385236 
0.408114 -0.20566 -0.388799 
0.408734 -0.2033 -0.392337 
0.409345 -0.200943 -0.395851 
0.409947 -0.19859 -0.399341 
0.41054 -0.196239 -0.402808 
0.411124 -0.193893 -0.406252 
0.4117 -0.191549 -0.409674 
0.412268 -0.189209 -0.413075 
0.412828 -0.186872 -0.416453 
0.41338 -0.184538 -0.41981 
0.413924 -0.182208 -0.423146 
0.414461 -0.179881 -0.426462 
0.414991 -0.177557 -0.429758 
0.415514 -0.175236 -0.433033 
0.41603 -0.172919 -0.436289 
0.41654 -0.170605 -0.439526 
0.417043 -0.168295 -0.442744 
0.41754 -0.165987 -0.445943 
0.418031 -0.163683 -0.449124 
0.418516 -0.161382 -0.452287 
0.418995 -0.159084 -0.455432 
0.419468 -0.15679 -0.458559 
0.419936 -0.154498 -0.461669 
0.420398 -0.15221 -0.464762 
0.420855 -0.149925 -0.467839 
0.421307 -0.147644 -0.470898 
0.421754 -0.145365 -0.473942 
0.422195 -0.14309 -0.476969 
0.422632 -0.140818 -0.479981 
0.423064 -0.138549 -0.482977 
0.423492 -0.136283 -0.485958 
0.423915 -0.13402 -0.488923 
0.424333 -0.13176 -0.491874 
0.424748 -0.129504 -0.494809 
0.425157 -0.127251 -0.497731 
0.425563 -0.125 -0.500637 
0.425965 -0.122753 -0.50353 
0.426362 -0.120509 -0.506409 
0.426756 -0.118268 -0.509274 
0.427145 -0.11603 -0.512125 
0.427531 -0.113796 -0.514963 
0.427914 -0.111564 -0.517788 
0.428292 -0.109335 -0.520599 
0.428667 -0.10711 -0.523398 
0.429039 -0.104887 -0.526184 
0.429407 -0.102667 -0.528957 
0.429771 -0.100451 -0.531718 
0.430133 -0.0982371 -0.534467 
0.430491 -0.0960266 -0.537203 
0.430846 -0.093819 -0.539928 
0.431197 -0.0916143 -0.542641 
0.431546 -0.0894127 -0.545342 
0.431892 -0.087214 -0.548032 
0.432234 -0.0850182 -0.55071 
0.432574 -0.0828254 -0.553377 
0.432911 -0.0806355 -0.556033 
0.433244 -0.0784486 -0.558677 
0.433576 -0.0762645 -0.561311 
0.433904 -0.0740834 -0.563935 
0.43423 -0.0719051 -0.566547 
0.434553 -0.0697298 -0.569149 
0.434873 -0.0675573 -0.571741 
0.435191 -0.0653877 -0.574323 
0.435506 -0.0632209 -0.576894 
0.435819 -0.061057 -0.579455 
0.43613 -0.0588959 -0.582007 
0.436438 -0.0567377 -0.584548 
0.436743 -0.0545823 -0.58708 
0.437047 -0.0524297 -0.589603 
0.437348 -0.0502799 -0.592116 
0.437646 -0.0481329 -0.594619 
0.437943 -0.0459887 -0.597114 
0.438237 -0.0438472 -0.599599 
0.438529 -0.0417085 -0.602075 
0.438819 -0.0395726 -0.604542 
0.439107 -0.0374394 -0.607 
0.439393 -0.035309 -0.609449 
0.439676 -0.0331813 -0.61189 
0.439958 -0.0310563 -0.614322 
0.440238 -0.0289341 -0.616746 
0.440516 -0.0268145 -0.619161 
0.440791 -0.0246977 -0.621568 
0.441065 -0.0225835 -0.623966 
0.441337 -0.020472 -0.626357 
0.441607 -0.0183632 -0.628739 
0.441876 -0.016257 -0.631113 
0.442142 -0.0141535 -0.633479 
0.442407 -0.0120526 -0.635838 
0.44267 -0.00995439 -0.638189 
0.442931 -0.00785878 -0.640532 
0.443191 -0.00576578 -0.642867 
0.443449 -0.0036754 -0.645195 
0.443705 -0.00158761 -0.647515 
0.44396 0.000497579 -0.649828 
0.444213 0.00258019 -0.652134 
0.444464 0.00466023 -0.654432 
0.444714 0.0067377 -0.656723 
0.444962 0.00881261 -0.659007 
0.445208 0.010885 -0.661284 
0.445454 0.0129548 -0.663554 
0.445697 0.0150221 -0.665817 
0.445939 0.0170869 -0.668073 
0.44618 0.0191491 -0.670323 
0.446419 0.0212089 -0.672565 
0.446657 0.0232661 -0.674801 
0.446893 0.0253209 -0.67703 
0.447128 0.0273732 -0.679253 
0.447362 0.029423 -0.681469 
0.447594 0.0314703 -0.683679 
0.447825 0.0335152 -0.685883 
0.448054 0.0355576 -0.68808 
0.448283 0.0375976 -0.690271 
0.448509 0.0396352 -0.692455 
0.448735 0.0416703 -0.694634 
0.448959 0.043703 -0.696806 
0.449182 0.0457334 -0.698972 
0.449404 0.0477613 -0.701132 
0.449625 0.0497868 -0.703286 
0.449844 0.0518099 -0.705435 
0.450062 0.0538307 -0.707577 
0.450279 0.0558491 -0.709714 
0.450495 0.0578651 -0.711845 
0.45071 0.0598788 -0.71397 
0.450923 0.0618901 -0.71609 
0.451135 0.0638991 -0.718204 
0.451347 0.0659057 -0.720312 
0.451557 0.0679101 -0.722415 
0.451766 0.0699121 -0.724512 
0.451973 0.0719118 -0.726604 
0.45218 0.0739092 -0.72869 
0.452386 0.0759043 -0.730772 
0.452591 0.0778972 -0.732847 
0.452794 0.0798877 -0.734918 
0.452997 0.081876 -0.736983 
0.453198 0.083862 -0.739044 
0.453399 0.0858458 -0.741099 
0.453598 0.0878273 -0.743148 
0.453797 0.0898066 -0.745193 
0.453994 0.0917837 -0.747233 
0.454191 0.0937585 -0.749268 
0.454387 0.0957311 -0.751298 
0.454581 0.0977015 -0.753323 
0.454775 0.0996697 -0.755343 
0.454968 0.101636 -0.757358 
0.455159 0.103599 -0.759369 
0.45535 0.105561 -0.761374 
0.45554 0.107521 -0.763375 
0.455729 0.109478 -0.765372 
0.455918 0.111433 -0.767363 
0.456105 0.113386 -0.76935 
0.456291 0.115337 -0.771333 
0.456477 0.117285 -0.773311 
0.456661 0.119232 -0.775284 
0.456845 0.121176 -0.777253 
0.457028 0.123119 -0.779217 
0.45721 0.125059 -0.781177 
0.457392 0.126997 -0.783133 
0.457572 0.128933 -0.785084 
0.457752 0.130867 -0.787031 
0.457931 0.132799 -0.788973 
0.458109 0.134728 -0.790912 
0.458286 0.136656 -0.792846 
0.458463 0.138581 -0.794776 
0.458638 0.140505 -0.796701 
0.458813 0.142426 -0.798623 
0.458987 0.144346 -0.80054 
0.459161 0.146263 -0.802454 
0.459334 0.148179 -0.804363 
0.459505 0.150092 -0.806268 
0.459677 0.152003 -0.808169 
0.459847 0.153912 -0.810066 
0.460017 0.15582 -0.81196 
0.460186 0.157725 -0.813849 
0.460354 0.159628 -0.815734 
0.460522 0.161529 -0.817616 
0.460689 0.163429 -0.819493 
0.460855 0.165326 -0.821367 
0.46102 0.167221 -0.823237 
0.461185 0.169115 -0.825104 
0.461349 0.171006 -0.826966 
0.461513 0.172896 -0.828825 
0.461675 0.174783 -0.83068 
0.461838 0.176669 -0.832531 
0.461999 0.178552 -0.834379 
0.46216 0.180434 -0.836223 
0.46232 0.182314 -0.838064 
0.46248 0.184192 -0.8399 
0.462639 0.186068 -0.841734 
0.462797 0.187942 -0.843564 
0.462954 0.189814 -0.84539 
0.463111 0.191684 -0.847213 
0.463268 0.193553 -0.849032 
0.463424 0.195419 -0.850848 
0.463579 0.197284 -0.85266 
0.463733 0.199146 -0.854469 
0.463887 0.201007 -0.856275 
0.464041 0.202866 -0.858077 
0.464194 0.204724 -0.859876 
0.464346 0.206579 -0.861671 
0.464498 0.208432 -0.863464 
0.464649 0.210284 -0.865252 
0.464799 0.212134 -0.867038 
0.464949 0.213982 -0.868821 
0.465099 0.215828 -0.8706 
0.465247 0.217672 -0.872376 
0.465396 0.219515 -0.874148 
0.465543 0.221356 -0.875918 
0.465691 0.223194 -0.877684 
0.465837 0.225032 -0.879448 
0.465983 0.226867 -0.881208 
0.466129 0.228701 -0.882965 
0.466274 0.230532 -0.884719 
0.466418 0.232362 -0.88647 
0.466563 0.234191 -0.888218 
0.466706 0.236017 -0.889963 
0.466849 0.237842 -0.891705 
0.466991 0.239665 -0.893443 
0.467133 0.241486 -0.895179 
0.467275 0.243306 -0.896912 
0.467416 0.245123 -0.898642 
0.467556 0.246939 -0.900369 
0.467696 0.248754 -0.902093 
0.467836 0.250566 -0.903815 
0.467975 0.252377 -0.905533 
0.468113 0.254186 -0.907249 
0.468251 0.255994 -0.908961 
0.468389 0.257799 -0.910671 
0.468526 0.259604 -0.912378 
0.468663 0.261406 -0.914082 
0.468799 0.263207 -0.915784 
0.468935 0.265006 -0.917482 
0.46907 0.266803 -0.919178 
0.469205 0.268598 -0.920871 
0.469339 0.270392 -0.922562 
0.469473 0.272185 -0.924249 
0.469606 0.273975 -0.925934 
0.469739 0.275764 -0.927617 
0.469872 0.277552 -0.929296 
0.470004 0.279337 -0.930973 
0.470136 0.281122 -0.932648 
0.470267 0.282904 -0.934319 
0.470398 0.284685 -0.935988 
0.470528 0.286464 -0.937655 
0.470658 0.288242 -0.939319 
0.470788 0.290017 -0.94098 
0.470917 0.291792 -0.942639 
0.471046 0.293565 -0.944295 
0.471174 0.295336 -0.945949 
0.471302 0.297105 -0.9476 
0.47143 0.298873 -0.949249 
0.471557 0.300639 -0.950895 
0.471683 0.302404 -0.952539 
0.47181 0.304167 -0.95418 
0.471936 0.305929 -0.955819 
0.472061 0.307689 -0.957455 
0.472186 0.309447 -0.959089 
0.472311 0.311204 -0.960721 
0.472435 0.31296 -0.96235 
0.472559 0.314713 -0.963976 
0.472683 0.316466 -0.965601 
0.472806 0.318216 -0.967223 
0.472929 0.319966 -0.968842 
0.473051 0.321713 -0.97046 
0.473174 0.323459 -0.972074 
0.473295 0.325204 -0.973687 
0.473417 0.326947 -0.975297 
0.473538 0.328688 -0.976905 
0.473658 0.330428 -0.978511 
0.473779 0.332167 -0.980114 
0.473898 0.333904 -0.981715 
0.474018 0.335639 -0.983314 
0.474137 0.337373 -0.984911 
0.474256 0.339105 -0.986505 
0.474375 0.340836 -0.988097 
0.474493 0.342566 -0.989687 
0.474611 0.344294 -0.991275 
0.474728 0.34602 -0.99286 
0.474845 0.347745 -0.994444 
0.474962 0.349469 -0.996025 
0.475078 0.351191 -0.997604 
0.475194 0.352912 -0.999181 
0.47531 0.354631 -1.00076 
0.475426 0.356349 -1.00233 
0.475541 0.358065 -1.0039 
0.475656 0.35978 -1.00547 
0.47577 0.361493 -1.00703 
0.475884 0.363205 -1.0086 
0.475998 0.364915 -1.01016 
0.476111 0.366624 -1.01172 
0.476225 0.368332 -1.01328 
0.476337 0.370038 -1.01483 
0.47645 0.371743 -1.01639 
0.476562 0.373446 -1.01794 
0.476674 0.375148 -1.01949 
0.476786 0.376849 -1.02104 
0.476897 0.378548 -1.02258 
0.477008 0.380245 -1.02412 
0.477119 0.381942 -1.02567 
0.477229 0.383637 -1.02721 
0.477339 0.38533 -1.02874 
0.477449 0.387022 -1.03028 
0.477559 0.388713 -1.03181 
0.477668 0.390402 -1.03334 
0.477777 0.39209 -1.03487 
0.477885 0.393777 -1.0364 
0.477994 0.395462 -1.03793 
0.478102 0.397146 -1.03945 
0.478209 0.398828 -1.04097 
0.478317 0.400509 -1.04249 
0.478424 0.402189 -1.04401 
0.478531 0.403868 -1.04553 
0.478637 0.405545 -1.04704 
0.478744 0.40722 -1.04856 
0.47885 0.408895 -1.05007 
0.478956 0.410568 -1.05158 
0.479061 0.412239 -1.05308 
0.479166 0.41391 -1.05459 
0.479271 0.415578 -1.05609 
0.479376 0.417246 -1.05759 
0.47948 0.418912 -1.05909 
0.479584 0.420577 -1.06059 
0.479688 0.422241 -1.06209 
0.479792 0.423903 -1.06358 
0.479895 0.425565 -1.06508 
0.479998 0.427224 -1.06657 
0.480101 0.428883 -1.06806 
0.480204 0.43054 -1.06954 
0.480306 0.432196 -1.07103 
0.480408 0.43385 -1.07251 
0.48051 0.435503 -1.07399 
0.480611 0.437155 -1.07547 
0.480713 0.438806 -1.07695 
0.480814 0.440455 -1.07843 
0.480914 0.442103 -1.07991 
0.481015 0.44375 -1.08138 
0.481115 0.445396 -1.08285 
0.481215 0.44704 -1.08432 
0.481315 0.448683 -1.08579 
0.481414 0.450325 -1.08726 
0.481514 0.451965 -1.08872 
0.481613 0.453604 -1.09018 
0.481712 0.455242 -1.09165 
0.48181 0.456879 -1.09311 
0.481908 0.458514 -1.09456 
0.482007 0.460149 -1.09602 
0.482104 0.461782 -1.09748 
0.482202 0.463413 -1.09893 
0.482299 0.465044 -1.10038 
0.482397 0.466673 -1.10183 
0.482493 0.468301 -1.10328 
0.48259 0.469928 -1.10473 
0.482687 0.471553 -1.10617 
0.482783 0.473177 -1.10762 
0.482879 0.474801 -1.10906 
0.482975 0.476422 -1.1105 
0.48307 0.478043 -1.11194 
0.483165 0.479662 -1.11338 
0.483261 0.481281 -1.11481 
0.483355 0.482898 -1.11625 
0.48345 0.484513 -1.11768 
0.483545 0.486128 -1.11911 
0.483639 0.487741 -1.12054 
0.483733 0.489354 -1.12197 
0.483827 0.490965 -1.12339 
0.48392 0.492574 -1.12482 
0.484013 0.494183 -1.12624 
0.484107 0.49579 -1.12767 
0.4842 0.497397 -1.12909 
0.484292 0.499002 -1.13051 
0.484385 0.500606 -1.13192 
0.484477 0.502208 -1.13334 
0.484569 0.50381 -1.13475 
0.484661 0.50541 -1.13617 
0.484753 0.507009 -1.13758 
0.484844 0.508607 -1.13899 
0.484935 0.510204 -1.1404 
0.485026 0.5118 -1.1418 
0.485117 0.513395 -1.14321 
0.485208 0.514988 -1.14461 
0.485298 0.51658 -1.14602 
0.485389 0.518171 -1.14742 
0.485479 0.519761 -1.14882 
0.485569 0.52135 -1.15022 
0.485658 0.522938 -1.15162 
0.485748 0.524524 -1.15301 
0.485837 0.52611 -1.15441 
0.485926 0.527694 -1.1558 
0.486015 0.529277 -1.15719 
0.486104 0.530859 -1.15858 
0.486192 0.53244 -1.15997 
0.48628 0.534019 -1.16136 
0.486368 0.535598 -1.16274 
0.486456 0.537176 -1.16413 
0.486544 0.538752 -1.16551 
0.486632 0.540327 -1.16689 
0.486719 0.541901 -1.16827 
0.486806 0.543474 -1.16965 
0.486893 0.545046 -1.17103 
0.48698 0.546617 -1.17241 
0.487067 0.548187 -1.17378 
0.487153 0.549755 -1.17516 
0.487239 0.551323 -1.17653 
0.487325 0.552889 -1.1779 
0.487411 0.554455 -1.17927 
0.487497 0.556019 -1.18064 
0.487582 0.557582 -1.182 
0.487668 0.559144 -1.18337 
0.487753 0.560705 -1.18473 
0.487838 0.562265 -1.1861 
0.487923 0.563824 -1.18746 
0.488007 0.565381 -1.18882 
0.488092 0.566938 -1.19018 
0.488176 0.568493 -1.19154 
0.48826 0.570048 -1.19289 
0.488344 0.571601 -1.19425 
0.488428 0.573154 -1.1956 
0.488511 0.574705 -1.19696 
0.488595 0.576255 -1.19831 
0.488678 0.577804 -1.19966 
0.488761 0.579353 -1.20101 
0.488844 0.5809 -1.20236 
0.488927 0.582446 -1.2037 
0.489009 0.583991 -1.20505 
0.489092 0.585534 -1.20639 
0.489174 0.587077 -1.20774 
0.489256 0.588619 -1.20908 
0.489338 0.59016 -1.21042 
0.48942 0.5917 -1.21176 
0.489502 0.593238 -1.2131 
0.489583 0.594776 -1.21443 
0.489664 0.596313 -1.21577 
0.489745 0.597848 -1.2171 
0.489826 0.599383 -1.21844 
0.489907 0.600916 -1.21977 
0.489988 0.602449 -1.2211 
0.490068 0.60398 -1.22243 
0.490149 0.605511 -1.22376 
0.490229 0.60704 -1.22508 
0.490309 0.608569 -1.22641 
0.490389 0.610096 -1.22773 
0.490468 0.611622 -1.22906 
0.490548 0.613148 -1.23038 
0.490627 0.614672 -1.2317 
0.490706 0.616196 -1.23302 
0.490785 0.617718 -1.23434 
0.490864 0.619239 -1.23566 
0.490943 0.62076 -1.23697 
0.491022 0.622279 -1.23829 
0.4911 0.623797 -1.2396 
0.491179 0.625315 -1.24092 
0.491257 0.626831 -1.24223 
0.491335 0.628346 -1.24354 
0.491413 0.629861 -1.24485 
0.49149 0.631374 -1.24616 
0.491568 0.632887 -1.24747 
0.491645 0.634398 -1.24877 
0.491723 0.635908 -1.25008 
0.4918 0.637418 -1.25138 
0.491877 0.638926 -1.25269 
0.491954 0.640434 -1.25399 
0.49203 0.64194 -1.25529 
0.492107 0.643446 -1.25659 
0.492183 0.644951 -1.25789 
0.49226 0.646454 -1.25918 
0.492336 0.647957 -1.26048 
0.492412 0.649459 -1.26178 
0.492488 0.650959 -1.26307 
0.492563 0.652459 -1.26436 
0.492639 0.653958 -1.26565 
0.492715 0.655456 -1.26695 
0.49279 0.656953 -1.26824 
0.492865 0.658449 -1.26952 
0.49294 0.659944 -1.27081 
0.493015 0.661438 -1.2721 
0.49309 0.662931 -1.27338 
0.493164 0.664423 -1.27467 
0.493239 0.665914 -1.27595 
0.493313 0.667404 -1.27724 
0.493387 0.668894 -1.27852 
0.493462 0.670382 -1.2798 
0.493535 0.671869 -1.28108 
0.493609 0.673356 -1.28235 
0.493683 0.674842 -1.28363 
0.493757 0.676326 -1.28491 
0.49383 0.67781 -1.28618 
0.493903 0.679293 -1.28746 
0.493976 0.680774 -1.28873 
0.494049 0.682255 -1.29 
0.494122 0.683735 -1.29127 
0.494195 0.685214 -1.29254 
0.494268 0.686693 -1.29381 
0.49434 0.68817 -1.29508 
0.494413 0.689646 -1.29635 
0.494485 0.691122 -1.29761 
0.494557 0.692596 -1.29888 
0.494629 0.69407 -1.30014 
0.494701 0.695542 -1.30141 
0.494773 0.697014 -1.30267 
0.494845 0.698485 -1.30393 
0.494916 0.699955 -1.30519 
0.494987 0.701424 -1.30645 
0.495059 0.702892 -1.3077 
0.49513 0.704359 -1.30896 
0.495201 0.705826 -1.31022 
0.495272 0.707291 -1.31147 
0.495343 0.708756 -1.31273 
0.495413 0.710219 -1.31398 
0.495484 0.711682 -1.31523 
0.495554 0.713144 -1.31648 
0.495625 0.714605 -1.31773 
0.495695 0.716065 -1.31898 
0.495765 0.717524 -1.32023 
0.495835 0.718982 -1.32148 
0.495905 0.72044 -1.32273 
0.495974 0.721896 -1.32397 
0.496044 0.723352 -1.32521 
0.496113 0.724807 -1.32646 
0.496183 0.726261 -1.3277 
0.496252 0.727714 -1.32894 
0.496321 0.729166 -1.33018 
0.49639 0.730617 -1.33142 
0.496459 0.732068 -1.33266 
0.496528 0.733517 -1.3339 
0.496596 0.734966 -1.33514 
0.496665 0.736414 -1.33637 
0.496733 0.737861 -1.33761 
0.496802 0.739307 -1.33884 
0.49687 0.740752 -1.34008 
0.496938 0.742197 -1.34131 
0.497006 0.74364 -1.34254 
0.497074 0.745083 -1.34377 
0.497142 0.746525 -1.345 
0.497209 0.747966 -1.34623 
0.497277 0.749406 -1.34746 
0.497344 0.750845 -1.34868 
0.497412 0.752283 -1.34991 
0.497479 0.753721 -1.35113 
0.497546 0.755158 -1.35236 
0.497613 0.756593 -1.35358 
0.49768 0.758028 -1.3548 
0.497747 0.759463 -1.35603 
0.497813 0.760896 -1.35725 
0.49788 0.762328 -1.35847 
0.497946 0.76376 -1.35968 
0.498013 0.765191 -1.3609 
0.498079 0.766621 -1.36212 
0.498145 0.76805 -1.36334 
0.498211 0.769478 -1.36455 
0.498277 0.770906 -1.36577 
0.498343 0.772332 -1.36698 
0.498409 0.773758 -1.36819 
0.498474 0.775183 -1.3694 
0.49854 0.776607 -1.37061 
0.498605 0.778031 -1.37183 
0.498671 0.779453 -1.37303 
0.498736 0.780875 -1.37424 
0.498801 0.782296 -1.37545 
0.498866 0.783716 -1.37666 
0.498931 0.785135 -1.37786 
0.498996 0.786554 -1.37907 
0.49906 0.787971 -1.38027 
0.499125 0.789388 -1.38148 
0.499189 0.790804 -1.38268 
0.499254 0.792219 -1.38388 
0.499318 0.793634 -1.38508 
0.499382 0.795047 -1.38628 
0.499446 0.79646 -1.38748 
0.49951 0.797872 -1.38868 
0.499574 0.799283 -1.38988 
0.499638 0.800694 -1.39107 
0.499702 0.802103 -1.39227 
0.499765 0.803512 -1.39346 
0.499829 0.80492 -1.39466 
0.499892 0.806327 -1.39585 
0.499956 0.807733 -1.39704 
0.500019 0.809139 -1.39823 
0.500082 0.810544 -1.39943 
0.500145 0.811948 -1.40062 
0.500208 0.813351 -1.40181 
0.500271 0.814753 -1.40299 
0.500334 0.816155 -1.40418 
0.500396 0.817556 -1.40537 
0.500459 0.818956 -1.40655 
0.500521 0.820355 -1.40774 
0.500584 0.821753 -1.40892 
0.500646 0.823151 -1.41011 
0.500708 0.824548 -1.41129 
0.50077 0.825944 -1.41247 
0.500832 0.82734 -1.41365 
0.500894 0.828734 -1.41483 
0.500956 0.830128 -1.41601 
0.501018 0.831521 -1.41719 
0.501079 0.832913 -1.41837 
0.501141 0.834305 -1.41955 
0.501202 0.835695 -1.42073 
0.501264 0.837085 -1.4219 
0.501325 0.838474 -1.42308 
0.501386 0.839863 -1.42425 
0.501447 0.841251 -1.42542 
0.501508 0.842637 -1.4266 
0.501569 0.844023 -1.42777 
0.50163 0.845409 -1.42894 
0.501691 0.846793 -1.43011 
0.501751 0.848177 -1.43128 
0.501812 0.84956 -1.43245 
0.501872 0.850943 -1.43362 
0.501933 0.852324 -1.43478 
0.501993 0.853705 -1.43595 
0.502053 0.855085 -1.43712 
0.502113 0.856464 -1.43828 
0.502173 0.857843 -1.43945 
0.502233 0.859221 -1.44061 
0.502293 0.860598 -1.44177 
0.502353 0.861974 -1.44293 
0.502413 0.863349 -1.4441 
0.502472 0.864724 -1.44526 
0.502532 0.866098 -1.44642 
0.502591 0.867472 -1.44758 
0.502651 0.868844 -1.44873 
0.50271 0.870216 -1.44989 
0.502769 0.871587 -1.45105 
0.502828 0.872957 -1.4522 
0.502887 0.874327 -1.45336 
0.502946 0.875696 -1.45451 
0.503005 0.877064 -1.45567 
0.503064 0.878431 -1.45682 
0.503122 0.879798 -1.45797 
0.503181 0.881164 -1.45913 
0.50324 0.882529 -1.46028 
0.503298 0.883894 -1.46143 
0.503356 0.885257 -1.46258 
0.503415 0.88662 -1.46373 
0.503473 0.887983 -1.46487 
0.503531 0.889344 -1.46602 
0.503589 0.890705 -1.46717 
0.503647 0.892065 -1.46831 
0.503705 0.893425 -1.46946 
0.503763 0.894783 -1.4706 
0.50382 0.896141 -1.47175 
0.503878 0.897498 -1.47289 
0.503936 0.898855 -1.47403 
0.503993 0.900211 -1.47518 
0.50405 0.901566 -1.47632 
0.504108 0.90292 -1.47746 
0.504165 0.904274 -1.4786 
0.504222 0.905627 -1.47974 
0.504279 0.906979 -1.48087 
0.504336 0.90833 -1.48201 
0.504393 0.909681 -1.48315 
0.50445 0.911031 -1.48428 
0.504507 0.91238 -1.48542 
0.504564 0.913729 -1.48655 
0.50462 0.915077 -1.48769 
0.504677 0.916424 -1.48882 
0.504733 0.917771 -1.48996 
0.50479 0.919117 -1.49109 
0.504846 0.920462 -1.49222 
0.504902 0.921806 -1.49335 
0.504958 0.92315 -1.49448 
0.505014 0.924493 -1.49561 
0.50507 0.925835 -1.49674 
0.505126 0.927177 -1.49787 
0.505182 0.928518 -1.49899 
0.505238 0.929858 -1.50012 
0.505294 0.931198 -1.50125 
0.505349 0.932537 -1.50237 
0.505405 0.933875 -1.5035 
0.50546 0.935212 -1.50462 
0.505516 0.936549 -1.50574 
0.505571 0.937885 -1.50687 
0.505627 0.939221 -1.50799 
0.505682 0.940555 -1.50911 
0.505737 0.941889 -1.51023 
0.505792 0.943223 -1.51135 
0.505847 0.944555 -1.51247 
0.505902 0.945887 -1.51359 
0.505957 0.947219 -1.51471 
0.506011 0.948549 -1.51582 
0.506066 0.949879 -1.51694 
0.506121 0.951209 -1.51806 
0.506175 0.952537 -1.51917 
0.50623 0.953865 -1.52029 
0.506284 0.955192 -1.5214 
0.506339 0.956519 -1.52251 
0.506393 0.957845 -1.52363 
0.506447 0.95917 -1.52474 
0.506501 0.960494 -1.52585 
0.506555 0.961818 -1.52696 
0.506609 0.963141 -1.52807 
0.506663 0.964464 -1.52918 
0.506717 0.965786 -1.53029 
0.506771 0.967107 -1.5314 
0.506825 0.968427 -1.53251 
0.506878 0.969747 -1.53362 
0.506932 0.971066 -1.53472 
0.506985 0.972385 -1.53583 
0.507039 0.973703 -1.53693 
0.507092 0.97502 -1.53804 
0.507146 0.976337 -1.53914 
0.507199 0.977652 -1.54025 
0.507252 0.978968 -1.54135 
0.507305 0.980282 -1.54245 
0.507358 0.981596 -1.54355 
0.507411 0.982909 -1.54465 
0.507464 0.984222 -1.54575 
0.507517 0.985534 -1.54685 
0.50757 0.986845 -1.54795 
0.507622 0.988156 -1.54905 
0.507675 0.989465 -1.55015 
0.507728 0.990775 -1.55125 
0.50778 0.992083 -1.55234 
0.507833 0.993391 -1.55344 
0.507885 0.994699 -1.55453 
0.507937 0.996005 -1.55563 
0.50799 0.997311 -1.55672 
0.508042 0.998617 -1.55782 
0.508094 0.999922 -1.55891 
0.508146 1.00123 -1.56 
0.508198 1.00253 -1.56109 
0.50825 1.00383 -1.56218 
0.508302 1.00513 -1.56327 
0.508354 1.00644 -1.56436 
0.508405 1.00774 -1.56545 
0.508457 1.00904 -1.56654 
0.508509 1.01034 -1.56763 
0.50856 1.01164 -1.56872 
0.508612 1.01293 -1.56981 
0.508663 1.01423 -1.57089 
0.508714 1.01553 -1.57198 
0.508766 1.01682 -1.57306 
0.508817 1.01812 -1.57415 
0.508868 1.01942 -1.57523 
0.508919 1.02071 -1.57631 
0.50897 1.022 -1.5774 
0.509021 1.0233 -1.57848 
0.509072 1.02459 -1.57956 
0.509123 1.02588 -1.58064 
0.509174 1.02717 -1.58172 
0.509225 1.02846 -1.5828 
0.509275 1.02975 -1.58388 
0.509326 1.03104 -1.58496 
0.509377 1.03233 -1.58604 
0.509427 1.03362 -1.58712 
0.509478 1.03491 -1.58819 
0.509528 1.0362 -1.58927 
0.509578 1.03748 -1.59035 
0.509629 1.03877 -1.59142 
0.509679 1.04005 -1.5925 
0.509729 1.04134 -1.59357 
0.509779 1.04262 -1.59465 
0.509829 1.0439 -1.59572 
0.509879 1.04519 -1.59679 
0.509929 1.04647 -1.59786 
0.509979 1.04775 -1.59893 
0.510028 1.04903 -1.6 
0.510078 1.05031 -1.60108 
0.510128 1.05159 -1.60214 
0.510178 1.05287 -1.60321 
0.510227 1.05415 -1.60428 
0.510277 1.05543 -1.60535 
0.510326 1.0567 -1.60642 
0.510375 1.05798 -1.60748 
0.510425 1.05926 -1.60855 
0.510474 1.06053 -1.60962 
0.510523 1.06181 -1.61068 
0.510572 1.06308 -1.61175 
0.510621 1.06435 -1.61281 
0.510671 1.06563 -1.61387 
0.51072 1.0669 -1.61494 
0.510768 1.06817 -1.616 
0.510817 1.06944 -1.61706 
0.510866 1.07071 -1.61812 
0.510915 1.07198 -1.61918 
0.510964 1.07325 -1.62024 
0.511012 1.07452 -1.6213 
0.511061 1.07579 -1.62236 
0.511109 1.07705 -1.62342 
0.511158 1.07832 -1.62448 
0.511206 1.07959 -1.62554 
0.511255 1.08085 -1.6266 
0.511303 1.08212 -1.62765 
0.511351 1.08338 -1.62871 
0.511399 1.08465 -1.62976 
0.511448 1.08591 -1.63082 
0.511496 1.08717 -1.63187 
0.511544 1.08843 -1.63293 
0.511592 1.0897 -1.63398 
0.51164 1.09096 -1.63503 
0.511688 1.09222 -1.63608 
0.511735 1.09348 -1.63714 
0.511783 1.09474 -1.63819 
0.511831 1.09599 -1.63924 
0.511879 1.09725 -1.64029 
0.511926 1.09851 -1.64134 
0.511974 1.09977 -1.64239 
0.512021 1.10102 -1.64344 
0.512069 1.10228 -1.64448 
0.512116 1.10353 -1.64553 
0.512163 1.10479 -1.64658 
0.512211 1.10604 -1.64762 
0.512258 1.1073 -1.64867 
0.512305 1.10855 -1.64972 
0.512352 1.1098 -1.65076 
0.512399 1.11105 -1.65181 
0.512446 1.1123 -1.65285 
0.512493 1.11355 -1.65389 
0.51254 1.1148 -1.65494 
0.512587 1.11605 -1.65598 
0.512634 1.1173 -1.65702 
0.512681 1.11855 -1.65806 
0.512727 1.1198 -1.6591 
0.512774 1.12104 -1.66014 
0.512821 1.12229 -1.66118 
0.512867 1.12354 -1.66222 
0.512914 1.12478 -1.66326 
0.51296 1.12603 -1.6643 
0.513007 1.12727 -1.66534 
0.513053 1.12851 -1.66637 
0.513099 1.12976 -1.66741 
0.513146 1.131 -1.66845 
0.513192 1.13224 -1.66948 
0.513238 1.13348 -1.67052 
0.513284 1.13472 -1.67155 
0.51333 1.13596 -1.67259 
0.513376 1.1372 -1.67362 
0.513422 1.13844 -1.67465 
0.513468 1.13968 -1.67569 
0.513514 1.14092 -1.67672 
0.51356 1.14215 -1.67775 
0.513606 1.14339 -1.67878 
0.513651 1.14463 -1.67981 
0.513697 1.14586 -1.68084 
0.513743 1.1471 -1.68187 
0.513788 1.14833 -1.6829 
0.513834 1.14957 -1.68393 
0.513879 1.1508 -1.68496 
0.513925 1.15203 -1.68599 
0.51397 1.15326 -1.68701 
0.514015 1.1545 -1.68804 
0.51406 1.15573 -1.68907 
0.514106 1.15696 -1.69009 
0.514151 1.15819 -1.69112 
0.514196 1.15942 -1.69214 
0.514241 1.16065 -1.69317 
0.514286 1.16187 -1.69419 
0.514331 1.1631 -1.69522 
0.514376 1.16433 -1.69624 
0.514421 1.16556 -1.69726 
0.514466 1.16678 -1.69828 
0.514511 1.16801 -1.6993 
0.514555 1.16923 -1.70033 
0.5146 1.17046 -1.70135 
0.514645 1.17168 -1.70237 
0.514689 1.1729 -1.70339 
0.514734 1.17413 -1.70441 
0.514778 1.17535 -1.70542 
0.514823 1.17657 -1.70644 
0.514867 1.17779 -1.70746 
0.514912 1.17901 -1.70848 
0.514956 1.18023 -1.70949 
0.515 1.18145 -1.71051 
0.515045 1.18267 -1.71153 
0.515089 1.18389 -1.71254 
0.515133 1.18511 -1.71356 
0.515177 1.18632 -1.71457 
0.515221 1.18754 -1.71558 
0.515265 1.18876 -1.7166 
0.515309 1.18997 -1.71761 
0.515353 1.19119 -1.71862 
0.515397 1.1924 -1.71964 
0.515441 1.19362 -1.72065 
0.515485 1.19483 -1.72166 
0.515528 1.19604 -1.72267 
0.515572 1.19726 -1.72368 
0.515616 1.19847 -1.72469 
0.515659 1.19968 -1.7257 
0.515703 1.20089 -1.72671 
0.515746 1.2021 -1.72772 
0.51579 1.20331 -1.72872 
0.515833 1.20452 -1.72973 
0.515877 1.20573 -1.73074 
0.51592 1.20694 -1.73175 
0.515963 1.20815 -1.73275 
0.516007 1.20935 -1.73376 
0.51605 1.21056 -1.73476 
0.516093 1.21177 -1.73577 
0.516136 1.21297 -1.73677 
0.516179 1.21418 -1.73778 
0.516222 1.21538 -1.73878 
0.516265 1.21659 -1.73978 
0.516308 1.21779 -1.74078 
0.516351 1.21899 -1.74179 
0.516394 1.22019 -1.74279 
0.516437 1.2214 -1.74379 
0.51648 1.2226 -1.74479 
0.516522 1.2238 -1.74579 
0.516565 1.225 -1.74679 
0.516608 1.2262 -1.74779 
0.51665 1.2274 -1.74879 
0.516693 1.2286 -1.74979 
0.516735 1.2298 -1.75079 
0.516778 1.23099 -1.75178 
0.51682 1.23219 -1.75278 
0.516863 1.23339 -1.75378 
0.516905 1.23458 -1.75477 
0.516947 1.23578 -1.75577 
0.51699 1.23697 -1.75676 
0.517032 1.23817 -1.75776 
0.517074 1.23936 -1.75875 
0.517116 1.24056 -1.75975 
0.517158 1.24175 -1.76074 
0.5172 1.24294 -1.76174 
0.517243 1.24413 -1.76273 
0.517284 1.24533 -1.76372 
0.517326 1.24652 -1.76471 
0.517368 1.24771 -1.7657 
0.51741 1.2489 -1.7667 
0.517452 1.25009 -1.76769 
0.517494 1.25128 -1.76868 
0.517536 1.25246 -1.76967 
0.517577 1.25365 -1.77066 
0.517619 1.25484 -1.77164 
0.517661 1.25603 -1.77263 
0.517702 1.25721 -1.77362 
0.517744 1.2584 -1.77461 
0.517785 1.25958 -1.7756 
0.517827 1.26077 -1.77658 
0.517868 1.26195 -1.77757 
0.517909 1.26314 -1.77855 
0.517951 1.26432 -1.77954 
0.517992 1.2655 -1.78053 
0.518033 1.26669 -1.78151 
0.518075 1.26787 -1.78249 
0.518116 1.26905 -1.78348 
0.518157 1.27023 -1.78446 
