 i = 1
0.44381 0.495254 0.0265624 
0.0617904 -0.163729 -0.217373 
-0.680565 -0.358924 0.101887 
0.166469 -0.191365 0.426367 
-0.0639726 0.444518 0.40194 


 i = 2
0.723868 0.391624 -0.149866 
0.0772676 -0.169911 -0.226669 
-1.00815 -0.237743 0.308288 
0.104348 -0.145956 0.443079 
-0.0442781 0.439237 0.387525 


 i = 3
1.08509 0.270805 -0.390272 
0.0915234 -0.176134 -0.234701 
-1.33035 -0.0839103 0.476657 
0.0198785 -0.0840162 0.465609 
-0.031727 0.436096 0.378115 


 i = 4
1.3577 0.197281 -0.589356 
0.101781 -0.180479 -0.240614 
-1.58539 0.0547363 0.593055 
-0.0804819 -0.0199749 0.501928 
-0.0250303 0.435496 0.372018 


 i = 5
1.54925 0.174612 -0.758239 
0.109278 -0.183185 -0.245404 
-1.77611 0.14716 0.691346 
-0.173482 0.0174776 0.557476 
-0.0210621 0.436188 0.367358 


 i = 6
1.68786 0.191598 -0.913832 
0.115231 -0.184846 -0.249696 
-1.93032 0.208308 0.784414 
-0.257435 0.0299624 0.628943 
-0.0183942 0.437486 0.363393 


 i = 7
1.79346 0.235359 -1.0632 
0.120399 -0.185943 -0.253768 
-2.06504 0.255531 0.871903 
-0.33459 0.0256281 0.710433 
-0.0163751 0.439042 0.359818 


 i = 8
1.87922 0.294092 -1.20768 
0.125251 -0.18681 -0.257753 
-2.188 0.297854 0.952549 
-0.405742 0.009033 0.79818 
-0.0146691 0.440652 0.356501 


 i = 9
1.95315 0.359522 -1.34704 
0.130048 -0.18764 -0.26172 
-2.30267 0.339598 1.02547 
-0.471089 -0.017043 0.889603 
-0.0131108 0.442212 0.353384 


 i = 10
2.01985 0.426913 -1.48114 
0.134928 -0.188534 -0.265705 
-2.41069 0.38291 1.09018 
-0.530813 -0.0504449 0.982729 
-0.0116277 0.443673 0.35044 


 i = 11
2.08184 0.493812 -1.61003 
0.139951 -0.189542 -0.269721 
-2.51295 0.428765 1.14658 
-0.585175 -0.0893083 1.07595 
-0.0101945 0.445014 0.347665 


 i = 12
2.14045 0.558873 -1.73369 
0.145139 -0.190685 -0.273765 
-2.60987 0.477311 1.19496 
-0.634497 -0.131976 1.16794 
-0.00880783 0.446229 0.345063 


 i = 13
2.19628 0.621232 -1.85188 
0.150489 -0.191972 -0.277828 
-2.70164 0.52807 1.23597 
-0.67915 -0.176976 1.2576 
-0.00747236 0.447316 0.342641 


 i = 14
2.24948 0.680241 -1.9641 
0.15599 -0.193405 -0.281896 
-2.78838 0.580212 1.27056 
-0.719548 -0.223002 1.34402 
-0.00619487 0.448276 0.340403 


 i = 15
2.29995 0.735414 -2.06974 
0.161625 -0.194978 -0.285959 
-2.87021 0.632853 1.29975 
-0.756111 -0.268896 1.42648 
-0.00498168 0.44912 0.338347 


 i = 16
2.3475 0.786464 -2.16833 
0.167379 -0.196678 -0.290012 
-2.94729 0.685271 1.32441 
-0.789227 -0.313669 1.50437 
-0.00383743 0.449859 0.336463 


 i = 17
2.39199 0.833329 -2.25969 
0.173235 -0.198488 -0.294059 
-3.01979 0.736945 1.34524 
-0.819244 -0.356566 1.57728 
-0.00276436 0.450511 0.334738 


 i = 18
2.43339 0.876128 -2.34389 
0.179186 -0.200383 -0.298114 
-3.08792 0.787486 1.36284 
-0.846476 -0.397113 1.64506 
-0.00176237 0.45109 0.333157 


 i = 19
2.47177 0.915089 -2.42123 
0.185225 -0.202344 -0.302193 
-3.15193 0.836585 1.37774 
-0.871207 -0.435084 1.70776 
-0.000829501 0.45161 0.331704 


 i = 20
2.50726 0.950488 -2.49212 
0.191354 -0.204352 -0.306313 
-3.21204 0.884027 1.39041 
-0.893697 -0.470412 1.76558 
3.74793e-05 0.45208 0.330367 


 i = 21
2.54008 0.982583 -2.55704 
0.197576 -0.206395 -0.310493 
-3.26849 0.929708 1.40118 
-0.914176 -0.503073 1.81872 
0.000842584 0.452506 0.329136 


 i = 22
2.57044 1.01157 -2.61638 
0.203899 -0.208463 -0.314748 
-3.32151 0.973637 1.41027 
-0.932848 -0.533015 1.86733 
0.00159021 0.452893 0.328001 


 i = 23
2.59855 1.03761 -2.67054 
0.210333 -0.210545 -0.319099 
-3.3713 1.0159 1.4178 
-0.949889 -0.560198 1.91156 
0.00228488 0.453247 0.326953 


 i = 24
2.62465 1.06091 -2.71994 
0.216887 -0.212621 -0.323578 
-3.41805 1.05659 1.42386 
-0.965459 -0.584676 1.95161 
0.00293107 0.453574 0.32598 


 i = 25
2.6489 1.08176 -2.76504 
0.223576 -0.214667 -0.32822 
-3.46198 1.09578 1.42861 
-0.979707 -0.606644 1.98782 
0.00353299 0.45388 0.325071 


 i = 26
2.67146 1.10049 -2.80632 
0.230411 -0.216653 -0.333069 
-3.50329 1.13349 1.4322 
-0.992774 -0.626402 2.02065 
0.00409445 0.454173 0.324217 


 i = 27
2.69246 1.11743 -2.84426 
0.237403 -0.218545 -0.33817 
-3.54219 1.16972 1.43486 
-1.00479 -0.644316 2.05058 
0.0046188 0.454459 0.323407 


 i = 28
2.71198 1.13291 -2.87926 
0.244562 -0.220306 -0.343567 
-3.57889 1.20447 1.43682 
-1.01588 -0.660766 2.07812 
0.0051089 0.45474 0.322636 


 i = 29
2.73007 1.1472 -2.91164 
0.251891 -0.2219 -0.349303 
-3.61361 1.23771 1.43829 
-1.02614 -0.676097 2.10371 
0.00556716 0.455021 0.321896 


 i = 30
2.74677 1.16052 -2.94167 
0.259386 -0.223287 -0.355411 
-3.64655 1.26946 1.43949 
-1.03567 -0.690581 2.12772 
0.00599565 0.455303 0.321185 


 i = 31
2.76214 1.17301 -2.96952 
0.267038 -0.224434 -0.361916 
-3.6779 1.29973 1.44057 
-1.04453 -0.704413 2.15041 
0.00639624 0.455588 0.3205 


 i = 32
2.77622 1.18478 -2.99538 
0.274827 -0.225314 -0.368825 
-3.70781 1.32855 1.44166 
-1.05279 -0.717725 2.17199 
0.00677072 0.455875 0.319839 


 i = 33
2.78909 1.19594 -3.0194 
0.282729 -0.225912 -0.376128 
-3.73644 1.35595 1.44288 
-1.06051 -0.730614 2.19259 
0.00712086 0.456163 0.3192 


 i = 34
2.80082 1.20654 -3.04173 
0.29071 -0.226229 -0.383792 
-3.76389 1.38199 1.4443 
-1.06774 -0.743151 2.21236 
0.00744844 0.456451 0.318585 


 i = 35
2.8115 1.21666 -3.06254 
0.298733 -0.22628 -0.391765 
-3.79026 1.40671 1.44595 
-1.07452 -0.755391 2.23138 
0.00775525 0.456738 0.317991 


 i = 36
2.82123 1.22638 -3.08198 
0.306762 -0.226093 -0.399981 
-3.81565 1.4302 1.44785 
-1.08091 -0.767378 2.24976 
0.0080431 0.457021 0.31742 


 i = 37
2.83011 1.23573 -3.10021 
0.31476 -0.225711 -0.40836 
-3.84013 1.45252 1.45 
-1.08693 -0.779149 2.26755 
0.00831378 0.4573 0.31687 


 i = 38
2.83823 1.24477 -3.11738 
0.322695 -0.225185 -0.416821 
-3.86376 1.47377 1.45239 
-1.09263 -0.790725 2.28483 
0.00856902 0.457574 0.316341 


 i = 39
2.84569 1.25352 -3.13359 
0.330541 -0.22457 -0.425283 
-3.88661 1.49402 1.45498 
-1.09803 -0.802113 2.30161 
0.0088105 0.457842 0.315832 


 i = 40
2.85257 1.26201 -3.14895 
0.338283 -0.223918 -0.433676 
-3.90872 1.51338 1.45774 
-1.10315 -0.813292 2.31792 
0.00903976 0.458103 0.315342 


 i = 41
2.85895 1.27023 -3.16356 
0.345909 -0.223275 -0.441946 
-3.93012 1.53193 1.46058 
-1.10802 -0.824219 2.33371 
0.00925822 0.458357 0.314869 


 i = 42
2.86492 1.27817 -3.17746 
0.353416 -0.222675 -0.450052 
-3.95084 1.54978 1.46345 
-1.11264 -0.834828 2.34894 
0.00946715 0.458604 0.314414 


 i = 43
2.87053 1.2858 -3.19071 
0.360804 -0.222142 -0.457974 
-3.97091 1.56704 1.46627 
-1.11704 -0.845038 2.36355 
0.00966767 0.458843 0.313974 


 i = 44
2.87584 1.2931 -3.20332 
0.368078 -0.221689 -0.465701 
-3.99035 1.58379 1.46895 
-1.12122 -0.854766 2.37745 
0.00986072 0.459075 0.313549 


 i = 45
2.88091 1.30003 -3.21531 
0.375241 -0.221319 -0.473234 
-4.00917 1.60012 1.47145 
-1.12519 -0.863941 2.3906 
0.0100471 0.4593 0.313137 


 i = 46
2.88577 1.30656 -3.2267 
0.382298 -0.221032 -0.480577 
-4.02739 1.61608 1.47371 
-1.12896 -0.872518 2.40294 
0.0102275 0.459519 0.312738 


 i = 47
2.89045 1.31268 -3.2375 
0.389254 -0.220827 -0.487739 
-4.04504 1.6317 1.47574 
-1.13254 -0.880484 2.41449 
0.0104023 0.459733 0.312349 


 i = 48
2.89497 1.3184 -3.24775 
0.396111 -0.220698 -0.494724 
-4.06213 1.64698 1.47754 
-1.13594 -0.887867 2.42528 
0.0105721 0.459942 0.311971 


 i = 49
2.89935 1.32375 -3.25748 
0.40287 -0.220643 -0.501539 
-4.07868 1.66194 1.47914 
-1.13918 -0.894725 2.43538 
0.0107371 0.460147 0.3116 


 i = 50
2.9036 1.32877 -3.26675 
0.409534 -0.220659 -0.508187 
-4.09473 1.67655 1.48057 
-1.14227 -0.901136 2.44487 
0.0108975 0.460349 0.311238 


 i = 51
2.90774 1.3335 -3.27561 
0.416104 -0.220739 -0.514676 
-4.1103 1.69081 1.48189 
-1.14521 -0.90719 2.45387 
0.0110538 0.46055 0.310881 


 i = 52
2.91175 1.338 -3.28413 
0.422582 -0.22088 -0.521013 
-4.12541 1.7047 1.48311 
-1.14802 -0.91297 2.46246 
0.011206 0.460749 0.31053 


 i = 53
2.91567 1.34231 -3.29235 
0.428969 -0.221074 -0.527207 
-4.14009 1.71822 1.48427 
-1.15071 -0.918556 2.47074 
0.0113543 0.460947 0.310183 


 i = 54
2.91948 1.34647 -3.30033 
0.435269 -0.221313 -0.533268 
-4.15436 1.73135 1.4854 
-1.15329 -0.924016 2.47878 
0.011499 0.461147 0.309839 


 i = 55
2.92321 1.3505 -3.30808 
0.441485 -0.221591 -0.539206 
-4.16824 1.74411 1.48653 
-1.15577 -0.929407 2.48664 
0.0116402 0.461347 0.309498 


 i = 56
2.92684 1.35443 -3.31564 
0.447619 -0.221899 -0.545032 
-4.18175 1.75648 1.48767 
-1.15814 -0.934772 2.49438 
0.0117782 0.461548 0.309158 


 i = 57
2.93039 1.35826 -3.32302 
0.453674 -0.22223 -0.550756 
-4.19491 1.76848 1.48883 
-1.16042 -0.94014 2.50203 
0.011913 0.461752 0.30882 


 i = 58
2.93385 1.36199 -3.33022 
0.459652 -0.222576 -0.556387 
-4.20774 1.78012 1.49002 
-1.16261 -0.945523 2.5096 
0.0120447 0.461957 0.308483 


 i = 59
2.93723 1.36562 -3.33722 
0.465555 -0.222932 -0.561934 
-4.22024 1.79141 1.49123 
-1.16471 -0.950917 2.5171 
0.0121736 0.462164 0.308147 


 i = 60
2.94053 1.3691 -3.34401 
0.471383 -0.223292 -0.567403 
-4.23244 1.80237 1.49247 
-1.16674 -0.956306 2.52451 
0.0122996 0.462374 0.307812 


 i = 61
2.94375 1.37243 -3.35055 
0.47714 -0.223653 -0.572799 
-4.24435 1.81303 1.49372 
-1.16868 -0.961664 2.53181 
0.0124229 0.462584 0.307478 


 i = 62
2.94688 1.37556 -3.35681 
0.482823 -0.224009 -0.578126 
-4.25598 1.8234 1.49497 
-1.17054 -0.966957 2.53897 
0.0125435 0.462796 0.307145 


 i = 63
2.94993 1.37844 -3.36275 
0.488435 -0.224359 -0.583388 
-4.26734 1.83352 1.49622 
-1.17233 -0.972145 2.54594 
0.0126614 0.463009 0.306815 


 i = 64
2.95289 1.38106 -3.36833 
0.493975 -0.224694 -0.588593 
-4.27844 1.84341 1.49743 
-1.17404 -0.977188 2.5527 
0.0127768 0.463222 0.306486 


 i = 65
2.95577 1.38338 -3.37352 
0.499444 -0.225007 -0.593748 
-4.2893 1.85309 1.4986 
-1.17567 -0.982049 2.55919 
0.0128897 0.463435 0.30616 


 i = 66
2.95857 1.38538 -3.37833 
0.50484 -0.225288 -0.598864 
-4.29991 1.86261 1.4997 
-1.17724 -0.9867 2.56541 
0.0130002 0.46365 0.305835 


 i = 67
2.96129 1.3871 -3.38276 
0.510166 -0.225527 -0.603951 
-4.31028 1.87198 1.50071 
-1.17874 -0.991139 2.57135 
0.0131082 0.463866 0.305511 


 i = 68
2.96393 1.38855 -3.38686 
0.515423 -0.225718 -0.609017 
-4.32043 1.88119 1.50164 
-1.18018 -0.995399 2.57705 
0.013214 0.464083 0.305187 


 i = 69
2.96651 1.38982 -3.3907 
0.520612 -0.225861 -0.614062 
-4.33036 1.89022 1.50254 
-1.18156 -0.999559 2.58259 
0.0133176 0.464303 0.304864 


 i = 70
2.96903 1.39097 -3.39437 
0.525734 -0.225962 -0.619083 
-4.34008 1.89901 1.50346 
-1.18288 -1.00373 2.58808 
0.0134191 0.464526 0.30454 


 i = 71
2.97149 1.39209 -3.39795 
0.53079 -0.226024 -0.624077 
-4.34959 1.90753 1.50446 
-1.18416 -1.00802 2.59365 
0.0135185 0.46475 0.304216 


 i = 72
2.9739 1.39324 -3.40151 
0.535782 -0.22605 -0.629043 
-4.35891 1.91571 1.50559 
-1.1854 -1.01251 2.59939 
0.0136159 0.464975 0.303893 


 i = 73
2.97625 1.39442 -3.40505 
0.540709 -0.226053 -0.633967 
-4.36803 1.92351 1.50691 
-1.1866 -1.01729 2.60536 
0.0137114 0.4652 0.303573 


 i = 74
2.97855 1.3956 -3.40853 
0.54557 -0.226068 -0.638814 
-4.37697 1.93082 1.50855 
-1.18775 -1.02242 2.61164 
0.0138048 0.465422 0.303257 


 i = 75
2.98078 1.39677 -3.41192 
0.550359 -0.226144 -0.643526 
-4.38574 1.93752 1.51062 
-1.18886 -1.02801 2.61834 
0.013896 0.465638 0.302951 


 i = 76
2.9829 1.39802 -3.4153 
0.555067 -0.226335 -0.648043 
-4.39438 1.94351 1.51327 
-1.18993 -1.0342 2.6256 
0.0139847 0.465846 0.302654 


 i = 77
2.9849 1.39956 -3.41883 
0.559687 -0.226691 -0.652307 
-4.40293 1.94876 1.51657 
-1.19097 -1.04111 2.63355 
0.0140707 0.466045 0.302369 


 i = 78
2.98675 1.40131 -3.42243 
0.564219 -0.227263 -0.656268 
-4.4114 1.95333 1.52048 
-1.19199 -1.04853 2.64199 
0.0141539 0.466234 0.302096 


 i = 79
2.98845 1.40291 -3.42574 
0.56867 -0.228052 -0.659929 
-4.4198 1.95744 1.52477 
-1.19295 -1.05599 2.65041 
0.0142344 0.466411 0.301839 


 i = 80
2.99002 1.40418 -3.42857 
0.573043 -0.228942 -0.663413 
-4.42811 1.9615 1.52902 
-1.19387 -1.06306 2.6584 
0.0143124 0.466579 0.301594 


 i = 81
2.99147 1.40514 -3.43098 
0.577341 -0.229829 -0.666824 
-4.43633 1.96574 1.53299 
-1.19474 -1.06961 2.66583 
0.0143881 0.466742 0.301354 


 i = 82
2.99281 1.40581 -3.43299 
0.581569 -0.230684 -0.670197 
-4.44444 1.97015 1.53669 
-1.19557 -1.07568 2.67273 
0.0144616 0.466904 0.301119 


 i = 83
2.99407 1.40621 -3.43466 
0.585729 -0.231498 -0.673543 
-4.45244 1.97469 1.54014 
-1.19637 -1.08132 2.67916 
0.0145332 0.467065 0.300887 


 i = 84
2.99525 1.40637 -3.43599 
0.589823 -0.23227 -0.676865 
-4.46033 1.9793 1.54342 
-1.19712 -1.08659 2.68518 
0.0146029 0.467224 0.300657 


 i = 85
2.99636 1.40629 -3.43702 
0.593853 -0.233001 -0.680163 
-4.4681 1.98394 1.54656 
-1.19784 -1.09155 2.69087 
0.0146708 0.467383 0.300431 


 i = 86
2.99739 1.40598 -3.43775 
0.597817 -0.233693 -0.683436 
-4.47577 1.98855 1.54962 
-1.19853 -1.09627 2.69627 
0.014737 0.467541 0.300206 


 i = 87
2.99836 1.40546 -3.43819 
0.601717 -0.234351 -0.686677 
-4.48333 1.9931 1.55263 
-1.1992 -1.10078 2.70145 
0.0148015 0.467698 0.299985 


 i = 88
2.99924 1.40472 -3.43834 
0.60555 -0.234978 -0.689883 
-4.49079 1.99755 1.55564 
-1.19983 -1.10514 2.70644 
0.0148643 0.467853 0.299767 


 i = 89
3.00006 1.4038 -3.43823 
0.609317 -0.23558 -0.693049 
-4.49816 2.00187 1.55869 
-1.20044 -1.1094 2.71132 
0.0149253 0.468008 0.299551 


 i = 90
3.00079 1.40271 -3.43787 
0.613017 -0.236158 -0.696171 
-4.50545 2.00602 1.56183 
-1.20103 -1.11363 2.71613 
0.0149847 0.468161 0.299339 


 i = 91
3.00144 1.40148 -3.43729 
0.616651 -0.236713 -0.699249 
-4.51266 2.00997 1.56509 
-1.2016 -1.11787 2.72094 
0.0150422 0.468313 0.299129 


 i = 92
3.00201 1.40016 -3.43654 
0.620218 -0.237245 -0.702284 
-4.5198 2.01369 1.56851 
-1.20216 -1.12218 2.72581 
0.0150981 0.468465 0.298922 


 i = 93
3.0025 1.39877 -3.43564 
0.62372 -0.23775 -0.705282 
-4.52688 2.01718 1.57209 
-1.2027 -1.1266 2.73077 
0.0151522 0.468616 0.298717 


 i = 94
3.0029 1.39736 -3.43464 
0.627158 -0.238223 -0.708247 
-4.5339 2.02044 1.57585 
-1.20323 -1.13114 2.73585 
0.0152047 0.468766 0.298514 


 i = 95
3.00323 1.39595 -3.43355 
0.630535 -0.238661 -0.711186 
-4.54087 2.0235 1.57977 
-1.20375 -1.1358 2.74103 
0.0152555 0.468916 0.298313 


 i = 96
3.00347 1.39456 -3.4324 
0.633853 -0.239061 -0.714103 
-4.54779 2.0264 1.58379 
-1.20427 -1.14053 2.74627 
0.0153048 0.469066 0.298114 


 i = 97
3.00365 1.39319 -3.43122 
0.637113 -0.23942 -0.717005 
-4.55466 2.02921 1.58785 
-1.20477 -1.14526 2.7515 
0.0153525 0.469215 0.297917 


 i = 98
3.00376 1.3919 -3.43003 
0.640321 -0.239733 -0.7199 
-4.56149 2.03201 1.59188 
-1.20527 -1.14993 2.75668 
0.0153989 0.469363 0.297722 


 i = 99
3.00381 1.39075 -3.42893 
0.64348 -0.239994 -0.722798 
-4.56828 2.03486 1.59582 
-1.20578 -1.15452 2.76176 
0.015444 0.469512 0.297529 


 i = 100
3.00382 1.38984 -3.42803 
0.646596 -0.2402 -0.725708 
-4.57503 2.03781 1.59962 
-1.20628 -1.15899 2.76674 
0.015488 0.46966 0.297337 


 i = 101
3.0038 1.38928 -3.42745 
0.649676 -0.240353 -0.728635 
-4.58173 2.04089 1.60323 
-1.20679 -1.16335 2.77161 
0.0155312 0.469808 0.297145 


 i = 102
3.00376 1.38911 -3.42724 
0.652727 -0.240461 -0.731577 
-4.58838 2.04411 1.60667 
-1.2073 -1.16762 2.7764 
0.0155736 0.469956 0.296955 


 i = 103
3.00372 1.38934 -3.42744 
0.655756 -0.240534 -0.734533 
-4.59498 2.04744 1.60993 
-1.20783 -1.17182 2.78112 
0.0156155 0.470105 0.296764 


 i = 104
3.0037 1.38995 -3.42802 
0.658769 -0.240575 -0.737505 
-4.6015 2.05086 1.61304 
-1.20835 -1.17601 2.78583 
0.0156572 0.470253 0.296575 


 i = 105
3.00371 1.3909 -3.42899 
0.661773 -0.240563 -0.740521 
-4.60795 2.05433 1.61602 
-1.20888 -1.18026 2.7906 
0.0156988 0.4704 0.296386 


 i = 106
3.00378 1.39206 -3.43021 
0.66477 -0.240491 -0.743591 
-4.6143 2.05771 1.61899 
-1.20939 -1.18468 2.79555 
0.0157404 0.470543 0.296201 


 i = 107
3.00369 1.39273 -3.4308 
0.667727 -0.240662 -0.746377 
-4.62072 2.06067 1.62245 
-1.20989 -1.18854 2.7999 
0.0157811 0.470666 0.296038 


 i = 108
3.00346 1.39298 -3.43081 
0.670633 -0.240722 -0.749223 
-4.62724 2.06424 1.6254 
-1.21046 -1.19169 2.80361 
0.0158203 0.470787 0.295877 


 i = 109
3.00322 1.39272 -3.43031 
0.673523 -0.240863 -0.751972 
-4.63369 2.0677 1.62838 
-1.21103 -1.19504 2.80754 
0.0158592 0.470904 0.295721 


 i = 110
3.00302 1.39207 -3.42947 
0.676402 -0.241131 -0.754582 
-4.64002 2.07076 1.63166 
-1.21158 -1.19883 2.81188 
0.0158981 0.471016 0.29557 


 i = 111
3.00287 1.39126 -3.4285 
0.679264 -0.241398 -0.757178 
-4.64622 2.07388 1.63474 
-1.21211 -1.2026 2.81618 
0.0159366 0.47113 0.295418 


 i = 112
3.00277 1.39051 -3.42765 
0.682105 -0.241584 -0.759833 
-4.65232 2.07728 1.63743 
-1.21263 -1.20614 2.82025 
0.0159747 0.471247 0.295263 


 i = 113
3.00272 1.39004 -3.42714 
0.684928 -0.241639 -0.762601 
-4.6583 2.08114 1.63956 
-1.21315 -1.20924 2.82386 
0.0160126 0.471369 0.295103 


 i = 114
3.00272 1.38967 -3.42676 
0.687734 -0.241594 -0.765451 
-4.66418 2.0853 1.64127 
-1.21365 -1.21189 2.82701 
0.0160504 0.471494 0.294941 


 i = 115
3.00275 1.38916 -3.42628 
0.690519 -0.241479 -0.768351 
-4.66996 2.08967 1.64269 
-1.21413 -1.21417 2.82978 
0.016088 0.471619 0.294778 


 i = 116
3.00279 1.38835 -3.42552 
0.693281 -0.241313 -0.77128 
-4.67565 2.09418 1.64388 
-1.21461 -1.21614 2.83222 
0.0161253 0.471744 0.294615 


 i = 117
3.00284 1.38717 -3.42438 
0.696016 -0.241115 -0.774212 
-4.68128 2.09879 1.64489 
-1.21508 -1.21784 2.83439 
0.0161622 0.47187 0.294453 


 i = 118
3.00287 1.38559 -3.42283 
0.698717 -0.240918 -0.77711 
-4.68684 2.10348 1.64577 
-1.21554 -1.21931 2.83632 
0.0161985 0.471994 0.294292 


 i = 119
3.00286 1.38363 -3.42086 
0.701383 -0.240766 -0.779928 
-4.69237 2.10821 1.64657 
-1.21599 -1.22055 2.83801 
0.0162342 0.472117 0.294134 


 i = 120
3.0028 1.38131 -3.41848 
0.704011 -0.2407 -0.782622 
-4.69788 2.11293 1.64735 
-1.21645 -1.22153 2.83945 
0.0162691 0.472236 0.29398 


 i = 121
3.00269 1.37868 -3.41574 
0.706603 -0.240748 -0.785167 
-4.70338 2.11756 1.64821 
-1.2169 -1.22233 2.84071 
0.0163033 0.47235 0.293831 


 i = 122
3.00252 1.3759 -3.4128 
0.709161 -0.240906 -0.787566 
-4.70885 2.12198 1.64927 
-1.21736 -1.22317 2.842 
0.0163367 0.47246 0.293688 


 i = 123
3.00232 1.37313 -3.40982 
0.711689 -0.241145 -0.789855 
-4.7143 2.12616 1.65054 
-1.21782 -1.22419 2.84348 
0.0163694 0.472567 0.293548 


 i = 124
3.0021 1.37041 -3.40689 
0.714192 -0.241426 -0.792077 
-4.7197 2.13016 1.65194 
-1.21829 -1.22536 2.84512 
0.0164016 0.472673 0.29341 


 i = 125
3.00188 1.36779 -3.40404 
0.716673 -0.241721 -0.794263 
-4.72506 2.13408 1.65338 
-1.21875 -1.22659 2.84682 
0.0164333 0.472779 0.293272 


 i = 126
3.00164 1.36526 -3.40128 
0.719134 -0.242016 -0.796429 
-4.73037 2.13795 1.65482 
-1.21921 -1.22783 2.84851 
0.0164646 0.472886 0.293134 


 i = 127
3.00141 1.36281 -3.3986 
0.721577 -0.242304 -0.798584 
-4.73561 2.1418 1.65621 
-1.21967 -1.22903 2.85016 
0.0164955 0.472993 0.292996 


 i = 128
3.00119 1.36044 -3.396 
0.724002 -0.242582 -0.800731 
-4.7408 2.14564 1.65756 
-1.22011 -1.23018 2.85177 
0.0165261 0.473101 0.292857 


 i = 129
3.00096 1.35812 -3.39346 
0.726409 -0.242852 -0.802869 
-4.74593 2.14945 1.65888 
-1.22055 -1.2313 2.85332 
0.0165563 0.47321 0.292718 


 i = 130
3.00074 1.35585 -3.39097 
0.7288 -0.243112 -0.804999 
-4.751 2.15322 1.66018 
-1.22097 -1.2324 2.85484 
0.0165863 0.47332 0.292578 


 i = 131
3.00053 1.35361 -3.38851 
0.731173 -0.243366 -0.807118 
-4.75601 2.15693 1.66147 
-1.22138 -1.23348 2.85634 
0.016616 0.473431 0.292438 


 i = 132
3.00031 1.35137 -3.38606 
0.733527 -0.243614 -0.809225 
-4.76097 2.16057 1.6628 
-1.22178 -1.23459 2.85784 
0.0166453 0.473542 0.292297 


 i = 133
3.0001 1.34912 -3.3836 
0.735863 -0.243855 -0.81132 
-4.76587 2.16411 1.66416 
-1.22218 -1.23572 2.85937 
0.0166743 0.473654 0.292157 


 i = 134
2.99988 1.34684 -3.3811 
0.73818 -0.244091 -0.813401 
-4.77073 2.16755 1.66557 
-1.22256 -1.2369 2.86092 
0.0167029 0.473766 0.292016 


 i = 135
2.99966 1.34451 -3.37855 
0.740475 -0.244318 -0.815469 
-4.77553 2.17088 1.66705 
-1.22293 -1.23813 2.86252 
0.0167312 0.473879 0.291875 


 i = 136
2.99943 1.34211 -3.37591 
0.742749 -0.244534 -0.817527 
-4.7803 2.1741 1.6686 
-1.22329 -1.23941 2.86417 
0.016759 0.473992 0.291734 


 i = 137
2.99918 1.33961 -3.37317 
0.745 -0.244735 -0.819576 
-4.78502 2.17722 1.67019 
-1.22364 -1.24074 2.86585 
0.0167863 0.474105 0.291593 


 i = 138
2.99892 1.33701 -3.37031 
0.747226 -0.244918 -0.82162 
-4.7897 2.18027 1.67183 
-1.22398 -1.24212 2.86757 
0.0168132 0.47422 0.291452 


 i = 139
2.99864 1.33429 -3.3673 
0.749428 -0.245078 -0.823662 
-4.79435 2.18324 1.67351 
-1.22431 -1.24353 2.86931 
0.0168395 0.474335 0.29131 


 i = 140
2.99834 1.33144 -3.36416 
0.751603 -0.245213 -0.825702 
-4.79897 2.18614 1.67523 
-1.22464 -1.24497 2.87108 
0.0168652 0.474451 0.291168 


 i = 141
2.99802 1.32846 -3.36085 
0.753752 -0.24532 -0.827743 
-4.80356 2.18898 1.67698 
-1.22496 -1.24646 2.87288 
0.0168904 0.474568 0.291026 


 i = 142
2.99767 1.32532 -3.35737 
0.755872 -0.245401 -0.829783 
-4.80812 2.19174 1.67878 
-1.22527 -1.248 2.87474 
0.0169149 0.474687 0.290883 


 i = 143
2.99729 1.32202 -3.35369 
0.757965 -0.245455 -0.831822 
-4.81266 2.19441 1.68064 
-1.22558 -1.24962 2.87667 
0.0169389 0.474806 0.29074 


 i = 144
2.99688 1.31854 -3.3498 
0.760028 -0.245483 -0.833856 
-4.81717 2.19698 1.68259 
-1.22588 -1.25135 2.87871 
0.0169621 0.474926 0.290596 


 i = 145
2.99644 1.31484 -3.34565 
0.76206 -0.245489 -0.835883 
-4.82167 2.19941 1.68467 
-1.22619 -1.25323 2.88089 
0.0169846 0.475048 0.290453 


 i = 146
2.99596 1.31089 -3.34122 
0.76406 -0.245476 -0.837896 
-4.82616 2.20166 1.68691 
-1.22649 -1.2553 2.88326 
0.0170063 0.475169 0.290309 


 i = 147
2.99543 1.30666 -3.33646 
0.766027 -0.245449 -0.839889 
-4.83065 2.20367 1.68937 
-1.22678 -1.25764 2.8859 
0.0170272 0.475292 0.290166 


 i = 148
2.99484 1.30211 -3.33132 
0.767957 -0.245415 -0.841854 
-4.83513 2.2054 1.69213 
-1.22708 -1.26032 2.88887 
0.0170471 0.475415 0.290023 


 i = 149
2.99418 1.29721 -3.32577 
0.769847 -0.245379 -0.84378 
-4.83963 2.20675 1.69528 
-1.22738 -1.26344 2.89229 
0.0170659 0.475538 0.289881 


 i = 150
2.99345 1.29195 -3.31978 
0.771696 -0.245348 -0.84566 
-4.84416 2.20766 1.6989 
-1.22769 -1.26708 2.89625 
0.0170834 0.47566 0.289741 


 i = 151
2.99262 1.28638 -3.31338 
0.7735 -0.245322 -0.84749 
-4.84872 2.20808 1.70304 
-1.22801 -1.27132 2.9008 
0.0170996 0.475783 0.289602 


 i = 152
2.9917 1.2806 -3.30666 
0.775257 -0.245293 -0.849275 
-4.85333 2.20804 1.70769 
-1.22833 -1.27614 2.90594 
0.0171143 0.475906 0.289465 


 i = 153
2.99066 1.2747 -3.29973 
0.776967 -0.245247 -0.851031 
-4.858 2.20761 1.71279 
-1.22868 -1.28146 2.91161 
0.0171274 0.476029 0.289328 


 i = 154
2.98951 1.26882 -3.2927 
0.778632 -0.245169 -0.852774 
-4.86273 2.20691 1.71822 
-1.22904 -1.28716 2.91767 
0.017139 0.476154 0.289192 


 i = 155
2.98825 1.26305 -3.28567 
0.780254 -0.245045 -0.854521 
-4.86751 2.20605 1.72386 
-1.22942 -1.29311 2.924 
0.017149 0.476281 0.289055 


 i = 156
2.98689 1.25746 -3.27872 
0.781839 -0.244867 -0.856283 
-4.87235 2.20515 1.7296 
-1.22982 -1.29919 2.93048 
0.0171577 0.47641 0.288917 


 i = 157
2.98544 1.25211 -3.27193 
0.783389 -0.244629 -0.858071 
-4.87724 2.2043 1.73535 
-1.23024 -1.3053 2.93701 
0.0171651 0.476542 0.288777 


 i = 158
2.98392 1.24704 -3.26533 
0.78491 -0.244331 -0.859891 
-4.88218 2.20354 1.74103 
-1.23067 -1.31136 2.9435 
0.0171714 0.476678 0.288635 


 i = 159
2.98232 1.24229 -3.25898 
0.786407 -0.243973 -0.861745 
-4.88714 2.20295 1.74659 
-1.23111 -1.31732 2.9499 
0.0171768 0.476816 0.288491 


 i = 160
2.98067 1.23785 -3.25289 
0.787883 -0.243558 -0.863636 
-4.89214 2.20255 1.75199 
-1.23156 -1.32311 2.95615 
0.0171813 0.476958 0.288345 


 i = 161
2.97897 1.23374 -3.24708 
0.789344 -0.243091 -0.865565 
-4.89715 2.20236 1.75719 
-1.23203 -1.32872 2.96221 
0.0171853 0.477104 0.288195 


 i = 162
2.97724 1.22995 -3.24157 
0.790793 -0.242575 -0.86753 
-4.90217 2.20241 1.76216 
-1.2325 -1.3341 2.96807 
0.0171888 0.477252 0.288043 


 i = 163
2.97549 1.22649 -3.23635 
0.792233 -0.242016 -0.869529 
-4.90719 2.2027 1.76689 
-1.23297 -1.33925 2.97369 
0.017192 0.477404 0.287889 


 i = 164
2.97374 1.22332 -3.23143 
0.793669 -0.241419 -0.871561 
-4.91221 2.20322 1.77138 
-1.23345 -1.34416 2.97907 
0.017195 0.477559 0.287731 


 i = 165
2.97198 1.22044 -3.2268 
0.795103 -0.240791 -0.873623 
-4.9172 2.20398 1.77563 
-1.23392 -1.34882 2.98421 
0.017198 0.477716 0.287571 


 i = 166
2.97023 1.21784 -3.22245 
0.796536 -0.240136 -0.875712 
-4.92218 2.20495 1.77963 
-1.2344 -1.35324 2.98911 
0.0172011 0.477875 0.287408 


 i = 167
2.96851 1.21548 -3.21836 
0.797972 -0.239458 -0.877825 
-4.92713 2.20613 1.7834 
-1.23487 -1.35742 2.99376 
0.0172043 0.478037 0.287243 


 i = 168
2.9668 1.21336 -3.21453 
0.799411 -0.238763 -0.879959 
-4.93205 2.2075 1.78695 
-1.23534 -1.36138 2.99819 
0.0172078 0.478201 0.287076 


 i = 169
2.96512 1.21145 -3.21095 
0.800855 -0.238055 -0.882112 
-4.93692 2.20905 1.79028 
-1.23581 -1.36511 3.0024 
0.0172116 0.478366 0.286907 


 i = 170
2.96348 1.20974 -3.20759 
0.802305 -0.237337 -0.88428 
-4.94176 2.21075 1.79341 
-1.23627 -1.36865 3.00639 
0.0172157 0.478533 0.286736 


 i = 171
2.96188 1.20821 -3.20446 
0.803762 -0.236612 -0.886462 
-4.94656 2.21261 1.79635 
-1.23673 -1.37198 3.01018 
0.0172203 0.478701 0.286563 


 i = 172
2.96031 1.20685 -3.20154 
0.805227 -0.235884 -0.888654 
-4.9513 2.2146 1.79911 
-1.23718 -1.37513 3.01378 
0.0172253 0.47887 0.286389 


 i = 173
2.95879 1.20565 -3.19881 
0.806699 -0.235155 -0.890856 
-4.956 2.2167 1.8017 
-1.23762 -1.37811 3.0172 
0.0172307 0.479041 0.286213 


 i = 174
2.95731 1.20459 -3.19628 
0.80818 -0.234427 -0.893064 
-4.96065 2.21892 1.80413 
-1.23805 -1.38092 3.02045 
0.0172367 0.479212 0.286036 


 i = 175
2.95588 1.20366 -3.19392 
0.809669 -0.233704 -0.895276 
-4.96525 2.22122 1.80642 
-1.23848 -1.38358 3.02354 
0.0172431 0.479384 0.285858 


 i = 176
2.9545 1.20285 -3.19173 
0.811166 -0.232985 -0.897492 
-4.96979 2.22361 1.80858 
-1.2389 -1.38609 3.02647 
0.0172501 0.479556 0.285678 


 i = 177
2.95317 1.20216 -3.1897 
0.812672 -0.232274 -0.89971 
-4.97428 2.22608 1.8106 
-1.23932 -1.38847 3.02926 
0.0172576 0.47973 0.285497 


 i = 178
2.95188 1.20158 -3.18784 
0.814187 -0.231571 -0.901928 
-4.97872 2.22861 1.81251 
-1.23972 -1.39072 3.03191 
0.0172656 0.479903 0.285316 


 i = 179
2.95065 1.20109 -3.18611 
0.81571 -0.230877 -0.904144 
-4.98311 2.2312 1.81431 
-1.24012 -1.39284 3.03443 
0.0172742 0.480077 0.285134 


 i = 180
2.94946 1.2007 -3.18453 
0.817241 -0.230195 -0.906358 
-4.98744 2.23384 1.816 
-1.24051 -1.39486 3.03684 
0.0172833 0.480251 0.28495 


 i = 181
2.94832 1.20039 -3.18309 
0.818781 -0.229524 -0.908568 
-4.99171 2.23652 1.81759 
-1.24089 -1.39676 3.03912 
0.0172929 0.480425 0.284766 


 i = 182
2.94723 1.20017 -3.18178 
0.820329 -0.228866 -0.910774 
-4.99593 2.23924 1.8191 
-1.24126 -1.39856 3.0413 
0.017303 0.4806 0.284582 


 i = 183
2.94619 1.20002 -3.18059 
0.821885 -0.228222 -0.912975 
-5.0001 2.24198 1.82052 
-1.24163 -1.40027 3.04337 
0.0173136 0.480775 0.284396 


 i = 184
2.9452 1.19995 -3.17952 
0.823449 -0.227591 -0.915169 
-5.00422 2.24476 1.82186 
-1.24198 -1.40188 3.04534 
0.0173247 0.480949 0.284211 


 i = 185
2.94425 1.19994 -3.17856 
0.82502 -0.226976 -0.917356 
-5.00828 2.24756 1.82312 
-1.24233 -1.40341 3.04722 
0.0173363 0.481124 0.284024 


 i = 186
2.94335 1.2 -3.17772 
0.826598 -0.226375 -0.919535 
-5.0123 2.25037 1.82432 
-1.24268 -1.40486 3.04901 
0.0173484 0.481299 0.283837 


 i = 187
2.94249 1.20011 -3.17698 
0.828184 -0.22579 -0.921705 
-5.01626 2.2532 1.82546 
-1.24301 -1.40623 3.05072 
0.0173609 0.481474 0.28365 


 i = 188
2.94168 1.20029 -3.17634 
0.829776 -0.225221 -0.923867 
-5.02017 2.25604 1.82653 
-1.24334 -1.40754 3.05234 
0.0173739 0.481649 0.283462 


 i = 189
2.94091 1.20052 -3.1758 
0.831375 -0.224668 -0.926019 
-5.02403 2.25888 1.82755 
-1.24366 -1.40877 3.0539 
0.0173873 0.481823 0.283274 


 i = 190
2.94018 1.2008 -3.17535 
0.832981 -0.224131 -0.928162 
-5.02784 2.26173 1.82851 
-1.24397 -1.40994 3.05538 
0.0174012 0.481998 0.283085 


 i = 191
2.9395 1.20112 -3.175 
0.834592 -0.22361 -0.930294 
-5.0316 2.26457 1.82943 
-1.24427 -1.41105 3.0568 
0.0174154 0.482173 0.282896 


 i = 192
2.93885 1.2015 -3.17472 
0.83621 -0.223106 -0.932415 
-5.03532 2.26741 1.83031 
-1.24457 -1.41211 3.05815 
0.0174301 0.482347 0.282707 


 i = 193
2.93825 1.20191 -3.17453 
0.837833 -0.222619 -0.934525 
-5.03899 2.27025 1.83114 
-1.24486 -1.41311 3.05944 
0.0174452 0.482522 0.282518 


 i = 194
2.93768 1.20237 -3.17442 
0.839461 -0.222148 -0.936625 
-5.04261 2.27308 1.83193 
-1.24514 -1.41407 3.06068 
0.0174606 0.482696 0.282328 


 i = 195
2.93715 1.20287 -3.17439 
0.841094 -0.221693 -0.938713 
-5.04619 2.2759 1.83269 
-1.24542 -1.41498 3.06187 
0.0174764 0.48287 0.282138 


 i = 196
2.93665 1.2034 -3.17443 
0.842732 -0.221255 -0.940789 
-5.04973 2.27871 1.83341 
-1.24569 -1.41584 3.063 
0.0174926 0.483045 0.281947 


 i = 197
2.9362 1.20397 -3.17454 
0.844375 -0.220832 -0.942854 
-5.05322 2.28151 1.83411 
-1.24595 -1.41667 3.06409 
0.0175091 0.483219 0.281757 


 i = 198
2.93577 1.20457 -3.17471 
0.846021 -0.220425 -0.944907 
-5.05667 2.28429 1.83477 
-1.24621 -1.41746 3.06514 
0.0175259 0.483393 0.281566 


 i = 199
2.93538 1.20521 -3.17496 
0.847672 -0.220034 -0.946949 
-5.06007 2.28706 1.83541 
-1.24646 -1.41821 3.06614 
0.0175431 0.483566 0.281375 


 i = 200
2.93502 1.20587 -3.17526 
0.849326 -0.219658 -0.948979 
-5.06344 2.28981 1.83603 
-1.2467 -1.41893 3.0671 
0.0175605 0.48374 0.281184 


 i = 201
2.93469 1.20657 -3.17563 
0.850983 -0.219297 -0.950997 
-5.06677 2.29254 1.83662 
-1.24694 -1.41962 3.06803 
0.0175782 0.483914 0.280993 


 i = 202
2.93439 1.20729 -3.17606 
0.852644 -0.218951 -0.953004 
-5.07005 2.29526 1.83719 
-1.24717 -1.42027 3.06892 
0.0175962 0.484087 0.280801 


 i = 203
2.93412 1.20805 -3.17655 
0.854307 -0.218619 -0.954999 
-5.0733 2.29795 1.83774 
-1.2474 -1.4209 3.06978 
0.0176145 0.484261 0.280609 


 i = 204
2.93388 1.20883 -3.17709 
0.855973 -0.218301 -0.956983 
-5.07651 2.30063 1.83828 
-1.24762 -1.42151 3.0706 
0.017633 0.484434 0.280418 


 i = 205
2.93367 1.20964 -3.17768 
0.85764 -0.217997 -0.958955 
-5.07968 2.30329 1.8388 
-1.24783 -1.42209 3.0714 
0.0176518 0.484607 0.280226 


 i = 206
2.93349 1.21047 -3.17833 
0.85931 -0.217705 -0.960917 
-5.08282 2.30592 1.8393 
-1.24804 -1.42265 3.07216 
0.0176708 0.48478 0.280034 


 i = 207
2.93333 1.21133 -3.17903 
0.860982 -0.217427 -0.962867 
-5.08592 2.30853 1.83979 
-1.24825 -1.42318 3.0729 
0.01769 0.484953 0.279841 


 i = 208
2.93319 1.21221 -3.17978 
0.862655 -0.217161 -0.964806 
-5.08899 2.31112 1.84026 
-1.24845 -1.4237 3.07362 
0.0177094 0.485126 0.279649 


 i = 209
2.93308 1.21312 -3.18058 
0.864329 -0.216907 -0.966734 
-5.09202 2.31369 1.84072 
-1.24864 -1.4242 3.07431 
0.017729 0.485299 0.279457 


 i = 210
2.93299 1.21406 -3.18142 
0.866004 -0.216664 -0.968652 
-5.09501 2.31624 1.84117 
-1.24883 -1.42468 3.07498 
0.0177489 0.485472 0.279264 


 i = 211
2.93293 1.21502 -3.18232 
0.86768 -0.216433 -0.970559 
-5.09798 2.31876 1.84161 
-1.24901 -1.42514 3.07562 
0.0177689 0.485644 0.279072 


 i = 212
2.93288 1.216 -3.18326 
0.869357 -0.216213 -0.972456 
-5.10091 2.32127 1.84204 
-1.24919 -1.42558 3.07624 
0.017789 0.485817 0.278879 


 i = 213
2.93286 1.21701 -3.18424 
0.871034 -0.216003 -0.974342 
-5.10381 2.32375 1.84246 
-1.24936 -1.42601 3.07685 
0.0178094 0.485989 0.278686 


 i = 214
2.93286 1.21804 -3.18527 
0.872711 -0.215804 -0.976219 
-5.10668 2.32621 1.84287 
-1.24953 -1.42643 3.07743 
0.0178299 0.486162 0.278493 


 i = 215
2.93288 1.21909 -3.18635 
0.874388 -0.215614 -0.978085 
-5.10952 2.32864 1.84327 
-1.2497 -1.42683 3.07799 
0.0178505 0.486334 0.2783 


 i = 216
2.93292 1.22017 -3.18746 
0.876065 -0.215434 -0.979942 
-5.11233 2.33106 1.84367 
-1.24985 -1.42721 3.07854 
0.0178713 0.486506 0.278107 


 i = 217
2.93298 1.22127 -3.18863 
0.877741 -0.215263 -0.98179 
-5.1151 2.33345 1.84405 
-1.25001 -1.42758 3.07906 
0.0178923 0.486678 0.277914 


 i = 218
2.93305 1.2224 -3.18983 
0.879417 -0.215101 -0.983627 
-5.11785 2.33582 1.84443 
-1.25016 -1.42794 3.07957 
0.0179133 0.48685 0.277721 


 i = 219
2.93315 1.22355 -3.19107 
0.881092 -0.214948 -0.985456 
-5.12057 2.33817 1.8448 
-1.2503 -1.42829 3.08007 
0.0179345 0.487022 0.277528 


 i = 220
2.93326 1.22473 -3.19236 
0.882766 -0.214802 -0.987276 
-5.12327 2.3405 1.84516 
-1.25045 -1.42863 3.08054 
0.0179558 0.487194 0.277335 


 i = 221
2.93338 1.22593 -3.19369 
0.88444 -0.214665 -0.989086 
-5.12593 2.34281 1.84552 
-1.25058 -1.42895 3.08101 
0.0179772 0.487366 0.277141 


 i = 222
2.93353 1.22716 -3.19506 
0.886112 -0.214535 -0.990888 
-5.12857 2.3451 1.84587 
-1.25072 -1.42926 3.08145 
0.0179988 0.487538 0.276948 


 i = 223
2.93369 1.22841 -3.19647 
0.887782 -0.214413 -0.992681 
-5.13118 2.34736 1.84621 
-1.25084 -1.42957 3.08188 
0.0180204 0.48771 0.276755 


 i = 224
2.93386 1.22969 -3.19792 
0.889452 -0.214298 -0.994466 
-5.13376 2.34961 1.84655 
-1.25097 -1.42986 3.0823 
0.0180421 0.487881 0.276561 


 i = 225
2.93405 1.23099 -3.19942 
0.89112 -0.214189 -0.996242 
-5.13632 2.35184 1.84688 
-1.25109 -1.43014 3.0827 
0.0180639 0.488053 0.276368 


 i = 226
2.93426 1.23232 -3.20095 
0.892786 -0.214088 -0.99801 
-5.13885 2.35405 1.84721 
-1.25121 -1.43041 3.08309 
0.0180858 0.488224 0.276175 


 i = 227
2.93447 1.23367 -3.20252 
0.89445 -0.213993 -0.999769 
-5.14136 2.35623 1.84753 
-1.25132 -1.43067 3.08346 
0.0181078 0.488396 0.275981 


 i = 228
2.93471 1.23505 -3.20413 
0.896113 -0.213904 -1.00152 
-5.14384 2.3584 1.84784 
-1.25143 -1.43092 3.08382 
0.0181299 0.488567 0.275788 


 i = 229
2.93495 1.23646 -3.20579 
0.897774 -0.213821 -1.00326 
-5.1463 2.36055 1.84815 
-1.25153 -1.43116 3.08416 
0.0181521 0.488738 0.275594 


 i = 230
2.93521 1.23789 -3.20748 
0.899433 -0.213745 -1.005 
-5.14874 2.36268 1.84845 
-1.25164 -1.43139 3.08449 
0.0181743 0.48891 0.275401 


 i = 231
2.93548 1.23935 -3.20921 
0.90109 -0.213673 -1.00673 
-5.15115 2.3648 1.84875 
-1.25173 -1.43161 3.08481 
0.0181966 0.489081 0.275207 


 i = 232
2.93577 1.24084 -3.21099 
0.902745 -0.213608 -1.00845 
-5.15353 2.36689 1.84904 
-1.25183 -1.43182 3.08511 
0.018219 0.489252 0.275014 


 i = 233
2.93607 1.24236 -3.2128 
0.904398 -0.213548 -1.01016 
-5.1559 2.36897 1.84933 
-1.25192 -1.43202 3.08541 
0.0182414 0.489423 0.274821 


 i = 234
2.93637 1.2439 -3.21465 
0.906048 -0.213493 -1.01187 
-5.15824 2.37103 1.84961 
-1.252 -1.43221 3.08568 
0.0182639 0.489593 0.274627 


 i = 235
2.9367 1.24547 -3.21654 
0.907697 -0.213443 -1.01357 
-5.16056 2.37307 1.84988 
-1.25209 -1.43239 3.08595 
0.0182865 0.489764 0.274434 


 i = 236
2.93703 1.24707 -3.21847 
0.909343 -0.213398 -1.01526 
-5.16286 2.3751 1.85015 
-1.25217 -1.43256 3.0862 
0.0183091 0.489935 0.274241 


 i = 237
2.93737 1.2487 -3.22044 
0.910987 -0.213358 -1.01694 
-5.16513 2.37711 1.85042 
-1.25225 -1.43273 3.08644 
0.0183318 0.490105 0.274047 


 i = 238
2.93773 1.25035 -3.22245 
0.912628 -0.213323 -1.01862 
-5.16738 2.3791 1.85068 
-1.25232 -1.43288 3.08667 
0.0183545 0.490276 0.273854 


 i = 239
2.93809 1.25204 -3.2245 
0.914267 -0.213293 -1.02029 
-5.16961 2.38108 1.85093 
-1.25239 -1.43303 3.08689 
0.0183773 0.490446 0.273661 


 i = 240
2.93847 1.25375 -3.22659 
0.915904 -0.213267 -1.02195 
-5.17183 2.38304 1.85118 
-1.25246 -1.43317 3.08709 
0.0184002 0.490616 0.273468 


 i = 241
2.93886 1.25549 -3.22872 
0.917538 -0.213245 -1.0236 
-5.17401 2.38499 1.85143 
-1.25252 -1.43329 3.08728 
0.0184231 0.490786 0.273275 


 i = 242
2.93926 1.25726 -3.23089 
0.91917 -0.213228 -1.02525 
-5.17618 2.38692 1.85167 
-1.25258 -1.43341 3.08746 
0.018446 0.490956 0.273082 


 i = 243
2.93966 1.25906 -3.2331 
0.920799 -0.213215 -1.0269 
-5.17833 2.38883 1.8519 
-1.25264 -1.43352 3.08763 
0.018469 0.491126 0.272889 


 i = 244
2.94008 1.26089 -3.23534 
0.922426 -0.213206 -1.02853 
-5.18046 2.39073 1.85213 
-1.25269 -1.43363 3.08779 
0.0184921 0.491296 0.272697 


 i = 245
2.94051 1.26275 -3.23763 
0.92405 -0.213201 -1.03016 
-5.18257 2.39261 1.85236 
-1.25274 -1.43372 3.08794 
0.0185152 0.491465 0.272504 


 i = 246
2.94095 1.26463 -3.23995 
0.925672 -0.2132 -1.03178 
-5.18466 2.39448 1.85258 
-1.25279 -1.43381 3.08807 
0.0185383 0.491635 0.272311 


 i = 247
2.94139 1.26655 -3.24232 
0.927292 -0.213203 -1.0334 
-5.18673 2.39634 1.85279 
-1.25284 -1.43389 3.08819 
0.0185615 0.491804 0.272119 


 i = 248
2.94185 1.26849 -3.24472 
0.928908 -0.213209 -1.03501 
-5.18878 2.39818 1.853 
-1.25288 -1.43396 3.08831 
0.0185848 0.491973 0.271927 


 i = 249
2.94232 1.27047 -3.24716 
0.930523 -0.21322 -1.03661 
-5.19081 2.4 1.85321 
-1.25292 -1.43402 3.08841 
0.0186081 0.492142 0.271734 


 i = 250
2.94279 1.27247 -3.24964 
0.932135 -0.213234 -1.03821 
-5.19283 2.40181 1.85341 
-1.25296 -1.43407 3.0885 
0.0186314 0.492311 0.271542 


 i = 251
2.94327 1.2745 -3.25215 
0.933744 -0.213251 -1.0398 
-5.19482 2.40361 1.85361 
-1.25299 -1.43412 3.08858 
0.0186548 0.492479 0.27135 


 i = 252
2.94377 1.27656 -3.2547 
0.935351 -0.213272 -1.04139 
-5.1968 2.40539 1.85381 
-1.25302 -1.43416 3.08866 
0.0186782 0.492648 0.271159 


 i = 253
2.94427 1.27865 -3.25729 
0.936955 -0.213297 -1.04297 
-5.19876 2.40716 1.854 
-1.25305 -1.4342 3.08872 
0.0187016 0.492816 0.270967 


 i = 254
2.94478 1.28077 -3.25992 
0.938557 -0.213325 -1.04454 
-5.2007 2.40891 1.85419 
-1.25307 -1.43423 3.08877 
0.0187251 0.492984 0.270775 


 i = 255
2.9453 1.28291 -3.26258 
0.940156 -0.213356 -1.04611 
-5.20262 2.41065 1.85437 
-1.2531 -1.43425 3.08882 
0.0187486 0.493152 0.270584 


 i = 256
2.94582 1.28509 -3.26528 
0.941752 -0.21339 -1.04767 
-5.20453 2.41237 1.85455 
-1.25312 -1.43427 3.08886 
0.0187722 0.49332 0.270393 


 i = 257
2.94635 1.28729 -3.26802 
0.943346 -0.213427 -1.04923 
-5.20642 2.41409 1.85473 
-1.25314 -1.43428 3.08889 
0.0187958 0.493487 0.270202 


 i = 258
2.9469 1.28951 -3.27078 
0.944938 -0.213467 -1.05078 
-5.20829 2.41578 1.85491 
-1.25315 -1.43429 3.08891 
0.0188195 0.493654 0.270011 


 i = 259
2.94745 1.29177 -3.27359 
0.946527 -0.213509 -1.05233 
-5.21015 2.41746 1.85508 
-1.25316 -1.43429 3.08893 
0.0188432 0.493821 0.26982 


 i = 260
2.948 1.29405 -3.27642 
0.948113 -0.213555 -1.05387 
-5.21199 2.41913 1.85525 
-1.25317 -1.43429 3.08894 
0.0188669 0.493988 0.26963 


 i = 261
2.94857 1.29635 -3.27929 
0.949697 -0.213603 -1.05541 
-5.21381 2.42079 1.85542 
-1.25318 -1.43429 3.08894 
0.0188906 0.494155 0.269439 


 i = 262
2.94914 1.29868 -3.28219 
0.951278 -0.213653 -1.05694 
-5.21562 2.42243 1.85559 
-1.25319 -1.43428 3.08894 
0.0189144 0.494321 0.269249 


 i = 263
2.94972 1.30103 -3.28513 
0.952856 -0.213706 -1.05846 
-5.21741 2.42405 1.85576 
-1.25319 -1.43428 3.08894 
0.0189382 0.494487 0.269059 


 i = 264
2.9503 1.30341 -3.28809 
0.954432 -0.213761 -1.05998 
-5.21919 2.42566 1.85593 
-1.25319 -1.43427 3.08893 
0.018962 0.494653 0.268869 


 i = 265
2.9509 1.30581 -3.29108 
0.956005 -0.213818 -1.0615 
-5.22095 2.42726 1.85609 
-1.25319 -1.43426 3.08892 
0.0189859 0.494819 0.26868 


 i = 266
2.95149 1.30823 -3.2941 
0.957576 -0.213877 -1.06301 
-5.2227 2.42883 1.85626 
-1.25318 -1.43425 3.0889 
0.0190098 0.494984 0.26849 


 i = 267
2.9521 1.31068 -3.29715 
0.959143 -0.213938 -1.06452 
-5.22443 2.4304 1.85643 
-1.25318 -1.43424 3.08889 
0.0190337 0.49515 0.268301 


 i = 268
2.95271 1.31315 -3.30023 
0.960708 -0.214 -1.06602 
-5.22615 2.43195 1.8566 
-1.25317 -1.43423 3.08887 
0.0190577 0.495315 0.268112 


 i = 269
2.95333 1.31563 -3.30333 
0.96227 -0.214063 -1.06752 
-5.22785 2.43348 1.85677 
-1.25315 -1.43423 3.08886 
0.0190817 0.495479 0.267923 


 i = 270
2.95395 1.31814 -3.30646 
0.96383 -0.214128 -1.06901 
-5.22954 2.435 1.85694 
-1.25314 -1.43423 3.08884 
0.0191057 0.495644 0.267735 


 i = 271
2.95458 1.32066 -3.30962 
0.965386 -0.214193 -1.0705 
-5.23121 2.4365 1.85711 
-1.25312 -1.43423 3.08883 
0.0191297 0.495808 0.267547 


 i = 272
2.95521 1.32321 -3.31279 
0.96694 -0.21426 -1.07199 
-5.23288 2.43798 1.85729 
-1.25311 -1.43424 3.08882 
0.0191537 0.495972 0.267359 


 i = 273
2.95585 1.32577 -3.31599 
0.968491 -0.214326 -1.07348 
-5.23452 2.43945 1.85747 
-1.25309 -1.43426 3.08881 
0.0191777 0.496136 0.267171 


 i = 274
2.95649 1.32835 -3.31922 
0.970038 -0.214393 -1.07496 
-5.23616 2.4409 1.85766 
-1.25306 -1.43428 3.08881 
0.0192018 0.4963 0.266983 


 i = 275
2.95714 1.33095 -3.32247 
0.971583 -0.214461 -1.07643 
-5.23778 2.44233 1.85785 
-1.25304 -1.43431 3.08881 
0.0192259 0.496463 0.266796 


 i = 276
2.9578 1.33356 -3.32573 
0.973125 -0.214527 -1.07791 
-5.23939 2.44374 1.85805 
-1.25301 -1.43435 3.08883 
0.0192499 0.496626 0.266609 


 i = 277
2.95845 1.3362 -3.32903 
0.974663 -0.214594 -1.07938 
-5.24099 2.44513 1.85826 
-1.25298 -1.43439 3.08884 
0.019274 0.496788 0.266422 


 i = 278
2.95911 1.33885 -3.33234 
0.976198 -0.214659 -1.08085 
-5.24258 2.44651 1.85847 
-1.25295 -1.43445 3.08887 
0.0192981 0.496951 0.266236 


 i = 279
2.95978 1.34152 -3.33568 
0.97773 -0.214724 -1.08232 
-5.24415 2.44786 1.85869 
-1.25291 -1.43453 3.08891 
0.0193222 0.497113 0.266049 


 i = 280
2.96045 1.34421 -3.33903 
0.979259 -0.214787 -1.08378 
-5.24572 2.44919 1.85893 
-1.25287 -1.43461 3.08896 
0.0193463 0.497275 0.265864 


 i = 281
2.96112 1.34692 -3.34242 
0.980785 -0.214849 -1.08525 
-5.24727 2.4505 1.85917 
-1.25284 -1.43471 3.08902 
0.0193704 0.497436 0.265678 


 i = 282
2.9618 1.34966 -3.34583 
0.982307 -0.214908 -1.08671 
-5.24881 2.45178 1.85942 
-1.25279 -1.43483 3.08909 
0.0193945 0.497597 0.265493 


 i = 283
2.96248 1.35241 -3.34926 
0.983826 -0.214966 -1.08817 
-5.25034 2.45305 1.85969 
-1.25275 -1.43496 3.08918 
0.0194186 0.497758 0.265308 


 i = 284
2.96316 1.35519 -3.35273 
0.985341 -0.215021 -1.08963 
-5.25186 2.45428 1.85997 
-1.2527 -1.43512 3.08929 
0.0194426 0.497918 0.265123 


 i = 285
2.96384 1.358 -3.35622 
0.986853 -0.215074 -1.09109 
-5.25337 2.45549 1.86027 
-1.25265 -1.43529 3.08941 
0.0194667 0.498079 0.264939 


 i = 286
2.96453 1.36084 -3.35975 
0.988361 -0.215123 -1.09255 
-5.25487 2.45668 1.86059 
-1.2526 -1.43548 3.08956 
0.0194908 0.498238 0.264756 


 i = 287
2.96522 1.36372 -3.36331 
0.989866 -0.21517 -1.09401 
-5.25636 2.45783 1.86092 
-1.25255 -1.4357 3.08972 
0.0195148 0.498397 0.264573 


 i = 288
2.96591 1.36662 -3.3669 
0.991367 -0.215212 -1.09547 
-5.25783 2.45896 1.86128 
-1.25249 -1.43595 3.08991 
0.0195388 0.498556 0.26439 


 i = 289
2.9666 1.36956 -3.37054 
0.992865 -0.215251 -1.09692 
-5.2593 2.46005 1.86165 
-1.25243 -1.43622 3.09012 
0.0195628 0.498714 0.264208 


 i = 290
2.9673 1.37254 -3.37421 
0.994358 -0.215286 -1.09838 
-5.26077 2.46111 1.86205 
-1.25237 -1.43652 3.09036 
0.0195868 0.498872 0.264026 


 i = 291
2.96799 1.37556 -3.37792 
0.995849 -0.215317 -1.09984 
-5.26222 2.46214 1.86247 
-1.2523 -1.43686 3.09063 
0.0196108 0.499029 0.263845 


 i = 292
2.96869 1.37861 -3.38167 
0.997335 -0.215343 -1.1013 
-5.26366 2.46314 1.86292 
-1.25224 -1.43722 3.09093 
0.0196347 0.499186 0.263664 


 i = 293
2.96939 1.38169 -3.38545 
0.998818 -0.215365 -1.10276 
-5.2651 2.4641 1.86339 
-1.25217 -1.43763 3.09127 
0.0196586 0.499342 0.263484 


 i = 294
2.97009 1.3848 -3.38926 
1.0003 -0.215382 -1.10423 
-5.26653 2.46503 1.86389 
-1.2521 -1.43807 3.09164 
0.0196825 0.499498 0.263304 


 i = 295
2.97079 1.38792 -3.39308 
1.00177 -0.215395 -1.10569 
-5.26795 2.46593 1.86442 
-1.25202 -1.43855 3.09204 
0.0197063 0.499654 0.263124 


 i = 296
2.97149 1.39105 -3.39692 
1.00324 -0.215404 -1.10715 
-5.26936 2.46679 1.86496 
-1.25195 -1.43907 3.09248 
0.0197301 0.499809 0.262945 


 i = 297
2.97219 1.39419 -3.40075 
1.00471 -0.215409 -1.10861 
-5.27076 2.46763 1.86553 
-1.25187 -1.43962 3.09297 
0.0197539 0.499964 0.262766 


 i = 298
2.97289 1.39732 -3.40458 
1.00617 -0.21541 -1.11008 
-5.27216 2.46843 1.86613 
-1.25179 -1.44022 3.09349 
0.0197776 0.500119 0.262588 


 i = 299
2.97359 1.40044 -3.4084 
1.00763 -0.215408 -1.11154 
-5.27355 2.46921 1.86674 
-1.25171 -1.44086 3.09404 
0.0198012 0.500274 0.26241 


 i = 300
2.97429 1.40353 -3.4122 
1.00909 -0.215402 -1.113 
-5.27494 2.46996 1.86738 
-1.25163 -1.44154 3.09464 
0.0198248 0.500428 0.262231 


 i = 301
2.97499 1.40661 -3.41597 
1.01054 -0.215393 -1.11446 
-5.27632 2.47069 1.86803 
-1.25155 -1.44226 3.09528 
0.0198484 0.500583 0.262053 


 i = 302
2.97569 1.40966 -3.41972 
1.01199 -0.215382 -1.11592 
-5.27769 2.47139 1.8687 
-1.25146 -1.44301 3.09595 
0.0198719 0.500738 0.261875 


 i = 303
2.97639 1.41268 -3.42344 
1.01343 -0.215367 -1.11737 
-5.27906 2.47206 1.86939 
-1.25138 -1.4438 3.09665 
0.0198953 0.500892 0.261697 


 i = 304
2.97708 1.41567 -3.42713 
1.01487 -0.21535 -1.11883 
-5.28042 2.47272 1.8701 
-1.25129 -1.44463 3.0974 
0.0199186 0.501047 0.261519 


 i = 305
2.97778 1.41864 -3.43079 
1.0163 -0.215329 -1.12028 
-5.28177 2.47335 1.87082 
-1.2512 -1.4455 3.09817 
0.0199419 0.501202 0.261341 


 i = 306
2.97847 1.42157 -3.43442 
1.01773 -0.215306 -1.12173 
-5.28312 2.47397 1.87155 
-1.25111 -1.44639 3.09898 
0.0199651 0.501357 0.261163 


 i = 307
2.97917 1.42448 -3.43802 
1.01915 -0.215278 -1.12319 
-5.28446 2.47457 1.8723 
-1.25102 -1.44732 3.09982 
0.0199882 0.501512 0.260985 


 i = 308
2.97986 1.42736 -3.44159 
1.02057 -0.215248 -1.12463 
-5.2858 2.47515 1.87305 
-1.25093 -1.44828 3.10069 
0.0200112 0.501667 0.260807 


 i = 309
2.98054 1.43021 -3.44513 
1.02198 -0.215214 -1.12608 
-5.28713 2.47572 1.87381 
-1.25084 -1.44927 3.10158 
0.0200341 0.501822 0.260629 


 i = 310
2.98123 1.43304 -3.44864 
1.02339 -0.215176 -1.12753 
-5.28846 2.47628 1.87458 
-1.25075 -1.45029 3.10251 
0.020057 0.501977 0.26045 


 i = 311
2.98191 1.43584 -3.45212 
1.0248 -0.215133 -1.12898 
-5.28978 2.47683 1.87535 
-1.25065 -1.45133 3.10346 
0.0200797 0.502133 0.260272 


 i = 312
2.98259 1.43861 -3.45558 
1.0262 -0.215087 -1.13042 
-5.2911 2.47736 1.87613 
-1.25056 -1.4524 3.10443 
0.0201024 0.502288 0.260094 


 i = 313
2.98327 1.44136 -3.45901 
1.02759 -0.215037 -1.13186 
-5.29241 2.47789 1.87692 
-1.25046 -1.4535 3.10543 
0.020125 0.502444 0.259916 


 i = 314
2.98395 1.44409 -3.46241 
1.02898 -0.214983 -1.13331 
-5.29372 2.47841 1.8777 
-1.25036 -1.45461 3.10644 
0.0201474 0.5026 0.259737 


 i = 315
2.98462 1.4468 -3.46579 
1.03036 -0.214924 -1.13475 
-5.29502 2.47893 1.87849 
-1.25026 -1.45575 3.10748 
0.0201698 0.502756 0.259559 


 i = 316
2.98529 1.44948 -3.46915 
1.03174 -0.214861 -1.13619 
-5.29632 2.47944 1.87927 
-1.25016 -1.45691 3.10854 
0.0201921 0.502913 0.25938 


 i = 317
2.98596 1.45215 -3.47248 
1.03311 -0.214793 -1.13763 
-5.29761 2.47995 1.88006 
-1.25006 -1.45809 3.10962 
0.0202143 0.503069 0.259201 


 i = 318
2.98662 1.4548 -3.4758 
1.03448 -0.214721 -1.13907 
-5.2989 2.48046 1.88084 
-1.24996 -1.45928 3.11072 
0.0202364 0.503226 0.259022 


 i = 319
2.98728 1.45743 -3.47909 
1.03584 -0.214644 -1.14051 
-5.30019 2.48096 1.88162 
-1.24986 -1.4605 3.11183 
0.0202584 0.503383 0.258844 


 i = 320
2.98794 1.46005 -3.48237 
1.0372 -0.214563 -1.14195 
-5.30147 2.48147 1.8824 
-1.24975 -1.46173 3.11295 
0.0202803 0.50354 0.258665 


 i = 321
2.9886 1.46265 -3.48563 
1.03855 -0.214477 -1.14339 
-5.30275 2.48197 1.88317 
-1.24965 -1.46297 3.11409 
0.020302 0.503697 0.258486 


 i = 322
2.98925 1.46525 -3.48887 
1.0399 -0.214386 -1.14482 
-5.30402 2.48248 1.88394 
-1.24955 -1.46423 3.11525 
0.0203237 0.503854 0.258307 


 i = 323
2.98991 1.46783 -3.49211 
1.04124 -0.214291 -1.14626 
-5.30529 2.48298 1.8847 
-1.24944 -1.4655 3.11641 
0.0203454 0.504012 0.258128 


 i = 324
2.99055 1.4704 -3.49532 
1.04258 -0.214192 -1.1477 
-5.30655 2.48349 1.88545 
-1.24933 -1.46679 3.11759 
0.0203669 0.504169 0.257948 


 i = 325
2.9912 1.47296 -3.49853 
1.04391 -0.214088 -1.14913 
-5.30781 2.48401 1.8862 
-1.24923 -1.46808 3.11878 
0.0203883 0.504327 0.257769 


 i = 326
2.99184 1.47552 -3.50173 
1.04524 -0.213979 -1.15057 
-5.30906 2.48453 1.88693 
-1.24912 -1.46939 3.11998 
0.0204096 0.504485 0.25759 


 i = 327
2.99248 1.47807 -3.50493 
1.04656 -0.213866 -1.15201 
-5.31031 2.48505 1.88766 
-1.24901 -1.4707 3.12118 
0.0204309 0.504643 0.257411 


 i = 328
2.99312 1.48061 -3.50811 
1.04788 -0.213748 -1.15344 
-5.31156 2.48558 1.88838 
-1.2489 -1.47202 3.1224 
0.0204521 0.504801 0.257231 


 i = 329
2.99376 1.48316 -3.51129 
1.04919 -0.213626 -1.15488 
-5.3128 2.48612 1.88908 
-1.24879 -1.47335 3.12362 
0.0204731 0.50496 0.257052 


 i = 330
2.9944 1.4857 -3.51447 
1.0505 -0.2135 -1.15631 
-5.31404 2.48666 1.88978 
-1.24868 -1.47469 3.12484 
0.0204941 0.505118 0.256873 


 i = 331
2.99503 1.48825 -3.51765 
1.05181 -0.213369 -1.15775 
-5.31528 2.48722 1.89046 
-1.24857 -1.47603 3.12607 
0.0205151 0.505276 0.256693 


 i = 332
2.99566 1.4908 -3.52084 
1.05311 -0.213235 -1.15918 
-5.31651 2.48778 1.89113 
-1.24846 -1.47738 3.12731 
0.0205359 0.505435 0.256514 


 i = 333
2.99629 1.49336 -3.52402 
1.0544 -0.213096 -1.16062 
-5.31773 2.48835 1.89178 
-1.24835 -1.47873 3.12855 
0.0205567 0.505593 0.256335 


 i = 334
2.99692 1.49592 -3.52721 
1.05569 -0.212953 -1.16205 
-5.31895 2.48893 1.89242 
-1.24823 -1.48008 3.12979 
0.0205774 0.505752 0.256155 


 i = 335
2.99754 1.49849 -3.53041 
1.05698 -0.212806 -1.16349 
-5.32017 2.48952 1.89305 
-1.24812 -1.48144 3.13103 
0.0205981 0.50591 0.255976 


 i = 336
2.99817 1.50108 -3.53362 
1.05827 -0.212655 -1.16492 
-5.32138 2.49013 1.89365 
-1.24801 -1.48279 3.13227 
0.0206187 0.506069 0.255797 


 i = 337
2.9988 1.50368 -3.53685 
1.05955 -0.212501 -1.16636 
-5.32259 2.49074 1.89425 
-1.24789 -1.48415 3.13351 
0.0206393 0.506227 0.255618 


 i = 338
2.99942 1.50629 -3.54008 
1.06082 -0.212343 -1.16779 
-5.3238 2.49137 1.89482 
-1.24778 -1.4855 3.13475 
0.0206598 0.506386 0.255439 


 i = 339
3.00004 1.50892 -3.54334 
1.0621 -0.212182 -1.16922 
-5.32499 2.49202 1.89538 
-1.24766 -1.48685 3.13599 
0.0206802 0.506544 0.255261 


 i = 340
3.00067 1.51158 -3.54662 
1.06336 -0.212017 -1.17066 
-5.32619 2.49267 1.89592 
-1.24755 -1.4882 3.13722 
0.0207006 0.506702 0.255082 


 i = 341
3.00129 1.51426 -3.54993 
1.06463 -0.211849 -1.17209 
-5.32738 2.49334 1.89643 
-1.24743 -1.48955 3.13845 
0.020721 0.50686 0.254904 


 i = 342
3.00191 1.51697 -3.55326 
1.0659 -0.211678 -1.17353 
-5.32856 2.49403 1.89693 
-1.24731 -1.49089 3.13968 
0.0207413 0.507017 0.254726 


 i = 343
3.00254 1.51971 -3.55662 
1.06716 -0.211503 -1.17496 
-5.32974 2.49474 1.89741 
-1.2472 -1.49223 3.1409 
0.0207616 0.507175 0.254548 


 i = 344
3.00316 1.52248 -3.56002 
1.06841 -0.211327 -1.1764 
-5.33092 2.49546 1.89786 
-1.24708 -1.49356 3.14211 
0.0207819 0.507332 0.254371 


 i = 345
3.00379 1.52529 -3.56345 
1.06967 -0.211147 -1.17783 
-5.33209 2.49619 1.8983 
-1.24697 -1.49488 3.14332 
0.0208022 0.507488 0.254194 


 i = 346
3.00441 1.52814 -3.56693 
1.07092 -0.210965 -1.17927 
-5.33326 2.49695 1.89871 
-1.24685 -1.4962 3.14452 
0.0208225 0.507645 0.254018 


 i = 347
3.00504 1.53104 -3.57045 
1.07217 -0.210781 -1.1807 
-5.33442 2.49772 1.89909 
-1.24674 -1.49751 3.14572 
0.0208427 0.5078 0.253842 


 i = 348
3.00567 1.53398 -3.57402 
1.07342 -0.210596 -1.18214 
-5.33558 2.49852 1.89946 
-1.24662 -1.49881 3.1469 
0.020863 0.507955 0.253666 


 i = 349
3.0063 1.53697 -3.57765 
1.07467 -0.210408 -1.18357 
-5.33673 2.49933 1.89979 
-1.24651 -1.5001 3.14808 
0.0208833 0.50811 0.253491 


 i = 350
3.00694 1.54002 -3.58133 
1.07592 -0.210219 -1.18501 
-5.33787 2.50016 1.90011 
-1.24639 -1.50139 3.14925 
0.0209036 0.508264 0.253317 


 i = 351
3.00757 1.54313 -3.58508 
1.07716 -0.21003 -1.18644 
-5.33901 2.50101 1.9004 
-1.24628 -1.50267 3.15042 
0.0209239 0.508417 0.253144 


 i = 352
3.00821 1.54631 -3.58889 
1.07841 -0.20984 -1.18788 
-5.34015 2.50189 1.90066 
-1.24617 -1.50394 3.15157 
0.0209443 0.508569 0.252971 


 i = 353
3.00885 1.54955 -3.59277 
1.07965 -0.209649 -1.18931 
-5.34128 2.50277 1.9009 
-1.24606 -1.5052 3.15273 
0.0209646 0.508721 0.252799 


 i = 354
3.0095 1.55286 -3.59673 
1.08089 -0.209459 -1.19074 
-5.34241 2.50368 1.90112 
-1.24595 -1.50645 3.15387 
0.0209851 0.508871 0.252629 


 i = 355
3.01015 1.55624 -3.60076 
1.08213 -0.20927 -1.19217 
-5.34353 2.50461 1.90132 
-1.24584 -1.50771 3.15502 
0.0210056 0.50902 0.252459 


 i = 356
3.0108 1.5597 -3.60488 
1.08337 -0.209082 -1.1936 
-5.34464 2.50555 1.90149 
-1.24573 -1.50896 3.15616 
0.0210261 0.509168 0.25229 


 i = 357
3.01146 1.56325 -3.60908 
1.08462 -0.208895 -1.19503 
-5.34575 2.50651 1.90164 
-1.24562 -1.51021 3.1573 
0.0210467 0.509315 0.252122 


 i = 358
3.01212 1.56687 -3.61336 
1.08586 -0.208712 -1.19646 
-5.34686 2.50748 1.90178 
-1.24552 -1.51146 3.15845 
0.0210674 0.509461 0.251956 


 i = 359
3.01278 1.57058 -3.61774 
1.0871 -0.208531 -1.19788 
-5.34795 2.50846 1.9019 
-1.24541 -1.51272 3.1596 
0.0210882 0.509606 0.251791 


 i = 360
3.01346 1.57439 -3.62221 
1.08835 -0.208354 -1.1993 
-5.34905 2.50944 1.902 
-1.24531 -1.51398 3.16077 
0.021109 0.509749 0.251627 


 i = 361
3.01413 1.57828 -3.62678 
1.08959 -0.208181 -1.20072 
-5.35014 2.51043 1.9021 
-1.24521 -1.51527 3.16195 
0.02113 0.50989 0.251464 


 i = 362
3.01481 1.58226 -3.63145 
1.09084 -0.208012 -1.20214 
-5.35122 2.51143 1.90219 
-1.24512 -1.51656 3.16315 
0.021151 0.51003 0.251303 


 i = 363
3.0155 1.58633 -3.63621 
1.09209 -0.20785 -1.20355 
-5.3523 2.51241 1.90229 
-1.24502 -1.51788 3.16438 
0.0211722 0.510169 0.251143 


 i = 364
3.0162 1.5905 -3.64107 
1.09334 -0.207692 -1.20496 
-5.35337 2.51339 1.90238 
-1.24493 -1.51923 3.16563 
0.0211935 0.510306 0.250985 


 i = 365
3.0169 1.59477 -3.64604 
1.09459 -0.207542 -1.20636 
-5.35444 2.51436 1.90248 
-1.24484 -1.52061 3.16692 
0.0212149 0.510442 0.250828 


 i = 366
3.01761 1.59912 -3.6511 
1.09584 -0.207398 -1.20776 
-5.35551 2.51531 1.9026 
-1.24475 -1.52204 3.16826 
0.0212364 0.510576 0.250672 


 i = 367
3.01832 1.60357 -3.65626 
1.0971 -0.207262 -1.20915 
-5.35656 2.51623 1.90273 
-1.24466 -1.5235 3.16964 
0.0212581 0.510708 0.250518 


 i = 368
3.01904 1.60811 -3.66152 
1.09836 -0.207133 -1.21054 
-5.35762 2.51713 1.90289 
-1.24458 -1.52502 3.17107 
0.0212799 0.510839 0.250366 


 i = 369
3.01977 1.61273 -3.66687 
1.09963 -0.207012 -1.21192 
-5.35867 2.518 1.90307 
-1.24449 -1.52659 3.17256 
0.0213018 0.510969 0.250214 


 i = 370
3.0205 1.61744 -3.67232 
1.10089 -0.206901 -1.2133 
-5.35971 2.51883 1.90328 
-1.24441 -1.52822 3.17411 
0.0213239 0.511097 0.250064 


 i = 371
3.02124 1.62223 -3.67785 
1.10216 -0.206798 -1.21467 
-5.36075 2.51962 1.90353 
-1.24434 -1.52992 3.17572 
0.0213462 0.511223 0.249915 


 i = 372
3.02199 1.6271 -3.68347 
1.10343 -0.206704 -1.21604 
-5.36178 2.52037 1.90381 
-1.24426 -1.53168 3.17741 
0.0213685 0.511348 0.249768 


 i = 373
3.02275 1.63204 -3.68917 
1.10471 -0.20662 -1.2174 
-5.36281 2.52108 1.90413 
-1.24418 -1.53351 3.17916 
0.0213911 0.511472 0.249622 


 i = 374
3.02352 1.63705 -3.69494 
1.10599 -0.206545 -1.21876 
-5.36384 2.52174 1.90449 
-1.24411 -1.53541 3.18099 
0.0214137 0.511594 0.249477 


 i = 375
3.02429 1.64213 -3.7008 
1.10727 -0.206481 -1.2201 
-5.36485 2.52236 1.90489 
-1.24404 -1.53738 3.18289 
0.0214366 0.511715 0.249333 


 i = 376
3.02507 1.64728 -3.70672 
1.10856 -0.206426 -1.22145 
-5.36587 2.52293 1.90534 
-1.24397 -1.53943 3.18487 
0.0214595 0.511835 0.24919 


 i = 377
3.02585 1.65249 -3.71272 
1.10985 -0.206381 -1.22278 
-5.36688 2.52346 1.90582 
-1.2439 -1.54155 3.18692 
0.0214827 0.511953 0.249049 


 i = 378
3.02665 1.65776 -3.71878 
1.11115 -0.206346 -1.22411 
-5.36788 2.52394 1.90634 
-1.24383 -1.54375 3.18905 
0.0215059 0.51207 0.248909 


 i = 379
3.02745 1.66309 -3.72491 
1.11244 -0.206321 -1.22543 
-5.36888 2.52437 1.90691 
-1.24377 -1.54603 3.19127 
0.0215293 0.512185 0.24877 


 i = 380
3.02826 1.66847 -3.73111 
1.11375 -0.206307 -1.22675 
-5.36987 2.52476 1.90751 
-1.24371 -1.54838 3.19356 
0.0215529 0.512299 0.248632 


 i = 381
3.02908 1.67391 -3.73736 
1.11505 -0.206304 -1.22806 
-5.37086 2.5251 1.90816 
-1.24364 -1.55081 3.19593 
0.0215766 0.512412 0.248496 


 i = 382
3.0299 1.6794 -3.74368 
1.11636 -0.206313 -1.22936 
-5.37185 2.52539 1.90885 
-1.24358 -1.55332 3.19837 
0.0216004 0.512523 0.248361 


 i = 383
3.03073 1.68493 -3.75004 
1.11767 -0.206334 -1.23065 
-5.37282 2.52564 1.90958 
-1.24353 -1.5559 3.2009 
0.0216243 0.512632 0.248228 


 i = 384
3.03157 1.6905 -3.75644 
1.11899 -0.206368 -1.23193 
-5.3738 2.52584 1.91035 
-1.24347 -1.55856 3.2035 
0.0216484 0.51274 0.248096 


 i = 385
3.03242 1.6961 -3.76289 
1.1203 -0.206418 -1.2332 
-5.37477 2.526 1.91117 
-1.24342 -1.56129 3.20617 
0.0216725 0.512846 0.247966 


 i = 386
3.03327 1.70171 -3.76936 
1.12162 -0.206483 -1.23445 
-5.37573 2.52612 1.91201 
-1.24336 -1.56407 3.2089 
0.0216968 0.512949 0.247839 


 i = 387
3.03413 1.70734 -3.77584 
1.12295 -0.206564 -1.2357 
-5.37669 2.5262 1.91289 
-1.24331 -1.5669 3.21168 
0.0217213 0.51305 0.247713 


 i = 388
3.035 1.71295 -3.78232 
1.12428 -0.206662 -1.23693 
-5.37764 2.52626 1.91378 
-1.24326 -1.56975 3.21448 
0.0217458 0.513149 0.24759 


 i = 389
3.03588 1.71849 -3.78874 
1.12561 -0.206777 -1.23814 
-5.37858 2.52631 1.91467 
-1.24321 -1.57256 3.21724 
0.0217705 0.513245 0.247469 


 i = 390
3.03676 1.72388 -3.79502 
1.12694 -0.206915 -1.23934 
-5.37951 2.52632 1.91559 
-1.24315 -1.57529 3.21991 
0.0217954 0.513339 0.24735 


 i = 391
3.03765 1.72944 -3.80146 
1.12828 -0.207019 -1.24057 
-5.38044 2.5265 1.91634 
-1.2431 -1.57799 3.22256 
0.0218203 0.513436 0.247229 


 i = 392
3.03857 1.73357 -3.80652 
1.12962 -0.207371 -1.24156 
-5.38132 2.5257 1.91803 
-1.24303 -1.58066 3.22516 
0.0218458 0.513521 0.247118 


 i = 393
3.03947 1.73913 -3.81297 
1.13095 -0.207197 -1.24307 
-5.38224 2.52742 1.91722 
-1.24296 -1.58217 3.22661 
0.0218707 0.513641 0.246973 


 i = 394
3.04043 1.74143 -3.81623 
1.13231 -0.207806 -1.24381 
-5.38306 2.52574 1.91971 
-1.24286 -1.58464 3.22897 
0.021897 0.513721 0.246866 


 i = 395
3.04134 1.74603 -3.82175 
1.13364 -0.20742 -1.24553 
-5.38393 2.52906 1.91728 
-1.24276 -1.58486 3.22909 
0.0219221 0.513871 0.246692 


 i = 396
3.04236 1.74603 -3.82277 
1.13501 -0.208046 -1.24628 
-5.38464 2.52808 1.91896 
-1.2426 -1.58574 3.22981 
0.0219496 0.513971 0.246564 


 i = 397
3.0433 1.74894 -3.82661 
1.13634 -0.207986 -1.24767 
-5.38548 2.52994 1.91794 
-1.24247 -1.58741 3.23135 
0.0219746 0.514112 0.246398 


 i = 398
3.04425 1.75069 -3.82931 
1.13767 -0.208501 -1.24848 
-5.38627 2.52889 1.91978 
-1.24235 -1.58935 3.23317 
0.0220006 0.514212 0.246272 


 i = 399
3.04515 1.75478 -3.8343 
1.13898 -0.208151 -1.25014 
-5.38712 2.53174 1.91778 
-1.24224 -1.59013 3.23384 
0.0220251 0.514365 0.246095 


 i = 400
3.04617 1.75339 -3.83393 
1.14033 -0.208659 -1.25098 
-5.38779 2.53163 1.91855 
-1.24205 -1.59005 3.23357 
0.0220524 0.514485 0.245947 


 i = 401
3.0471 1.75537 -3.83684 
1.14163 -0.208697 -1.25225 
-5.38859 2.53296 1.91803 
-1.24191 -1.59204 3.23542 
0.0220771 0.514625 0.245782 


 i = 402
3.04796 1.76031 -3.84265 
1.14291 -0.208691 -1.25354 
-5.38946 2.53376 1.9181 
-1.24184 -1.59406 3.23737 
0.022101 0.51475 0.245633 


 i = 403
3.04895 1.75872 -3.84204 
1.14423 -0.209129 -1.25442 
-5.39012 2.53385 1.91867 
-1.24166 -1.59384 3.23698 
0.0221277 0.514873 0.245484 


 i = 404
3.04985 1.76099 -3.84522 
1.14551 -0.209072 -1.25575 
-5.39092 2.53543 1.91789 
-1.24152 -1.59573 3.23872 
0.0221517 0.515017 0.245316 


 i = 405
3.05068 1.76666 -3.85171 
1.14677 -0.208961 -1.25712 
-5.39182 2.53649 1.91772 
-1.24147 -1.59789 3.24083 
0.0221749 0.515146 0.245163 


 i = 406
3.05166 1.76514 -3.85117 
1.14807 -0.209189 -1.25819 
-5.39247 2.53786 1.917 
-1.24131 -1.59665 3.23943 
0.022201 0.515286 0.244997 


 i = 407
3.0525 1.76956 -3.85643 
1.14931 -0.209097 -1.25953 
-5.39333 2.53919 1.91654 
-1.24123 -1.59883 3.24152 
0.0222241 0.515429 0.244831 


 i = 408
3.05346 1.7681 -3.85593 
1.1506 -0.209537 -1.26037 
-5.39399 2.53906 1.91732 
-1.24105 -1.59887 3.24139 
0.02225 0.515558 0.244676 


 i = 409
3.05434 1.77027 -3.85898 
1.15185 -0.209435 -1.26172 
-5.39477 2.54075 1.91641 
-1.2409 -1.60068 3.24305 
0.0222735 0.515705 0.244506 


 i = 410
3.05512 1.77567 -3.86517 
1.15306 -0.209447 -1.26293 
-5.39568 2.54066 1.91741 
-1.24085 -1.60401 3.24633 
0.0222957 0.515841 0.244348 


 i = 411
3.05593 1.78185 -3.87215 
1.15429 -0.20921 -1.26439 
-5.39656 2.54205 1.9169 
-1.2408 -1.60621 3.24848 
0.0223182 0.515958 0.244208 


 i = 412
3.057 1.77849 -3.86987 
1.15559 -0.209877 -1.26502 
-5.39704 2.5414 1.91804 
-1.24058 -1.60546 3.24751 
0.0223456 0.516069 0.24407 


 i = 413
3.05791 1.77823 -3.87051 
1.15683 -0.210085 -1.26605 
-5.39775 2.54171 1.91844 
-1.2404 -1.6077 3.24957 
0.0223695 0.516213 0.243902 


 i = 414
3.0587 1.78305 -3.87612 
1.15803 -0.209921 -1.26742 
-5.39861 2.54294 1.91808 
-1.24032 -1.61003 3.25182 
0.0223914 0.516359 0.243734 


 i = 415
3.05961 1.78198 -3.87597 
1.15926 -0.209985 -1.26859 
-5.39926 2.54462 1.91704 
-1.24016 -1.60879 3.25042 
0.0224161 0.516508 0.243561 


 i = 416
3.06041 1.78669 -3.88147 
1.16045 -0.209731 -1.27004 
-5.4001 2.54644 1.91606 
-1.24007 -1.61073 3.25227 
0.0224379 0.51666 0.243386 


 i = 417
3.06115 1.79314 -3.88866 
1.16163 -0.209442 -1.2715 
-5.40101 2.54717 1.91624 
-1.24003 -1.61376 3.25527 
0.0224593 0.516815 0.243211 


 i = 418
3.06219 1.79001 -3.88657 
1.1629 -0.210038 -1.27217 
-5.40149 2.54667 1.91722 
-1.23981 -1.61298 3.25426 
0.0224859 0.516929 0.24307 


 i = 419
3.06307 1.79003 -3.88747 
1.1641 -0.210159 -1.27325 
-5.40219 2.54726 1.91733 
-1.23963 -1.615 3.2561 
0.0225092 0.517078 0.242898 


 i = 420
3.06384 1.79433 -3.89254 
1.16527 -0.210138 -1.27444 
-5.40304 2.54752 1.91791 
-1.23955 -1.61803 3.25905 
0.0225305 0.51722 0.242734 


 i = 421
3.0647 1.79529 -3.89436 
1.16646 -0.210336 -1.27544 
-5.40371 2.54737 1.91874 
-1.23939 -1.61875 3.25961 
0.0225541 0.517336 0.242594 


 i = 422
3.0655 1.79809 -3.89797 
1.16763 -0.210101 -1.27684 
-5.40449 2.54908 1.91782 
-1.23925 -1.62064 3.26136 
0.0225756 0.517487 0.242422 


 i = 423
3.06638 1.79702 -3.89778 
1.16883 -0.210134 -1.278 
-5.40511 2.55073 1.91678 
-1.23907 -1.61956 3.2601 
0.0225995 0.517635 0.24225 


 i = 424
3.06718 1.80095 -3.9025 
1.16998 -0.209724 -1.27957 
-5.40589 2.55339 1.91489 
-1.23895 -1.62056 3.26098 
0.0226211 0.5178 0.242063 


 i = 425
3.06791 1.80646 -3.90874 
1.17112 -0.209235 -1.28119 
-5.40675 2.55499 1.91415 
-1.23887 -1.62277 3.26312 
0.0226416 0.51799 0.241853 


 i = 426
3.06864 1.81128 -3.91429 
1.17226 -0.209225 -1.28234 
-5.40761 2.55457 1.91544 
-1.23882 -1.62624 3.26653 
0.0226623 0.518141 0.241682 


 i = 427
3.0696 1.80942 -3.9134 
1.17347 -0.209386 -1.28339 
-5.40812 2.55609 1.91443 
-1.23863 -1.6245 3.2646 
0.0226876 0.518276 0.241521 


 i = 428
3.07038 1.81456 -3.91932 
1.17461 -0.208919 -1.28501 
-5.40893 2.55895 1.91238 
-1.23853 -1.62598 3.26597 
0.0227088 0.518446 0.24133 


 i = 429
3.07138 1.8125 -3.91826 
1.17583 -0.209649 -1.28549 
-5.4094 2.55773 1.91408 
-1.23833 -1.62599 3.26579 
0.0227344 0.518554 0.241196 


 i = 430
3.07219 1.81602 -3.92258 
1.17697 -0.209306 -1.28698 
-5.41014 2.56015 1.91239 
-1.2382 -1.62694 3.26661 
0.0227562 0.518717 0.241011 


 i = 431
3.07296 1.82084 -3.92817 
1.17811 -0.208678 -1.28874 
-5.41092 2.56241 1.91091 
-1.23808 -1.6286 3.26815 
0.0227773 0.518921 0.240786 


 i = 432
3.07422 1.81945 -3.92804 
1.17938 -0.206119 -1.29257 
-5.41105 2.57703 1.89642 
-1.23776 -1.61455 3.25378 
0.0228072 0.519351 0.240327 


 i = 433
3.07535 1.79804 -3.90776 
1.18059 -0.208797 -1.2911 
-5.4113 2.5713 1.9024 
-1.23725 -1.61892 3.25764 
0.0228342 0.519472 0.240178 


 i = 434
3.07661 1.77526 -3.88624 
1.18178 -0.210527 -1.29057 
-5.41137 2.56136 1.91241 
-1.23664 -1.62964 3.26776 
0.0228621 0.519743 0.23988 


 i = 435
3.07767 1.74545 -3.85749 
1.18284 -0.212745 -1.28941 
-5.41158 2.54282 1.93117 
-1.23598 -1.64929 3.28674 
0.0228849 0.519963 0.239637 


 i = 436
3.07878 1.72119 -3.83434 
1.1838 -0.2137 -1.28941 
-5.41163 2.52444 1.94959 
-1.23529 -1.66863 3.3054 
0.0229057 0.520272 0.239307 


 i = 437
3.07923 1.68591 -3.79952 
1.18455 -0.215213 -1.28865 
-5.41225 2.49362 1.98103 
-1.23483 -1.70078 3.33708 
0.0229155 0.520488 0.239081 


 i = 438
3.07903 1.65269 -3.7661 
1.18512 -0.215928 -1.2885 
-5.4134 2.46515 2.01066 
-1.23458 -1.73122 3.36728 
0.0229147 0.52072 0.23885 


 i = 439
3.07835 1.62557 -3.73829 
1.18553 -0.215923 -1.28892 
-5.41493 2.44163 2.03571 
-1.23448 -1.75687 3.39282 
0.0229058 0.521 0.238579 


 i = 440
3.07741 1.60545 -3.71723 
1.18584 -0.215331 -1.28982 
-5.41666 2.42423 2.05482 
-1.23442 -1.7762 3.41209 
0.0228917 0.52133 0.238263 


 i = 441
3.07631 1.59114 -3.70182 
1.18608 -0.214302 -1.29109 
-5.41848 2.41222 2.06865 
-1.23437 -1.7898 3.42563 
0.0228744 0.521701 0.237909 


 i = 442
3.07513 1.58094 -3.69044 
1.18627 -0.212975 -1.29261 
-5.42035 2.40412 2.07863 
-1.2343 -1.79919 3.43496 
0.0228548 0.522102 0.237528 


 i = 443
3.07389 1.57355 -3.68181 
1.18642 -0.211446 -1.29428 
-5.42227 2.39871 2.08596 
-1.23422 -1.80567 3.44136 
0.0228335 0.522522 0.237129 


 i = 444
3.0726 1.56807 -3.67505 
1.18653 -0.209776 -1.29607 
-5.42421 2.39514 2.09147 
-1.23412 -1.81015 3.44574 
0.0228111 0.522956 0.236717 


 i = 445
3.07129 1.5639 -3.66956 
1.18662 -0.208008 -1.29792 
-5.42617 2.39283 2.09573 
-1.23401 -1.81325 3.44873 
0.0227879 0.523402 0.236295 


 i = 446
3.06996 1.56061 -3.66495 
1.18668 -0.206171 -1.29982 
-5.42814 2.3914 2.09914 
-1.23389 -1.8154 3.45076 
0.0227639 0.523855 0.235866 


 i = 447
3.06862 1.55795 -3.66095 
1.18672 -0.204288 -1.30175 
-5.43013 2.39058 2.10194 
-1.23376 -1.81687 3.4521 
0.0227394 0.524314 0.235431 


 i = 448
3.06727 1.55573 -3.65737 
1.18675 -0.202376 -1.30369 
-5.43212 2.3902 2.10433 
-1.23362 -1.81787 3.45297 
0.0227147 0.524779 0.234991 


 i = 449
3.06592 1.55382 -3.65411 
1.18677 -0.200447 -1.30563 
-5.43412 2.39012 2.1064 
-1.23348 -1.81853 3.45348 
0.0226897 0.525249 0.234546 


 i = 450
3.06458 1.55213 -3.65108 
1.18678 -0.198511 -1.30758 
-5.43611 2.39027 2.10825 
-1.23333 -1.81893 3.45372 
0.0226645 0.525722 0.234098 


 i = 451
3.06324 1.5506 -3.64821 
1.18678 -0.196577 -1.30952 
-5.43811 2.39058 2.10993 
-1.23318 -1.81913 3.45378 
0.0226394 0.5262 0.233646 


 i = 452
3.06192 1.54919 -3.64548 
1.18678 -0.19465 -1.31144 
-5.44009 2.39101 2.11148 
-1.23302 -1.81918 3.45367 
0.0226144 0.52668 0.23319 


 i = 453
3.06061 1.54786 -3.64284 
1.18678 -0.192735 -1.31336 
-5.44206 2.39154 2.11293 
-1.23286 -1.81912 3.45345 
0.0225895 0.527164 0.232731 


 i = 454
3.05932 1.5466 -3.64029 
1.18678 -0.190834 -1.31526 
-5.44402 2.39213 2.11429 
-1.23269 -1.81896 3.45312 
0.0225648 0.527651 0.232269 


 i = 455
3.05805 1.54538 -3.6378 
1.18678 -0.18895 -1.31714 
-5.44597 2.39278 2.11559 
-1.23252 -1.81872 3.45271 
0.0225404 0.528141 0.231803 


 i = 456
3.0568 1.5442 -3.63538 
1.18679 -0.187085 -1.31902 
-5.4479 2.39347 2.11683 
-1.23235 -1.8184 3.45223 
0.0225163 0.528634 0.231334 


 i = 457
3.05558 1.54305 -3.633 
1.1868 -0.185239 -1.32088 
-5.44981 2.3942 2.11802 
-1.23218 -1.81803 3.45168 
0.0224926 0.52913 0.230862 


 i = 458
3.05438 1.54191 -3.63067 
1.18682 -0.183413 -1.32272 
-5.45171 2.39495 2.11916 
-1.232 -1.8176 3.45108 
0.0224692 0.529629 0.230387 


 i = 459
3.05321 1.54079 -3.62837 
1.18685 -0.181607 -1.32456 
-5.45358 2.39572 2.12027 
-1.23182 -1.81713 3.45042 
0.0224463 0.53013 0.229908 


 i = 460
3.05206 1.53968 -3.62611 
1.18689 -0.179821 -1.32638 
-5.45544 2.3965 2.12134 
-1.23164 -1.81661 3.44972 
0.0224238 0.530635 0.229426 


 i = 461
3.05094 1.53857 -3.62389 
1.18693 -0.178055 -1.32819 
-5.45727 2.3973 2.12237 
-1.23146 -1.81604 3.44897 
0.0224016 0.531143 0.22894 


 i = 462
3.04985 1.53747 -3.62169 
1.18699 -0.176309 -1.32999 
-5.45909 2.39811 2.12338 
-1.23127 -1.81544 3.44819 
0.02238 0.531654 0.228451 


 i = 463
3.04878 1.53637 -3.61952 
1.18705 -0.174581 -1.33178 
-5.46088 2.39892 2.12436 
-1.23108 -1.81481 3.44736 
0.0223587 0.532168 0.227958 


 i = 464
3.04774 1.53526 -3.61738 
1.18712 -0.172873 -1.33356 
-5.46266 2.39974 2.12532 
-1.23089 -1.81414 3.4465 
0.0223379 0.532684 0.227462 


 i = 465
3.04673 1.53416 -3.61526 
1.18721 -0.171183 -1.33534 
-5.46441 2.40056 2.12625 
-1.2307 -1.81344 3.44561 
0.0223175 0.533205 0.226963 


 i = 466
3.04574 1.53305 -3.61316 
1.1873 -0.169511 -1.3371 
-5.46615 2.40139 2.12716 
-1.23051 -1.8127 3.44469 
0.0222976 0.533728 0.226459 


 i = 467
3.04477 1.53194 -3.61108 
1.1874 -0.167856 -1.33886 
-5.46786 2.40221 2.12805 
-1.23031 -1.81195 3.44373 
0.0222781 0.534254 0.225952 


 i = 468
3.04384 1.53082 -3.60903 
1.18751 -0.166218 -1.34061 
-5.46956 2.40304 2.12892 
-1.23012 -1.81116 3.44275 
0.0222589 0.534784 0.225442 


 i = 469
3.04292 1.5297 -3.60699 
1.18763 -0.164596 -1.34235 
-5.47124 2.40386 2.12978 
-1.22992 -1.81035 3.44174 
0.0222402 0.535317 0.224928 


 i = 470
3.04203 1.52857 -3.60497 
1.18776 -0.16299 -1.34409 
-5.4729 2.40468 2.13062 
-1.22972 -1.80952 3.44071 
0.0222219 0.535853 0.22441 


 i = 471
3.04116 1.52744 -3.60297 
1.1879 -0.1614 -1.34581 
-5.47454 2.4055 2.13144 
-1.22952 -1.80866 3.43965 
0.0222039 0.536393 0.223888 


 i = 472
3.04031 1.5263 -3.60098 
1.18805 -0.159825 -1.34754 
-5.47617 2.40632 2.13225 
-1.22932 -1.80779 3.43857 
0.0221863 0.536936 0.223362 


 i = 473
3.03948 1.52516 -3.59901 
1.18821 -0.158265 -1.34925 
-5.47778 2.40713 2.13305 
-1.22911 -1.80689 3.43748 
0.0221691 0.537483 0.222833 


 i = 474
3.03867 1.52401 -3.59705 
1.18837 -0.156719 -1.35096 
-5.47938 2.40794 2.13383 
-1.22891 -1.80598 3.43636 
0.0221522 0.538033 0.2223 


 i = 475
3.03788 1.52285 -3.59511 
1.18854 -0.155186 -1.35267 
-5.48096 2.40875 2.13461 
-1.2287 -1.80505 3.43522 
0.0221356 0.538587 0.221763 


 i = 476
3.03711 1.52168 -3.59317 
1.18872 -0.153668 -1.35437 
-5.48252 2.40955 2.13537 
-1.22849 -1.80411 3.43407 
0.0221193 0.539144 0.221222 


 i = 477
3.03636 1.52051 -3.59125 
1.18891 -0.152162 -1.35606 
-5.48407 2.41034 2.13613 
-1.22829 -1.80315 3.4329 
0.0221034 0.539705 0.220677 


 i = 478
3.03563 1.51933 -3.58934 
1.1891 -0.150669 -1.35775 
-5.48561 2.41112 2.13689 
-1.22808 -1.80217 3.43172 
0.0220877 0.540269 0.220128 


 i = 479
3.03491 1.51814 -3.58743 
1.1893 -0.149189 -1.35943 
-5.48713 2.4119 2.13763 
-1.22787 -1.80119 3.43053 
0.0220723 0.540837 0.219575 


 i = 480
3.03421 1.51695 -3.58553 
1.18951 -0.147721 -1.3611 
-5.48865 2.41267 2.13837 
-1.22766 -1.8002 3.42933 
0.0220572 0.541409 0.219019 


 i = 481
3.03353 1.51574 -3.58364 
1.18973 -0.146265 -1.36277 
-5.49015 2.41343 2.13911 
-1.22745 -1.79919 3.42811 
0.0220423 0.541984 0.218458 


 i = 482
3.03286 1.51453 -3.58176 
1.18995 -0.14482 -1.36444 
-5.49163 2.41419 2.13985 
-1.22724 -1.79818 3.42689 
0.0220276 0.542563 0.217894 


 i = 483
3.0322 1.5133 -3.57988 
1.19017 -0.143386 -1.3661 
-5.49311 2.41493 2.14058 
-1.22702 -1.79716 3.42566 
0.0220132 0.543146 0.217326 


 i = 484
3.03156 1.51207 -3.578 
1.1904 -0.141964 -1.36775 
-5.49458 2.41566 2.14131 
-1.22681 -1.79614 3.42442 
0.0219989 0.543732 0.216753 


 i = 485
3.03093 1.51083 -3.57613 
1.19064 -0.140552 -1.3694 
-5.49603 2.41639 2.14205 
-1.2266 -1.79511 3.42318 
0.0219849 0.544322 0.216177 


 i = 486
3.03031 1.50958 -3.57426 
1.19088 -0.139151 -1.37104 
-5.49748 2.4171 2.14278 
-1.22639 -1.79408 3.42193 
0.0219711 0.544916 0.215597 


 i = 487
3.0297 1.50831 -3.57239 
1.19113 -0.13776 -1.37268 
-5.49892 2.4178 2.14352 
-1.22617 -1.79304 3.42069 
0.0219574 0.545514 0.215013 


 i = 488
3.02911 1.50704 -3.57052 
1.19138 -0.136378 -1.37432 
-5.50035 2.41849 2.14425 
-1.22596 -1.792 3.41943 
0.0219438 0.546115 0.214425 


 i = 489
3.02852 1.50575 -3.56865 
1.19164 -0.135007 -1.37595 
-5.50177 2.41917 2.145 
-1.22574 -1.79097 3.41818 
0.0219304 0.54672 0.213834 


 i = 490
3.02795 1.50446 -3.56678 
1.1919 -0.133644 -1.37757 
-5.50318 2.41984 2.14574 
-1.22553 -1.78993 3.41693 
0.0219172 0.547329 0.213238 


 i = 491
3.02738 1.50315 -3.56491 
1.19217 -0.132291 -1.37919 
-5.50458 2.42049 2.14649 
-1.22532 -1.78889 3.41567 
0.021904 0.547942 0.212639 


 i = 492
3.02683 1.50183 -3.56304 
1.19243 -0.130947 -1.3808 
-5.50598 2.42113 2.14725 
-1.2251 -1.78785 3.41442 
0.021891 0.548558 0.212035 


 i = 493
3.02628 1.50051 -3.56116 
1.19271 -0.129611 -1.38241 
-5.50737 2.42176 2.14801 
-1.22489 -1.78681 3.41317 
0.021878 0.549179 0.211428 


 i = 494
3.02574 1.49917 -3.55928 
1.19298 -0.128283 -1.38401 
-5.50875 2.42238 2.14877 
-1.22467 -1.78578 3.41192 
0.0218652 0.549803 0.210817 


 i = 495
3.02521 1.49782 -3.5574 
1.19326 -0.126964 -1.38561 
-5.51013 2.42299 2.14954 
-1.22446 -1.78475 3.41067 
0.0218523 0.55043 0.210202 


 i = 496
3.02469 1.49646 -3.55552 
1.19354 -0.125652 -1.3872 
-5.5115 2.42358 2.15032 
-1.22424 -1.78372 3.40943 
0.0218396 0.551062 0.209583 


 i = 497
3.02417 1.49509 -3.55363 
1.19383 -0.124348 -1.38879 
-5.51287 2.42416 2.15111 
-1.22403 -1.78269 3.40819 
0.0218269 0.551698 0.20896 


 i = 498
3.02366 1.49371 -3.55174 
1.19412 -0.123052 -1.39038 
-5.51423 2.42473 2.1519 
-1.22381 -1.78166 3.40695 
0.0218142 0.552337 0.208334 


 i = 499
3.02315 1.49232 -3.54985 
1.19441 -0.121762 -1.39196 
-5.51559 2.42529 2.1527 
-1.2236 -1.78064 3.40572 
0.0218016 0.55298 0.207703 


 i = 500
3.02265 1.49092 -3.54795 
1.1947 -0.120479 -1.39353 
-5.51694 2.42584 2.1535 
-1.22339 -1.77963 3.40448 
0.0217889 0.553627 0.207069 


 i = 501
3.02216 1.48951 -3.54604 
1.19499 -0.119203 -1.3951 
-5.51829 2.42637 2.15432 
-1.22317 -1.77861 3.40326 
0.0217763 0.554278 0.20643 


 i = 502
3.02167 1.48809 -3.54413 
1.19529 -0.117934 -1.39667 
-5.51963 2.42689 2.15514 
-1.22296 -1.77761 3.40203 
0.0217636 0.554933 0.205788 


 i = 503
3.02118 1.48666 -3.54222 
1.19559 -0.116671 -1.39823 
-5.52097 2.42741 2.15596 
-1.22274 -1.7766 3.40081 
0.0217509 0.555592 0.205142 


 i = 504
3.0207 1.48523 -3.5403 
1.19589 -0.115413 -1.39979 
-5.52231 2.42791 2.1568 
-1.22253 -1.7756 3.3996 
0.0217382 0.556254 0.204492 


 i = 505
3.02023 1.48378 -3.53838 
1.19619 -0.114162 -1.40134 
-5.52364 2.4284 2.15764 
-1.22232 -1.7746 3.39839 
0.0217254 0.556921 0.203838 


 i = 506
3.01975 1.48233 -3.53646 
1.19649 -0.112916 -1.40289 
-5.52497 2.42888 2.15849 
-1.2221 -1.77361 3.39718 
0.0217126 0.557592 0.20318 


 i = 507
3.01928 1.48087 -3.53453 
1.1968 -0.111675 -1.40443 
-5.5263 2.42935 2.15935 
-1.22189 -1.77262 3.39598 
0.0216998 0.558266 0.202519 


 i = 508
3.01882 1.4794 -3.53259 
1.1971 -0.11044 -1.40598 
-5.52762 2.42981 2.16021 
-1.22168 -1.77163 3.39478 
0.0216868 0.558945 0.201853 


 i = 509
3.01835 1.47793 -3.53065 
1.19741 -0.10921 -1.40751 
-5.52894 2.43026 2.16108 
-1.22147 -1.77065 3.39358 
0.0216738 0.559628 0.201183 


 i = 510
3.01789 1.47644 -3.52871 
1.19772 -0.107985 -1.40905 
-5.53026 2.43071 2.16195 
-1.22125 -1.76967 3.39239 
0.0216607 0.560314 0.20051 


 i = 511
3.01743 1.47495 -3.52676 
1.19803 -0.106764 -1.41058 
-5.53158 2.43114 2.16284 
-1.22104 -1.76869 3.39121 
0.0216474 0.561005 0.199832 


 i = 512
3.01698 1.47346 -3.52481 
1.19834 -0.105548 -1.4121 
-5.53289 2.43157 2.16372 
-1.22083 -1.76772 3.39002 
0.0216341 0.5617 0.19915 


 i = 513
3.01652 1.47196 -3.52286 
1.19865 -0.104337 -1.41362 
-5.5342 2.43198 2.16462 
-1.22062 -1.76675 3.38884 
0.0216207 0.562399 0.198465 


 i = 514
3.01607 1.47045 -3.5209 
1.19896 -0.103129 -1.41514 
-5.53552 2.43239 2.16552 
-1.22041 -1.76578 3.38766 
0.0216071 0.563103 0.197775 


 i = 515
3.01562 1.46894 -3.51894 
1.19927 -0.101926 -1.41666 
-5.53682 2.4328 2.16643 
-1.2202 -1.76482 3.38649 
0.0215934 0.56381 0.197081 


 i = 516
3.01517 1.46743 -3.51697 
1.19958 -0.100727 -1.41817 
-5.53813 2.43319 2.16734 
-1.21999 -1.76386 3.38532 
0.0215795 0.564522 0.196383 


 i = 517
3.01472 1.46591 -3.515 
1.1999 -0.0995312 -1.41968 
-5.53944 2.43358 2.16825 
-1.21978 -1.7629 3.38415 
0.0215655 0.565238 0.195681 


 i = 518
3.01428 1.46438 -3.51303 
1.20021 -0.0983395 -1.42118 
-5.54074 2.43396 2.16918 
-1.21957 -1.76194 3.38298 
0.0215514 0.565958 0.194975 


 i = 519
3.01383 1.46285 -3.51106 
1.20052 -0.0971514 -1.42268 
-5.54205 2.43434 2.1701 
-1.21936 -1.76099 3.38182 
0.0215371 0.566682 0.194265 


 i = 520
3.01339 1.46132 -3.50908 
1.20084 -0.0959667 -1.42418 
-5.54335 2.43471 2.17103 
-1.21915 -1.76004 3.38066 
0.0215226 0.567411 0.193551 


 i = 521
3.01294 1.45979 -3.5071 
1.20115 -0.0947854 -1.42568 
-5.54465 2.43508 2.17197 
-1.21894 -1.75909 3.3795 
0.0215079 0.568144 0.192832 


 i = 522
3.0125 1.45825 -3.50512 
1.20146 -0.0936073 -1.42717 
-5.54595 2.43544 2.17291 
-1.21873 -1.75814 3.37834 
0.0214931 0.568882 0.19211 


 i = 523
3.01206 1.45671 -3.50314 
1.20178 -0.0924324 -1.42866 
-5.54725 2.43579 2.17385 
-1.21852 -1.75719 3.37719 
0.021478 0.569624 0.191383 


 i = 524
3.01162 1.45516 -3.50115 
1.20209 -0.0912606 -1.43014 
-5.54855 2.43615 2.1748 
-1.21832 -1.75624 3.37603 
0.0214628 0.57037 0.190652 


 i = 525
3.01118 1.45361 -3.49917 
1.2024 -0.0900917 -1.43162 
-5.54985 2.43649 2.17575 
-1.21811 -1.7553 3.37488 
0.0214473 0.571121 0.189917 


 i = 526
3.01074 1.45207 -3.49718 
1.20272 -0.0889258 -1.4331 
-5.55114 2.43684 2.17671 
-1.2179 -1.75435 3.37373 
0.0214316 0.571876 0.189177 


 i = 527
3.0103 1.45052 -3.49518 
1.20303 -0.0877627 -1.43458 
-5.55244 2.43717 2.17766 
-1.2177 -1.75341 3.37257 
0.0214158 0.572635 0.188434 


 i = 528
3.00986 1.44896 -3.49319 
1.20334 -0.0866023 -1.43605 
-5.55374 2.43751 2.17862 
-1.21749 -1.75246 3.37142 
0.0213996 0.573399 0.187686 


 i = 529
3.00942 1.44741 -3.4912 
1.20366 -0.0854446 -1.43752 
-5.55503 2.43784 2.17959 
-1.21728 -1.75152 3.37028 
0.0213833 0.574167 0.186934 


 i = 530
3.00898 1.44585 -3.4892 
1.20397 -0.0842894 -1.43899 
-5.55633 2.43817 2.18055 
-1.21708 -1.75058 3.36913 
0.0213667 0.57494 0.186178 


 i = 531
3.00854 1.4443 -3.48721 
1.20428 -0.0831369 -1.44046 
-5.55762 2.4385 2.18152 
-1.21687 -1.74963 3.36798 
0.0213499 0.575718 0.185417 


 i = 532
3.0081 1.44274 -3.48521 
1.2046 -0.0819868 -1.44192 
-5.55891 2.43882 2.18249 
-1.21667 -1.74869 3.36683 
0.0213328 0.576499 0.184652 


 i = 533
3.00766 1.44118 -3.48321 
1.20491 -0.0808391 -1.44338 
-5.56021 2.43914 2.18346 
-1.21647 -1.74775 3.36568 
0.0213155 0.577286 0.183884 


 i = 534
3.00722 1.43962 -3.48122 
1.20522 -0.0796938 -1.44484 
-5.5615 2.43946 2.18444 
-1.21626 -1.7468 3.36453 
0.0212979 0.578076 0.183111 


 i = 535
3.00678 1.43806 -3.47922 
1.20553 -0.0785508 -1.44629 
-5.56279 2.43978 2.18541 
-1.21606 -1.74586 3.36339 
0.0212801 0.578871 0.182333 


 i = 536
3.00634 1.4365 -3.47722 
1.20584 -0.0774101 -1.44775 
-5.56409 2.44009 2.18639 
-1.21586 -1.74491 3.36224 
0.021262 0.579671 0.181552 


 i = 537
3.0059 1.43494 -3.47522 
1.20616 -0.0762717 -1.4492 
-5.56538 2.44041 2.18737 
-1.21565 -1.74396 3.36109 
0.0212436 0.580475 0.180766 


 i = 538
3.00546 1.43338 -3.47322 
1.20647 -0.0751354 -1.45064 
-5.56667 2.44072 2.18835 
-1.21545 -1.74302 3.35994 
0.0212249 0.581283 0.179976 


 i = 539
3.00502 1.43182 -3.47122 
1.20678 -0.0740014 -1.45209 
-5.56796 2.44103 2.18933 
-1.21525 -1.74207 3.35879 
0.021206 0.582096 0.179183 


 i = 540
3.00458 1.43026 -3.46922 
1.20709 -0.0728694 -1.45353 
-5.56926 2.44134 2.19031 
-1.21505 -1.74112 3.35764 
0.0211867 0.582913 0.178385 


 i = 541
3.00414 1.4287 -3.46722 
1.2074 -0.0717395 -1.45497 
-5.57055 2.44165 2.1913 
-1.21485 -1.74017 3.35649 
0.0211672 0.583735 0.177583 


 i = 542
3.0037 1.42714 -3.46522 
1.20771 -0.0706117 -1.45641 
-5.57184 2.44196 2.19228 
-1.21465 -1.73922 3.35533 
0.0211474 0.58456 0.176777 


 i = 543
3.00326 1.42558 -3.46322 
1.20802 -0.069486 -1.45784 
-5.57313 2.44226 2.19327 
-1.21445 -1.73826 3.35418 
0.0211273 0.58539 0.175967 


 i = 544
3.00282 1.42402 -3.46122 
1.20833 -0.0683622 -1.45928 
-5.57442 2.44257 2.19425 
-1.21425 -1.73731 3.35303 
0.0211068 0.586224 0.175153 


 i = 545
3.00238 1.42247 -3.45922 
1.20864 -0.0672405 -1.46071 
-5.57571 2.44287 2.19524 
-1.21405 -1.73635 3.35187 
0.0210861 0.587063 0.174336 


 i = 546
3.00194 1.42091 -3.45722 
1.20895 -0.0661207 -1.46214 
-5.577 2.44318 2.19622 
-1.21385 -1.73539 3.35071 
0.0210651 0.587905 0.173514 


 i = 547
3.0015 1.41935 -3.45522 
1.20925 -0.0650029 -1.46356 
-5.57829 2.44348 2.19721 
-1.21365 -1.73443 3.34955 
0.0210437 0.588752 0.172689 


 i = 548
3.00106 1.41779 -3.45323 
1.20956 -0.063887 -1.46499 
-5.57958 2.44378 2.19819 
-1.21345 -1.73347 3.34839 
0.0210221 0.589602 0.17186 


 i = 549
3.00062 1.41624 -3.45123 
1.20987 -0.062773 -1.46641 
-5.58087 2.44409 2.19918 
-1.21325 -1.73251 3.34723 
0.0210001 0.590456 0.171028 


 i = 550
3.00018 1.41468 -3.44923 
1.21018 -0.0616609 -1.46783 
-5.58216 2.44439 2.20016 
-1.21306 -1.73154 3.34607 
0.0209778 0.591315 0.170192 


 i = 551
2.99974 1.41313 -3.44724 
1.21049 -0.0605507 -1.46925 
-5.58345 2.44469 2.20115 
-1.21286 -1.73057 3.3449 
0.0209552 0.592176 0.169353 


 i = 552
2.9993 1.41157 -3.44525 
1.21079 -0.0594424 -1.47066 
-5.58473 2.445 2.20214 
-1.21266 -1.7296 3.34373 
0.0209323 0.593042 0.168511 


 i = 553
2.99886 1.41002 -3.44325 
1.2111 -0.0583359 -1.47208 
-5.58602 2.4453 2.20312 
-1.21246 -1.72863 3.34256 
0.020909 0.593911 0.167665 


 i = 554
2.99842 1.40847 -3.44126 
1.21141 -0.0572313 -1.47349 
-5.58731 2.4456 2.2041 
-1.21227 -1.72765 3.34139 
0.0208854 0.594783 0.166816 


 i = 555
2.99798 1.40692 -3.43927 
1.21172 -0.0561285 -1.4749 
-5.5886 2.44591 2.20509 
-1.21207 -1.72667 3.34022 
0.0208615 0.595659 0.165964 


 i = 556
2.99754 1.40537 -3.43728 
1.21202 -0.0550276 -1.47631 
-5.58988 2.44621 2.20607 
-1.21188 -1.72569 3.33904 
0.0208372 0.596538 0.165109 


 i = 557
2.9971 1.40382 -3.43529 
1.21233 -0.0539285 -1.47771 
-5.59117 2.44651 2.20705 
-1.21168 -1.72471 3.33786 
0.0208126 0.59742 0.164252 


 i = 558
2.99666 1.40227 -3.4333 
1.21264 -0.0528311 -1.47912 
-5.59245 2.44682 2.20803 
-1.21149 -1.72372 3.33668 
0.0207877 0.598305 0.163392 


 i = 559
2.99622 1.40072 -3.43132 
1.21294 -0.0517356 -1.48052 
-5.59374 2.44712 2.20902 
-1.21129 -1.72273 3.33549 
0.0207625 0.599193 0.162529 


 i = 560
2.99578 1.39917 -3.42933 
1.21325 -0.0506419 -1.48192 
-5.59502 2.44743 2.20999 
-1.2111 -1.72174 3.33431 
0.0207369 0.600083 0.161664 


 i = 561
2.99534 1.39763 -3.42735 
1.21355 -0.04955 -1.48332 
-5.59631 2.44773 2.21097 
-1.21091 -1.72074 3.33312 
0.020711 0.600976 0.160797 


 i = 562
2.99491 1.39608 -3.42537 
1.21386 -0.0484598 -1.48471 
-5.59759 2.44804 2.21195 
-1.21071 -1.71974 3.33192 
0.0206848 0.601872 0.159928 


 i = 563
2.99447 1.39454 -3.42338 
1.21417 -0.0473714 -1.48611 
-5.59887 2.44834 2.21293 
-1.21052 -1.71874 3.33073 
0.0206583 0.602769 0.159057 


 i = 564
2.99403 1.393 -3.42141 
1.21447 -0.0462848 -1.4875 
-5.60016 2.44865 2.2139 
-1.21033 -1.71773 3.32953 
0.0206314 0.603669 0.158184 


 i = 565
2.9936 1.39146 -3.41943 
1.21478 -0.0451999 -1.48889 
-5.60144 2.44896 2.21488 
-1.21013 -1.71672 3.32833 
0.0206042 0.60457 0.15731 


 i = 566
2.99316 1.38992 -3.41745 
1.21508 -0.0441168 -1.49028 
-5.60272 2.44927 2.21585 
-1.20994 -1.71571 3.32712 
0.0205767 0.605473 0.156435 


 i = 567
2.99272 1.38838 -3.41548 
1.21539 -0.0430355 -1.49167 
-5.604 2.44958 2.21682 
-1.20975 -1.71469 3.32591 
0.0205488 0.606378 0.155558 


 i = 568
2.99229 1.38685 -3.41351 
1.2157 -0.0419558 -1.49305 
-5.60528 2.44988 2.21779 
-1.20956 -1.71367 3.3247 
0.0205207 0.607284 0.15468 


 i = 569
2.99185 1.38531 -3.41154 
1.216 -0.0408779 -1.49443 
-5.60656 2.45019 2.21876 
-1.20937 -1.71264 3.32348 
0.0204922 0.608191 0.153802 


 i = 570
2.99142 1.38378 -3.40957 
1.21631 -0.0398018 -1.49582 
-5.60783 2.45051 2.21973 
-1.20918 -1.71162 3.32226 
0.0204635 0.609099 0.152923 


 i = 571
2.99098 1.38224 -3.4076 
1.21661 -0.0387273 -1.4972 
-5.60911 2.45082 2.22069 
-1.20899 -1.71058 3.32104 
0.0204344 0.610007 0.152043 


 i = 572
2.99055 1.38071 -3.40564 
1.21692 -0.0376546 -1.49857 
-5.61039 2.45113 2.22165 
-1.2088 -1.70955 3.31981 
0.020405 0.610916 0.151163 


 i = 573
2.99012 1.37918 -3.40367 
1.21722 -0.0365835 -1.49995 
-5.61166 2.45144 2.22262 
-1.20861 -1.7085 3.31858 
0.0203753 0.611826 0.150284 


 i = 574
2.98969 1.37765 -3.40171 
1.21753 -0.0355141 -1.50133 
-5.61294 2.45176 2.22358 
-1.20842 -1.70746 3.31734 
0.0203454 0.612735 0.149404 


 i = 575
2.98926 1.37613 -3.39976 
1.21783 -0.0344464 -1.5027 
-5.61421 2.45207 2.22453 
-1.20823 -1.70641 3.3161 
0.0203151 0.613645 0.148525 


 i = 576
2.98883 1.3746 -3.3978 
1.21814 -0.0333804 -1.50407 
-5.61548 2.45239 2.22549 
-1.20804 -1.70535 3.31486 
0.0202846 0.614554 0.147646 


 i = 577
2.9884 1.37308 -3.39585 
1.21845 -0.032316 -1.50544 
-5.61675 2.45271 2.22645 
-1.20785 -1.70429 3.31361 
0.0202537 0.615462 0.146769 


 i = 578
2.98797 1.37155 -3.39389 
1.21875 -0.0312533 -1.50681 
-5.61802 2.45302 2.2274 
-1.20766 -1.70323 3.31236 
0.0202227 0.61637 0.145892 


 i = 579
2.98754 1.37003 -3.39195 
1.21906 -0.0301921 -1.50818 
-5.61929 2.45334 2.22835 
-1.20747 -1.70216 3.3111 
0.0201913 0.617277 0.145016 


 i = 580
2.98711 1.36851 -3.39 
1.21936 -0.0291326 -1.50954 
-5.62056 2.45366 2.2293 
-1.20728 -1.70108 3.30984 
0.0201597 0.618183 0.144142 


 i = 581
2.98669 1.36699 -3.38805 
1.21967 -0.0280747 -1.51091 
-5.62183 2.45398 2.23024 
-1.20709 -1.7 3.30857 
0.0201279 0.619087 0.14327 


 i = 582
2.98626 1.36548 -3.38611 
1.21997 -0.0270184 -1.51227 
-5.6231 2.45431 2.23119 
-1.2069 -1.69892 3.30729 
0.0200958 0.61999 0.142399 


 i = 583
2.98584 1.36396 -3.38417 
1.22028 -0.0259637 -1.51363 
-5.62436 2.45463 2.23213 
-1.20672 -1.69783 3.30602 
0.0200634 0.620891 0.14153 


 i = 584
2.98541 1.36245 -3.38224 
1.22059 -0.0249105 -1.51499 
-5.62562 2.45495 2.23307 
-1.20653 -1.69673 3.30473 
0.0200309 0.62179 0.140664 


 i = 585
2.98499 1.36094 -3.3803 
1.22089 -0.0238588 -1.51634 
-5.62689 2.45528 2.23401 
-1.20634 -1.69563 3.30344 
0.0199981 0.622687 0.1398 


 i = 586
2.98457 1.35943 -3.37837 
1.2212 -0.0228087 -1.5177 
-5.62815 2.45561 2.23494 
-1.20615 -1.69452 3.30215 
0.0199651 0.623582 0.138938 


 i = 587
2.98415 1.35792 -3.37644 
1.2215 -0.0217601 -1.51905 
-5.62941 2.45594 2.23587 
-1.20597 -1.69341 3.30085 
0.0199319 0.624474 0.138079 


 i = 588
2.98373 1.35641 -3.37451 
1.22181 -0.0207129 -1.52041 
-5.63067 2.45627 2.2368 
-1.20578 -1.69229 3.29954 
0.0198985 0.625363 0.137223 


 i = 589
2.98331 1.35491 -3.37259 
1.22211 -0.0196672 -1.52176 
-5.63193 2.4566 2.23773 
-1.20559 -1.69117 3.29823 
0.0198649 0.62625 0.13637 


 i = 590
2.98289 1.35341 -3.37067 
1.22242 -0.018623 -1.52311 
-5.63319 2.45693 2.23866 
-1.2054 -1.69004 3.29692 
0.0198311 0.627134 0.13552 


 i = 591
2.98247 1.35191 -3.36875 
1.22273 -0.0175801 -1.52446 
-5.63444 2.45726 2.23958 
-1.20522 -1.6889 3.29559 
0.0197971 0.628015 0.134673 


 i = 592
2.98205 1.35041 -3.36684 
1.22303 -0.0165387 -1.5258 
-5.6357 2.4576 2.2405 
-1.20503 -1.68776 3.29426 
0.019763 0.628892 0.13383 


 i = 593
2.98164 1.34891 -3.36492 
1.22334 -0.0154987 -1.52715 
-5.63695 2.45793 2.24142 
-1.20484 -1.68661 3.29293 
0.0197287 0.629766 0.13299 


 i = 594
2.98122 1.34742 -3.36301 
1.22364 -0.01446 -1.52849 
-5.63821 2.45827 2.24234 
-1.20466 -1.68546 3.29159 
0.0196943 0.630637 0.132154 


 i = 595
2.98081 1.34593 -3.36111 
1.22395 -0.0134227 -1.52984 
-5.63946 2.45861 2.24325 
-1.20447 -1.6843 3.29024 
0.0196597 0.631503 0.131321 


 i = 596
2.98039 1.34443 -3.3592 
1.22425 -0.0123866 -1.53118 
-5.64071 2.45895 2.24416 
-1.20428 -1.68313 3.28889 
0.019625 0.632367 0.130493 


 i = 597
2.97998 1.34295 -3.3573 
1.22456 -0.0113519 -1.53252 
-5.64196 2.45929 2.24507 
-1.2041 -1.68196 3.28753 
0.0195901 0.633226 0.129668 


 i = 598
2.97957 1.34146 -3.3554 
1.22486 -0.0103184 -1.53386 
-5.64321 2.45963 2.24597 
-1.20391 -1.68078 3.28616 
0.0195552 0.634082 0.128848 


 i = 599
2.97916 1.33997 -3.3535 
1.22517 -0.00928621 -1.53519 
-5.64446 2.45998 2.24688 
-1.20372 -1.6796 3.28479 
0.0195201 0.634933 0.128031 


 i = 600
2.97875 1.33849 -3.35161 
1.22547 -0.00825522 -1.53653 
-5.6457 2.46032 2.24778 
-1.20354 -1.6784 3.28341 
0.0194849 0.635781 0.127219 


 i = 601
2.97834 1.33701 -3.34972 
1.22578 -0.00722542 -1.53787 
-5.64695 2.46067 2.24868 
-1.20335 -1.6772 3.28203 
0.0194497 0.636624 0.126411 


 i = 602
2.97793 1.33553 -3.34783 
1.22608 -0.0061968 -1.5392 
-5.64819 2.46102 2.24957 
-1.20316 -1.676 3.28063 
0.0194143 0.637463 0.125607 


 i = 603
2.97752 1.33406 -3.34595 
1.22639 -0.00516934 -1.54053 
-5.64944 2.46137 2.25047 
-1.20298 -1.67479 3.27924 
0.0193788 0.638298 0.124807 


 i = 604
2.97711 1.33258 -3.34407 
1.22669 -0.004143 -1.54186 
-5.65068 2.46172 2.25136 
-1.20279 -1.67357 3.27783 
0.0193433 0.639129 0.124012 


 i = 605
2.9767 1.33111 -3.34219 
1.227 -0.00311777 -1.54319 
-5.65192 2.46207 2.25225 
-1.20261 -1.67234 3.27642 
0.0193077 0.639956 0.123221 


 i = 606
2.9763 1.32964 -3.34031 
1.2273 -0.00209362 -1.54452 
-5.65316 2.46243 2.25313 
-1.20242 -1.67111 3.275 
0.0192721 0.640779 0.122434 


 i = 607
2.97589 1.32817 -3.33844 
1.22761 -0.00107054 -1.54585 
-5.6544 2.46278 2.25402 
-1.20223 -1.66987 3.27358 
0.0192364 0.641597 0.121652 


 i = 608
2.97549 1.3267 -3.33656 
1.22791 -4.8485e-05 -1.54717 
-5.65564 2.46314 2.2549 
-1.20205 -1.66863 3.27214 
0.0192006 0.642411 0.120873 


 i = 609
2.97508 1.32524 -3.3347 
1.22821 0.000972552 -1.5485 
-5.65688 2.4635 2.25578 
-1.20186 -1.66737 3.27071 
0.0191648 0.64322 0.1201 


 i = 610
2.97468 1.32378 -3.33283 
1.22852 0.0019926 -1.54982 
-5.65811 2.46386 2.25665 
-1.20168 -1.66611 3.26926 
0.019129 0.644026 0.11933 


 i = 611
2.97428 1.32232 -3.33097 
1.22882 0.00301168 -1.55114 
-5.65935 2.46422 2.25753 
-1.20149 -1.66485 3.26781 
0.0190931 0.644827 0.118565 


 i = 612
2.97387 1.32086 -3.32911 
1.22912 0.00402981 -1.55246 
-5.66058 2.46458 2.2584 
-1.2013 -1.66358 3.26635 
0.0190572 0.645624 0.117803 


 i = 613
2.97347 1.3194 -3.32725 
1.22942 0.00504702 -1.55378 
-5.66182 2.46494 2.25927 
-1.20112 -1.6623 3.26489 
0.0190213 0.646417 0.117046 


 i = 614
2.97307 1.31795 -3.32539 
1.22973 0.00606332 -1.5551 
-5.66305 2.46531 2.26014 
-1.20093 -1.66101 3.26341 
0.0189854 0.647206 0.116294 


 i = 615
2.97267 1.31649 -3.32354 
1.23003 0.00707875 -1.55642 
-5.66428 2.46567 2.26101 
-1.20075 -1.65972 3.26194 
0.0189494 0.64799 0.115545 


 i = 616
2.97227 1.31504 -3.32168 
1.23033 0.00809331 -1.55774 
-5.66551 2.46604 2.26187 
-1.20056 -1.65842 3.26045 
0.0189135 0.648771 0.1148 


 i = 617
2.97187 1.31359 -3.31984 
1.23063 0.00910704 -1.55905 
-5.66674 2.46641 2.26273 
-1.20037 -1.65711 3.25896 
0.0188775 0.649548 0.11406 


 i = 618
2.97147 1.31214 -3.31799 
1.23093 0.01012 -1.56036 
-5.66797 2.46677 2.26359 
-1.20019 -1.6558 3.25746 
0.0188416 0.65032 0.113323 


 i = 619
2.97107 1.3107 -3.31614 
1.23123 0.0111321 -1.56168 
-5.6692 2.46714 2.26445 
-1.2 -1.65448 3.25596 
0.0188056 0.651089 0.11259 


 i = 620
2.97067 1.30925 -3.3143 
1.23153 0.0121434 -1.56299 
-5.67042 2.46751 2.26531 
-1.19982 -1.65316 3.25445 
0.0187697 0.651854 0.111861 


 i = 621
2.97027 1.30781 -3.31246 
1.23183 0.013154 -1.5643 
-5.67165 2.46788 2.26616 
-1.19963 -1.65183 3.25293 
0.0187338 0.652615 0.111136 


 i = 622
2.96987 1.30637 -3.31062 
1.23213 0.0141638 -1.56561 
-5.67287 2.46826 2.26702 
-1.19944 -1.65049 3.2514 
0.0186979 0.653373 0.110414 


 i = 623
2.96948 1.30493 -3.30878 
1.23243 0.0151729 -1.56692 
-5.6741 2.46863 2.26787 
-1.19926 -1.64914 3.24987 
0.018662 0.654126 0.109696 


 i = 624
2.96908 1.3035 -3.30695 
1.23273 0.0161814 -1.56823 
-5.67532 2.469 2.26872 
-1.19907 -1.64779 3.24834 
0.0186262 0.654877 0.108982 


 i = 625
2.96868 1.30206 -3.30512 
1.23303 0.0171891 -1.56953 
-5.67655 2.46938 2.26957 
-1.19889 -1.64644 3.24679 
0.0185903 0.655623 0.108271 


 i = 626
2.96829 1.30062 -3.30328 
1.23333 0.0181962 -1.57084 
-5.67777 2.46975 2.27042 
-1.1987 -1.64507 3.24524 
0.0185545 0.656367 0.107563 


 i = 627
2.96789 1.29919 -3.30145 
1.23363 0.0192026 -1.57214 
-5.67899 2.47013 2.27126 
-1.19851 -1.6437 3.24369 
0.0185188 0.657107 0.106859 


 i = 628
2.96749 1.29776 -3.29963 
1.23392 0.0202084 -1.57344 
-5.68021 2.4705 2.27211 
-1.19833 -1.64233 3.24212 
0.018483 0.657843 0.106159 


 i = 629
2.9671 1.29633 -3.2978 
1.23422 0.0212136 -1.57475 
-5.68143 2.47088 2.27295 
-1.19814 -1.64094 3.24056 
0.0184473 0.658576 0.105461 


 i = 630
2.9667 1.2949 -3.29597 
1.23452 0.0222182 -1.57605 
-5.68265 2.47125 2.27379 
-1.19795 -1.63956 3.23898 
0.0184117 0.659306 0.104767 


 i = 631
2.9663 1.29347 -3.29415 
1.23481 0.0232222 -1.57735 
-5.68387 2.47163 2.27464 
-1.19777 -1.63816 3.2374 
0.0183761 0.660033 0.104075 


 i = 632
2.96591 1.29205 -3.29233 
1.23511 0.0242257 -1.57865 
-5.68509 2.47201 2.27548 
-1.19758 -1.63676 3.23581 
0.0183405 0.660757 0.103387 


 i = 633
2.96551 1.29062 -3.29051 
1.2354 0.0252286 -1.57994 
-5.6863 2.47239 2.27632 
-1.1974 -1.63535 3.23422 
0.018305 0.661478 0.102701 


 i = 634
2.96512 1.2892 -3.28869 
1.2357 0.026231 -1.58124 
-5.68752 2.47276 2.27716 
-1.19721 -1.63394 3.23262 
0.0182695 0.662196 0.102019 


 i = 635
2.96472 1.28777 -3.28687 
1.23599 0.0272329 -1.58254 
-5.68874 2.47314 2.27799 
-1.19702 -1.63252 3.23102 
0.0182341 0.662911 0.101339 


 i = 636
2.96432 1.28635 -3.28505 
1.23629 0.0282343 -1.58383 
-5.68995 2.47352 2.27883 
-1.19684 -1.6311 3.22941 
0.0181987 0.663624 0.100662 


 i = 637
2.96393 1.28493 -3.28323 
1.23658 0.0292352 -1.58513 
-5.69117 2.4739 2.27967 
-1.19665 -1.62967 3.22779 
0.0181633 0.664333 0.0999879 


 i = 638
2.96353 1.28351 -3.28142 
1.23687 0.0302356 -1.58642 
-5.69238 2.47428 2.2805 
-1.19647 -1.62824 3.22617 
0.0181281 0.66504 0.0993163 


 i = 639
2.96314 1.28209 -3.2796 
1.23716 0.0312356 -1.58771 
-5.6936 2.47466 2.28134 
-1.19628 -1.6268 3.22455 
0.0180928 0.665745 0.0986472 


 i = 640
2.96274 1.28067 -3.27779 
1.23745 0.0322352 -1.589 
-5.69481 2.47503 2.28218 
-1.19609 -1.62535 3.22291 
0.0180576 0.666446 0.0979806 


 i = 641
2.96235 1.27925 -3.27597 
1.23775 0.0332343 -1.59029 
-5.69602 2.47541 2.28301 
-1.19591 -1.6239 3.22128 
0.0180225 0.667146 0.0973165 


 i = 642
2.96195 1.27784 -3.27416 
1.23804 0.0342331 -1.59158 
-5.69724 2.47579 2.28385 
-1.19572 -1.62244 3.21963 
0.0179874 0.667843 0.0966547 


 i = 643
2.96155 1.27642 -3.27235 
1.23833 0.0352314 -1.59287 
-5.69845 2.47617 2.28468 
-1.19553 -1.62098 3.21798 
0.0179524 0.668537 0.0959953 


 i = 644
2.96116 1.275 -3.27054 
1.23862 0.0362294 -1.59416 
-5.69966 2.47655 2.28552 
-1.19535 -1.61951 3.21633 
0.0179174 0.669229 0.0953381 


 i = 645
2.96076 1.27359 -3.26872 
1.2389 0.037227 -1.59544 
-5.70087 2.47692 2.28635 
-1.19516 -1.61804 3.21467 
0.0178825 0.669919 0.0946832 


 i = 646
2.96036 1.27217 -3.26691 
1.23919 0.0382243 -1.59673 
-5.70208 2.4773 2.28718 
-1.19498 -1.61656 3.21301 
0.0178476 0.670607 0.0940305 


 i = 647
2.95997 1.27076 -3.2651 
1.23948 0.0392213 -1.59801 
-5.7033 2.47768 2.28802 
-1.19479 -1.61508 3.21134 
0.0178128 0.671292 0.0933799 


 i = 648
2.95957 1.26935 -3.26329 
1.23977 0.0402179 -1.5993 
-5.70451 2.47805 2.28885 
-1.1946 -1.61359 3.20967 
0.017778 0.671975 0.0927314 


 i = 649
2.95917 1.26794 -3.26148 
1.24005 0.0412143 -1.60058 
-5.70572 2.47843 2.28969 
-1.19442 -1.6121 3.20799 
0.0177433 0.672656 0.0920849 


 i = 650
2.95878 1.26652 -3.25967 
1.24034 0.0422103 -1.60186 
-5.70693 2.4788 2.29052 
-1.19423 -1.6106 3.20631 
0.0177087 0.673336 0.0914404 


 i = 651
2.95838 1.26511 -3.25786 
1.24063 0.0432061 -1.60314 
-5.70814 2.47918 2.29136 
-1.19405 -1.6091 3.20462 
0.017674 0.674013 0.0907978 


 i = 652
2.95798 1.2637 -3.25605 
1.24091 0.0442016 -1.60442 
-5.70935 2.47955 2.29219 
-1.19386 -1.6076 3.20293 
0.0176395 0.674688 0.0901572 


 i = 653
2.95758 1.26229 -3.25424 
1.2412 0.0451969 -1.6057 
-5.71056 2.47992 2.29303 
-1.19367 -1.60608 3.20123 
0.017605 0.675361 0.0895184 


 i = 654
2.95718 1.26088 -3.25243 
1.24148 0.046192 -1.60698 
-5.71176 2.4803 2.29387 
-1.19349 -1.60457 3.19953 
0.0175705 0.676033 0.0888815 


 i = 655
2.95678 1.25947 -3.25063 
1.24176 0.0471869 -1.60826 
-5.71297 2.48067 2.2947 
-1.1933 -1.60305 3.19782 
0.0175361 0.676702 0.0882463 


 i = 656
2.95639 1.25806 -3.24882 
1.24204 0.0481816 -1.60954 
-5.71418 2.48104 2.29554 
-1.19312 -1.60152 3.19611 
0.0175017 0.67737 0.0876129 


 i = 657
2.95599 1.25665 -3.24701 
1.24233 0.0491761 -1.61081 
-5.71539 2.48141 2.29638 
-1.19293 -1.6 3.1944 
0.0174674 0.678036 0.0869812 


 i = 658
2.95559 1.25524 -3.2452 
1.24261 0.0501704 -1.61209 
-5.7166 2.48178 2.29722 
-1.19274 -1.59846 3.19268 
0.0174331 0.6787 0.0863513 


 i = 659
2.95519 1.25383 -3.24338 
1.24289 0.0511646 -1.61336 
-5.71781 2.48214 2.29806 
-1.19256 -1.59693 3.19096 
0.0173989 0.679363 0.0857229 


 i = 660
2.95478 1.25242 -3.24157 
1.24317 0.0521587 -1.61464 
-5.71902 2.48251 2.2989 
-1.19237 -1.59539 3.18923 
0.0173647 0.680024 0.0850962 


 i = 661
2.95438 1.25101 -3.23976 
1.24345 0.0531526 -1.61591 
-5.72022 2.48288 2.29974 
-1.19219 -1.59384 3.1875 
0.0173306 0.680683 0.0844711 


 i = 662
2.95398 1.2496 -3.23795 
1.24373 0.0541465 -1.61718 
-5.72143 2.48324 2.30059 
-1.192 -1.59229 3.18577 
0.0172965 0.681341 0.0838476 


 i = 663
2.95358 1.24819 -3.23614 
1.244 0.0551403 -1.61846 
-5.72264 2.48361 2.30143 
-1.19182 -1.59074 3.18403 
0.0172624 0.681997 0.0832256 


 i = 664
2.95317 1.24678 -3.23433 
1.24428 0.056134 -1.61973 
-5.72385 2.48397 2.30228 
-1.19163 -1.58918 3.18229 
0.0172284 0.682651 0.0826052 


 i = 665
2.95277 1.24537 -3.23251 
1.24456 0.0571276 -1.621 
-5.72506 2.48433 2.30312 
-1.19145 -1.58762 3.18054 
0.0171944 0.683304 0.0819862 


 i = 666
2.95237 1.24396 -3.2307 
1.24483 0.0581213 -1.62227 
-5.72627 2.48469 2.30397 
-1.19126 -1.58606 3.17879 
0.0171605 0.683955 0.0813687 


 i = 667
2.95196 1.24255 -3.22888 
1.24511 0.0591149 -1.62354 
-5.72747 2.48505 2.30482 
-1.19108 -1.58449 3.17704 
0.0171266 0.684605 0.0807526 


 i = 668
2.95156 1.24114 -3.22707 
1.24539 0.0601085 -1.62481 
-5.72868 2.48541 2.30567 
-1.19089 -1.58292 3.17529 
0.0170927 0.685254 0.080138 


 i = 669
2.95115 1.23973 -3.22525 
1.24566 0.0611021 -1.62607 
-5.72989 2.48577 2.30652 
-1.19071 -1.58135 3.17353 
0.0170588 0.685901 0.0795248 


 i = 670
2.95074 1.23832 -3.22343 
1.24593 0.0620958 -1.62734 
-5.7311 2.48613 2.30737 
-1.19052 -1.57977 3.17177 
0.017025 0.686547 0.078913 


 i = 671
2.95033 1.23691 -3.22162 
1.24621 0.0630895 -1.62861 
-5.73231 2.48648 2.30823 
-1.19034 -1.57819 3.17 
0.0169912 0.687191 0.0783025 


 i = 672
2.94993 1.2355 -3.2198 
1.24648 0.0640833 -1.62987 
-5.73352 2.48684 2.30908 
-1.19015 -1.57661 3.16823 
0.0169575 0.687834 0.0776934 


 i = 673
2.94952 1.23409 -3.21798 
1.24675 0.0650772 -1.63114 
-5.73473 2.48719 2.30994 
-1.18997 -1.57503 3.16646 
0.0169238 0.688475 0.0770856 


 i = 674
2.94911 1.23268 -3.21616 
1.24702 0.0660713 -1.6324 
-5.73594 2.48754 2.3108 
-1.18978 -1.57344 3.16469 
0.01689 0.689116 0.0764791 


 i = 675
2.9487 1.23127 -3.21434 
1.24729 0.0670654 -1.63367 
-5.73715 2.48789 2.31166 
-1.1896 -1.57185 3.16292 
0.0168564 0.689754 0.0758739 


 i = 676
2.94828 1.22986 -3.21251 
1.24756 0.0680597 -1.63493 
-5.73836 2.48824 2.31252 
-1.18941 -1.57025 3.16114 
0.0168227 0.690392 0.07527 


 i = 677
2.94787 1.22844 -3.21069 
1.24783 0.0690541 -1.63619 
-5.73957 2.48858 2.31338 
-1.18923 -1.56866 3.15936 
0.016789 0.691028 0.0746673 


 i = 678
2.94746 1.22703 -3.20887 
1.2481 0.0700488 -1.63746 
-5.74078 2.48893 2.31425 
-1.18905 -1.56706 3.15757 
0.0167554 0.691663 0.0740659 


 i = 679
2.94705 1.22562 -3.20704 
1.24836 0.0710436 -1.63872 
-5.74199 2.48927 2.31512 
-1.18886 -1.56545 3.15579 
0.0167218 0.692297 0.0734658 


 i = 680
2.94663 1.22421 -3.20521 
1.24863 0.0720387 -1.63998 
-5.7432 2.48962 2.31599 
-1.18868 -1.56385 3.154 
0.0166882 0.69293 0.0728669 


 i = 681
2.94621 1.2228 -3.20339 
1.2489 0.073034 -1.64124 
-5.74442 2.48996 2.31686 
-1.1885 -1.56224 3.15221 
0.0166546 0.693561 0.0722691 


 i = 682
2.9458 1.22139 -3.20156 
1.24916 0.0740296 -1.6425 
-5.74563 2.4903 2.31773 
-1.18831 -1.56064 3.15042 
0.016621 0.694191 0.0716726 


 i = 683
2.94538 1.21997 -3.19973 
1.24943 0.0750254 -1.64376 
-5.74684 2.49064 2.3186 
