 i = 1
0.465297 -0.397398 -0.289767 -0.396171 -0.337342 
0.147229 -0.282273 -0.123652 -0.0536564 -0.328698 
-0.382934 -0.40566 0.600909 0.295679 -0.303859 
0.17078 -0.387793 0.222681 0.0608713 0.198591 


 i = 2
0.384088 -0.377677 -0.373883 -0.381049 -0.375774 
0.173792 -0.268509 -0.279751 -0.0521427 -0.35984 
-0.623579 -0.400973 0.826798 0.356653 -0.303686 
0.057753 -0.387287 0.340944 0.1014 0.201684 


 i = 3
0.439151 -0.35827 -0.431964 -0.362143 -0.399016 
0.309894 -0.254946 -0.408286 -0.0566361 -0.378719 
-0.864645 -0.396322 1.02666 0.440657 -0.303693 
-0.0702316 -0.386795 0.445211 0.153776 0.203501 


 i = 4
0.511335 -0.343504 -0.46552 -0.357132 -0.410393 
0.424401 -0.244582 -0.49157 -0.0742227 -0.388514 
-1.01944 -0.392847 1.15601 0.527425 -0.302687 
-0.162223 -0.386467 0.513328 0.208708 0.204793 


 i = 5
0.57713 -0.332176 -0.483534 -0.373632 -0.416469 
0.507104 -0.236606 -0.54714 -0.104285 -0.394192 
-1.11565 -0.390216 1.24297 0.599803 -0.30137 
-0.229774 -0.386239 0.55945 0.25824 0.205774 


 i = 6
0.640615 -0.322791 -0.491495 -0.403193 -0.420049 
0.57329 -0.229976 -0.587425 -0.140537 -0.397932 
-1.18444 -0.388065 1.30844 0.66126 -0.299915 
-0.288984 -0.38607 0.594454 0.304456 0.206604 


 i = 7
0.703784 -0.314355 -0.4927 -0.438744 -0.422385 
0.632417 -0.223997 -0.619254 -0.179304 -0.400709 
-1.2454 -0.386152 1.36287 0.71848 -0.298395 
-0.350028 -0.385934 0.623691 0.350869 0.207355 


 i = 8
0.766977 -0.30622 -0.490709 -0.47765 -0.424135 
0.689547 -0.218221 -0.647051 -0.219604 -0.403013 
-1.3094 -0.384309 1.41067 0.775108 -0.296882 
-0.418217 -0.38581 0.649515 0.399529 0.208052 


 i = 9
0.830181 -0.298001 -0.487611 -0.518965 -0.42563 
0.747367 -0.212387 -0.673088 -0.261236 -0.405085 
-1.38118 -0.382433 1.45417 0.832839 -0.295428 
-0.495364 -0.385682 0.673145 0.451433 0.208702 


 i = 10
0.893393 -0.289489 -0.484008 -0.562036 -0.427023 
0.80716 -0.206352 -0.69821 -0.304027 -0.407031 
-1.46178 -0.380469 1.49517 0.892478 -0.294054 
-0.58114 -0.385544 0.695379 0.506953 0.209308 


 i = 11
0.95653 -0.280581 -0.479999 -0.606245 -0.428371 
0.869134 -0.200045 -0.722684 -0.347709 -0.408891 
-1.55009 -0.378393 1.53504 0.954283 -0.292768 
-0.674032 -0.385394 0.716731 0.565996 0.209872 


 i = 12
1.01942 -0.271242 -0.475838 -0.650985 -0.429691 
0.932734 -0.193439 -0.746675 -0.391912 -0.410676 
-1.64381 -0.3762 1.57446 1.01806 -0.291571 
-0.771918 -0.385231 0.737438 0.628101 0.210398 


 i = 13
1.08177 -0.261471 -0.471967 -0.69559 -0.430982 
0.997 -0.186531 -0.770339 -0.436152 -0.412384 
-1.74007 -0.373898 1.61358 1.08329 -0.290461 
-0.872447 -0.385058 0.757542 0.692534 0.210886 


 i = 14
1.14316 -0.251289 -0.46881 -0.739398 -0.432237 
1.06091 -0.179332 -0.793759 -0.479914 -0.414009 
-1.83601 -0.371499 1.65222 1.14916 -0.289436 
-0.973353 -0.384878 0.776972 0.758378 0.211337 


 i = 15
1.2031 -0.240728 -0.466634 -0.781962 -0.433446 
1.12365 -0.171857 -0.81692 -0.522825 -0.415547 
-1.92926 -0.36902 1.69002 1.21467 -0.288489 
-1.07269 -0.384695 0.795621 0.824616 0.211754 


 i = 16
1.26133 -0.229818 -0.465552 -0.823208 -0.434598 
1.18483 -0.164124 -0.839722 -0.564762 -0.416993 
-2.01806 -0.366477 1.72663 1.2787 -0.287614 
-1.16896 -0.384513 0.813386 0.890264 0.212138 


 i = 17
1.31783 -0.218586 -0.465536 -0.86331 -0.435686 
1.24433 -0.156147 -0.862017 -0.605767 -0.418344 
-2.10137 -0.363883 1.76172 1.34033 -0.286803 
-1.26126 -0.384334 0.830192 0.954536 0.212494 


 i = 18
1.37241 -0.207048 -0.466445 -0.902397 -0.436702 
1.30201 -0.147932 -0.883633 -0.645872 -0.4196 
-2.17905 -0.361247 1.79508 1.39906 -0.286048 
-1.34931 -0.384162 0.846007 1.01696 0.212823 


 i = 19
1.42471 -0.195212 -0.468071 -0.940436 -0.437646 
1.35767 -0.139483 -0.904404 -0.685024 -0.420763 
-2.25167 -0.358577 1.82662 1.45482 -0.285343 
-1.43329 -0.383998 0.860835 1.07736 0.213129 


 i = 20
1.47442 -0.183078 -0.470194 -0.977331 -0.438518 
1.41113 -0.130798 -0.924204 -0.723151 -0.421839 
-2.32005 -0.355878 1.85632 1.50782 -0.284682 
-1.51349 -0.383846 0.874708 1.13569 0.213414 


 i = 21
1.5214 -0.170643 -0.472617 -1.01298 -0.439323 
1.4624 -0.12187 -0.942955 -0.760216 -0.422833 
-2.38492 -0.353156 1.88424 1.55832 -0.284062 
-1.59007 -0.383707 0.887675 1.19191 0.213679 


 i = 22
1.56558 -0.1579 -0.475187 -1.04725 -0.440066 
1.51157 -0.112692 -0.960623 -0.7962 -0.423752 
-2.44685 -0.350415 1.91046 1.60659 -0.283482 
-1.66302 -0.383585 0.899793 1.24595 0.213925 


 i = 23
1.60697 -0.144837 -0.477792 -1.08 -0.440751 
1.55875 -0.103253 -0.977212 -0.831076 -0.424602 
-2.50633 -0.34766 1.93507 1.65292 -0.282938 
-1.73237 -0.383483 0.911119 1.2978 0.214155 


 i = 24
1.6456 -0.13144 -0.480359 -1.11109 -0.441381 
1.60407 -0.0935391 -0.992754 -0.864824 -0.425388 
-2.56377 -0.344891 1.95817 1.69758 -0.282426 
-1.79834 -0.383403 0.921712 1.34753 0.21437 


 i = 25
1.68167 -0.117694 -0.482839 -1.14048 -0.441961 
1.64775 -0.0835375 -1.0073 -0.897489 -0.426115 
-2.61947 -0.342107 1.97986 1.74081 -0.281943 
-1.86128 -0.383347 0.931628 1.39533 0.214571 


 i = 26
1.71548 -0.103584 -0.485201 -1.1682 -0.442491 
1.69011 -0.073235 -1.0209 -0.929202 -0.426786 
-2.67351 -0.339308 2.00025 1.78272 -0.281486 
-1.92157 -0.383318 0.940922 1.44137 0.21476 


 i = 27
1.74757 -0.089108 -0.487421 -1.19442 -0.442973 
1.73155 -0.0626229 -1.03362 -0.960176 -0.427405 
-2.72572 -0.336499 2.01943 1.82335 -0.281049 
-1.97951 -0.383322 0.949647 1.48584 0.214939 


 i = 28
1.77865 -0.0742747 -0.489482 -1.21946 -0.44341 
1.77256 -0.0517003 -1.04552 -0.990679 -0.427976 
-2.77575 -0.333693 2.03751 1.86258 -0.28063 
-2.03538 -0.383366 0.957854 1.5289 0.215108 


 i = 29
1.8094 -0.0591151 -0.491371 -1.24366 -0.443802 
1.81357 -0.0404779 -1.05666 -1.02098 -0.4285 
-2.82326 -0.330909 2.0546 1.90029 -0.280226 
-2.08936 -0.383461 0.965592 1.57067 0.215269 


 i = 30
1.84022 -0.0436853 -0.493087 -1.26729 -0.444152 
1.85484 -0.028981 -1.06709 -1.0513 -0.428981 
-2.86808 -0.32818 2.07079 1.93638 -0.279834 
-2.14165 -0.383621 0.972904 1.61127 0.215422 


 i = 31
1.87108 -0.02807 -0.494635 -1.29044 -0.444462 
1.8964 -0.0172524 -1.07688 -1.08173 -0.429422 
-2.91038 -0.325548 2.08615 1.97089 -0.279452 
-2.19249 -0.383864 0.979826 1.65082 0.215569 


 i = 32
1.9016 -0.0123837 -0.496033 -1.31299 -0.444734 
1.93807 -0.00535308 -1.08608 -1.11223 -0.429825 
-2.95054 -0.32307 2.10075 2.00398 -0.279079 
-2.2421 -0.384211 0.986392 1.68944 0.21571 


 i = 33
1.93128 0.00323236 -0.4973 -1.33474 -0.444971 
1.97958 0.00663876 -1.09475 -1.1427 -0.430194 
-2.98908 -0.320811 2.11465 2.03587 -0.278714 
-2.2907 -0.384687 0.992628 1.72723 0.215845 


 i = 34
1.95968 0.0186176 -0.498461 -1.35551 -0.445178 
2.02071 0.0186317 -1.10293 -1.17303 -0.430531 
-3.02644 -0.318846 2.1279 2.06679 -0.278358 
-2.33846 -0.385319 0.998558 1.76425 0.215975 


 i = 35
1.9866 0.0336028 -0.499541 -1.37523 -0.445356 
2.06131 0.0305273 -1.11067 -1.20313 -0.43084 
-3.06291 -0.31725 2.14053 2.09688 -0.278009 
-2.38545 -0.386135 1.00421 1.80055 0.216101 


 i = 36
2.01203 0.0480236 -0.500562 -1.39392 -0.445511 
2.10136 0.042228 -1.11802 -1.23296 -0.431124 
-3.0986 -0.316097 2.15258 2.1262 -0.277667 
-2.43167 -0.387159 1.00959 1.83612 0.216221 


 i = 37
2.03613 0.061734 -0.501547 -1.41169 -0.445645 
2.14087 0.0536447 -1.12503 -1.26252 -0.431385 
-3.13355 -0.315451 2.1641 2.1548 -0.277334 
-2.47707 -0.388413 1.01473 1.87094 0.216338 


 i = 38
2.05911 0.0746188 -0.502518 -1.42868 -0.445762 
2.17993 0.0647036 -1.13172 -1.29181 -0.431627 
-3.16774 -0.315359 2.1751 2.18266 -0.277009 
-2.5216 -0.389911 1.01964 1.90496 0.21645 


 i = 39
2.08119 0.0866016 -0.503492 -1.44502 -0.445864 
2.21857 0.0753511 -1.13813 -1.32085 -0.431851 
-3.20116 -0.315847 2.18564 2.20979 -0.276692 
-2.56521 -0.391658 1.02434 1.93818 0.216559 


 i = 40
2.10256 0.0976487 -0.504484 -1.46086 -0.445954 
2.25683 0.0855554 -1.1443 -1.34964 -0.432061 
-3.2338 -0.316917 2.19572 2.23619 -0.276384 
-2.60785 -0.39365 1.02884 1.97056 0.216663 


 i = 41
2.12338 0.107768 -0.505503 -1.4763 -0.446034 
2.29472 0.095306 -1.15025 -1.37817 -0.432258 
-3.26567 -0.318547 2.20538 2.26188 -0.276083 
-2.64948 -0.395872 1.03316 2.0021 0.216765 


 i = 42
2.14375 0.117003 -0.506555 -1.49144 -0.446106 
2.33219 0.104611 -1.156 -1.40643 -0.432444 
-3.2968 -0.320693 2.21465 2.28688 -0.275791 
-2.6901 -0.398303 1.0373 2.03279 0.216862 


 i = 43
2.16376 0.125425 -0.507641 -1.50635 -0.446172 
2.36918 0.11349 -1.16157 -1.43436 -0.432621 
-3.32725 -0.323298 2.22355 2.31121 -0.275507 
-2.72971 -0.400916 1.04128 2.06265 0.216957 


 i = 44
2.18345 0.13312 -0.508758 -1.52107 -0.446233 
2.40558 0.121974 -1.16696 -1.46191 -0.432789 
-3.3571 -0.326293 2.2321 2.33495 -0.27523 
-2.76833 -0.403681 1.04511 2.09171 0.217049 


 i = 45
2.20279 0.140177 -0.5099 -1.5356 -0.44629 
2.44128 0.130095 -1.17219 -1.489 -0.43295 
-3.38645 -0.329611 2.24032 2.35817 -0.274962 
-2.80601 -0.406569 1.0488 2.12001 0.217138 


 i = 46
2.22176 0.146683 -0.511058 -1.54991 -0.446342 
2.47615 0.137883 -1.17727 -1.51555 -0.433104 
-3.41542 -0.333189 2.24824 2.38097 -0.2747 
-2.84283 -0.409555 1.05235 2.14762 0.217224 


 i = 47
2.24032 0.152707 -0.512224 -1.56396 -0.446391 
2.51008 0.145366 -1.18219 -1.54148 -0.433252 
-3.44412 -0.336977 2.25587 2.40345 -0.274446 
-2.87884 -0.412618 1.05578 2.1746 0.217307 


 i = 48
2.25842 0.158307 -0.513389 -1.57772 -0.446436 
2.543 0.152563 -1.18696 -1.56672 -0.433395 
-3.47261 -0.340937 2.26324 2.42569 -0.274198 
-2.91407 -0.415743 1.05909 2.20098 0.217388 


 i = 49
2.27607 0.163523 -0.514546 -1.59115 -0.446477 
2.57489 0.15949 -1.19159 -1.59126 -0.433532 
-3.50094 -0.345041 2.27036 2.44774 -0.273956 
-2.94856 -0.418916 1.0623 2.2268 0.217467 


 i = 50
2.29325 0.168385 -0.515689 -1.60427 -0.446515 
2.60573 0.166162 -1.19608 -1.6151 -0.433663 
-3.5291 -0.349274 2.27725 2.46962 -0.273719 
-2.9823 -0.42213 1.0654 2.25207 0.217544 


 i = 51
2.30999 0.172914 -0.516813 -1.61708 -0.446548 
2.63555 0.172588 -1.20043 -1.63825 -0.433789 
-3.55709 -0.353621 2.28392 2.49133 -0.273487 
-3.01529 -0.425376 1.0684 2.27678 0.217619 


 i = 52
2.32629 0.177129 -0.517917 -1.62959 -0.446576 
2.66441 0.17878 -1.20466 -1.66075 -0.43391 
-3.58488 -0.358073 2.29039 2.51286 -0.273258 
-3.04754 -0.428649 1.07131 2.30096 0.217693 


 i = 53
2.34216 0.181049 -0.518998 -1.64181 -0.4466 
2.69236 0.184749 -1.20876 -1.68264 -0.434025 
-3.61246 -0.36262 2.29667 2.53421 -0.273033 
-3.07906 -0.431944 1.07414 2.3246 0.217765 


 i = 54
2.35761 0.184689 -0.520057 -1.65373 -0.446618 
2.71949 0.19051 -1.21274 -1.70398 -0.434134 
-3.6398 -0.367253 2.30276 2.55537 -0.27281 
-3.10988 -0.435254 1.07688 2.34774 0.217837 


 i = 55
2.37267 0.188068 -0.521092 -1.66536 -0.446631 
2.74588 0.196075 -1.2166 -1.72482 -0.434238 
-3.66689 -0.371963 2.30869 2.57636 -0.27259 
-3.14 -0.438577 1.07955 2.37039 0.217907 


 i = 56
2.38736 0.191201 -0.522104 -1.67667 -0.446638 
2.77165 0.201458 -1.22036 -1.74522 -0.434337 
-3.6937 -0.37674 2.31445 2.59717 -0.272372 
-3.16947 -0.441909 1.08214 2.39259 0.217977 


 i = 57
2.4017 0.194106 -0.523091 -1.68768 -0.446641 
2.79688 0.206676 -1.22402 -1.76522 -0.43443 
-3.72024 -0.381574 2.32006 2.61781 -0.272155 
-3.19829 -0.445245 1.08467 2.41434 0.218046 


 i = 58
2.4157 0.196803 -0.524055 -1.69838 -0.446637 
2.82165 0.211741 -1.22757 -1.78488 -0.434518 
-3.74648 -0.386453 2.32553 2.63829 -0.271939 
-3.22648 -0.44858 1.08713 2.43567 0.218114 


 i = 59
2.42936 0.199308 -0.524993 -1.70875 -0.446629 
2.84604 0.216668 -1.23103 -1.80423 -0.434601 
-3.77243 -0.391366 2.33086 2.6586 -0.271725 
-3.25403 -0.451909 1.08953 2.45658 0.218183 


 i = 60
2.44265 0.201641 -0.525907 -1.71876 -0.446615 
2.87009 0.221471 -1.2344 -1.8233 -0.434678 
-3.79811 -0.3963 2.33606 2.67875 -0.271511 
-3.28095 -0.455228 1.09187 2.47708 0.21825 


 i = 61
2.45552 0.203817 -0.526795 -1.72839 -0.446597 
2.89384 0.226162 -1.23768 -1.84211 -0.434751 
-3.82351 -0.401242 2.34113 2.69875 -0.271298 
-3.30722 -0.458529 1.09415 2.49715 0.218317 


 i = 62
2.46793 0.205854 -0.527659 -1.73758 -0.446574 
2.91733 0.230755 -1.24087 -1.86067 -0.434819 
-3.84867 -0.406178 2.34609 2.71862 -0.271087 
-3.33285 -0.461808 1.09638 2.51681 0.218384 


 i = 63
2.47979 0.207767 -0.528495 -1.74628 -0.446547 
2.94058 0.23526 -1.24399 -1.87901 -0.434882 
-3.87364 -0.411098 2.35094 2.73836 -0.270876 
-3.35783 -0.46506 1.09855 2.53605 0.218451 


 i = 64
2.49102 0.209573 -0.529306 -1.75447 -0.446516 
2.96357 0.23969 -1.24702 -1.89711 -0.434942 
-3.89846 -0.41599 2.35568 2.75802 -0.270666 
-3.38217 -0.468279 1.10068 2.55488 0.218517 


 i = 65
2.50156 0.211288 -0.530088 -1.76212 -0.446481 
2.98631 0.244054 -1.24997 -1.915 -0.434996 
-3.92321 -0.420842 2.36031 2.77762 -0.270457 
-3.40591 -0.471463 1.10276 2.57331 0.218583 


 i = 66
2.51138 0.212927 -0.530844 -1.76921 -0.446442 
3.00877 0.248363 -1.25285 -1.93267 -0.435047 
-3.94793 -0.425648 2.36485 2.79718 -0.270249 
-3.42908 -0.474611 1.1048 2.59136 0.218648 


 i = 67
2.52049 0.214502 -0.531572 -1.77579 -0.446399 
3.03094 0.252621 -1.25565 -1.95012 -0.435093 
-3.97265 -0.430404 2.36929 2.81672 -0.27004 
-3.45174 -0.477724 1.10679 2.60908 0.218713 


 i = 68
2.52899 0.216017 -0.532274 -1.78194 -0.44635 
3.05281 0.256829 -1.25838 -1.96736 -0.435135 
-3.99735 -0.435114 2.37365 2.83621 -0.269832 
-3.47399 -0.480808 1.10874 2.62653 0.218779 


 i = 69
2.537 0.217466 -0.532951 -1.78777 -0.446297 
3.07437 0.260983 -1.26104 -1.98439 -0.435172 
-4.02198 -0.43979 2.37792 2.85562 -0.269623 
-3.49596 -0.483874 1.11066 2.64377 0.218844 


 i = 70
2.54471 0.218843 -0.533601 -1.79349 -0.446239 
3.09561 0.265072 -1.26364 -2.00125 -0.435205 
-4.04651 -0.444447 2.38211 2.87489 -0.269414 
-3.51782 -0.486936 1.11253 2.66091 0.218908 


 i = 71
2.55228 0.220149 -0.534224 -1.79927 -0.446176 
3.11652 0.269093 -1.26617 -2.01797 -0.435234 
-4.07094 -0.449094 2.38622 2.89398 -0.269206 
-3.53977 -0.490005 1.11437 2.67806 0.218972 


 i = 72
2.55986 0.221391 -0.534818 -1.80526 -0.44611 
3.13713 0.273045 -1.26864 -2.03459 -0.43526 
-4.09532 -0.453735 2.39026 2.91288 -0.268997 
-3.56201 -0.493088 1.11617 2.69534 0.219036 


 i = 73
2.56757 0.222568 -0.535382 -1.81146 -0.446041 
3.15749 0.276928 -1.27105 -2.05114 -0.435284 
-4.11964 -0.458377 2.39423 2.93167 -0.268791 
-3.58468 -0.49619 1.11794 2.71284 0.219098 


 i = 74
2.57556 0.223645 -0.535914 -1.81778 -0.445972 
3.17775 0.280728 -1.27339 -2.06759 -0.435306 
-4.14374 -0.46304 2.39814 2.95041 -0.268588 
-3.60776 -0.499316 1.11968 2.73061 0.219159 


 i = 75
2.58408 0.224547 -0.536412 -1.82416 -0.445906 
3.19805 0.284404 -1.27568 -2.08391 -0.435328 
-4.16723 -0.467764 2.40198 2.96896 -0.26839 
-3.63099 -0.502466 1.12139 2.74854 0.219217 


 i = 76
2.59323 0.225164 -0.536876 -1.83083 -0.445843 
3.21822 0.287885 -1.2779 -2.10002 -0.43535 
-4.18967 -0.472608 2.40576 2.98687 -0.268197 
-3.65392 -0.505635 1.12307 2.76626 0.219274 


 i = 77
2.60288 0.225392 -0.537319 -1.83794 -0.445782 
3.23787 0.291088 -1.28007 -2.11575 -0.435373 
-4.21067 -0.477617 2.40946 3.00369 -0.26801 
-3.67589 -0.508804 1.12472 2.78328 0.219329 


 i = 78
2.61277 0.225202 -0.537758 -1.84479 -0.445726 
3.25682 0.293988 -1.2822 -2.13066 -0.435398 
-4.22981 -0.482772 2.41309 3.01949 -0.267827 
-3.69617 -0.51193 1.12634 2.79926 0.219384 


 i = 79
2.62236 0.224712 -0.538204 -1.85061 -0.445676 
3.27511 0.296662 -1.2843 -2.14458 -0.435424 
-4.24718 -0.487951 2.41664 3.03459 -0.26765 
-3.71451 -0.514958 1.12792 2.81414 0.219438 


 i = 80
2.63172 0.224182 -0.538642 -1.8562 -0.445629 
3.29295 0.299244 -1.28636 -2.15797 -0.435451 
-4.26308 -0.492973 2.42011 3.04861 -0.267477 
-3.7311 -0.517835 1.12947 2.82786 0.219492 


 i = 81
2.64052 0.223776 -0.539061 -1.86195 -0.445581 
3.31014 0.301815 -1.28837 -2.17105 -0.435478 
-4.27832 -0.497751 2.42352 3.06165 -0.267304 
-3.74653 -0.520552 1.131 2.84064 0.219547 


 i = 82
2.64821 0.22352 -0.539459 -1.86746 -0.445531 
3.32641 0.30439 -1.29033 -2.18364 -0.435502 
-4.29363 -0.502293 2.42687 3.07429 -0.267132 
-3.76136 -0.523133 1.13249 2.85289 0.219601 


 i = 83
2.65501 0.223402 -0.539836 -1.87253 -0.445478 
3.34193 0.30697 -1.29225 -2.1957 -0.435525 
-4.30901 -0.506622 2.43017 3.08682 -0.266961 
-3.77584 -0.525606 1.13397 2.86486 0.219656 


 i = 84
2.66121 0.223401 -0.540194 -1.87717 -0.445424 
3.35691 0.309555 -1.29413 -2.20732 -0.435545 
-4.32433 -0.510764 2.43341 3.09928 -0.266789 
-3.79015 -0.527995 1.13541 2.87672 0.219711 


 i = 85
2.66698 0.223494 -0.54053 -1.88144 -0.445367 
3.37152 0.312136 -1.29596 -2.21857 -0.435564 
-4.3395 -0.514744 2.43661 3.11168 -0.266619 
-3.8044 -0.530317 1.13684 2.88856 0.219765 


 i = 86
2.67246 0.223655 -0.540844 -1.88541 -0.445309 
3.38588 0.314709 -1.29776 -2.22953 -0.435581 
-4.35447 -0.518585 2.43976 3.124 -0.266449 
-3.8187 -0.532589 1.13825 2.90045 0.219819 


 i = 87
2.67773 0.223858 -0.541133 -1.88913 -0.44525 
3.40008 0.317263 -1.29951 -2.24025 -0.435597 
-4.3692 -0.522311 2.44286 3.1362 -0.266281 
-3.8331 -0.534824 1.13963 2.91242 0.219872 


 i = 88
2.68288 0.224082 -0.541399 -1.89266 -0.445189 
3.41418 0.31979 -1.30122 -2.25079 -0.435611 
-4.38365 -0.525944 2.44593 3.14825 -0.266114 
-3.84763 -0.537031 1.14099 2.9245 0.219924 


 i = 89
2.68799 0.224301 -0.541639 -1.89605 -0.445127 
3.42821 0.322279 -1.30289 -2.26116 -0.435624 
-4.39778 -0.529502 2.44895 3.16014 -0.265948 
-3.86232 -0.539222 1.14234 2.93668 0.219975 


 i = 90
2.69312 0.224498 -0.541855 -1.89937 -0.445065 
3.4422 0.32472 -1.30452 -2.2714 -0.435635 
-4.41157 -0.533006 2.45194 3.17183 -0.265783 
-3.8772 -0.541404 1.14367 2.94896 0.220026 


 i = 91
2.69831 0.22466 -0.542046 -1.90269 -0.445001 
3.45612 0.327107 -1.30611 -2.28152 -0.435645 
-4.42505 -0.536469 2.45489 3.1833 -0.265619 
-3.89231 -0.543584 1.14497 2.96136 0.220076 


 i = 92
2.70359 0.224782 -0.542213 -1.90608 -0.444935 
3.46994 0.329433 -1.30767 -2.29153 -0.435653 
-4.43826 -0.539902 2.45781 3.19454 -0.265457 
-3.90771 -0.545769 1.14627 2.97391 0.220125 


 i = 93
2.70897 0.22487 -0.542359 -1.90961 -0.444868 
3.48355 0.331698 -1.30919 -2.30143 -0.43566 
-4.45127 -0.543306 2.4607 3.20557 -0.265295 
-3.92352 -0.547964 1.14754 2.98662 0.220173 


 i = 94
2.71444 0.224936 -0.542485 -1.91331 -0.4448 
3.49685 0.333903 -1.31067 -2.3112 -0.435665 
-4.46417 -0.546677 2.46355 3.2164 -0.265134 
-3.93986 -0.550171 1.1488 2.99958 0.22022 


 i = 95
2.72001 0.224996 -0.542594 -1.91719 -0.44473 
3.50973 0.336053 -1.31213 -2.3208 -0.43567 
-4.47699 -0.550005 2.46637 3.22705 -0.264973 
-3.95684 -0.55239 1.15005 3.01282 0.220266 


 i = 96
2.72565 0.22507 -0.542692 -1.92124 -0.444658 
3.5221 0.338155 -1.31356 -2.33019 -0.435673 
-4.48977 -0.553276 2.46915 3.23755 -0.264814 
-3.97457 -0.554621 1.15127 3.02641 0.220312 


 i = 97
2.73133 0.22518 -0.542782 -1.92541 -0.444585 
3.53391 0.340223 -1.31496 -2.33936 -0.435675 
-4.50253 -0.556472 2.4719 3.24794 -0.264655 
-3.99311 -0.556859 1.15249 3.04039 0.220356 


 i = 98
2.73697 0.225349 -0.542871 -1.9297 -0.44451 
3.54514 0.342272 -1.31634 -2.34831 -0.435676 
-4.51529 -0.559573 2.47462 3.2582 -0.264497 
-4.0125 -0.559096 1.15368 3.0548 0.2204 


 i = 99
2.74245 0.225594 -0.542966 -1.93413 -0.444435 
3.55588 0.344319 -1.31771 -2.35711 -0.435676 
-4.52806 -0.562563 2.47729 3.2683 -0.264339 
-4.03267 -0.561327 1.15486 3.06964 0.220442 


 i = 100
2.74768 0.225923 -0.543076 -1.93869 -0.444358 
3.56632 0.346383 -1.31907 -2.36589 -0.435674 
-4.54079 -0.565434 2.47992 3.2782 -0.264182 
-4.05347 -0.563544 1.15602 3.08486 0.220484 


 i = 101
2.75259 0.226337 -0.543212 -1.94336 -0.44428 
3.57664 0.348476 -1.32042 -2.37471 -0.435672 
-4.55339 -0.568183 2.48251 3.28787 -0.264025 
-4.07472 -0.565742 1.15717 3.10041 0.220526 


 i = 102
2.75718 0.226836 -0.543384 -1.94814 -0.444201 
3.58691 0.350603 -1.32178 -2.38359 -0.435668 
-4.5658 -0.570811 2.48504 3.29727 -0.263868 
-4.09633 -0.56792 1.15829 3.11629 0.220567 


 i = 103
2.7615 0.227424 -0.543598 -1.95307 -0.444121 
3.59694 0.352756 -1.32314 -2.39238 -0.435664 
-4.57807 -0.573323 2.48752 3.30646 -0.263711 
-4.11844 -0.570087 1.15939 3.13262 0.220607 


 i = 104
2.76568 0.22813 -0.543857 -1.9583 -0.444042 
3.60628 0.354924 -1.32451 -2.40081 -0.43566 
-4.5904 -0.575714 2.48995 3.31553 -0.263555 
-4.14143 -0.57226 1.16047 3.14965 0.220646 


 i = 105
2.76996 0.229046 -0.544158 -1.96419 -0.443963 
3.61407 0.357104 -1.32589 -2.40836 -0.435657 
-4.60333 -0.577953 2.49232 3.32476 -0.263401 
-4.16622 -0.574464 1.16153 3.168 0.220684 


 i = 106
2.77552 0.230244 -0.544492 -1.97039 -0.443887 
3.61975 0.359276 -1.32727 -2.4141 -0.435656 
-4.61714 -0.580052 2.49465 3.33539 -0.263252 
-4.19366 -0.576741 1.16258 3.18866 0.220719 


 i = 107
2.78739 0.230985 -0.544891 -1.97049 -0.443827 
3.62863 0.36124 -1.32868 -2.4168 -0.43566 
-4.62693 -0.582501 2.49692 3.35157 -0.263117 
-4.21889 -0.579067 1.1636 3.21061 0.22075 


 i = 108
2.79731 0.231852 -0.545286 -1.97104 -0.443765 
3.63772 0.363312 -1.33006 -2.42042 -0.435662 
-4.63954 -0.584891 2.49916 3.36808 -0.262981 
-4.24448 -0.581321 1.16461 3.23179 0.220783 


 i = 109
2.80651 0.232625 -0.545703 -1.97504 -0.443706 
3.64594 0.365292 -1.33145 -2.42519 -0.435665 
-4.65241 -0.587315 2.50137 3.38137 -0.262849 
-4.27036 -0.583588 1.16561 3.2515 0.220814 


 i = 110
2.81449 0.233232 -0.546129 -1.98146 -0.443652 
3.65251 0.367117 -1.33282 -2.43029 -0.435672 
-4.66538 -0.589798 2.50353 3.39199 -0.262721 
-4.29685 -0.585903 1.16659 3.27039 0.220843 


 i = 111
2.8206 0.233922 -0.546537 -1.98942 -0.443597 
3.65723 0.36892 -1.33417 -2.43548 -0.435678 
-4.67905 -0.592146 2.50568 3.4009 -0.262593 
-4.3244 -0.588214 1.16756 3.28916 0.220872 


 i = 112
2.82412 0.234828 -0.546918 -1.99754 -0.443538 
3.65989 0.370779 -1.33549 -2.44027 -0.435683 
-4.69424 -0.594278 2.50781 3.40952 -0.262462 
-4.35339 -0.590507 1.16853 3.30861 0.2209 


 i = 113
2.82865 0.236063 -0.547281 -2.00552 -0.443475 
3.66252 0.37276 -1.33679 -2.44469 -0.435686 
-4.7085 -0.596133 2.50992 3.41844 -0.26233 
-4.38284 -0.592765 1.16948 3.329 0.220928 


 i = 114
2.83459 0.237534 -0.547634 -2.01255 -0.44341 
3.66569 0.374834 -1.33806 -2.44857 -0.435687 
-4.72161 -0.59779 2.51202 3.42827 -0.262197 
-4.41255 -0.595012 1.17042 3.35042 0.220956 


 i = 115
2.84139 0.239146 -0.54798 -2.01876 -0.443344 
3.66931 0.376965 -1.33932 -2.45212 -0.435688 
-4.734 -0.599322 2.51409 3.43875 -0.262064 
-4.44263 -0.597274 1.17136 3.37262 0.220983 


 i = 116
2.84881 0.240835 -0.548316 -2.02449 -0.443278 
3.67336 0.379127 -1.34056 -2.4556 -0.435688 
-4.7458 -0.600774 2.51615 3.44951 -0.261932 
-4.4731 -0.599567 1.17228 3.39529 0.221009 


 i = 117
2.85663 0.242526 -0.548639 -2.02996 -0.443212 
3.67789 0.381291 -1.34178 -2.45924 -0.435688 
-4.75703 -0.602193 2.51818 3.46018 -0.261801 
-4.50378 -0.601898 1.1732 3.41807 0.221034 


 i = 118
2.86454 0.244116 -0.54895 -2.03516 -0.443147 
3.68303 0.383426 -1.34298 -2.46331 -0.435687 
-4.76759 -0.603636 2.5202 3.47043 -0.26167 
-4.53426 -0.60426 1.17411 3.44047 0.221059 


 i = 119
2.87233 0.24549 -0.549257 -2.0399 -0.443082 
3.68908 0.385502 -1.34417 -2.46802 -0.435685 
-4.77721 -0.605162 2.5222 3.48003 -0.261541 
-4.56391 -0.606638 1.17501 3.46195 0.221083 


 i = 120
2.88017 0.246557 -0.549567 -2.04374 -0.443021 
3.69657 0.387506 -1.34534 -2.47346 -0.435683 
-4.78538 -0.606812 2.52417 3.48904 -0.261412 
-4.59199 -0.609006 1.17589 3.48213 0.221108 


 i = 121
2.88836 0.247265 -0.549884 -2.04648 -0.442963 
3.70594 0.389433 -1.34651 -2.47968 -0.43568 
-4.79166 -0.608617 2.5261 3.49749 -0.261286 
-4.61792 -0.611339 1.17676 3.50066 0.221133 


 i = 122
2.89652 0.247618 -0.550204 -2.04856 -0.442909 
3.71709 0.391287 -1.34766 -2.48684 -0.435678 
-4.79652 -0.61059 2.52801 3.50524 -0.261163 
-4.64164 -0.613621 1.17762 3.51739 0.221159 


 i = 123
2.90379 0.247703 -0.550521 -2.05058 -0.442857 
3.72931 0.393093 -1.34879 -2.49492 -0.435675 
-4.80095 -0.612689 2.5299 3.51217 -0.261041 
-4.66363 -0.615844 1.17847 3.53249 0.221185 


 i = 124
2.90994 0.247645 -0.550833 -2.05281 -0.442805 
3.74202 0.394879 -1.34992 -2.50367 -0.435671 
-4.80547 -0.614839 2.53176 3.51838 -0.26092 
-4.68446 -0.618003 1.17931 3.54638 0.221212 


 i = 125
2.91522 0.247538 -0.551141 -2.05524 -0.442754 
3.755 0.39667 -1.35102 -2.51283 -0.435666 
-4.81011 -0.616981 2.5336 3.5241 -0.2608 
-4.70444 -0.620098 1.18015 3.55947 0.221239 


 i = 126
2.91988 0.247433 -0.551445 -2.05779 -0.442701 
3.76814 0.398476 -1.35212 -2.52224 -0.43566 
-4.81481 -0.619081 2.53542 3.52948 -0.260679 
-4.72376 -0.622132 1.18097 3.57199 0.221267 


 i = 127
2.92411 0.247354 -0.551746 -2.06041 -0.442647 
3.78138 0.400299 -1.3532 -2.53176 -0.435652 
-4.81951 -0.621125 2.53722 3.53465 -0.260558 
-4.74254 -0.62411 1.18178 3.58411 0.221295 


 i = 128
2.92803 0.24731 -0.552044 -2.06306 -0.442592 
3.79465 0.402137 -1.35427 -2.54132 -0.435644 
-4.82416 -0.623112 2.539 3.53966 -0.260437 
-4.76087 -0.626037 1.18258 3.59593 0.221324 


 i = 129
2.93173 0.2473 -0.55234 -2.06572 -0.442536 
3.8079 0.403984 -1.35533 -2.55086 -0.435635 
-4.82875 -0.625043 2.54075 3.54456 -0.260315 
-4.77885 -0.627921 1.18338 3.60752 0.221353 


 i = 130
2.9353 0.247319 -0.552632 -2.06837 -0.442478 
3.82107 0.405833 -1.35637 -2.56034 -0.435624 
-4.83326 -0.626925 2.54249 3.54937 -0.260193 
-4.79657 -0.62977 1.18416 3.61896 0.221382 


 i = 131
2.93879 0.247362 -0.55292 -2.07103 -0.44242 
3.83411 0.407677 -1.3574 -2.56971 -0.435613 
-4.83768 -0.628765 2.54421 3.55412 -0.260071 
-4.81411 -0.631593 1.18494 3.63029 0.221412 


 i = 132
2.94227 0.247421 -0.553203 -2.07368 -0.44236 
3.84695 0.409507 -1.35842 -2.57893 -0.435601 
-4.84201 -0.630571 2.54592 3.55883 -0.259949 
-4.83158 -0.633397 1.18571 3.64158 0.221441 


 i = 133
2.94578 0.247491 -0.553479 -2.07633 -0.4423 
3.85954 0.411317 -1.35943 -2.58797 -0.435589 
-4.84624 -0.63235 2.54761 3.56351 -0.259827 
-4.84907 -0.63519 1.18647 3.65287 0.22147 


 i = 134
2.94938 0.24757 -0.553745 -2.079 -0.442239 
3.8718 0.413101 -1.36042 -2.5968 -0.435576 
-4.85038 -0.634106 2.54928 3.56817 -0.259705 
-4.86668 -0.636981 1.18723 3.66422 0.221499 


 i = 135
2.95311 0.247658 -0.554 -2.0817 -0.442176 
3.88367 0.414853 -1.3614 -2.60536 -0.435563 
-4.85444 -0.635841 2.55094 3.57282 -0.259583 
-4.88452 -0.638774 1.18798 3.6757 0.221527 


 i = 136
2.957 0.247757 -0.554243 -2.08445 -0.442113 
3.89508 0.416571 -1.36236 -2.61363 -0.435549 
-4.85844 -0.637555 2.55259 3.57749 -0.259462 
-4.90269 -0.640576 1.18872 3.68737 0.221555 


 i = 137
2.96108 0.247873 -0.554471 -2.08725 -0.442049 
3.90599 0.418253 -1.3633 -2.62155 -0.435535 
-4.8624 -0.639247 2.55423 3.58219 -0.25934 
-4.92126 -0.642389 1.18946 3.69928 0.221583 


 i = 138
2.96539 0.248009 -0.554684 -2.09014 -0.441983 
3.91634 0.419897 -1.36423 -2.6291 -0.435521 
-4.86633 -0.640915 2.55586 3.58692 -0.259219 
-4.9403 -0.644218 1.19019 3.71147 0.22161 


 i = 139
2.96995 0.248169 -0.55488 -2.09311 -0.441916 
3.92612 0.421501 -1.36514 -2.63623 -0.435506 
-4.87025 -0.642557 2.55749 3.59172 -0.259097 
-4.95985 -0.646065 1.19092 3.72399 0.221637 


 i = 140
2.97477 0.248354 -0.555059 -2.09618 -0.441847 
3.93533 0.423066 -1.36603 -2.64293 -0.435491 
-4.87414 -0.644176 2.5591 3.59659 -0.258975 
-4.97992 -0.647932 1.19164 3.73685 0.221663 


 i = 141
2.97991 0.248562 -0.55522 -2.09933 -0.441776 
3.94401 0.424589 -1.3669 -2.64918 -0.435474 
-4.87801 -0.645773 2.56071 3.60156 -0.258853 
-5.00049 -0.64982 1.19236 3.75008 0.221689 


 i = 142
2.98539 0.248786 -0.555363 -2.10256 -0.441703 
3.95218 0.426069 -1.36776 -2.65498 -0.435458 
-4.88181 -0.647354 2.56231 3.60664 -0.25873 
-5.02156 -0.651732 1.19307 3.76367 0.221714 


 i = 143
2.99125 0.24902 -0.555487 -2.10585 -0.441628 
3.9599 0.427502 -1.3686 -2.66032 -0.43544 
-4.88552 -0.648928 2.56391 3.61186 -0.258606 
-5.0431 -0.65367 1.19378 3.77763 0.221739 


 i = 144
2.99754 0.249249 -0.555591 -2.1092 -0.441552 
3.96722 0.428882 -1.36942 -2.6652 -0.435422 
-4.88909 -0.650505 2.5655 3.61722 -0.258482 
-5.06508 -0.65564 1.19449 3.79194 0.221763 


 i = 145
3.00431 0.24946 -0.555673 -2.1126 -0.441473 
3.97419 0.430202 -1.37022 -2.66961 -0.435403 
-4.89247 -0.652099 2.56709 3.62275 -0.258358 
-5.08746 -0.657644 1.19519 3.80661 0.221787 


 i = 146
3.01163 0.24963 -0.555732 -2.11602 -0.441392 
3.98087 0.431452 -1.371 -2.67355 -0.435384 
-4.8956 -0.653726 2.56867 3.62845 -0.258234 
-5.11019 -0.659688 1.19589 3.82161 0.221811 


 i = 147
3.01959 0.249735 -0.555766 -2.11944 -0.44131 
3.98736 0.432619 -1.37176 -2.677 -0.435364 
-4.89837 -0.655408 2.57026 3.63435 -0.25811 
-5.13322 -0.661779 1.19659 3.83692 0.221834 


 i = 148
3.02826 0.24974 -0.555771 -2.12286 -0.441227 
3.99374 0.433687 -1.3725 -2.67996 -0.435344 
-4.90069 -0.657172 2.57185 3.64045 -0.257986 
-5.15645 -0.663921 1.19729 3.85251 0.221856 


 i = 149
3.0377 0.249608 -0.555744 -2.12625 -0.441142 
4.00014 0.434641 -1.37322 -2.68245 -0.435323 
-4.90246 -0.659047 2.57344 3.64675 -0.257862 
-5.17975 -0.666121 1.19798 3.86832 0.221877 


 i = 150
3.04791 0.249303 -0.555682 -2.12963 -0.441055 
4.00668 0.435467 -1.37391 -2.68453 -0.435303 
-4.9036 -0.661062 2.57503 3.65321 -0.257738 
-5.20299 -0.668379 1.19868 3.88425 0.221898 


 i = 151
3.05874 0.248805 -0.555581 -2.13307 -0.440967 
4.01343 0.436161 -1.37457 -2.6863 -0.435281 
-4.90418 -0.663227 2.57664 3.65975 -0.257615 
-5.22603 -0.670689 1.19937 3.90019 0.221919 


 i = 152
3.06993 0.248129 -0.555439 -2.13666 -0.440877 
4.02037 0.436739 -1.37521 -2.68788 -0.435259 
-4.90433 -0.665529 2.57825 3.66626 -0.257492 
-5.24879 -0.673038 1.20007 3.91602 0.221939 


 i = 153
3.08118 0.247321 -0.555257 -2.14051 -0.440785 
4.02744 0.437226 -1.37582 -2.68937 -0.435235 
-4.9043 -0.667932 2.57988 3.67265 -0.257368 
-5.27125 -0.675405 1.20076 3.93169 0.221959 


 i = 154
3.09226 0.246443 -0.555038 -2.14468 -0.440689 
4.03452 0.437656 -1.3764 -2.69084 -0.43521 
-4.90425 -0.670383 2.58151 3.67889 -0.257243 
-5.29342 -0.677767 1.20146 3.94719 0.221979 


 i = 155
3.10302 0.245557 -0.554788 -2.14916 -0.440589 
4.04155 0.438061 -1.37696 -2.69228 -0.435183 
-4.90433 -0.672834 2.58314 3.68497 -0.257115 
-5.31532 -0.680105 1.20216 3.96255 0.222 


 i = 156
3.11338 0.244714 -0.554514 -2.15395 -0.440484 
4.04847 0.438467 -1.3775 -2.6937 -0.435154 
-4.90458 -0.675243 2.58478 3.69093 -0.256986 
-5.33697 -0.682406 1.20285 3.97782 0.222021 


 i = 157
3.12332 0.243953 -0.554226 -2.15903 -0.440374 
4.05524 0.438896 -1.37804 -2.69507 -0.435122 
-4.90507 -0.677581 2.58642 3.69679 -0.256853 
-5.35837 -0.68466 1.20355 3.99305 0.222043 


 i = 158
3.1328 0.243302 -0.553932 -2.16437 -0.440259 
4.06183 0.439361 -1.37856 -2.69638 -0.435089 
-4.90582 -0.679825 2.58805 3.70259 -0.256718 
-5.37955 -0.686861 1.20424 4.00827 0.222066 


 i = 159
3.14181 0.242782 -0.55364 -2.16995 -0.440139 
4.06823 0.439873 -1.37908 -2.69762 -0.435052 
-4.90683 -0.681961 2.58967 3.70833 -0.25658 
-5.40051 -0.689007 1.20493 4.02352 0.22209 


 i = 160
3.15037 0.242403 -0.55336 -2.17574 -0.440015 
4.07442 0.440441 -1.37961 -2.69878 -0.435014 
-4.90811 -0.683981 2.59128 3.71404 -0.256438 
-5.42127 -0.691095 1.20561 4.03881 0.222115 


 i = 161
3.15848 0.242173 -0.553097 -2.18171 -0.439885 
4.08042 0.441067 -1.38013 -2.69986 -0.434973 
-4.90964 -0.68588 2.59287 3.71973 -0.256293 
-5.44185 -0.693129 1.20628 4.05416 0.222141 


 i = 162
3.16616 0.242092 -0.55286 -2.18783 -0.439752 
4.08623 0.441756 -1.38067 -2.70086 -0.434931 
-4.9114 -0.687658 2.59444 3.72542 -0.256146 
-5.46224 -0.695109 1.20695 4.06958 0.222168 


 i = 163
3.17344 0.242158 -0.552652 -2.19408 -0.439614 
4.09187 0.442506 -1.38122 -2.70177 -0.434886 
-4.91336 -0.689318 2.59599 3.73111 -0.255995 
-5.48245 -0.697039 1.20761 4.08507 0.222196 


 i = 164
3.18035 0.242365 -0.552478 -2.20041 -0.439473 
4.09737 0.443317 -1.38179 -2.70261 -0.43484 
-4.91551 -0.690865 2.59751 3.73682 -0.255842 
-5.50251 -0.698923 1.20826 4.10063 0.222225 


 i = 165
3.18692 0.242705 -0.552341 -2.20682 -0.439328 
4.10274 0.444186 -1.38237 -2.70339 -0.434793 
-4.91782 -0.692304 2.599 3.74253 -0.255687 
-5.5224 -0.700766 1.2089 4.11624 0.222254 


 i = 166
3.19317 0.243171 -0.552243 -2.21327 -0.439181 
4.108 0.44511 -1.38297 -2.70411 -0.434744 
-4.92026 -0.693644 2.60047 3.74825 -0.25553 
-5.54214 -0.702571 1.20953 4.13189 0.222284 


 i = 167
3.19913 0.243751 -0.552185 -2.21975 -0.439032 
4.11316 0.446085 -1.38359 -2.70478 -0.434694 
-4.92281 -0.694893 2.60191 3.75397 -0.25537 
-5.56174 -0.704344 1.21016 4.14758 0.222315 


 i = 168
3.20483 0.244435 -0.552168 -2.22624 -0.43888 
4.11826 0.447107 -1.38423 -2.70543 -0.434642 
-4.92545 -0.696058 2.60332 3.7597 -0.25521 
-5.58119 -0.706089 1.21077 4.16328 0.222346 


 i = 169
3.21028 0.245215 -0.552192 -2.23273 -0.438727 
4.12329 0.448172 -1.38488 -2.70606 -0.43459 
-4.92818 -0.697149 2.6047 3.76543 -0.255047 
-5.60052 -0.707811 1.21138 4.17899 0.222378 


 i = 170
3.21552 0.246078 -0.552256 -2.2392 -0.438572 
4.12828 0.449276 -1.38555 -2.70668 -0.434538 
-4.93098 -0.698173 2.60605 3.77115 -0.254884 
-5.61972 -0.709513 1.21197 4.19468 0.22241 


 i = 171
3.22055 0.247016 -0.552358 -2.24564 -0.438417 
4.13323 0.450413 -1.38624 -2.7073 -0.434484 
-4.93383 -0.699139 2.60738 3.77686 -0.254719 
-5.63881 -0.7112 1.21256 4.21035 0.222443 


 i = 172
3.2254 0.248019 -0.552497 -2.25205 -0.43826 
4.13815 0.45158 -1.38695 -2.70793 -0.43443 
-4.93673 -0.700053 2.60868 3.78255 -0.254554 
-5.65778 -0.712875 1.21314 4.22598 0.222476 


 i = 173
3.23008 0.249078 -0.552672 -2.25842 -0.438103 
4.14304 0.452773 -1.38767 -2.70858 -0.434376 
-4.93967 -0.700924 2.60995 3.78823 -0.254388 
-5.67666 -0.714542 1.21371 4.24156 0.222509 


 i = 174
3.23461 0.250186 -0.552879 -2.26474 -0.437945 
4.14793 0.453987 -1.38841 -2.70926 -0.434322 
-4.94264 -0.701756 2.6112 3.79387 -0.254222 
-5.69543 -0.716204 1.21427 4.25709 0.222543 


 i = 175
3.23899 0.251334 -0.553119 -2.27101 -0.437787 
4.15279 0.45522 -1.38915 -2.70997 -0.434267 
-4.94564 -0.702557 2.61243 3.79949 -0.254055 
-5.71412 -0.717864 1.21482 4.27254 0.222577 


 i = 176
3.24325 0.252516 -0.553387 -2.27723 -0.437629 
4.15766 0.456468 -1.38992 -2.71071 -0.434212 
-4.94868 -0.703332 2.61364 3.80508 -0.253887 
-5.73272 -0.719524 1.21537 4.28792 0.22261 


 i = 177
3.24739 0.253727 -0.553683 -2.28338 -0.437471 
4.16251 0.457728 -1.39069 -2.71149 -0.434156 
-4.95173 -0.704085 2.61482 3.81063 -0.25372 
-5.75124 -0.721187 1.21591 4.30322 0.222644 


 i = 178
3.25142 0.254959 -0.554004 -2.28948 -0.437313 
4.16736 0.458997 -1.39147 -2.71232 -0.434101 
-4.9548 -0.704821 2.61598 3.81614 -0.253552 
-5.7697 -0.722854 1.21644 4.31843 0.222678 


 i = 179
3.25535 0.256208 -0.554349 -2.29552 -0.437155 
4.17221 0.460273 -1.39226 -2.71319 -0.434046 
-4.9579 -0.705544 2.61712 3.82161 -0.253384 
-5.78808 -0.724528 1.21696 4.33355 0.222713 


 i = 180
3.25919 0.257469 -0.554714 -2.30149 -0.436997 
4.17706 0.461553 -1.39306 -2.7141 -0.43399 
-4.96101 -0.706258 2.61825 3.82704 -0.253216 
-5.80641 -0.72621 1.21748 4.34857 0.222747 


 i = 181
3.26294 0.258739 -0.555099 -2.3074 -0.436839 
4.1819 0.462835 -1.39387 -2.71507 -0.433935 
-4.96414 -0.706966 2.61936 3.83242 -0.253048 
-5.82468 -0.727901 1.21799 4.36349 0.222781 


 i = 182
3.26662 0.260013 -0.555502 -2.31325 -0.436682 
4.18675 0.464117 -1.39468 -2.71608 -0.433879 
-4.96728 -0.70767 2.62045 3.83776 -0.25288 
-5.84291 -0.729603 1.2185 4.37832 0.222815 


 i = 183
3.27024 0.261288 -0.55592 -2.31904 -0.436525 
4.1916 0.465398 -1.39549 -2.71713 -0.433824 
-4.97043 -0.708374 2.62152 3.84306 -0.252712 
-5.86108 -0.731317 1.219 4.39304 0.222849 


 i = 184
3.27378 0.262561 -0.556353 -2.32476 -0.436369 
4.19645 0.466677 -1.39631 -2.71824 -0.433768 
-4.9736 -0.709079 2.62258 3.8483 -0.252545 
-5.87922 -0.733043 1.21949 4.40765 0.222883 


 i = 185
3.27728 0.26383 -0.556799 -2.33042 -0.436213 
4.2013 0.467951 -1.39714 -2.71939 -0.433713 
-4.97678 -0.709788 2.62363 3.8535 -0.252377 
-5.89732 -0.734783 1.21999 4.42217 0.222918 


 i = 186
3.28072 0.265093 -0.557255 -2.33603 -0.436057 
4.20615 0.469219 -1.39796 -2.7206 -0.433658 
-4.97997 -0.710501 2.62466 3.85865 -0.25221 
-5.91539 -0.736537 1.22047 4.43658 0.222952 


 i = 187
3.28411 0.266347 -0.557722 -2.34157 -0.435902 
4.211 0.470482 -1.39879 -2.72184 -0.433603 
-4.98316 -0.711221 2.62568 3.86375 -0.252043 
-5.93343 -0.738305 1.22095 4.45088 0.222986 


 i = 188
3.28747 0.267591 -0.558198 -2.34705 -0.435747 
4.21586 0.471737 -1.39962 -2.72313 -0.433548 
-4.98637 -0.711948 2.62669 3.86881 -0.251876 
-5.95145 -0.740088 1.22143 4.46508 0.22302 


 i = 189
3.29079 0.268823 -0.558681 -2.35247 -0.435593 
4.22072 0.472983 -1.40045 -2.72447 -0.433493 
-4.98958 -0.712684 2.62769 3.87381 -0.251709 
-5.96944 -0.741885 1.2219 4.47918 0.223054 


 i = 190
3.29407 0.270042 -0.55917 -2.35784 -0.435439 
4.22558 0.474222 -1.40128 -2.72585 -0.433438 
-4.9928 -0.71343 2.62867 3.87877 -0.251542 
-5.98741 -0.743698 1.22237 4.49318 0.223087 


 i = 191
3.29733 0.271247 -0.559665 -2.36315 -0.435286 
4.23044 0.475451 -1.4021 -2.72727 -0.433383 
-4.99603 -0.714185 2.62965 3.88368 -0.251376 
-6.00536 -0.745526 1.22283 4.50707 0.223121 


 i = 192
3.30056 0.272438 -0.560164 -2.36841 -0.435133 
4.2353 0.47667 -1.40293 -2.72874 -0.433329 
-4.99927 -0.714952 2.63062 3.88854 -0.25121 
-6.0233 -0.74737 1.22329 4.52086 0.223155 


 i = 193
3.30378 0.273613 -0.560667 -2.37361 -0.434981 
4.24016 0.47788 -1.40375 -2.73024 -0.433274 
-5.00251 -0.715729 2.63157 3.89336 -0.251044 
-6.04123 -0.749228 1.22375 4.53455 0.223188 


 i = 194
3.30697 0.274773 -0.561172 -2.37876 -0.434829 
4.24503 0.47908 -1.40458 -2.73178 -0.433219 
-5.00575 -0.716517 2.63252 3.89813 -0.250878 
-6.05914 -0.751101 1.2242 4.54815 0.223222 


 i = 195
3.31015 0.275916 -0.561679 -2.38385 -0.434677 
4.2499 0.480269 -1.4054 -2.73336 -0.433165 
-5.009 -0.717316 2.63346 3.90285 -0.250713 
-6.07705 -0.752989 1.22465 4.56164 0.223255 


 i = 196
3.31331 0.277043 -0.562187 -2.3889 -0.434526 
4.25477 0.481448 -1.40621 -2.73497 -0.433111 
-5.01225 -0.718126 2.6344 3.90752 -0.250548 
-6.09495 -0.754891 1.2251 4.57505 0.223288 


 i = 197
3.31646 0.278153 -0.562695 -2.3939 -0.434375 
4.25965 0.482617 -1.40703 -2.73662 -0.433056 
-5.01551 -0.718948 2.63532 3.91216 -0.250383 
-6.11284 -0.756807 1.22554 4.58836 0.223322 


 i = 198
3.3196 0.279247 -0.563203 -2.39885 -0.434225 
4.26452 0.483775 -1.40784 -2.7383 -0.433002 
-5.01877 -0.71978 2.63624 3.91674 -0.250218 
-6.13072 -0.758736 1.22598 4.60157 0.223355 


 i = 199
3.32274 0.280324 -0.56371 -2.40376 -0.434075 
4.2694 0.484923 -1.40864 -2.74001 -0.432948 
-5.02204 -0.720623 2.63715 3.92129 -0.250054 
-6.14861 -0.760679 1.22642 4.6147 0.223388 


 i = 200
3.32587 0.281386 -0.564216 -2.40862 -0.433925 
4.27429 0.486061 -1.40944 -2.74176 -0.432894 
-5.02531 -0.721476 2.63806 3.92579 -0.249889 
-6.16649 -0.762634 1.22685 4.62773 0.22342 


 i = 201
3.32899 0.282431 -0.56472 -2.41343 -0.433776 
4.27917 0.487189 -1.41024 -2.74353 -0.43284 
-5.02858 -0.722339 2.63896 3.93025 -0.249725 
-6.18437 -0.764602 1.22728 4.64068 0.223453 


 i = 202
3.33211 0.28346 -0.565221 -2.4182 -0.433627 
4.28406 0.488307 -1.41103 -2.74534 -0.432786 
-5.03185 -0.723212 2.63985 3.93466 -0.249561 
-6.20224 -0.766582 1.22771 4.65355 0.223486 


 i = 203
3.33523 0.284474 -0.56572 -2.42293 -0.433479 
4.28895 0.489416 -1.41182 -2.74717 -0.432731 
-5.03513 -0.724094 2.64074 3.93904 -0.249398 
-6.22012 -0.768573 1.22814 4.66633 0.223518 


 i = 204
3.33835 0.285473 -0.566215 -2.42762 -0.433331 
4.29385 0.490515 -1.4126 -2.74903 -0.432677 
-5.03841 -0.724984 2.64163 3.94338 -0.249234 
-6.238 -0.770575 1.22856 4.67903 0.223551 


 i = 205
3.34146 0.286458 -0.566707 -2.43227 -0.433183 
4.29874 0.491605 -1.41338 -2.75091 -0.432623 
-5.04169 -0.725882 2.64251 3.94767 -0.249071 
-6.25588 -0.772587 1.22899 4.69165 0.223583 


 i = 206
3.34458 0.287428 -0.567195 -2.43688 -0.433035 
4.30365 0.492687 -1.41415 -2.75282 -0.432569 
-5.04498 -0.726787 2.64338 3.95193 -0.248908 
-6.27377 -0.774609 1.2294 4.70419 0.223615 


 i = 207
3.34769 0.288385 -0.567679 -2.44146 -0.432888 
4.30855 0.49376 -1.41492 -2.75475 -0.432515 
-5.04827 -0.7277 2.64425 3.95615 -0.248745 
-6.29165 -0.776641 1.22982 4.71666 0.223648 


 i = 208
3.35081 0.289328 -0.568158 -2.44599 -0.43274 
4.31346 0.494825 -1.41568 -2.7567 -0.432461 
-5.05156 -0.728619 2.64511 3.96033 -0.248583 
-6.30954 -0.778681 1.23024 4.72905 0.22368 


 i = 209
3.35393 0.290259 -0.568633 -2.4505 -0.432593 
4.31837 0.495883 -1.41643 -2.75868 -0.432407 
-5.05486 -0.729543 2.64597 3.96448 -0.24842 
-6.32743 -0.78073 1.23065 4.74137 0.223712 


 i = 210
3.35705 0.291178 -0.569103 -2.45496 -0.432447 
4.32328 0.496932 -1.41718 -2.76067 -0.432353 
-5.05816 -0.730473 2.64683 3.96858 -0.248258 
-6.34533 -0.782787 1.23106 4.75362 0.223743 


 i = 211
3.36017 0.292085 -0.569568 -2.4594 -0.4323 
4.32819 0.497975 -1.41792 -2.76269 -0.432299 
-5.06147 -0.731408 2.64768 3.97266 -0.248095 
-6.36324 -0.784852 1.23147 4.7658 0.223775 


 i = 212
3.3633 0.29298 -0.570028 -2.4638 -0.432154 
4.33311 0.499011 -1.41866 -2.76472 -0.432244 
-5.06478 -0.732347 2.64853 3.97669 -0.247933 
-6.38115 -0.786923 1.23187 4.77791 0.223807 


 i = 213
3.36642 0.293865 -0.570483 -2.46816 -0.432008 
4.33804 0.50004 -1.41939 -2.76677 -0.43219 
-5.06809 -0.73329 2.64937 3.9807 -0.247771 
-6.39906 -0.789001 1.23228 4.78996 0.223839 


 i = 214
3.36955 0.294739 -0.570933 -2.4725 -0.431861 
4.34296 0.501062 -1.42011 -2.76885 -0.432136 
-5.07141 -0.734235 2.65021 3.98466 -0.24761 
-6.41699 -0.791086 1.23268 4.80194 0.22387 


 i = 215
3.37268 0.295604 -0.571377 -2.47681 -0.431716 
4.34789 0.502079 -1.42083 -2.77093 -0.432081 
-5.07473 -0.735184 2.65105 3.9886 -0.247448 
-6.43492 -0.793176 1.23308 4.81386 0.223901 


 i = 216
3.37582 0.296459 -0.571816 -2.48108 -0.43157 
4.35282 0.50309 -1.42154 -2.77304 -0.432027 
-5.07806 -0.736134 2.65189 3.9925 -0.247286 
-6.45285 -0.795272 1.23348 4.82573 0.223933 


 i = 217
3.37895 0.297305 -0.57225 -2.48533 -0.431424 
4.35775 0.504096 -1.42225 -2.77516 -0.431972 
-5.0814 -0.737087 2.65272 3.99637 -0.247125 
-6.4708 -0.797373 1.23388 4.83753 0.223964 


 i = 218
3.38209 0.298143 -0.572678 -2.48955 -0.431278 
4.36269 0.505096 -1.42295 -2.77729 -0.431917 
-5.08474 -0.73804 2.65354 4.0002 -0.246964 
-6.48876 -0.799479 1.23427 4.84927 0.223995 


 i = 219
3.38523 0.298972 -0.573101 -2.49374 -0.431133 
4.36763 0.506092 -1.42364 -2.77944 -0.431862 
-5.08808 -0.738995 2.65437 4.00401 -0.246803 
-6.50672 -0.801589 1.23466 4.86096 0.224026 


 i = 220
3.38837 0.299794 -0.573518 -2.4979 -0.430988 
4.37257 0.507082 -1.42433 -2.7816 -0.431808 
-5.09144 -0.73995 2.65519 4.00778 -0.246641 
-6.5247 -0.803703 1.23505 4.8726 0.224057 


 i = 221
3.39151 0.300608 -0.573929 -2.50204 -0.430842 
4.37751 0.508069 -1.42501 -2.78378 -0.431752 
-5.0948 -0.740905 2.656 4.01153 -0.24648 
-6.54268 -0.805821 1.23544 4.88418 0.224088 


 i = 222
3.39466 0.301414 -0.574336 -2.50615 -0.430697 
4.38246 0.509051 -1.42569 -2.78597 -0.431697 
-5.09816 -0.741859 2.65682 4.01524 -0.24632 
-6.56068 -0.807942 1.23583 4.89571 0.224119 


 i = 223
3.39781 0.302215 -0.574736 -2.51024 -0.430552 
4.38741 0.51003 -1.42636 -2.78818 -0.431642 
-5.10154 -0.742813 2.65763 4.01892 -0.246159 
-6.57869 -0.810067 1.23622 4.90719 0.224149 


 i = 224
3.40096 0.303008 -0.575132 -2.5143 -0.430407 
4.39237 0.511004 -1.42703 -2.79039 -0.431587 
-5.10492 -0.743766 2.65844 4.02257 -0.245998 
-6.59671 -0.812195 1.2366 4.91862 0.22418 


 i = 225
3.40411 0.303795 -0.575522 -2.51834 -0.430262 
4.39732 0.511976 -1.42769 -2.79262 -0.431531 
-5.10831 -0.744717 2.65924 4.02619 -0.245837 
-6.61474 -0.814325 1.23698 4.93001 0.224211 


 i = 226
3.40726 0.304577 -0.575907 -2.52235 -0.430117 
4.40228 0.512944 -1.42834 -2.79486 -0.431476 
-5.11171 -0.745667 2.66004 4.02979 -0.245677 
-6.63279 -0.816458 1.23737 4.94135 0.224241 


 i = 227
3.41041 0.305352 -0.576287 -2.52634 -0.429972 
4.40724 0.513909 -1.42899 -2.79711 -0.43142 
-5.11511 -0.746615 2.66084 4.03335 -0.245516 
-6.65085 -0.818594 1.23774 4.95264 0.224271 


 i = 228
3.41356 0.306123 -0.576662 -2.5303 -0.429827 
4.41221 0.514871 -1.42963 -2.79938 -0.431364 
-5.11853 -0.74756 2.66164 4.03689 -0.245356 
-6.66893 -0.820731 1.23812 4.96389 0.224302 


 i = 229
3.41672 0.306888 -0.577032 -2.53425 -0.429682 
4.41718 0.515831 -1.43027 -2.80165 -0.431308 
-5.12195 -0.748503 2.66243 4.0404 -0.245196 
-6.68702 -0.82287 1.2385 4.9751 0.224332 


 i = 230
3.41987 0.307648 -0.577397 -2.53817 -0.429537 
4.42215 0.516788 -1.4309 -2.80394 -0.431252 
-5.12538 -0.749444 2.66322 4.04388 -0.245035 
-6.70513 -0.825011 1.23887 4.98627 0.224362 


 i = 231
3.42302 0.308403 -0.577757 -2.54207 -0.429392 
4.42712 0.517744 -1.43153 -2.80624 -0.431196 
-5.12883 -0.750381 2.66401 4.04733 -0.244875 
-6.72325 -0.827153 1.23924 4.9974 0.224392 


 i = 232
3.42617 0.309153 -0.578113 -2.54594 -0.429248 
4.4321 0.518697 -1.43215 -2.80855 -0.431139 
-5.13228 -0.751315 2.66479 4.05075 -0.244715 
-6.74139 -0.829297 1.23961 5.00849 0.224422 


 i = 233
3.42933 0.309899 -0.578464 -2.5498 -0.429103 
4.43708 0.519648 -1.43276 -2.81087 -0.431083 
-5.13574 -0.752246 2.66557 4.05415 -0.244555 
-6.75954 -0.831442 1.23998 5.01954 0.224452 


 i = 234
3.43248 0.31064 -0.578811 -2.55363 -0.428958 
4.44207 0.520597 -1.43337 -2.8132 -0.431026 
-5.13922 -0.753174 2.66635 4.05752 -0.244395 
-6.77772 -0.833587 1.24035 5.03056 0.224482 


 i = 235
3.43563 0.311378 -0.579153 -2.55744 -0.428814 
4.44706 0.521545 -1.43398 -2.81554 -0.430969 
-5.1427 -0.754097 2.66713 4.06087 -0.244235 
-6.79591 -0.835734 1.24072 5.04154 0.224511 


 i = 236
3.43878 0.312111 -0.579491 -2.56123 -0.428669 
4.45206 0.522492 -1.43458 -2.81789 -0.430913 
-5.1462 -0.755017 2.6679 4.06419 -0.244076 
-6.81412 -0.837881 1.24108 5.05248 0.224541 


 i = 237
3.44192 0.31284 -0.579824 -2.565 -0.428525 
4.45705 0.523438 -1.43518 -2.82026 -0.430855 
-5.14971 -0.755933 2.66867 4.06748 -0.243916 
-6.83235 -0.840029 1.24144 5.0634 0.224571 


 i = 238
3.44507 0.313565 -0.580154 -2.56875 -0.42838 
4.46206 0.524383 -1.43577 -2.82264 -0.430798 
-5.15323 -0.756844 2.66943 4.07075 -0.243756 
-6.8506 -0.842178 1.24181 5.07428 0.2246 


 i = 239
3.44821 0.314287 -0.58048 -2.57248 -0.428236 
4.46707 0.525326 -1.43636 -2.82502 -0.430741 
-5.15676 -0.757752 2.6702 4.07399 -0.243597 
-6.86887 -0.844326 1.24217 5.08513 0.224629 


 i = 240
3.45135 0.315004 -0.580802 -2.57618 -0.428092 
4.47208 0.52627 -1.43694 -2.82743 -0.430684 
-5.1603 -0.758654 2.67096 4.0772 -0.243438 
-6.88716 -0.846475 1.24252 5.09594 0.224659 


 i = 241
3.45449 0.315718 -0.58112 -2.57987 -0.427948 
4.4771 0.527212 -1.43752 -2.82984 -0.430626 
-5.16386 -0.759553 2.67171 4.08039 -0.243278 
-6.90548 -0.848624 1.24288 5.10673 0.224688 


 i = 242
3.45762 0.316428 -0.581434 -2.58353 -0.427803 
4.48213 0.528155 -1.43809 -2.83227 -0.430568 
-5.16744 -0.760447 2.67247 4.08356 -0.243119 
-6.92381 -0.850773 1.24324 5.11749 0.224717 


 i = 243
3.46075 0.317135 -0.581745 -2.58718 -0.427659 
4.48717 0.529097 -1.43866 -2.83471 -0.430511 
-5.17102 -0.761336 2.67322 4.0867 -0.24296 
-6.94217 -0.852922 1.24359 5.12822 0.224746 


 i = 244
3.46387 0.317838 -0.582053 -2.5908 -0.427515 
4.49221 0.530039 -1.43923 -2.83716 -0.430453 
-5.17463 -0.762221 2.67397 4.08982 -0.242801 
-6.96055 -0.85507 1.24394 5.13892 0.224775 


 i = 245
3.46699 0.318537 -0.582357 -2.59441 -0.427371 
4.49726 0.530982 -1.43979 -2.83963 -0.430395 
-5.17824 -0.7631 2.67471 4.09291 -0.242642 
-6.97895 -0.857219 1.24429 5.1496 0.224804 


 i = 246
3.4701 0.319233 -0.582658 -2.59799 -0.427228 
4.50231 0.531925 -1.44034 -2.84211 -0.430336 
-5.18188 -0.763975 2.67545 4.09598 -0.242483 
-6.99738 -0.859366 1.24464 5.16025 0.224833 


 i = 247
3.47321 0.319925 -0.582955 -2.60155 -0.427084 
4.50738 0.532868 -1.4409 -2.84461 -0.430278 
-5.18553 -0.764846 2.67619 4.09903 -0.242325 
-7.01583 -0.861514 1.24499 5.17087 0.224861 


 i = 248
3.47631 0.320613 -0.58325 -2.60509 -0.42694 
4.51246 0.533813 -1.44145 -2.84712 -0.43022 
-5.18919 -0.765711 2.67693 4.10206 -0.242166 
-7.03431 -0.86366 1.24533 5.18147 0.22489 


 i = 249
3.47941 0.321298 -0.583542 -2.60861 -0.426797 
4.51754 0.534758 -1.44199 -2.84965 -0.430161 
-5.19288 -0.766571 2.67766 4.10506 -0.242008 
-7.05281 -0.865806 1.24568 5.19204 0.224918 


 i = 250
3.48249 0.321979 -0.583831 -2.61211 -0.426654 
4.52264 0.535704 -1.44253 -2.8522 -0.430102 
-5.19658 -0.767427 2.67839 4.10804 -0.241849 
-7.07133 -0.867951 1.24602 5.2026 0.224947 


 i = 251
3.48557 0.322657 -0.584117 -2.61559 -0.426511 
4.52775 0.536651 -1.44307 -2.85476 -0.430043 
-5.2003 -0.768277 2.67912 4.11099 -0.241691 
-7.08989 -0.870095 1.24636 5.21313 0.224975 


 i = 252
3.48864 0.323331 -0.5844 -2.61905 -0.426367 
4.53287 0.5376 -1.44361 -2.85735 -0.429985 
-5.20405 -0.769123 2.67984 4.11393 -0.241533 
-7.10846 -0.872238 1.2467 5.22363 0.225004 


 i = 253
3.4917 0.324001 -0.584681 -2.62248 -0.426225 
4.538 0.53855 -1.44414 -2.85995 -0.429925 
-5.20781 -0.769964 2.68057 4.11684 -0.241375 
-7.12707 -0.87438 1.24704 5.23412 0.225032 


 i = 254
3.49475 0.324667 -0.584959 -2.6259 -0.426082 
4.54315 0.539503 -1.44466 -2.86257 -0.429866 
-5.21159 -0.7708 2.68128 4.11974 -0.241217 
-7.1457 -0.876521 1.24738 5.24459 0.22506 


 i = 255
3.49779 0.325329 -0.585235 -2.62929 -0.425939 
4.54832 0.540457 -1.44519 -2.86522 -0.429807 
-5.2154 -0.771631 2.682 4.12261 -0.241059 
-7.16436 -0.87866 1.24771 5.25503 0.225088 


 i = 256
3.50081 0.325987 -0.585508 -2.63266 -0.425797 
4.5535 0.541413 -1.44571 -2.86789 -0.429747 
-5.21923 -0.772457 2.68271 4.12547 -0.240902 
-7.18304 -0.880798 1.24804 5.26546 0.225116 


 i = 257
3.50382 0.326641 -0.585779 -2.63601 -0.425654 
4.55869 0.542372 -1.44623 -2.87058 -0.429688 
-5.22308 -0.773279 2.68342 4.1283 -0.240744 
-7.20176 -0.882935 1.24838 5.27587 0.225144 


 i = 258
3.50682 0.327291 -0.586048 -2.63933 -0.425512 
4.56391 0.543334 -1.44674 -2.8733 -0.429628 
-5.22696 -0.774096 2.68413 4.13112 -0.240587 
-7.2205 -0.88507 1.24871 5.28625 0.225171 


 i = 259
3.50981 0.327937 -0.586314 -2.64263 -0.42537 
4.56914 0.544298 -1.44725 -2.87604 -0.429568 
-5.23086 -0.774908 2.68483 4.13392 -0.24043 
-7.23927 -0.887203 1.24904 5.29663 0.225199 


 i = 260
3.51278 0.328579 -0.586578 -2.64591 -0.425229 
4.5744 0.545266 -1.44776 -2.87881 -0.429508 
-5.2348 -0.775716 2.68553 4.1367 -0.240273 
-7.25806 -0.889334 1.24936 5.30698 0.225227 


 i = 261
3.51573 0.329216 -0.58684 -2.64917 -0.425087 
4.57967 0.546236 -1.44826 -2.88161 -0.429448 
-5.23876 -0.77652 2.68623 4.13946 -0.240116 
-7.27689 -0.891464 1.24969 5.31732 0.225254 


 i = 262
3.51866 0.329848 -0.5871 -2.6524 -0.424946 
4.58497 0.547211 -1.44876 -2.88444 -0.429388 
-5.24275 -0.777319 2.68692 4.14221 -0.239959 
-7.29574 -0.893591 1.25002 5.32764 0.225282 


 i = 263
3.52158 0.330476 -0.587358 -2.65562 -0.424805 
4.5903 0.548189 -1.44926 -2.8873 -0.429328 
-5.24678 -0.778114 2.68761 4.14494 -0.239802 
-7.31462 -0.895716 1.25034 5.33795 0.225309 


 i = 264
3.52448 0.3311 -0.587614 -2.6588 -0.424664 
4.59565 0.549171 -1.44975 -2.89019 -0.429267 
-5.25084 -0.778905 2.6883 4.14766 -0.239646 
-7.33353 -0.897839 1.25066 5.34825 0.225336 


 i = 265
3.52735 0.331718 -0.587867 -2.66197 -0.424523 
4.60103 0.550158 -1.45025 -2.89312 -0.429207 
-5.25494 -0.779692 2.68899 4.15037 -0.23949 
-7.35247 -0.89996 1.25098 5.35853 0.225364 


 i = 266
3.53021 0.332332 -0.588119 -2.66511 -0.424383 
4.60644 0.551149 -1.45074 -2.89609 -0.429146 
-5.25907 -0.780475 2.68967 4.15306 -0.239334 
-7.37144 -0.902078 1.2513 5.3688 0.225391 


 i = 267
3.53304 0.332941 -0.588369 -2.66822 -0.424242 
4.61187 0.552145 -1.45122 -2.89909 -0.429085 
-5.26324 -0.781254 2.69035 4.15574 -0.239178 
-7.39044 -0.904193 1.25162 5.37906 0.225418 


 i = 268
3.53585 0.333545 -0.588617 -2.67132 -0.424102 
4.61734 0.553147 -1.4517 -2.90213 -0.429024 
-5.26746 -0.78203 2.69103 4.15842 -0.239022 
-7.40946 -0.906306 1.25194 5.3893 0.225445 


 i = 269
3.53863 0.334144 -0.588862 -2.67439 -0.423962 
4.62285 0.554154 -1.45218 -2.90522 -0.428963 
-5.27172 -0.782802 2.6917 4.16108 -0.238866 
-7.42851 -0.908416 1.25225 5.39954 0.225472 


 i = 270
3.54139 0.334737 -0.589106 -2.67743 -0.423823 
4.62839 0.555166 -1.45266 -2.90835 -0.428901 
-5.27603 -0.783572 2.69238 4.16373 -0.238711 
-7.44759 -0.910522 1.25257 5.40977 0.225499 


 i = 271
3.54411 0.335326 -0.589348 -2.68046 -0.423684 
4.63396 0.556185 -1.45314 -2.91153 -0.42884 
-5.28038 -0.784338 2.69305 4.16638 -0.238556 
-7.46669 -0.912626 1.25288 5.41999 0.225526 


 i = 272
3.54681 0.33591 -0.589588 -2.68346 -0.423544 
4.63958 0.557211 -1.45361 -2.91476 -0.428778 
-5.28479 -0.785101 2.69371 4.16902 -0.238401 
-7.48582 -0.914726 1.25319 5.4302 0.225552 


 i = 273
3.54948 0.336488 -0.589826 -2.68643 -0.423406 
4.64524 0.558244 -1.45408 -2.91803 -0.428716 
-5.28926 -0.785861 2.69438 4.17166 -0.238246 
-7.50498 -0.916822 1.2535 5.44041 0.225579 


 i = 274
3.55212 0.337062 -0.590061 -2.68939 -0.423267 
4.65094 0.559283 -1.45454 -2.92136 -0.428654 
-5.29379 -0.786619 2.69504 4.17429 -0.238091 
-7.52416 -0.918914 1.25381 5.45061 0.225606 


 i = 275
3.55473 0.33763 -0.590295 -2.69232 -0.423129 
4.65669 0.560331 -1.455 -2.92475 -0.428592 
-5.29837 -0.787375 2.6957 4.17692 -0.237937 
-7.54336 -0.921003 1.25412 5.46081 0.225633 


 i = 276
3.55731 0.338193 -0.590527 -2.69523 -0.422991 
4.66248 0.561387 -1.45546 -2.9282 -0.428529 
-5.30303 -0.788128 2.69636 4.17956 -0.237782 
-7.56259 -0.923087 1.25443 5.471 0.225659 


 i = 277
3.55985 0.338751 -0.590757 -2.69812 -0.422853 
4.66833 0.562451 -1.45592 -2.9317 -0.428467 
-5.30776 -0.78888 2.69701 4.1822 -0.237628 
-7.58184 -0.925166 1.25473 5.48119 0.225686 


 i = 278
3.56236 0.339304 -0.590985 -2.70099 -0.422715 
4.67422 0.563524 -1.45638 -2.93527 -0.428404 
-5.31256 -0.78963 2.69766 4.18484 -0.237474 
-7.6011 -0.927241 1.25504 5.49139 0.225712 


 i = 279
3.56483 0.339853 -0.591211 -2.70384 -0.422578 
4.68017 0.564606 -1.45683 -2.93891 -0.428341 
-5.31745 -0.790379 2.69831 4.18749 -0.237321 
-7.62038 -0.929311 1.25534 5.50158 0.225739 


 i = 280
3.56727 0.340397 -0.591435 -2.70668 -0.422441 
4.68617 0.565699 -1.45728 -2.94262 -0.428278 
-5.32242 -0.791127 2.69896 4.19015 -0.237167 
-7.63968 -0.931375 1.25564 5.51177 0.225765 


 i = 281
3.56967 0.340937 -0.591657 -2.70949 -0.422305 
4.69224 0.566801 -1.45772 -2.9464 -0.428215 
-5.32748 -0.791874 2.6996 4.19282 -0.237014 
-7.65899 -0.933433 1.25594 5.52196 0.225792 


 i = 282
3.57204 0.341472 -0.591877 -2.7123 -0.422169 
4.69836 0.567914 -1.45817 -2.95025 -0.428151 
-5.33264 -0.792621 2.70024 4.19551 -0.236861 
-7.6783 -0.935485 1.25624 5.53215 0.225818 


 i = 283
3.57438 0.342003 -0.592095 -2.71509 -0.422033 
4.70455 0.569039 -1.45861 -2.95419 -0.428088 
-5.3379 -0.793368 2.70088 4.19821 -0.236709 
-7.69762 -0.93753 1.25654 5.54235 0.225844 


 i = 284
3.57668 0.342531 -0.592311 -2.71787 -0.421897 
4.7108 0.570175 -1.45905 -2.9582 -0.428024 
-5.34327 -0.794115 2.70152 4.20094 -0.236557 
-7.71694 -0.939568 1.25684 5.55255 0.225871 


 i = 285
3.57895 0.343055 -0.592525 -2.72064 -0.421762 
4.71712 0.571323 -1.45948 -2.9623 -0.42796 
-5.34875 -0.794863 2.70216 4.2037 -0.236405 
-7.73626 -0.941598 1.25714 5.56276 0.225897 


 i = 286
3.5812 0.343577 -0.592737 -2.72341 -0.421627 
4.72351 0.572484 -1.45992 -2.96648 -0.427896 
-5.35435 -0.795613 2.70279 4.20648 -0.236253 
-7.75556 -0.94362 1.25743 5.57297 0.225923 


 i = 287
3.58342 0.344095 -0.592948 -2.72618 -0.421493 
4.72998 0.573657 -1.46035 -2.97076 -0.427831 
-5.36008 -0.796365 2.70342 4.2093 -0.236102 
-7.77484 -0.945634 1.25773 5.58318 0.22595 


 i = 288
3.58563 0.344611 -0.593156 -2.72894 -0.421359 
4.73652 0.574844 -1.46077 -2.97512 -0.427767 
-5.36594 -0.79712 2.70405 4.21217 -0.235951 
-7.79409 -0.947638 1.25802 5.5934 0.225976 


 i = 289
3.58783 0.345125 -0.593362 -2.73172 -0.421225 
4.74316 0.576044 -1.4612 -2.97957 -0.427702 
-5.37193 -0.797878 2.70468 4.21507 -0.235801 
-7.8133 -0.949632 1.25831 5.60363 0.226002 


 i = 290
3.59003 0.345637 -0.593567 -2.73449 -0.421092 
4.74989 0.577257 -1.46162 -2.98411 -0.427638 
-5.37804 -0.798642 2.7053 4.21804 -0.235651 
-7.83247 -0.951616 1.2586 5.61386 0.226029 


 i = 291
3.59225 0.346146 -0.59377 -2.73728 -0.420959 
4.75673 0.578485 -1.46204 -2.98875 -0.427573 
-5.38429 -0.79941 2.70592 4.22106 -0.235501 
-7.85157 -0.953588 1.25889 5.62409 0.226055 


 i = 292
3.59451 0.346654 -0.593971 -2.74008 -0.420827 
4.76369 0.579725 -1.46246 -2.99347 -0.427508 
-5.39065 -0.800185 2.70654 4.22416 -0.235352 
-7.8706 -0.95555 1.25918 5.63433 0.226081 


 i = 293
3.59684 0.347159 -0.594169 -2.74288 -0.420695 
4.77078 0.580979 -1.46288 -2.99827 -0.427442 
-5.39711 -0.800968 2.70716 4.22733 -0.235204 
-7.88953 -0.9575 1.25947 5.64456 0.226108 


 i = 294
3.59925 0.347661 -0.594366 -2.7457 -0.420563 
4.77801 0.582245 -1.46329 -3.00315 -0.427377 
-5.40366 -0.80176 2.70778 4.23059 -0.235055 
-7.90837 -0.959439 1.25976 5.65481 0.226134 


 i = 295
3.60178 0.34816 -0.594561 -2.74853 -0.420432 
4.7854 0.583523 -1.4637 -3.00811 -0.427312 
-5.41026 -0.802562 2.70839 4.23394 -0.234907 
-7.92708 -0.961366 1.26004 5.66505 0.226161 


 i = 296
3.60444 0.348653 -0.594753 -2.75136 -0.4203 
4.79296 0.58481 -1.46411 -3.01313 -0.427246 
-5.41691 -0.803375 2.709 4.23738 -0.23476 
-7.94567 -0.963284 1.26033 5.6753 0.226187 


 i = 297
3.60724 0.34914 -0.594943 -2.7542 -0.420169 
4.80069 0.586107 -1.46452 -3.01821 -0.42718 
-5.42359 -0.8042 2.70961 4.24092 -0.234612 
-7.96414 -0.965192 1.26061 5.68554 0.226214 


 i = 298
3.61018 0.34962 -0.59513 -2.75704 -0.420038 
4.80859 0.58741 -1.46492 -3.02334 -0.427114 
-5.43028 -0.805038 2.71022 4.24454 -0.234465 
-7.98247 -0.967091 1.2609 5.69578 0.226241 


 i = 299
3.61326 0.350091 -0.595314 -2.75989 -0.419906 
4.81664 0.588719 -1.46532 -3.02852 -0.427047 
-5.43698 -0.805888 2.71083 4.24825 -0.234318 
-8.00069 -0.968983 1.26118 5.70602 0.226268 


 i = 300
3.61647 0.350552 -0.595495 -2.76275 -0.419774 
4.82483 0.590031 -1.46572 -3.03373 -0.426981 
-5.44369 -0.806753 2.71144 4.25205 -0.234171 
-8.01878 -0.970868 1.26146 5.71626 0.226295 


 i = 301
3.61978 0.351003 -0.595673 -2.76563 -0.419643 
4.83315 0.591346 -1.46611 -3.03898 -0.426914 
-5.45041 -0.80763 2.71204 4.25591 -0.234024 
-8.03677 -0.972747 1.26174 5.72649 0.226322 


 i = 302
3.62318 0.351444 -0.595848 -2.76852 -0.41951 
4.84159 0.592663 -1.4665 -3.04426 -0.426846 
-5.45715 -0.808519 2.71264 4.25984 -0.233877 
-8.05465 -0.974621 1.26202 5.73671 0.226349 


 i = 303
3.62666 0.351875 -0.596019 -2.77142 -0.419378 
4.85013 0.59398 -1.46689 -3.04957 -0.426779 
-5.4639 -0.809421 2.71325 4.26384 -0.23373 
-8.07244 -0.976489 1.2623 5.74693 0.226377 


 i = 304
3.63022 0.352298 -0.596187 -2.77435 -0.419245 
4.85875 0.595297 -1.46728 -3.05489 -0.426711 
-5.47068 -0.810333 2.71385 4.26789 -0.233583 
-8.09014 -0.978352 1.26258 5.75715 0.226404 


 i = 305
3.63382 0.352712 -0.596352 -2.77729 -0.419112 
4.86745 0.596614 -1.46766 -3.06023 -0.426643 
-5.47748 -0.811254 2.71445 4.272 -0.233436 
-8.10775 -0.98021 1.26286 5.76736 0.226432 


 i = 306
3.63748 0.35312 -0.596513 -2.78026 -0.418979 
4.87622 0.597931 -1.46804 -3.06559 -0.426574 
-5.48431 -0.812184 2.71505 4.27616 -0.233288 
-8.12529 -0.982062 1.26314 5.77756 0.22646 


 i = 307
3.64119 0.353521 -0.59667 -2.78326 -0.418845 
4.88506 0.599248 -1.46841 -3.07096 -0.426505 
-5.49117 -0.813122 2.71565 4.28038 -0.233141 
-8.14275 -0.98391 1.26342 5.78777 0.226488 


 i = 308
3.64493 0.353918 -0.596824 -2.78628 -0.41871 
4.89394 0.600564 -1.46879 -3.07634 -0.426436 
-5.49806 -0.814066 2.71625 4.28463 -0.232993 
-8.16014 -0.985752 1.26369 5.79797 0.226516 


 i = 309
3.6487 0.35431 -0.596974 -2.78933 -0.418575 
4.90287 0.60188 -1.46916 -3.08173 -0.426366 
-5.50497 -0.815016 2.71685 4.28894 -0.232845 
-8.17746 -0.987589 1.26397 5.80816 0.226544 


 i = 310
3.65251 0.354699 -0.59712 -2.79242 -0.41844 
4.91185 0.603195 -1.46952 -3.08713 -0.426296 
-5.51192 -0.81597 2.71744 4.29328 -0.232697 
-8.19472 -0.98942 1.26425 5.81836 0.226572 


 i = 311
3.65635 0.355086 -0.597263 -2.79553 -0.418304 
4.92086 0.60451 -1.46989 -3.09253 -0.426226 
-5.51889 -0.816929 2.71804 4.29767 -0.232549 
-8.21192 -0.991246 1.26452 5.82856 0.226601 


 i = 312
3.66021 0.355472 -0.597402 -2.79867 -0.418167 
4.9299 0.605825 -1.47025 -3.09793 -0.426156 
-5.5259 -0.81789 2.71864 4.3021 -0.2324 
-8.22906 -0.993066 1.2648 5.83876 0.226629 


 i = 313
3.6641 0.355857 -0.597537 -2.80185 -0.41803 
4.93896 0.60714 -1.4706 -3.10334 -0.426085 
-5.53294 -0.818853 2.71923 4.30657 -0.232251 
-8.24613 -0.994881 1.26507 5.84896 0.226658 


 i = 314
3.668 0.356242 -0.597669 -2.80506 -0.417893 
4.94806 0.608454 -1.47096 -3.10875 -0.426014 
-5.54001 -0.819819 2.71983 4.31108 -0.232102 
-8.26316 -0.99669 1.26534 5.85917 0.226687 


 i = 315
3.67193 0.356627 -0.597798 -2.80831 -0.417755 
4.95717 0.609769 -1.47131 -3.11416 -0.425942 
-5.54711 -0.820785 2.72042 4.31563 -0.231953 
-8.28013 -0.998494 1.26562 5.86937 0.226715 


 i = 316
3.67588 0.357014 -0.597923 -2.81159 -0.417616 
4.96629 0.611083 -1.47166 -3.11957 -0.42587 
-5.55425 -0.821752 2.72101 4.32022 -0.231804 
-8.29704 -1.00029 1.26589 5.87959 0.226744 


 i = 317
3.67985 0.357403 -0.598044 -2.81491 -0.417477 
4.97543 0.612397 -1.47201 -3.12498 -0.425798 
-5.56142 -0.82272 2.7216 4.32484 -0.231654 
-8.31391 -1.00208 1.26616 5.88981 0.226773 


 i = 318
3.68383 0.357793 -0.598163 -2.81827 -0.417337 
4.98458 0.613712 -1.47235 -3.13039 -0.425725 
-5.56862 -0.823687 2.7222 4.32951 -0.231504 
-8.33073 -1.00387 1.26643 5.90003 0.226803 


 i = 319
3.68783 0.358187 -0.598278 -2.82167 -0.417197 
4.99374 0.615026 -1.47269 -3.13579 -0.425653 
-5.57585 -0.824654 2.72279 4.33421 -0.231354 
-8.3475 -1.00565 1.2667 5.91027 0.226832 


 i = 320
3.69185 0.358584 -0.59839 -2.8251 -0.417056 
5.0029 0.616341 -1.47303 -3.1412 -0.425579 
-5.58312 -0.82562 2.72338 4.33894 -0.231204 
-8.36422 -1.00743 1.26697 5.92051 0.226862 


 i = 321
3.69587 0.358985 -0.598499 -2.82858 -0.416915 
5.01207 0.617656 -1.47336 -3.1466 -0.425506 
-5.59043 -0.826584 2.72396 4.34372 -0.231053 
-8.3809 -1.0092 1.26724 5.93076 0.226891 


 i = 322
3.69992 0.35939 -0.598606 -2.83209 -0.416773 
5.02124 0.618972 -1.47369 -3.152 -0.425432 
-5.59777 -0.827548 2.72455 4.34853 -0.230902 
-8.39753 -1.01096 1.26751 5.94102 0.226921 


 i = 323
3.70397 0.359799 -0.59871 -2.83565 -0.41663 
5.0304 0.620288 -1.47402 -3.1574 -0.425358 
-5.60514 -0.828509 2.72514 4.35337 -0.230751 
-8.41412 -1.01272 1.26778 5.95129 0.226951 


 i = 324
3.70804 0.360213 -0.598811 -2.83925 -0.416487 
5.03956 0.621605 -1.47435 -3.16279 -0.425283 
-5.61256 -0.829469 2.72572 4.35826 -0.230599 
-8.43067 -1.01447 1.26805 5.96157 0.226981 


 i = 325
3.71212 0.360633 -0.598909 -2.84289 -0.416343 
5.04872 0.622922 -1.47468 -3.16818 -0.425209 
-5.62001 -0.830426 2.72631 4.36317 -0.230448 
-8.44718 -1.01622 1.26831 5.97186 0.227011 


 i = 326
3.71621 0.361058 -0.599006 -2.84657 -0.416199 
5.05787 0.62424 -1.475 -3.17357 -0.425133 
-5.62751 -0.831382 2.72689 4.36813 -0.230296 
-8.46365 -1.01796 1.26858 5.98216 0.227041 


 i = 327
3.72031 0.361489 -0.5991 -2.8503 -0.416054 
5.06701 0.62556 -1.47532 -3.17896 -0.425058 
-5.63504 -0.832335 2.72747 4.37312 -0.230144 
-8.48008 -1.0197 1.26885 5.99248 0.227071 


 i = 328
3.72443 0.361926 -0.599192 -2.85407 -0.415908 
5.07614 0.62688 -1.47564 -3.18435 -0.424982 
-5.64262 -0.833285 2.72805 4.37815 -0.229991 
-8.49647 -1.02143 1.26911 6.00281 0.227101 


 i = 329
3.72855 0.36237 -0.599282 -2.85788 -0.415763 
5.08526 0.628202 -1.47596 -3.18974 -0.424907 
-5.65025 -0.834232 2.72863 4.38321 -0.229839 
-8.51282 -1.02315 1.26938 6.01315 0.227132 


 i = 330
3.73268 0.362821 -0.599371 -2.86174 -0.415616 
5.09437 0.629525 -1.47627 -3.19513 -0.42483 
-5.65791 -0.835177 2.72921 4.38831 -0.229686 
-8.52915 -1.02487 1.26964 6.02351 0.227162 


 i = 331
3.73681 0.36328 -0.599458 -2.86564 -0.415469 
5.10347 0.630851 -1.47658 -3.20051 -0.424754 
-5.66563 -0.836118 2.72979 4.39345 -0.229533 
-8.54543 -1.02659 1.2699 6.03388 0.227193 


 i = 332
3.74096 0.363746 -0.599543 -2.86959 -0.415322 
5.11255 0.632178 -1.4769 -3.2059 -0.424677 
-5.6734 -0.837056 2.73036 4.39862 -0.22938 
-8.56169 -1.0283 1.27016 6.04427 0.227224 


 i = 333
3.74511 0.364221 -0.599627 -2.87359 -0.415175 
5.12161 0.633507 -1.47721 -3.21129 -0.4246 
-5.68122 -0.837991 2.73094 4.40383 -0.229227 
-8.57791 -1.03 1.27043 6.05467 0.227255 


 i = 334
3.74927 0.364704 -0.59971 -2.87764 -0.415026 
5.13066 0.634838 -1.47751 -3.21669 -0.424523 
-5.68909 -0.838922 2.73151 4.40908 -0.229073 
-8.5941 -1.0317 1.27069 6.06509 0.227285 


 i = 335
3.75344 0.365197 -0.599793 -2.88173 -0.414878 
5.13969 0.636172 -1.47782 -3.22209 -0.424446 
-5.69702 -0.83985 2.73208 4.41436 -0.22892 
-8.61026 -1.03339 1.27095 6.07552 0.227316 


 i = 336
3.75761 0.365699 -0.599874 -2.88587 -0.414729 
5.1487 0.637509 -1.47813 -3.22749 -0.424368 
-5.70501 -0.840773 2.73265 4.41969 -0.228766 
-8.6264 -1.03508 1.27121 6.08598 0.227347 


 i = 337
3.76179 0.366211 -0.599955 -2.89006 -0.41458 
5.15769 0.638849 -1.47843 -3.2329 -0.424291 
-5.71306 -0.841693 2.73322 4.42504 -0.228613 
-8.64251 -1.03677 1.27146 6.09645 0.227379 


 i = 338
3.76598 0.366733 -0.600035 -2.8943 -0.414431 
5.16666 0.640193 -1.47874 -3.23831 -0.424213 
-5.72117 -0.842608 2.73378 4.43044 -0.228459 
-8.65859 -1.03844 1.27172 6.10694 0.22741 


 i = 339
3.77017 0.367267 -0.600115 -2.89859 -0.414281 
5.1756 0.64154 -1.47904 -3.24374 -0.424135 
-5.72935 -0.84352 2.73435 4.43587 -0.228306 
-8.67465 -1.04012 1.27198 6.11745 0.227441 


 i = 340
3.77436 0.367812 -0.600195 -2.90294 -0.414131 
5.18453 0.642891 -1.47934 -3.24918 -0.424057 
-5.7376 -0.844426 2.73491 4.44134 -0.228152 
-8.69069 -1.04178 1.27223 6.12798 0.227472 


 i = 341
3.77857 0.36837 -0.600276 -2.90733 -0.413982 
5.19342 0.644247 -1.47964 -3.25462 -0.423979 
-5.74592 -0.845328 2.73547 4.44685 -0.227999 
-8.70671 -1.04345 1.27249 6.13853 0.227503 


 i = 342
3.78278 0.36894 -0.600356 -2.91179 -0.413832 
5.2023 0.645607 -1.47994 -3.26008 -0.4239 
-5.75432 -0.846226 2.73602 4.45239 -0.227845 
-8.72272 -1.0451 1.27274 6.1491 0.227534 


 i = 343
3.78699 0.369523 -0.600437 -2.91629 -0.413682 
5.21114 0.646972 -1.48024 -3.26556 -0.423822 
-5.76279 -0.847118 2.73658 4.45797 -0.227692 
-8.7387 -1.04676 1.273 6.1597 0.227566 


 i = 344
3.79122 0.370121 -0.600519 -2.92086 -0.413532 
5.21996 0.648342 -1.48054 -3.27105 -0.423744 
-5.77135 -0.848005 2.73713 4.46359 -0.227539 
-8.75467 -1.04841 1.27325 6.17032 0.227597 


 i = 345
3.79546 0.370733 -0.600601 -2.92548 -0.413382 
5.22875 0.649717 -1.48084 -3.27656 -0.423666 
-5.77998 -0.848887 2.73768 4.46924 -0.227386 
-8.77063 -1.05005 1.2735 6.18096 0.227628 


 i = 346
3.7997 0.371361 -0.600685 -2.93017 -0.413232 
5.2375 0.651099 -1.48114 -3.28208 -0.423588 
-5.78871 -0.849764 2.73823 4.47494 -0.227234 
-8.78658 -1.05169 1.27375 6.19163 0.227659 


 i = 347
3.80396 0.372004 -0.60077 -2.93491 -0.413083 
5.24623 0.652486 -1.48144 -3.28763 -0.42351 
-5.79752 -0.850635 2.73878 4.48066 -0.227082 
-8.80252 -1.05332 1.274 6.20232 0.22769 


 i = 348
3.80824 0.372664 -0.600857 -2.93972 -0.412934 
5.25492 0.653879 -1.48174 -3.2932 -0.423432 
-5.80642 -0.851501 2.73932 4.48643 -0.22693 
-8.81845 -1.05495 1.27425 6.21305 0.227721 


 i = 349
3.81254 0.373341 -0.600946 -2.9446 -0.412785 
5.26358 0.655278 -1.48204 -3.29879 -0.423354 
-5.81541 -0.852361 2.73986 4.49223 -0.226779 
-8.83438 -1.05658 1.2745 6.2238 0.227752 


 i = 350
3.81686 0.374035 -0.601036 -2.94955 -0.412637 
5.2722 0.656683 -1.48234 -3.3044 -0.423277 
-5.8245 -0.853215 2.7404 4.49806 -0.226628 
-8.85031 -1.0582 1.27474 6.23458 0.227782 


 i = 351
3.82121 0.374747 -0.601129 -2.95456 -0.412489 
5.28078 0.658094 -1.48264 -3.31004 -0.4232 
-5.83367 -0.854064 2.74093 4.50393 -0.226478 
-8.86624 -1.05981 1.27499 6.24539 0.227813 


 i = 352
3.82559 0.375477 -0.601224 -2.95965 -0.412342 
5.28933 0.659512 -1.48295 -3.31571 -0.423123 
-5.84294 -0.854908 2.74146 4.50983 -0.226329 
-8.88217 -1.06143 1.27523 6.25624 0.227843 


 i = 353
3.83 0.376226 -0.601323 -2.96481 -0.412196 
5.29783 0.660935 -1.48325 -3.3214 -0.423047 
-5.85229 -0.855747 2.74199 4.51577 -0.226181 
-8.8981 -1.06304 1.27547 6.26711 0.227873 


 i = 354
3.83446 0.376993 -0.601424 -2.97004 -0.412051 
5.3063 0.662365 -1.48355 -3.32712 -0.422971 
-5.86173 -0.85658 2.74252 4.52174 -0.226033 
-8.91403 -1.06465 1.27572 6.27803 0.227903 


 i = 355
3.83897 0.377778 -0.601528 -2.97535 -0.411906 
5.31473 0.663799 -1.48386 -3.33286 -0.422896 
-5.87125 -0.85741 2.74304 4.52774 -0.225887 
-8.92997 -1.06625 1.27596 6.28897 0.227932 


 i = 356
3.84353 0.378581 -0.601636 -2.98073 -0.411763 
5.32312 0.66524 -1.48416 -3.33864 -0.422821 
-5.88085 -0.858235 2.74356 4.53377 -0.225741 
-8.9459 -1.06786 1.2762 6.29996 0.227962 


 i = 357
3.84816 0.3794 -0.601748 -2.98619 -0.411621 
5.33148 0.666685 -1.48447 -3.34445 -0.422747 
-5.89052 -0.859058 2.74407 4.53984 -0.225596 
-8.96184 -1.06946 1.27643 6.31097 0.22799 


 i = 358
3.85285 0.380235 -0.601863 -2.99172 -0.411481 
5.3398 0.668134 -1.48478 -3.35029 -0.422674 
-5.90027 -0.859878 2.74458 4.54594 -0.225453 
-8.97778 -1.07106 1.27667 6.32202 0.228019 


 i = 359
3.8576 0.381084 -0.601983 -2.99731 -0.411341 
5.34811 0.669588 -1.48509 -3.35617 -0.422601 
-5.91007 -0.860697 2.74509 4.55207 -0.225311 
-8.99371 -1.07265 1.27691 6.33311 0.228047 


 i = 360
3.86243 0.381946 -0.602107 -3.00296 -0.411204 
5.35639 0.671046 -1.4854 -3.36208 -0.42253 
-5.91993 -0.861517 2.7456 4.55824 -0.22517 
-9.00963 -1.07425 1.27714 6.34422 0.228075 


 i = 361
3.86733 0.382818 -0.602236 -3.00868 -0.411067 
5.36466 0.672508 -1.48572 -3.36804 -0.422459 
-5.92984 -0.862338 2.7461 4.56444 -0.225031 
-9.02553 -1.07584 1.27738 6.35535 0.228103 


 i = 362
3.87231 0.383698 -0.60237 -3.01444 -0.410933 
5.37293 0.673973 -1.48604 -3.37405 -0.422388 
-5.9398 -0.863162 2.74659 4.57068 -0.224892 
-9.0414 -1.07744 1.27761 6.36651 0.22813 


 i = 363
3.87735 0.384582 -0.602509 -3.02024 -0.4108 
5.38121 0.675442 -1.48636 -3.38011 -0.422319 
-5.94979 -0.863992 2.74709 4.57695 -0.224756 
-9.05723 -1.07903 1.27784 6.37767 0.228157 


 i = 364
3.88247 0.385469 -0.602653 -3.02607 -0.410669 
5.38951 0.676913 -1.48668 -3.38623 -0.42225 
-5.95982 -0.864828 2.74757 4.58327 -0.224621 
-9.07301 -1.08062 1.27807 6.38884 0.228183 


 i = 365
3.88766 0.386354 -0.602802 -3.03194 -0.41054 
5.39784 0.678388 -1.487 -3.39241 -0.422183 
-5.96987 -0.865672 2.74806 4.58962 -0.224487 
-9.08873 -1.0822 1.27829 6.40001 0.228209 


 i = 366
3.89291 0.387236 -0.602957 -3.03781 -0.410412 
5.40621 0.679865 -1.48733 -3.39866 -0.422116 
-5.97995 -0.866527 2.74854 4.59603 -0.224355 
-9.10438 -1.08378 1.27852 6.41116 0.228235 


 i = 367
3.89823 0.38811 -0.603117 -3.04369 -0.410287 
5.41463 0.681344 -1.48766 -3.40499 -0.42205 
-5.99004 -0.867394 2.74902 4.60248 -0.224224 
-9.11994 -1.08536 1.27875 6.42229 0.22826 


 i = 368
3.9036 0.388975 -0.603283 -3.04956 -0.410163 
5.42312 0.682825 -1.48799 -3.41139 -0.421985 
-6.00014 -0.868275 2.74949 4.60898 -0.224095 
-9.13541 -1.08694 1.27897 6.4334 0.228285 


 i = 369
3.90903 0.389826 -0.603454 -3.05542 -0.410042 
5.43166 0.684307 -1.48832 -3.41786 -0.421921 
-6.01024 -0.869171 2.74996 4.61554 -0.223968 
-9.15077 -1.0885 1.27919 6.44447 0.22831 


 i = 370
3.91452 0.390663 -0.603631 -3.06126 -0.409922 
5.44028 0.685789 -1.48866 -3.4244 -0.421858 
-6.02035 -0.870083 2.75042 4.62215 -0.223841 
-9.16603 -1.09007 1.27941 6.45551 0.228335 


 i = 371
3.92005 0.391483 -0.603814 -3.06708 -0.409804 
5.44895 0.687271 -1.489 -3.43102 -0.421795 
-6.03044 -0.871012 2.75088 4.62881 -0.223717 
-9.18118 -1.09163 1.27963 6.46651 0.228359 


 i = 372
3.92564 0.392287 -0.604002 -3.07287 -0.409688 
5.45769 0.68875 -1.48934 -3.43769 -0.421734 
-6.04053 -0.871958 2.75133 4.63553 -0.223594 
-9.19622 -1.09318 1.27985 6.47748 0.228383 


 i = 373
3.93129 0.393074 -0.604195 -3.07864 -0.409574 
5.46647 0.690225 -1.48968 -3.44442 -0.421673 
-6.05061 -0.872919 2.75179 4.6423 -0.223472 
-9.21115 -1.09473 1.28007 6.4884 0.228406 


 i = 374
3.93698 0.393844 -0.604394 -3.08439 -0.409462 
5.47529 0.691696 -1.49003 -3.4512 -0.421613 
-6.06067 -0.873897 2.75223 4.64912 -0.223352 
-9.22598 -1.09628 1.28028 6.49928 0.228429 


 i = 375
3.94272 0.394598 -0.604597 -3.09013 -0.409351 
5.48414 0.69316 -1.49038 -3.45802 -0.421555 
-6.07071 -0.874889 2.75268 4.65597 -0.223233 
-9.24072 -1.09782 1.2805 6.51013 0.228452 


 i = 376
3.94852 0.395337 -0.604806 -3.09586 -0.409242 
5.49299 0.694616 -1.49073 -3.46486 -0.421497 
-6.08073 -0.875895 2.75312 4.66286 -0.223115 
-9.25537 -1.09935 1.28071 6.52094 0.228475 


 i = 377
3.95437 0.396063 -0.60502 -3.10159 -0.409135 
5.50183 0.696064 -1.49109 -3.47172 -0.42144 
-6.09074 -0.876914 2.75355 4.66979 -0.222999 
-9.26994 -1.10089 1.28092 6.53173 0.228497 


 i = 378
3.96027 0.396777 -0.605238 -3.10732 -0.40903 
5.51065 0.6975 -1.49144 -3.47858 -0.421384 
-6.10072 -0.877944 2.75398 4.67675 -0.222884 
-9.28444 -1.10242 1.28114 6.54249 0.228519 


 i = 379
3.96624 0.39748 -0.605461 -3.11306 -0.408927 
5.51942 0.698924 -1.4918 -3.48543 -0.421329 
-6.11067 -0.878984 2.75441 4.68373 -0.222771 
-9.29887 -1.10394 1.28134 6.55322 0.228541 


 i = 380
3.97226 0.398172 -0.605688 -3.11881 -0.408825 
5.52815 0.700335 -1.49216 -3.49226 -0.421276 
-6.1206 -0.880034 2.75484 4.69074 -0.222659 
-9.31324 -1.10547 1.28155 6.56394 0.228562 


 i = 381
3.97834 0.398855 -0.60592 -3.12458 -0.408725 
5.5368 0.70173 -1.49252 -3.49906 -0.421223 
-6.1305 -0.881092 2.75526 4.69777 -0.222548 
-9.32756 -1.10699 1.28176 6.57464 0.228583 


 i = 382
3.9845 0.39953 -0.606155 -3.13036 -0.408627 
5.54536 0.703108 -1.49289 -3.50582 -0.421172 
-6.14036 -0.882157 2.75568 4.70482 -0.222439 
-9.34184 -1.10851 1.28197 6.58534 0.228604 


 i = 383
3.99072 0.400197 -0.606394 -3.13616 -0.408531 
5.55382 0.704466 -1.49325 -3.51251 -0.421122 
-6.15018 -0.883228 2.75609 4.71189 -0.222332 
-9.35608 -1.11003 1.28217 6.59603 0.228624 


 i = 384
3.99702 0.400856 -0.606637 -3.14197 -0.408438 
5.56216 0.705804 -1.49362 -3.51913 -0.421073 
-6.15995 -0.884305 2.7565 4.71896 -0.222226 
-9.37031 -1.11154 1.28237 6.60674 0.228643 


 i = 385
4.0034 0.401507 -0.606882 -3.14779 -0.408347 
5.57037 0.70712 -1.49398 -3.52567 -0.421027 
-6.16965 -0.885386 2.75691 4.72604 -0.222123 
-9.38453 -1.11306 1.28258 6.61746 0.228662 


 i = 386
4.00988 0.402153 -0.607131 -3.15362 -0.408258 
5.57847 0.708415 -1.49435 -3.53211 -0.420981 
-6.17924 -0.886466 2.75732 4.73311 -0.222022 
-9.39876 -1.11459 1.28278 6.62822 0.22868 


 i = 387
4.01648 0.402794 -0.607382 -3.15943 -0.408173 
5.58649 0.709696 -1.49472 -3.53849 -0.420938 
-6.18867 -0.887538 2.75772 4.74014 -0.221923 
-9.41302 -1.11612 1.28298 6.63902 0.228697 


 i = 388
4.02317 0.40343 -0.607635 -3.16514 -0.408092 
5.59455 0.710976 -1.49509 -3.54486 -0.420896 
-6.19783 -0.88859 2.75812 4.74711 -0.221826 
-9.42732 -1.11765 1.28318 6.6499 0.228714 


 i = 389
4.02974 0.404036 -0.607888 -3.17035 -0.408015 
5.60284 0.712279 -1.49546 -3.55125 -0.420855 
-6.2067 -0.889617 2.75852 4.75417 -0.221732 
-9.44174 -1.1192 1.28338 6.66096 0.228729 


 i = 390
4.03555 0.404556 -0.60814 -3.17446 -0.407942 
5.61127 0.713604 -1.49583 -3.55752 -0.420814 
-6.2157 -0.890654 2.75892 4.76174 -0.221641 
-9.45645 -1.12078 1.28358 6.67235 0.228743 


 i = 391
4.04236 0.405277 -0.608392 -3.18054 -0.407864 
5.61974 0.714969 -1.4962 -3.56438 -0.420773 
-6.22427 -0.891569 2.75932 4.76798 -0.221546 
-9.47093 -1.1223 1.28377 6.6832 0.228758 


 i = 392
4.04057 0.404728 -0.608637 -3.17376 -0.407812 
5.62651 0.71602 -1.49656 -3.56686 -0.420736 
-6.23779 -0.893272 2.75972 4.78305 -0.221467 
-9.4881 -1.12422 1.28397 6.69785 0.228766 


 i = 393
4.05545 0.406817 -0.608874 -3.18949 -0.407695 
5.63823 0.71794 -1.49692 -3.57761 -0.420679 
-6.24218 -0.893338 2.76012 4.78285 -0.221344 
-9.5007 -1.12541 1.28417 6.70601 0.228791 


 i = 394
4.04692 0.404977 -0.609108 -3.16974 -0.407659 
5.64345 0.718562 -1.49727 -3.5748 -0.420645 
-6.25985 -0.895927 2.76053 4.80737 -0.221275 
-9.52023 -1.12775 1.28438 6.72462 0.228793 


 i = 395
4.07173 0.408143 -0.609326 -3.19624 -0.407496 
5.65797 0.720758 -1.49762 -3.589 -0.42057 
-6.25732 -0.895267 2.76095 4.7988 -0.221118 
-9.53154 -1.12882 1.28458 6.73022 0.228828 


 i = 396
4.07288 0.406247 -0.609531 -3.1697 -0.407439 
5.67023 0.721592 -1.49796 -3.58375 -0.42052 
-6.26568 -0.89772 2.76137 4.8276 -0.221028 
-9.5487 -1.13125 1.28478 6.75091 0.228836 


 i = 397
4.0895 0.407707 -0.609735 -3.19911 -0.407293 
5.67969 0.722828 -1.4983 -3.59844 -0.420455 
-6.26866 -0.898382 2.76179 4.81551 -0.220883 
-9.56333 -1.13296 1.28499 6.75525 0.228864 


 i = 398
4.07653 0.406104 -0.60993 -3.18443 -0.40723 
5.6829 0.723542 -1.49863 -3.59758 -0.420407 
-6.28929 -0.900691 2.76221 4.83504 -0.220791 
-9.58437 -1.13524 1.28519 6.77202 0.228873 


 i = 399
4.0983 0.408886 -0.610113 -3.21273 -0.407063 
5.69554 0.725494 -1.49895 -3.61221 -0.420331 
-6.289 -0.900315 2.76264 4.82484 -0.220631 
-9.5968 -1.13645 1.2854 6.77696 0.228908 


 i = 400
4.10661 0.407486 -0.61027 -3.1847 -0.40698 
5.71235 0.726641 -1.49926 -3.60614 -0.420265 
-6.29065 -0.902245 2.76309 4.85436 -0.22052 
-9.61213 -1.13875 1.28561 6.7981 0.228921 


 i = 401
4.11785 0.408147 -0.610429 -3.21347 -0.406843 
5.72162 0.727763 -1.49957 -3.62233 -0.420197 
-6.29512 -0.903226 2.76352 4.84043 -0.220377 
-9.62854 -1.1407 1.28582 6.80209 0.228946 


 i = 402
4.10998 0.408874 -0.610597 -3.22474 -0.406728 
5.72358 0.729158 -1.49988 -3.63153 -0.420135 
-6.31328 -0.903848 2.76395 4.84028 -0.22025 
-9.64737 -1.14221 1.28602 6.81076 0.228971 


 i = 403
4.11918 0.407772 -0.610724 -3.19621 -0.406641 
5.7408 0.730433 -1.50016 -3.62502 -0.420066 
-6.3142 -0.905522 2.7644 4.87042 -0.220136 
-9.66268 -1.14444 1.28623 6.83225 0.228984 


 i = 404
4.13242 0.408869 -0.610859 -3.22697 -0.406497 
5.75031 0.731684 -1.50046 -3.64168 -0.419996 
-6.31752 -0.906181 2.76484 4.8553 -0.219989 
-9.67866 -1.14626 1.28644 6.83587 0.22901 


 i = 405
4.12692 0.410066 -0.611009 -3.24197 -0.406369 
5.75179 0.733112 -1.50076 -3.65152 -0.419932 
-6.33454 -0.906503 2.76527 4.85289 -0.219855 
-9.69667 -1.14761 1.28664 6.84356 0.229038 


 i = 406
4.14263 0.410097 -0.61111 -3.21973 -0.406253 
5.77142 0.734797 -1.50103 -3.64668 -0.419853 
-6.32967 -0.907238 2.76573 4.87834 -0.219719 
-9.70961 -1.14947 1.28686 6.86305 0.229059 


 i = 407
4.1396 0.41112 -0.611242 -3.2454 -0.406104 
5.77196 0.73587 -1.50132 -3.65984 -0.419784 
-6.34612 -0.907927 2.76617 4.86781 -0.219571 
-9.72856 -1.15111 1.28706 6.86792 0.22909 


 i = 408
4.14257 0.409636 -0.611339 -3.21641 -0.406008 
5.78589 0.73692 -1.50158 -3.65286 -0.419712 
-6.35143 -0.909831 2.76663 4.89781 -0.21945 
-9.74534 -1.15341 1.28727 6.88926 0.229105 


 i = 409
4.15705 0.410792 -0.611439 -3.24785 -0.405858 
5.79625 0.738229 -1.50185 -3.67005 -0.419637 
-6.35346 -0.910394 2.76708 4.88191 -0.219299 
-9.76115 -1.15523 1.28748 6.89276 0.229132 


 i = 410
4.14236 0.41105 -0.61157 -3.25743 -0.405715 
5.7892 0.738701 -1.50214 -3.6739 -0.419579 
-6.38045 -0.911765 2.7675 4.88612 -0.21916 
-9.78179 -1.15686 1.28768 6.90236 0.229162 


 i = 411
4.15717 0.413274 -0.611694 -3.27445 -0.405598 
5.79854 0.740428 -1.50243 -3.68366 -0.419525 
-6.38398 -0.911529 2.76793 4.88444 -0.21904 
-9.79535 -1.15804 1.28789 6.91092 0.229183 


 i = 412
4.17548 0.411404 -0.611787 -3.23555 -0.40553 
5.82016 0.741288 -1.50268 -3.67167 -0.419466 
-6.37581 -0.913626 2.76838 4.92223 -0.218941 
-9.80705 -1.16042 1.28809 6.93527 0.229191 


 i = 413
4.18066 0.410646 -0.611862 -3.25251 -0.405398 
5.8292 0.741996 -1.50294 -3.68367 -0.41939 
-6.38239 -0.915402 2.76885 4.91589 -0.218798 
-9.82533 -1.1628 1.28831 6.94253 0.229212 


 i = 414
4.17525 0.41203 -0.611958 -3.27663 -0.40524 
5.8267 0.743027 -1.5032 -3.69466 -0.419322 
-6.4016 -0.915832 2.76928 4.90748 -0.218646 
-9.84502 -1.16428 1.28851 6.94822 0.229244 


 i = 415
4.1899 0.412523 -0.612004 -3.25873 -0.405108 
5.84566 0.744913 -1.50343 -3.69189 -0.419234 
-6.39779 -0.916163 2.76976 4.9293 -0.2185 
-9.85881 -1.16602 1.28873 6.96661 0.229267 


 i = 416
4.19085 0.414202 -0.612084 -3.28839 -0.404941 
5.8473 0.746212 -1.50369 -3.70647 -0.419158 
-6.41124 -0.916304 2.77021 4.91573 -0.218339 
-9.87698 -1.16748 1.28893 6.97057 0.229301 


 i = 417
4.18671 0.415428 -0.612181 -3.30004 -0.404771 
5.84702 0.747342 -1.50395 -3.71278 -0.419083 
-6.42929 -0.916807 2.77064 4.91831 -0.218177 
-9.89349 -1.1687 1.28913 6.97916 0.229339 


 i = 418
4.20489 0.413721 -0.612245 -3.26249 -0.404696 
5.86829 0.748251 -1.50419 -3.70129 -0.41902 
-6.42131 -0.918761 2.7711 4.95504 -0.218074 
-9.90552 -1.17106 1.28934 7.00329 0.229348 


 i = 419
4.21078 0.413253 -0.612293 -3.28031 -0.404556 
5.87771 0.749108 -1.50443 -3.71376 -0.41894 
-6.42732 -0.920276 2.77157 4.94801 -0.217925 
-9.92371 -1.17334 1.28956 7.01046 0.22937 


 i = 420
4.19914 0.41378 -0.612372 -3.29787 -0.404399 
5.86974 0.74944 -1.50468 -3.71965 -0.41888 
-6.45279 -0.921526 2.772 4.94604 -0.217779 
-9.94551 -1.17511 1.28976 7.01853 0.229399 


 i = 421
4.1998 0.413335 -0.612415 -3.28023 -0.404312 
5.8801 0.750761 -1.50491 -3.71762 -0.418815 
-6.46239 -0.922772 2.77246 4.96805 -0.21767 
-9.96426 -1.17716 1.28997 7.03744 0.229409 


 i = 422
4.21728 0.41535 -0.612471 -3.30779 -0.404138 
5.88551 0.751755 -1.50515 -3.72809 -0.418747 
-6.46694 -0.9231 2.77291 4.95956 -0.217514 
-9.97993 -1.17875 1.29017 7.04377 0.229438 


 i = 423
4.23348 0.415806 -0.612481 -3.29239 -0.404007 
5.90517 0.753643 -1.50536 -3.7268 -0.418657 
-6.46263 -0.923491 2.7734 4.97935 -0.217368 
-9.99435 -1.18061 1.29039 7.06187 0.22946 


 i = 424
4.24418 0.417988 -0.612512 -3.32545 -0.403828 
5.91479 0.75557 -1.50558 -3.74557 -0.418564 
-6.46643 -0.923 2.77386 4.96137 -0.217193 
-10.0103 -1.18198 1.2906 7.06474 0.229495 


 i = 425
4.24108 0.419621 -0.612571 -3.34022 -0.403605 
5.91454 0.756815 -1.50582 -3.7527 -0.418464 
-6.48265 -0.923099 2.7743 4.9613 -0.216989 
-10.0266 -1.18312 1.2908 7.07268 0.229546 


 i = 426
4.23126 0.419568 -0.61266 -3.33901 -0.403433 
5.90479 0.756554 -1.50607 -3.7475 -0.418405 
-6.50692 -0.924831 2.77472 4.97625 -0.216832 
-10.0477 -1.18505 1.291 7.08788 0.229578 


 i = 427
4.25944 0.419902 -0.612685 -3.31753 -0.40332 
5.93023 0.758397 -1.50629 -3.74327 -0.418323 
-6.4926 -0.925307 2.77519 5.00131 -0.216701 
-10.0585 -1.18698 1.29121 7.10826 0.229594 


 i = 428
4.27157 0.422409 -0.61274 -3.35709 -0.403124 
5.93693 0.760061 -1.50652 -3.76261 -0.418232 
-6.49695 -0.924784 2.77564 4.97968 -0.216518 
-10.0739 -1.18827 1.29141 7.10947 0.229634 


 i = 429
4.2629 0.41951 -0.612801 -3.32146 -0.403055 
5.94548 0.760419 -1.50675 -3.75266 -0.418173 
-6.50831 -0.927444 2.77608 5.01264 -0.216417 
-10.0903 -1.19062 1.29161 7.13049 0.229645 


 i = 430
4.27228 0.421263 -0.612833 -3.35042 -0.402882 
5.95561 0.76228 -1.50697 -3.77028 -0.418079 
-6.51258 -0.927216 2.77654 4.9974 -0.216245 
-10.1069 -1.19216 1.29182 7.13466 0.229677 


 i = 431
4.28122 0.423424 -0.612887 -3.37194 -0.40264 
5.96282 0.763974 -1.5072 -3.78203 -0.417966 
-6.51814 -0.926813 2.77698 4.99136 -0.216023 
-10.1193 -1.19313 1.29202 7.14027 0.229735 


 i = 432
4.34627 0.436798 -0.612896 -3.385 -0.402045 
6.01111 0.772037 -1.50742 -3.79814 -0.417681 
-6.47872 -0.917608 2.77745 4.9913 -0.215533 
-10.0968 -1.1892 1.29224 7.13471 0.229913 


 i = 433
4.3202 0.423419 -0.612916 -3.32679 -0.401984 
6.02496 0.768568 -1.50762 -3.77955 -0.417613 
-6.49023 -0.927171 2.7779 5.03559 -0.215419 
-10.0999 -1.19274 1.29244 7.15154 0.229943 


 i = 434
4.36644 0.410772 -0.612832 -3.32091 -0.401716 
6.06254 0.763568 -1.50777 -3.77844 -0.417485 
-6.45815 -0.938452 2.77841 5.04547 -0.215177 
-10.0943 -1.19771 1.29266 7.15747 0.230001 


 i = 435
4.45075 0.395104 -0.61267 -3.31757 -0.401527 
6.10587 0.756475 -1.50788 -3.77728 -0.417419 
-6.39647 -0.952134 2.77894 5.05334 -0.215013 
-10.0794 -1.2031 1.29288 7.15971 0.230033 


 i = 436
4.51071 0.386056 -0.612346 -3.3209 -0.401177 
6.126 0.751785 -1.50789 -3.77582 -0.4173 
-6.36524 -0.961216 2.77953 5.06119 -0.214749 
-10.0718 -1.2065 1.29313 7.16291 0.230104 


 i = 437
4.53424 0.372119 -0.611842 -3.32416 -0.400983 
6.13374 0.745092 -1.50781 -3.77613 -0.417246 
-6.35703 -0.973785 2.7802 5.06689 -0.214612 
-10.0705 -1.21073 1.29339 7.16291 0.230138 


 i = 438
4.5677 0.362444 -0.611088 -3.33319 -0.400754 
6.15082 0.740719 -1.50758 -3.77967 -0.417163 
-6.33643 -0.982612 2.781 5.06811 -0.21445 
-10.0634 -1.21356 1.29369 7.16077 0.230186 


 i = 439
4.59394 0.356545 -0.610101 -3.34055 -0.400437 
6.16636 0.738301 -1.50724 -3.78194 -0.417027 
-6.31894 -0.988195 2.78192 5.07117 -0.214218 
-10.0571 -1.21526 1.29402 7.15979 0.23026 


 i = 440
4.60852 0.353879 -0.608931 -3.34536 -0.400027 
6.17633 0.73746 -1.50679 -3.78168 -0.416843 
-6.30932 -0.991058 2.78294 5.07694 -0.213915 
-10.0541 -1.21609 1.29438 7.16142 0.230357 


 i = 441
4.61626 0.353555 -0.607634 -3.34923 -0.39954 
6.1827 0.737739 -1.50628 -3.77974 -0.41662 
-6.30432 -0.991978 2.78402 5.08405 -0.21355 
-10.0534 -1.21632 1.29477 7.16512 0.230472 


 i = 442
4.62044 0.354695 -0.606259 -3.35338 -0.398997 
6.18709 0.738724 -1.50573 -3.77719 -0.416368 
-6.30162 -0.991687 2.78515 5.09132 -0.213143 
-10.0541 -1.21619 1.29516 7.16995 0.230601 


 i = 443
4.62275 0.356696 -0.604839 -3.35821 -0.398415 
6.19038 0.740132 -1.50516 -3.77456 -0.416097 
-6.30007 -0.990687 2.7863 5.09828 -0.212704 
-10.0554 -1.21584 1.29557 7.17532 0.230738 


 i = 444
4.62401 0.359173 -0.6034 -3.36366 -0.397806 
6.19302 0.741785 -1.50458 -3.77202 -0.415812 
-6.29911 -0.989297 2.78746 5.10487 -0.212244 
-10.0573 -1.21538 1.29597 7.18097 0.230883 


 i = 445
4.62463 0.361874 -0.601958 -3.36956 -0.397176 
6.19527 0.743563 -1.50399 -3.7696 -0.415516 
-6.2985 -0.987727 2.78863 5.11117 -0.211767 
-10.0594 -1.21487 1.29638 7.18677 0.231032 


 i = 446
4.62486 0.364632 -0.600525 -3.37578 -0.39653 
6.19724 0.745386 -1.50342 -3.76728 -0.415212 
-6.29809 -0.986114 2.78979 5.11725 -0.211278 
-10.0617 -1.21435 1.29679 7.19267 0.231185 


 i = 447
4.62483 0.367335 -0.599111 -3.38219 -0.395871 
6.19904 0.747202 -1.50285 -3.76505 -0.414901 
-6.29781 -0.984553 2.79094 5.12318 -0.210779 
-10.0641 -1.21386 1.29719 7.19861 0.231341 


 i = 448
4.62462 0.369913 -0.597721 -3.38874 -0.395202 
6.20072 0.748975 -1.5023 -3.76289 -0.414585 
-6.29761 -0.983102 2.79208 5.12901 -0.210271 
-10.0666 -1.21341 1.29759 7.20459 0.231499 


 i = 449
4.6243 0.372321 -0.596362 -3.39536 -0.394525 
6.20231 0.750684 -1.50176 -3.7608 -0.414264 
-6.29745 -0.981799 2.7932 5.13477 -0.209756 
-10.0692 -1.21302 1.29798 7.21057 0.23166 


 i = 450
4.6239 0.374536 -0.595037 -3.40204 -0.393839 
6.20384 0.752319 -1.50124 -3.75877 -0.413939 
-6.29733 -0.980663 2.7943 5.14048 -0.209235 
-10.0718 -1.21268 1.29837 7.21655 0.231822 


 i = 451
4.62344 0.376549 -0.593749 -3.40874 -0.393146 
6.20533 0.753874 -1.50074 -3.75679 -0.413611 
-6.29723 -0.979702 2.79538 5.14616 -0.208709 
-10.0745 -1.21241 1.29875 7.22252 0.231987 


 i = 452
4.62295 0.378363 -0.592501 -3.41545 -0.392447 
6.2068 0.75535 -1.50026 -3.75486 -0.413279 
-6.29714 -0.978913 2.79644 5.15182 -0.208177 
-10.0771 -1.21219 1.29912 7.22847 0.232153 


 i = 453
4.62242 0.379987 -0.591294 -3.42216 -0.391743 
6.20824 0.756751 -1.4998 -3.75298 -0.412943 
-6.29705 -0.978289 2.79748 5.15746 -0.20764 
-10.0798 -1.21203 1.29949 7.23439 0.23232 


 i = 454
4.62188 0.381433 -0.59013 -3.42887 -0.391032 
6.20968 0.758083 -1.49936 -3.75114 -0.412605 
-6.29697 -0.97782 2.79849 5.1631 -0.207099 
-10.0825 -1.21193 1.29985 7.24029 0.232489 


 i = 455
4.62133 0.382717 -0.589009 -3.43556 -0.390316 
6.2111 0.759352 -1.49895 -3.74935 -0.412263 
-6.29689 -0.977492 2.79949 5.16872 -0.206553 
-10.0852 -1.21187 1.30021 7.24616 0.23266 


 i = 456
4.62077 0.383856 -0.587931 -3.44224 -0.389594 
6.21252 0.760567 -1.49856 -3.74761 -0.411919 
-6.29681 -0.977291 2.80045 5.17435 -0.206002 
-10.0879 -1.21186 1.30055 7.25199 0.232832 


 i = 457
4.6202 0.384866 -0.586896 -3.44891 -0.388867 
6.21394 0.761734 -1.4982 -3.74591 -0.411572 
-6.29674 -0.977204 2.8014 5.17998 -0.205447 
-10.0905 -1.21188 1.30089 7.25779 0.233006 


 i = 458
4.61963 0.385763 -0.585904 -3.45555 -0.388135 
6.21536 0.762862 -1.49785 -3.74425 -0.411221 
-6.29666 -0.977217 2.80232 5.1856 -0.204888 
-10.0932 -1.21194 1.30123 7.26355 0.233181 


 i = 459
4.61905 0.386562 -0.584955 -3.46218 -0.387398 
6.21678 0.763955 -1.49753 -3.74264 -0.410868 
-6.29658 -0.977319 2.80322 5.19124 -0.204324 
-10.0959 -1.21203 1.30155 7.26927 0.233358 


 i = 460
4.61848 0.387274 -0.584046 -3.46878 -0.386655 
6.21821 0.765022 -1.49723 -3.74108 -0.410512 
-6.2965 -0.977499 2.8041 5.19687 -0.203756 
-10.0985 -1.21214 1.30187 7.27494 0.233536 


 i = 461
4.6179 0.387911 -0.583178 -3.47536 -0.385907 
6.21964 0.766065 -1.49695 -3.73957 -0.410154 
-6.29642 -0.977747 2.80495 5.20252 -0.203183 
-10.1012 -1.21228 1.30218 7.28057 0.233715 


 i = 462
4.61732 0.388484 -0.582349 -3.48191 -0.385154 
6.22108 0.767091 -1.49669 -3.7381 -0.409792 
-6.29634 -0.978054 2.80578 5.20817 -0.202606 
-10.1038 -1.21243 1.30249 7.28615 0.233896 


 i = 463
4.61675 0.389001 -0.581559 -3.48844 -0.384395 
6.22254 0.768103 -1.49645 -3.73668 -0.409427 
-6.29626 -0.978413 2.8066 5.21383 -0.202025 
-10.1064 -1.2126 1.30279 7.29168 0.234079 


 i = 464
4.61617 0.38947 -0.580805 -3.49494 -0.383631 
6.224 0.769105 -1.49623 -3.73531 -0.40906 
-6.29619 -0.978817 2.80739 5.2195 -0.201439 
-10.109 -1.21278 1.30308 7.29716 0.234263 


 i = 465
4.6156 0.389896 -0.580086 -3.50142 -0.382861 
6.22547 0.770099 -1.49603 -3.73399 -0.408689 
-6.29612 -0.979262 2.80817 5.22518 -0.200848 
-10.1116 -1.21297 1.30337 7.30258 0.234448 


 i = 466
4.61502 0.390286 -0.579402 -3.50787 -0.382086 
6.22696 0.771089 -1.49585 -3.73272 -0.408315 
-6.29605 -0.979742 2.80892 5.23087 -0.200253 
-10.1141 -1.21317 1.30365 7.30795 0.234636 


 i = 467
4.61445 0.390643 -0.578752 -3.51429 -0.381305 
6.22846 0.772075 -1.49568 -3.7315 -0.407938 
-6.29598 -0.980254 2.80966 5.23658 -0.199653 
-10.1166 -1.21338 1.30393 7.31326 0.234825 


 i = 468
4.61388 0.390973 -0.578133 -3.52068 -0.380518 
6.22998 0.773061 -1.49554 -3.73033 -0.407558 
-6.29592 -0.980793 2.81038 5.2423 -0.199049 
-10.1191 -1.2136 1.3042 7.31851 0.235015 


 i = 469
4.61332 0.391277 -0.577545 -3.52704 -0.379725 
6.23152 0.774047 -1.4954 -3.72921 -0.407174 
-6.29587 -0.981358 2.81109 5.24803 -0.19844 
-10.1216 -1.21382 1.30447 7.32371 0.235208 


 i = 470
4.61275 0.391559 -0.576986 -3.53337 -0.378927 
6.23307 0.775034 -1.49529 -3.72814 -0.406787 
-6.29582 -0.981946 2.81178 5.25378 -0.197826 
-10.1241 -1.21404 1.30473 7.32883 0.235402 


 i = 471
4.61219 0.391821 -0.576455 -3.53967 -0.378122 
6.23465 0.776025 -1.49519 -3.72713 -0.406397 
-6.29578 -0.982554 2.81246 5.25955 -0.197207 
-10.1265 -1.21427 1.30499 7.3339 0.235598 


 i = 472
4.61162 0.392065 -0.575952 -3.54593 -0.377311 
6.23624 0.777019 -1.4951 -3.72616 -0.406003 
-6.29574 -0.983182 2.81312 5.26534 -0.196583 
-10.1289 -1.2145 1.30524 7.3389 0.235795 


 i = 473
4.61106 0.392292 -0.575474 -3.55217 -0.376494 
6.23786 0.778018 -1.49503 -3.72525 -0.405606 
-6.29571 -0.983827 2.81377 5.27114 -0.195954 
-10.1313 -1.21473 1.30549 7.34383 0.235994 


 i = 474
4.6105 0.392503 -0.575022 -3.55837 -0.37567 
6.2395 0.779021 -1.49497 -3.72439 -0.405206 
-6.29569 -0.984488 2.8144 5.27696 -0.19532 
-10.1336 -1.21496 1.30574 7.3487 0.236196 


 i = 475
4.60994 0.3927 -0.574593 -3.56454 -0.37484 
6.24116 0.78003 -1.49492 -3.72359 -0.404801 
-6.29568 -0.985165 2.81502 5.2828 -0.194681 
-10.1359 -1.21519 1.30598 7.35349 0.236399 


 i = 476
4.60939 0.392884 -0.574187 -3.57067 -0.374004 
6.24285 0.781045 -1.49489 -3.72283 -0.404393 
-6.29567 -0.985856 2.81563 5.28866 -0.194037 
-10.1382 -1.21542 1.30622 7.35822 0.236604 


 i = 477
4.60883 0.393055 -0.573804 -3.57677 -0.373161 
6.24456 0.782066 -1.49486 -3.72213 -0.403982 
-6.29568 -0.98656 2.81623 5.29454 -0.193388 
-10.1404 -1.21565 1.30646 7.36289 0.23681 


 i = 478
4.60827 0.393213 -0.573441 -3.58283 -0.372311 
6.24629 0.783094 -1.49485 -3.72148 -0.403567 
-6.29569 -0.987278 2.81682 5.30044 -0.192733 
-10.1426 -1.21588 1.30669 7.36748 0.237019 


 i = 479
4.60772 0.39336 -0.573098 -3.58886 -0.371455 
6.24806 0.784129 -1.49485 -3.72088 -0.403147 
-6.29571 -0.988008 2.8174 5.30636 -0.192074 
-10.1448 -1.21611 1.30692 7.372 0.23723 


 i = 480
4.60716 0.393495 -0.572774 -3.59486 -0.370592 
6.24985 0.78517 -1.49486 -3.72034 -0.402725 
-6.29574 -0.98875 2.81796 5.3123 -0.191409 
-10.1469 -1.21634 1.30714 7.37646 0.237442 


 i = 481
4.60661 0.39362 -0.572469 -3.60082 -0.369722 
6.25166 0.786219 -1.49488 -3.71985 -0.402298 
-6.29577 -0.989503 2.81852 5.31826 -0.190739 
-10.149 -1.21656 1.30737 7.38084 0.237657 


 i = 482
4.60605 0.393733 -0.572181 -3.60674 -0.368846 
6.25351 0.787275 -1.49491 -3.71941 -0.401867 
-6.29581 -0.990267 2.81907 5.32424 -0.190064 
-10.1511 -1.21678 1.30759 7.38516 0.237873 


 i = 483
4.60549 0.393836 -0.57191 -3.61263 -0.367962 
6.25538 0.788339 -1.49494 -3.71902 -0.401432 
-6.29586 -0.991041 2.81961 5.33023 -0.189383 
-10.1531 -1.217 1.30781 7.38942 0.238091 


 i = 484
4.60493 0.393929 -0.571655 -3.61848 -0.367072 
6.25727 0.789411 -1.49499 -3.71868 -0.400994 
-6.29592 -0.991826 2.82014 5.33625 -0.188697 
-10.1551 -1.21722 1.30802 7.3936 0.238312 


 i = 485
4.60437 0.394011 -0.571415 -3.6243 -0.366175 
6.2592 0.79049 -1.49504 -3.71839 -0.400551 
-6.29598 -0.99262 2.82066 5.34229 -0.188006 
-10.157 -1.21744 1.30823 7.39772 0.238534 


 i = 486
4.60381 0.394084 -0.57119 -3.63008 -0.365271 
6.26115 0.791577 -1.49511 -3.71815 -0.400104 
-6.29605 -0.993423 2.82118 5.34834 -0.18731 
-10.1589 -1.21765 1.30844 7.40178 0.238758 


 i = 487
4.60325 0.394147 -0.570979 -3.63582 -0.36436 
6.26314 0.792673 -1.49517 -3.71796 -0.399654 
-6.29612 -0.994235 2.82169 5.35441 -0.186608 
-10.1608 -1.21786 1.30865 7.40578 0.238985 


 i = 488
4.60268 0.3942 -0.570781 -3.64153 -0.363442 
6.26514 0.793776 -1.49525 -3.71783 -0.399199 
-6.29619 -0.995055 2.82219 5.36049 -0.185901 
-10.1626 -1.21807 1.30886 7.40971 0.239213 


 i = 489
4.60212 0.394244 -0.570595 -3.64721 -0.362517 
6.26718 0.794888 -1.49533 -3.71774 -0.39874 
-6.29626 -0.995883 2.82268 5.3666 -0.185189 
-10.1644 -1.21827 1.30906 7.41359 0.239443 


 i = 490
4.60154 0.394279 -0.570422 -3.65285 -0.361585 
6.26924 0.796008 -1.49542 -3.71769 -0.398276 
-6.29634 -0.996718 2.82317 5.37271 -0.184471 
-10.1662 -1.21847 1.30927 7.4174 0.239676 


 i = 491
4.60097 0.394304 -0.57026 -3.65845 -0.360646 
6.27133 0.797137 -1.49552 -3.7177 -0.397809 
-6.29642 -0.997561 2.82365 5.37885 -0.183748 
-10.1679 -1.21867 1.30947 7.42116 0.23991 


 i = 492
4.60039 0.394321 -0.570109 -3.66402 -0.3597 
6.27345 0.798275 -1.49562 -3.71776 -0.397337 
-6.2965 -0.99841 2.82413 5.38499 -0.18302 
-10.1696 -1.21887 1.30967 7.42487 0.240146 


 i = 493
4.59981 0.39433 -0.569968 -3.66955 -0.358747 
6.27559 0.799421 -1.49572 -3.71786 -0.396861 
-6.29657 -0.999265 2.8246 5.39115 -0.182286 
-10.1713 -1.21906 1.30986 7.42852 0.240384 


 i = 494
4.59922 0.39433 -0.569837 -3.67505 -0.357787 
6.27775 0.800577 -1.49583 -3.71801 -0.396381 
-6.29664 -1.00013 2.82507 5.39732 -0.181547 
-10.1729 -1.21925 1.31006 7.43212 0.240625 


 i = 495
4.59862 0.394322 -0.569716 -3.68051 -0.35682 
6.27994 0.801741 -1.49595 -3.7182 -0.395896 
-6.29671 -1.00099 2.82553 5.4035 -0.180803 
-10.1745 -1.21944 1.31025 7.43567 0.240867 


 i = 496
4.59803 0.394305 -0.569603 -3.68594 -0.355846 
6.28216 0.802914 -1.49607 -3.71844 -0.395407 
-6.29678 -1.00186 2.82598 5.40968 -0.180054 
-10.1761 -1.21963 1.31044 7.43917 0.241111 


 i = 497
4.59742 0.394281 -0.569499 -3.69133 -0.354865 
6.28439 0.804097 -1.4962 -3.71873 -0.394913 
-6.29683 -1.00274 2.82643 5.41588 -0.179299 
-10.1776 -1.21981 1.31064 7.44263 0.241357 


 i = 498
4.59681 0.39425 -0.569403 -3.69669 -0.353876 
6.28665 0.805289 -1.49633 -3.71906 -0.394415 
-6.29688 -1.00362 2.82688 5.42209 -0.178539 
-10.1791 -1.21999 1.31083 7.44604 0.241606 


 i = 499
4.59619 0.394211 -0.569314 -3.70202 -0.352881 
6.28893 0.806491 -1.49646 -3.71943 -0.393912 
-6.29693 -1.0045 2.82732 5.4283 -0.177773 
-10.1806 -1.22017 1.31101 7.4494 0.241856 


 i = 500
4.59556 0.394164 -0.569233 -3.70731 -0.351878 
6.29123 0.807702 -1.4966 -3.71985 -0.393405 
-6.29696 -1.00539 2.82776 5.43452 -0.177002 
-10.182 -1.22034 1.3112 7.45273 0.242108 


 i = 501
4.59493 0.394111 -0.569158 -3.71256 -0.350869 
6.29355 0.808923 -1.49674 -3.72032 -0.392893 
-6.29699 -1.00628 2.82819 5.44074 -0.176226 
-10.1834 -1.22051 1.31139 7.45601 0.242362 


 i = 502
4.59428 0.39405 -0.56909 -3.71779 -0.349852 
6.29589 0.810153 -1.49688 -3.72082 -0.392377 
-6.297 -1.00717 2.82862 5.44696 -0.175445 
-10.1848 -1.22068 1.31157 7.45926 0.242618 


 i = 503
4.59363 0.393983 -0.569028 -3.72298 -0.348828 
6.29824 0.811394 -1.49703 -3.72137 -0.391856 
-6.29701 -1.00807 2.82905 5.45319 -0.174658 
-10.1862 -1.22085 1.31176 7.46247 0.242876 


 i = 504
4.59297 0.393909 -0.568972 -3.72813 -0.347797 
6.30062 0.812644 -1.49718 -3.72196 -0.39133 
-6.297 -1.00896 2.82947 5.45942 -0.173866 
-10.1876 -1.22102 1.31194 7.46565 0.243136 


 i = 505
4.5923 0.393829 -0.568921 -3.73325 -0.346759 
6.303 0.813904 -1.49733 -3.7226 -0.3908 
-6.29697 -1.00986 2.8299 5.46565 -0.173068 
-10.1889 -1.22118 1.31212 7.46879 0.243398 


 i = 506
4.59161 0.393742 -0.568876 -3.73834 -0.345714 
6.30541 0.815174 -1.49748 -3.72328 -0.390265 
-6.29694 -1.01076 2.83031 5.47188 -0.172266 
-10.1902 -1.22134 1.3123 7.4719 0.243662 


 i = 507
4.59092 0.393649 -0.568835 -3.7434 -0.344662 
6.30783 0.816454 -1.49764 -3.724 -0.389725 
-6.29689 -1.01166 2.83073 5.47811 -0.171458 
-10.1915 -1.2215 1.31248 7.47498 0.243928 


 i = 508
4.59022 0.39355 -0.568799 -3.74842 -0.343602 
6.31026 0.817744 -1.4978 -3.72476 -0.38918 
-6.29682 -1.01256 2.83114 5.48434 -0.170644 
-10.1928 -1.22166 1.31266 7.47803 0.244196 


 i = 509
4.5895 0.393445 -0.568768 -3.75341 -0.342535 
6.3127 0.819045 -1.49796 -3.72556 -0.38863 
-6.29674 -1.01346 2.83155 5.49057 -0.169826 
-10.194 -1.22182 1.31284 7.48105 0.244465 


 i = 510
4.58877 0.393334 -0.568741 -3.75836 -0.341462 
6.31515 0.820355 -1.49813 -3.7264 -0.388075 
-6.29664 -1.01437 2.83196 5.49679 -0.169002 
-10.1953 -1.22197 1.31302 7.48405 0.244737 


 i = 511
4.58803 0.393217 -0.568717 -3.76329 -0.340381 
6.31762 0.821676 -1.4983 -3.72728 -0.387516 
-6.29652 -1.01527 2.83236 5.50301 -0.168173 
-10.1965 -1.22213 1.31319 7.48702 0.245011 


 i = 512
4.58727 0.393095 -0.568697 -3.76818 -0.339293 
6.32009 0.823007 -1.49846 -3.72821 -0.386951 
-6.29639 -1.01617 2.83276 5.50922 -0.167338 
-10.1977 -1.22228 1.31337 7.48997 0.245286 


 i = 513
4.5865 0.392966 -0.568681 -3.77303 -0.338198 
6.32257 0.824348 -1.49863 -3.72917 -0.386382 
-6.29624 -1.01707 2.83316 5.51542 -0.166499 
-10.1989 -1.22243 1.31355 7.4929 0.245563 


 i = 514
4.58572 0.392833 -0.568669 -3.77786 -0.337096 
6.32506 0.825699 -1.4988 -3.73017 -0.385807 
-6.29606 -1.01797 2.83356 5.52162 -0.165654 
-10.2001 -1.22258 1.31372 7.49581 0.245842 


 i = 515
4.58492 0.392693 -0.568659 -3.78265 -0.335987 
6.32756 0.827061 -1.49898 -3.73122 -0.385227 
-6.29588 -1.01887 2.83396 5.52781 -0.164804 
-10.2013 -1.22273 1.31389 7.49869 0.246123 


 i = 516
4.58411 0.392549 -0.568652 -3.78741 -0.33487 
6.33006 0.828432 -1.49915 -3.7323 -0.384642 
-6.29567 -1.01977 2.83435 5.534 -0.163949 
-10.2024 -1.22288 1.31407 7.50156 0.246406 


 i = 517
4.58328 0.392399 -0.568649 -3.79213 -0.333747 
6.33256 0.829814 -1.49933 -3.73342 -0.384052 
-6.29544 -1.02066 2.83474 5.54017 -0.163088 
-10.2036 -1.22303 1.31424 7.50441 0.246691 


 i = 518
4.58244 0.392244 -0.568648 -3.79683 -0.332617 
6.33507 0.831207 -1.4995 -3.73458 -0.383457 
-6.29519 -1.02156 2.83513 5.54634 -0.162222 
-10.2047 -1.22318 1.31441 7.50724 0.246977 


 i = 519
4.58159 0.392083 -0.568649 -3.80149 -0.33148 
6.33758 0.832609 -1.49968 -3.73578 -0.382856 
-6.29492 -1.02245 2.83552 5.55249 -0.161352 
-10.2059 -1.22332 1.31458 7.51006 0.247265 


 i = 520
