-0.445022 -0.374555 -0.155922 -0.134379 -0.0696887 
-0.440784 -0.370472 -0.195639 -0.139698 -0.0783627 
-0.404698 -0.366442 -0.227808 -0.146545 -0.0836173 
-0.371842 -0.363363 -0.247865 -0.156752 -0.0862617 
-0.345147 -0.360996 -0.260338 -0.170338 -0.0877215 
-0.320509 -0.359031 -0.268578 -0.186026 -0.0886213 
-0.295237 -0.357263 -0.274376 -0.203147 -0.089241 
-0.267866 -0.355558 -0.278936 -0.221667 -0.0897252 
-0.237737 -0.353836 -0.282876 -0.241686 -0.0901457 
-0.204738 -0.352054 -0.286399 -0.263221 -0.0905352 
-0.169181 -0.350192 -0.289553 -0.286166 -0.0909066 
-0.131666 -0.348241 -0.292401 -0.310299 -0.091264 
-0.0929067 -0.346201 -0.295047 -0.335301 -0.0916077 
-0.0536 -0.344075 -0.297603 -0.360809 -0.0919371 
-0.0143372 -0.34187 -0.300153 -0.386499 -0.0922508 
0.024464 -0.339591 -0.302736 -0.412136 -0.0925474 
0.0625444 -0.337243 -0.305358 -0.437573 -0.0928256 
0.0997067 -0.334829 -0.307998 -0.46269 -0.0930849 
0.135754 -0.33235 -0.31062 -0.487359 -0.0933253 
0.170491 -0.329805 -0.313187 -0.511441 -0.0935474 
0.203731 -0.327194 -0.315668 -0.534792 -0.0937525 
0.235308 -0.324514 -0.318043 -0.557277 -0.093942 
0.265141 -0.321764 -0.320297 -0.578805 -0.094117 
0.293265 -0.318939 -0.322428 -0.599353 -0.0942787 
0.31983 -0.316035 -0.324436 -0.618968 -0.0944276 
0.345058 -0.313048 -0.326323 -0.637744 -0.0945645 
0.369219 -0.309976 -0.328095 -0.655808 -0.0946898 
0.392597 -0.306818 -0.329756 -0.673306 -0.0948041 
0.415445 -0.303577 -0.331313 -0.690379 -0.0949078 
0.437933 -0.300259 -0.33277 -0.707135 -0.0950014 
0.460122 -0.296878 -0.334136 -0.723627 -0.0950853 
0.481979 -0.293451 -0.335419 -0.739852 -0.0951604 
0.503421 -0.290001 -0.336626 -0.755776 -0.0952272 
0.524363 -0.286555 -0.337767 -0.771354 -0.0952867 
0.544752 -0.28314 -0.33885 -0.786555 -0.0953395 
0.564574 -0.279786 -0.339882 -0.801364 -0.0953865 
0.583846 -0.276518 -0.340871 -0.815787 -0.0954285 
0.602599 -0.273357 -0.341823 -0.829836 -0.0954661 
0.620865 -0.270319 -0.342745 -0.843527 -0.0955001 
0.638674 -0.267414 -0.343641 -0.856875 -0.095531 
0.656044 -0.264642 -0.344516 -0.869892 -0.0955594 
0.672985 -0.262003 -0.345372 -0.882587 -0.0955857 
0.6895 -0.259488 -0.346211 -0.894963 -0.0956103 
0.705583 -0.257087 -0.347035 -0.907023 -0.0956334 
0.721227 -0.254789 -0.347842 -0.918765 -0.0956552 
0.736426 -0.252584 -0.348633 -0.930188 -0.0956759 
0.751182 -0.250461 -0.349407 -0.941294 -0.0956956 
0.765511 -0.248414 -0.350163 -0.952093 -0.0957142 
0.779444 -0.246435 -0.3509 -0.962604 -0.0957319 
0.793018 -0.24452 -0.351619 -0.972855 -0.0957484 
0.806279 -0.242664 -0.352319 -0.982879 -0.0957638 
0.819274 -0.240863 -0.353001 -0.99271 -0.095778 
0.832052 -0.239113 -0.353664 -1.00238 -0.095791 
0.84466 -0.23741 -0.35431 -1.01193 -0.0958027 
0.857142 -0.235748 -0.35494 -1.02138 -0.0958131 
0.869541 -0.234125 -0.355552 -1.03076 -0.0958221 
0.881889 -0.232536 -0.356149 -1.04008 -0.0958298 
0.894212 -0.230977 -0.35673 -1.04937 -0.0958362 
0.906523 -0.229445 -0.357296 -1.05862 -0.0958412 
0.918829 -0.227938 -0.357848 -1.06783 -0.095845 
0.931124 -0.226452 -0.358385 -1.07701 -0.0958477 
0.943399 -0.224985 -0.358908 -1.08613 -0.0958492 
0.95564 -0.223537 -0.359418 -1.0952 -0.0958497 
0.967834 -0.222103 -0.359914 -1.10418 -0.0958492 
0.97998 -0.220682 -0.360397 -1.11309 -0.0958477 
0.992089 -0.21927 -0.360866 -1.12194 -0.0958453 
1.00419 -0.217863 -0.361324 -1.13074 -0.0958418 
1.01632 -0.216461 -0.361769 -1.13951 -0.0958372 
1.02852 -0.215062 -0.362203 -1.14831 -0.0958315 
1.04084 -0.213667 -0.362626 -1.15716 -0.0958247 
1.05328 -0.212278 -0.363037 -1.16609 -0.0958168 
1.06585 -0.210894 -0.363438 -1.17512 -0.095808 
1.07852 -0.20952 -0.363827 -1.18422 -0.0957985 
1.09125 -0.208167 -0.364204 -1.19333 -0.0957888 
1.10398 -0.206856 -0.36457 -1.20239 -0.0957794 
1.1167 -0.205612 -0.364925 -1.21138 -0.0957704 
1.12936 -0.204455 -0.365269 -1.22034 -0.0957619 
1.14184 -0.2034 -0.365607 -1.2291 -0.0957541 
1.15396 -0.202436 -0.36594 -1.23745 -0.0957475 
1.16578 -0.201518 -0.366267 -1.24551 -0.0957416 
1.17732 -0.200612 -0.366585 -1.25342 -0.0957356 
1.18855 -0.199706 -0.366894 -1.26118 -0.0957293 
1.19953 -0.198798 -0.367195 -1.26878 -0.0957225 
1.21031 -0.19789 -0.367488 -1.27623 -0.0957152 
1.22093 -0.196982 -0.367773 -1.28354 -0.0957075 
1.23139 -0.196077 -0.36805 -1.29072 -0.0956995 
1.24173 -0.195179 -0.368318 -1.29778 -0.095691 
1.25194 -0.194291 -0.368579 -1.30472 -0.0956822 
1.26205 -0.193415 -0.368831 -1.31154 -0.0956731 
1.27207 -0.192555 -0.369074 -1.31827 -0.0956636 
1.28202 -0.191712 -0.36931 -1.32492 -0.0956537 
1.29192 -0.190885 -0.369538 -1.33151 -0.0956434 
1.30179 -0.190074 -0.369759 -1.33805 -0.0956326 
1.31161 -0.189277 -0.369974 -1.34455 -0.0956214 
1.32137 -0.188491 -0.370183 -1.35103 -0.0956097 
1.33105 -0.187715 -0.370386 -1.35745 -0.0955977 
1.34062 -0.186946 -0.370586 -1.36382 -0.0955852 
1.35004 -0.186179 -0.370783 -1.37012 -0.0955724 
1.35928 -0.185412 -0.370979 -1.37638 -0.0955593 
1.36835 -0.18464 -0.371175 -1.3826 -0.0955458 
1.37724 -0.18386 -0.371374 -1.38882 -0.0955319 
1.38597 -0.183072 -0.371578 -1.39505 -0.0955178 
1.39453 -0.182274 -0.371788 -1.40128 -0.0955035 
1.40289 -0.181464 -0.372005 -1.40751 -0.0954892 
1.41104 -0.18063 -0.372227 -1.41377 -0.0954749 
1.41904 -0.17977 -0.372455 -1.41989 -0.0954612 
1.42754 -0.179024 -0.372693 -1.42452 -0.0954508 
1.43564 -0.17827 -0.37293 -1.42897 -0.0954401 
1.44342 -0.177546 -0.373168 -1.43374 -0.09543 
1.45079 -0.176865 -0.373406 -1.43873 -0.0954208 
1.45773 -0.176177 -0.373639 -1.44394 -0.0954112 
1.46412 -0.175456 -0.373864 -1.4492 -0.0954007 
1.4705 -0.174685 -0.374084 -1.45448 -0.0953894 
1.47699 -0.173878 -0.3743 -1.4596 -0.0953776 
1.48351 -0.17305 -0.374513 -1.46456 -0.0953656 
1.49006 -0.17221 -0.374724 -1.46941 -0.0953534 
1.49661 -0.171371 -0.37493 -1.47417 -0.095341 
1.50313 -0.170549 -0.375132 -1.47884 -0.0953287 
1.50957 -0.169764 -0.375332 -1.48338 -0.0953164 
1.51598 -0.169031 -0.37553 -1.48771 -0.0953045 
1.52242 -0.168359 -0.375728 -1.49179 -0.0952932 
1.52885 -0.167748 -0.375924 -1.49569 -0.0952824 
1.53519 -0.167181 -0.376119 -1.49954 -0.0952719 
1.54139 -0.166637 -0.37631 -1.5034 -0.0952615 
1.5475 -0.166101 -0.376499 -1.50729 -0.0952509 
1.55355 -0.165565 -0.376686 -1.5112 -0.0952401 
1.55957 -0.165026 -0.376871 -1.51513 -0.095229 
1.56556 -0.164481 -0.377054 -1.51906 -0.0952176 
1.57155 -0.163932 -0.377234 -1.52299 -0.095206 
1.57753 -0.163378 -0.377413 -1.52693 -0.0951941 
1.58352 -0.162822 -0.37759 -1.53086 -0.095182 
1.58952 -0.162265 -0.377764 -1.53479 -0.0951696 
1.59553 -0.161707 -0.377935 -1.53873 -0.095157 
1.60154 -0.16115 -0.378104 -1.54266 -0.0951442 
1.60758 -0.160595 -0.378269 -1.54658 -0.0951312 
1.61362 -0.16004 -0.37843 -1.5505 -0.095118 
1.61969 -0.159486 -0.378588 -1.55442 -0.0951045 
1.62577 -0.158932 -0.378741 -1.55833 -0.0950907 
1.63187 -0.158377 -0.37889 -1.56225 -0.0950766 
1.63801 -0.157822 -0.379035 -1.56616 -0.0950621 
1.64419 -0.157265 -0.379175 -1.57007 -0.0950472 
1.65042 -0.156709 -0.379311 -1.57397 -0.095032 
1.65671 -0.156155 -0.379442 -1.57787 -0.0950164 
1.66306 -0.155603 -0.379568 -1.58176 -0.0950003 
1.6695 -0.155058 -0.379689 -1.58564 -0.0949839 
1.67605 -0.154521 -0.379805 -1.58949 -0.0949671 
1.68271 -0.153998 -0.379915 -1.59333 -0.0949499 
1.68953 -0.153493 -0.380018 -1.59714 -0.0949324 
1.69652 -0.153014 -0.380115 -1.60093 -0.0949145 
1.7037 -0.152565 -0.380204 -1.6047 -0.0948963 
1.71106 -0.15215 -0.380285 -1.60846 -0.0948778 
1.71859 -0.151766 -0.380357 -1.61223 -0.0948587 
1.72622 -0.151407 -0.380421 -1.61604 -0.0948391 
1.73393 -0.151062 -0.380477 -1.6199 -0.0948188 
1.74169 -0.150721 -0.380526 -1.62381 -0.0947977 
1.74947 -0.150377 -0.38057 -1.62777 -0.0947757 
1.75725 -0.150022 -0.380611 -1.63177 -0.0947528 
1.76502 -0.149651 -0.380651 -1.63583 -0.094729 
1.77278 -0.149262 -0.38069 -1.63993 -0.0947043 
1.78051 -0.148851 -0.380731 -1.64408 -0.0946787 
1.78821 -0.148417 -0.380775 -1.64826 -0.0946522 
1.79588 -0.147959 -0.380824 -1.65249 -0.0946251 
1.80351 -0.147476 -0.380878 -1.65674 -0.0945972 
1.81111 -0.14697 -0.380938 -1.66102 -0.0945687 
1.81868 -0.146441 -0.381004 -1.66533 -0.0945396 
1.82621 -0.14589 -0.381078 -1.66965 -0.09451 
1.83371 -0.145318 -0.38116 -1.67399 -0.0944801 
1.84118 -0.144727 -0.381248 -1.67834 -0.0944497 
1.84863 -0.144117 -0.381344 -1.6827 -0.0944191 
1.85604 -0.143491 -0.381448 -1.68707 -0.0943882 
1.86344 -0.142849 -0.381558 -1.69143 -0.0943571 
1.8708 -0.142193 -0.381675 -1.69579 -0.0943259 
1.87815 -0.141524 -0.381799 -1.70015 -0.0942945 
1.88548 -0.140844 -0.381928 -1.7045 -0.0942631 
1.89279 -0.140152 -0.382064 -1.70885 -0.0942316 
1.90008 -0.139452 -0.382204 -1.71319 -0.0942 
1.90735 -0.138742 -0.382349 -1.71751 -0.0941684 
1.9146 -0.138025 -0.382499 -1.72183 -0.0941368 
1.92185 -0.137301 -0.382652 -1.72613 -0.0941052 
1.92907 -0.136571 -0.38281 -1.73042 -0.0940737 
1.93629 -0.135835 -0.38297 -1.7347 -0.0940421 
1.94349 -0.135095 -0.383133 -1.73896 -0.0940106 
1.95069 -0.13435 -0.3833 -1.74321 -0.0939792 
1.95787 -0.133601 -0.383468 -1.74744 -0.0939478 
1.96504 -0.132849 -0.383638 -1.75165 -0.0939164 
1.97221 -0.132094 -0.38381 -1.75586 -0.0938851 
1.97936 -0.131336 -0.383984 -1.76004 -0.0938539 
1.98651 -0.130576 -0.384158 -1.76421 -0.0938227 
1.99366 -0.129814 -0.384334 -1.76837 -0.0937916 
2.00079 -0.129051 -0.38451 -1.77251 -0.0937605 
2.00793 -0.128286 -0.384687 -1.77663 -0.0937295 
2.01505 -0.12752 -0.384864 -1.78074 -0.0936985 
2.02218 -0.126752 -0.385042 -1.78484 -0.0936676 
2.0293 -0.125984 -0.385219 -1.78892 -0.0936368 
2.03642 -0.125216 -0.385396 -1.79298 -0.093606 
2.04353 -0.124446 -0.385573 -1.79703 -0.0935752 
2.05065 -0.123677 -0.38575 -1.80107 -0.0935445 
2.05776 -0.122906 -0.385926 -1.80509 -0.0935138 
2.06487 -0.122136 -0.386101 -1.8091 -0.0934832 
2.07198 -0.121365 -0.386276 -1.81309 -0.0934526 
2.07909 -0.120594 -0.386449 -1.81707 -0.093422 
2.08619 -0.119823 -0.386622 -1.82104 -0.0933915 
2.0933 -0.119052 -0.386794 -1.825 -0.093361 
2.10041 -0.118281 -0.386964 -1.82894 -0.0933305 
2.10752 -0.11751 -0.387134 -1.83287 -0.0933 
2.11462 -0.116739 -0.387302 -1.83679 -0.0932696 
2.12173 -0.115968 -0.387469 -1.84069 -0.0932391 
2.12884 -0.115196 -0.387635 -1.84459 -0.0932087 
2.13595 -0.114425 -0.3878 -1.84847 -0.0931782 
2.14306 -0.113654 -0.387963 -1.85234 -0.0931478 
2.15016 -0.112882 -0.388124 -1.8562 -0.0931173 
2.15727 -0.112111 -0.388284 -1.86005 -0.0930869 
2.16438 -0.11134 -0.388443 -1.86388 -0.0930565 
2.17149 -0.110568 -0.3886 -1.86771 -0.093026 
2.1786 -0.109797 -0.388756 -1.87152 -0.0929955 
2.18571 -0.109025 -0.38891 -1.87533 -0.092965 
2.19282 -0.108254 -0.389063 -1.87913 -0.0929345 
2.19993 -0.107482 -0.389215 -1.88291 -0.092904 
2.20704 -0.106711 -0.389365 -1.88669 -0.0928735 
2.21415 -0.105939 -0.389513 -1.89045 -0.0928429 
2.22126 -0.105168 -0.38966 -1.89421 -0.0928123 
2.22837 -0.104396 -0.389805 -1.89795 -0.0927817 
2.23547 -0.103624 -0.389949 -1.90169 -0.0927511 
2.24258 -0.102852 -0.390092 -1.90542 -0.0927204 
2.24969 -0.10208 -0.390233 -1.90914 -0.0926898 
2.25679 -0.101308 -0.390373 -1.91285 -0.092659 
2.26389 -0.100536 -0.390511 -1.91655 -0.0926283 
2.271 -0.0997637 -0.390648 -1.92024 -0.0925975 
2.2781 -0.0989915 -0.390784 -1.92393 -0.0925667 
2.2852 -0.0982192 -0.390918 -1.9276 -0.0925359 
2.2923 -0.0974469 -0.391051 -1.93127 -0.092505 
2.29939 -0.0966746 -0.391183 -1.93493 -0.0924741 
2.30648 -0.0959022 -0.391313 -1.93859 -0.0924432 
2.31358 -0.0951297 -0.391443 -1.94223 -0.0924123 
2.32066 -0.0943573 -0.391571 -1.94587 -0.0923813 
2.32775 -0.0935848 -0.391698 -1.9495 -0.0923503 
2.33483 -0.0928123 -0.391823 -1.95312 -0.0923192 
2.34191 -0.0920398 -0.391948 -1.95674 -0.0922882 
2.34899 -0.0912674 -0.392071 -1.96035 -0.0922571 
2.35607 -0.0904949 -0.392194 -1.96395 -0.092226 
2.36314 -0.0897225 -0.392315 -1.96754 -0.0921948 
2.3702 -0.0889501 -0.392435 -1.97113 -0.0921636 
2.37727 -0.0881778 -0.392554 -1.97471 -0.0921325 
2.38433 -0.0874056 -0.392672 -1.97829 -0.0921012 
2.39138 -0.0866334 -0.39279 -1.98186 -0.09207 
2.39843 -0.0858613 -0.392906 -1.98543 -0.0920387 
2.40548 -0.0850892 -0.393021 -1.98899 -0.0920075 
2.41252 -0.0843173 -0.393136 -1.99254 -0.0919762 
2.41955 -0.0835455 -0.393249 -1.99609 -0.0919448 
2.42659 -0.0827739 -0.393362 -1.99964 -0.0919135 
2.43361 -0.0820023 -0.393474 -2.00318 -0.0918821 
2.44063 -0.0812309 -0.393585 -2.00672 -0.0918508 
2.44765 -0.0804597 -0.393695 -2.01025 -0.0918194 
2.45466 -0.0796886 -0.393804 -2.01378 -0.091788 
2.46167 -0.0789177 -0.393913 -2.0173 -0.0917566 
2.46866 -0.0781469 -0.394021 -2.02083 -0.0917252 
2.47566 -0.0773764 -0.394128 -2.02435 -0.0916937 
2.48264 -0.076606 -0.394234 -2.02787 -0.0916623 
2.48962 -0.0758358 -0.394339 -2.03139 -0.0916309 
2.4966 -0.0750657 -0.394444 -2.0349 -0.0915994 
2.50357 -0.0742959 -0.394548 -2.03842 -0.0915679 
2.51053 -0.0735262 -0.394652 -2.04194 -0.0915365 
2.51748 -0.0727568 -0.394755 -2.04545 -0.091505 
2.52443 -0.0719875 -0.394857 -2.04897 -0.0914735 
2.53137 -0.0712183 -0.394958 -2.05249 -0.091442 
2.5383 -0.0704493 -0.395059 -2.05602 -0.0914105 
2.54523 -0.0696805 -0.395159 -2.05954 -0.0913791 
2.55214 -0.0689118 -0.395259 -2.06307 -0.0913476 
2.55906 -0.0681432 -0.395358 -2.06661 -0.0913161 
2.56596 -0.0673747 -0.395456 -2.07015 -0.0912846 
2.57285 -0.0666063 -0.395553 -2.07369 -0.0912531 
2.57974 -0.0658379 -0.39565 -2.07725 -0.0912216 
2.58662 -0.0650695 -0.395746 -2.08081 -0.0911901 
2.59349 -0.0643011 -0.395842 -2.08438 -0.0911586 
2.60035 -0.0635327 -0.395937 -2.08796 -0.0911271 
2.6072 -0.0627642 -0.396032 -2.09156 -0.0910956 
2.61405 -0.0619956 -0.396125 -2.09517 -0.0910641 
2.62088 -0.0612268 -0.396218 -2.09879 -0.0910326 
2.6277 -0.0604578 -0.396311 -2.10243 -0.0910012 
2.63452 -0.0596886 -0.396403 -2.10608 -0.0909697 
2.64132 -0.0589192 -0.396494 -2.10975 -0.0909383 
2.64811 -0.0581494 -0.396585 -2.11345 -0.0909069 
2.65488 -0.0573793 -0.396675 -2.11716 -0.0908755 
2.66165 -0.0566087 -0.396764 -2.1209 -0.0908441 
2.6684 -0.0558378 -0.396853 -2.12466 -0.0908127 
2.67514 -0.0550664 -0.396941 -2.12845 -0.0907814 
2.68186 -0.0542945 -0.397029 -2.13226 -0.0907501 
2.68857 -0.0535222 -0.397116 -2.13611 -0.0907189 
2.69526 -0.0527493 -0.397203 -2.13998 -0.0906877 
2.70195 -0.051976 -0.397289 -2.14389 -0.0906566 
2.70862 -0.0512021 -0.397374 -2.14783 -0.0906255 
2.71529 -0.0504277 -0.397459 -2.15181 -0.0905945 
2.72195 -0.0496529 -0.397543 -2.15581 -0.0905635 
2.72862 -0.0488776 -0.397627 -2.15985 -0.0905325 
2.73529 -0.048102 -0.39771 -2.16393 -0.0905016 
2.74198 -0.0473262 -0.397793 -2.16803 -0.0904706 
2.74868 -0.0465503 -0.397874 -2.17216 -0.0904397 
2.75541 -0.0457746 -0.397956 -2.17631 -0.0904087 
2.76215 -0.0449991 -0.398036 -2.18049 -0.0903777 
2.7689 -0.0442241 -0.398116 -2.18469 -0.0903467 
2.77568 -0.0434496 -0.398195 -2.18892 -0.0903156 
2.78247 -0.0426757 -0.398273 -2.19316 -0.0902844 
2.78927 -0.0419024 -0.39835 -2.19742 -0.0902532 
2.79608 -0.0411297 -0.398426 -2.20171 -0.0902218 
2.8029 -0.0403576 -0.398502 -2.20601 -0.0901904 
2.80973 -0.039586 -0.398577 -2.21033 -0.0901589 
2.81656 -0.0388148 -0.398651 -2.21466 -0.0901273 
2.8234 -0.0380439 -0.398724 -2.21902 -0.0900956 
2.83024 -0.0372733 -0.398796 -2.22339 -0.0900637 
2.83709 -0.0365029 -0.398867 -2.22777 -0.0900318 
2.84394 -0.0357326 -0.398937 -2.23218 -0.0899998 
2.85078 -0.0349624 -0.399007 -2.2366 -0.0899676 
2.85763 -0.0341921 -0.399076 -2.24103 -0.0899353 
2.86448 -0.0334219 -0.399143 -2.24549 -0.0899029 
2.87132 -0.0326515 -0.39921 -2.24995 -0.0898704 
2.87816 -0.0318809 -0.399276 -2.25444 -0.0898378 
2.885 -0.0311101 -0.399342 -2.25894 -0.089805 
2.89184 -0.030339 -0.399406 -2.26345 -0.0897722 
2.89867 -0.0295677 -0.39947 -2.26799 -0.0897392 
2.9055 -0.028796 -0.399533 -2.27253 -0.0897061 
2.91232 -0.0280239 -0.399596 -2.2771 -0.0896729 
2.91914 -0.0272513 -0.399657 -2.28168 -0.0896395 
2.92595 -0.0264784 -0.399718 -2.28627 -0.0896061 
2.93275 -0.0257049 -0.399778 -2.29088 -0.0895725 
2.93954 -0.0249309 -0.399838 -2.29551 -0.0895388 
2.94633 -0.0241563 -0.399897 -2.30016 -0.0895051 
2.95311 -0.0233811 -0.399956 -2.30482 -0.0894712 
2.95988 -0.0226053 -0.400014 -2.30949 -0.0894372 
2.96664 -0.0218288 -0.400071 -2.31418 -0.0894031 
2.97339 -0.0210516 -0.400128 -2.31889 -0.0893689 
2.98013 -0.0202737 -0.400185 -2.32361 -0.0893346 
2.98685 -0.019495 -0.400241 -2.32835 -0.0893002 
2.99357 -0.0187156 -0.400297 -2.3331 -0.0892658 
3.00027 -0.0179353 -0.400352 -2.33787 -0.0892313 
3.00696 -0.0171542 -0.400407 -2.34266 -0.0891967 
3.01364 -0.0163723 -0.400462 -2.34746 -0.089162 
3.02029 -0.0155894 -0.400517 -2.35227 -0.0891273 
3.02694 -0.0148056 -0.400571 -2.3571 -0.0890926 
3.03357 -0.0140209 -0.400625 -2.36194 -0.0890578 
3.04017 -0.0132352 -0.400679 -2.3668 -0.089023 
3.04677 -0.0124486 -0.400733 -2.37167 -0.0889882 
3.05334 -0.0116609 -0.400787 -2.37655 -0.0889533 
3.05989 -0.0108723 -0.400841 -2.38145 -0.0889185 
3.06642 -0.0100827 -0.400895 -2.38636 -0.0888837 
3.07293 -0.0092921 -0.400949 -2.39128 -0.088849 
3.07941 -0.00850055 -0.401003 -2.39622 -0.0888143 
3.08587 -0.00770807 -0.401058 -2.40116 -0.0887796 
3.09231 -0.00691472 -0.401112 -2.40612 -0.0887451 
3.09872 -0.00612054 -0.401167 -2.41108 -0.0887107 
3.1051 -0.00532563 -0.401222 -2.41606 -0.0886763 
3.11145 -0.00453008 -0.401278 -2.42104 -0.0886421 
3.11778 -0.00373403 -0.401333 -2.42603 -0.0886081 
3.12408 -0.00293762 -0.40139 -2.43102 -0.0885743 
3.13034 -0.00214103 -0.401446 -2.43602 -0.0885407 
3.13658 -0.00134447 -0.401504 -2.44103 -0.0885073 
3.14278 -0.00054816 -0.401562 -2.44603 -0.0884741 
3.14896 0.00024763 -0.40162 -2.45104 -0.0884412 
3.15511 0.00104262 -0.401679 -2.45604 -0.0884086 
3.16122 0.00183651 -0.401739 -2.46104 -0.0883763 
3.16731 0.00262897 -0.4018 -2.46604 -0.0883444 
3.17337 0.00341968 -0.401862 -2.47104 -0.0883128 
3.17941 0.00420831 -0.401924 -2.47602 -0.0882815 
3.18542 0.00499451 -0.401988 -2.481 -0.0882506 
3.19142 0.00577795 -0.402052 -2.48597 -0.08822 
3.19739 0.00655831 -0.402117 -2.49093 -0.0881899 
3.20334 0.00733527 -0.402183 -2.49588 -0.0881601 
3.20928 0.00810852 -0.402251 -2.50082 -0.0881307 
3.2152 0.00887778 -0.402319 -2.50575 -0.0881017 
3.22112 0.00964279 -0.402388 -2.51066 -0.0880731 
3.22702 0.0104034 -0.402458 -2.51557 -0.0880448 
3.23291 0.0111593 -0.40253 -2.52046 -0.0880169 
3.2388 0.0119105 -0.402602 -2.52534 -0.0879894 
3.24467 0.0126569 -0.402675 -2.5302 -0.0879623 
3.25054 0.0133984 -0.402749 -2.53506 -0.0879355 
3.25639 0.0141351 -0.402824 -2.5399 -0.087909 
3.26224 0.0148667 -0.4029 -2.54473 -0.0878829 
3.26807 0.0155934 -0.402977 -2.54955 -0.0878572 
3.27389 0.016315 -0.403055 -2.55436 -0.0878318 
3.27969 0.0170313 -0.403133 -2.55915 -0.0878068 
3.28547 0.0177423 -0.403213 -2.56393 -0.0877821 
3.29122 0.0184475 -0.403293 -2.5687 -0.0877578 
3.29695 0.0191465 -0.403373 -2.57344 -0.087734 
3.30265 0.0198388 -0.403455 -2.57815 -0.0877105 
3.30831 0.0205236 -0.403536 -2.58284 -0.0876875 
3.31393 0.0212003 -0.403619 -2.58749 -0.0876651 
3.3195 0.0218681 -0.403702 -2.5921 -0.0876432 
3.32501 0.0225274 -0.403785 -2.59665 -0.0876219 
3.33049 0.023179 -0.403868 -2.60115 -0.0876013 
3.33591 0.0238233 -0.403952 -2.60554 -0.0875813 
3.34124 0.0244571 -0.404035 -2.60976 -0.0875618 
3.3467 0.0251186 -0.404118 -2.61428 -0.0875417 
3.35106 0.0256093 -0.404199 -2.61686 -0.0875247 
3.35799 0.0265106 -0.404279 -2.62303 -0.0874983 
3.36163 0.0268344 -0.404358 -2.62365 -0.0874828 
3.37034 0.0279445 -0.404435 -2.63165 -0.0874487 
3.37628 0.0283349 -0.404508 -2.63139 -0.0874279 
3.38358 0.0291892 -0.404582 -2.63961 -0.087396 
3.38697 0.0295947 -0.404652 -2.64113 -0.0873751 
3.39532 0.0306603 -0.404722 -2.64946 -0.0873397 
3.4029 0.0311673 -0.404785 -2.649 -0.0873136 
3.40974 0.0319401 -0.404849 -2.65714 -0.0872815 
3.41366 0.0326813 -0.404914 -2.66275 -0.0872534 
3.42135 0.0332265 -0.40497 -2.66215 -0.0872263 
3.42843 0.0340543 -0.405029 -2.67061 -0.0871931 
3.43259 0.0348493 -0.40509 -2.67679 -0.0871634 
3.44125 0.0355647 -0.405142 -2.677 -0.0871316 
3.44582 0.0363595 -0.4052 -2.68469 -0.0870982 
3.45276 0.0368684 -0.40525 -2.68417 -0.0870692 
3.46013 0.0377151 -0.405301 -2.69276 -0.0870347 
3.46292 0.0383591 -0.405358 -2.69817 -0.0870031 
3.46958 0.0392346 -0.405414 -2.70435 -0.0869764 
3.47857 0.0396314 -0.405463 -2.70188 -0.0869524 
3.48527 0.0402475 -0.405509 -2.70832 -0.0869185 
3.48934 0.0410643 -0.405559 -2.71575 -0.0868839 
3.498 0.0418613 -0.405598 -2.71675 -0.086849 
3.5032 0.0427531 -0.405645 -2.7251 -0.0868124 
3.50818 0.0435985 -0.405695 -2.73134 -0.0867752 
3.51717 0.0440239 -0.405737 -2.72912 -0.0867499 
3.52403 0.0446881 -0.405777 -2.73574 -0.0867144 
3.52704 0.0453554 -0.405823 -2.7421 -0.0866803 
3.53288 0.0459522 -0.405862 -2.74326 -0.0866537 
3.54013 0.046838 -0.405904 -2.75113 -0.0866172 
3.54906 0.0476342 -0.405936 -2.75256 -0.0865818 
3.55625 0.0486629 -0.405973 -2.76162 -0.0865413 
3.56214 0.0496588 -0.406014 -2.76895 -0.0864941 
3.56585 0.0502618 -0.406061 -2.77307 -0.0864574 
3.5763 0.0510077 -0.406096 -2.77332 -0.0864255 
3.58341 0.0520582 -0.406137 -2.78332 -0.0863835 
3.58813 0.0523058 -0.406177 -2.78154 -0.0863591 
3.5953 0.0532893 -0.406213 -2.79001 -0.086319 
3.60347 0.0544232 -0.406253 -2.79869 -0.0862674 
3.6237 0.0576353 -0.406286 -2.80711 -0.086156 
3.62864 0.0565122 -0.406315 -2.8012 -0.0861282 
3.64919 0.0559342 -0.406327 -2.80459 -0.0860597 
3.67333 0.0546695 -0.406322 -2.80737 -0.086004 
3.69392 0.0544105 -0.406287 -2.81233 -0.085923 
3.70714 0.0533015 -0.406215 -2.81643 -0.0858658 
3.72051 0.0526926 -0.406095 -2.82147 -0.0858016 
3.73142 0.0525882 -0.405929 -2.82645 -0.085722 
3.73956 0.0529272 -0.405728 -2.83101 -0.0856274 
3.74603 0.0535963 -0.405502 -2.83531 -0.0855203 
3.75158 0.0544802 -0.405261 -2.83959 -0.0854044 
3.75659 0.0554989 -0.405012 -2.84394 -0.0852821 
3.76128 0.0566011 -0.40476 -2.84838 -0.0851553 
3.76577 0.0577536 -0.404506 -2.8529 -0.0850249 
3.77013 0.0589337 -0.404255 -2.85748 -0.0848917 
3.77439 0.0601263 -0.404007 -2.86211 -0.0847563 
3.77859 0.0613212 -0.403764 -2.86677 -0.0846188 
3.78274 0.0625118 -0.403526 -2.87146 -0.0844797 
3.78686 0.0636941 -0.403296 -2.87618 -0.0843389 
3.79096 0.0648659 -0.403072 -2.88091 -0.0841967 
3.79504 0.0660266 -0.402856 -2.88567 -0.0840531 
3.7991 0.0671765 -0.402649 -2.89044 -0.0839083 
3.80315 0.0683165 -0.402449 -2.89523 -0.0837621 
3.80719 0.0694477 -0.402258 -2.90004 -0.0836147 
3.81121 0.0705717 -0.402075 -2.90485 -0.083466 
3.81523 0.07169 -0.4019 -2.90969 -0.0833162 
3.81925 0.0728038 -0.401734 -2.91453 -0.0831651 
3.82325 0.0739147 -0.401576 -2.91939 -0.0830128 
3.82725 0.0750238 -0.401426 -2.92426 -0.0828592 
3.83124 0.076132 -0.401283 -2.92914 -0.0827044 
3.83522 0.0772405 -0.401149 -2.93403 -0.0825483 
3.8392 0.0783498 -0.401021 -2.93893 -0.0823909 
3.84317 0.0794607 -0.400901 -2.94385 -0.0822322 
3.84713 0.0805737 -0.400787 -2.94877 -0.0820722 
3.85108 0.0816893 -0.400681 -2.95371 -0.0819108 
3.85503 0.0828076 -0.40058 -2.95865 -0.081748 
3.85897 0.0839291 -0.400486 -2.96361 -0.0815839 
3.86291 0.0850539 -0.400398 -2.96857 -0.0814183 
3.86683 0.0861822 -0.400315 -2.97353 -0.0812513 
3.87075 0.087314 -0.400238 -2.97851 -0.0810828 
3.87466 0.0884494 -0.400167 -2.98349 -0.0809128 
3.87856 0.0895883 -0.4001 -2.98848 -0.0807412 
3.88245 0.0907308 -0.400038 -2.99347 -0.0805682 
3.88634 0.0918768 -0.399981 -2.99847 -0.0803935 
3.89021 0.0930262 -0.399928 -3.00347 -0.0802173 
3.89407 0.0941789 -0.399879 -3.00847 -0.0800394 
3.89792 0.0953348 -0.399835 -3.01347 -0.07986 
3.90176 0.0964939 -0.399794 -3.01848 -0.0796788 
3.90559 0.0976558 -0.399757 -3.02349 -0.079496 
3.90941 0.0988206 -0.399724 -3.02849 -0.0793115 
3.91322 0.0999881 -0.399694 -3.0335 -0.0791253 
3.91701 0.101158 -0.399667 -3.0385 -0.0789374 
3.9208 0.102331 -0.399643 -3.04351 -0.0787477 
3.92456 0.103505 -0.399623 -3.04851 -0.0785562 
3.92832 0.104682 -0.399605 -3.0535 -0.078363 
3.93206 0.105861 -0.39959 -3.0585 -0.078168 
3.93579 0.107041 -0.399577 -3.06349 -0.0779712 
3.9395 0.108223 -0.399567 -3.06847 -0.0777725 
3.9432 0.109407 -0.399559 -3.07345 -0.077572 
3.94689 0.110593 -0.399554 -3.07843 -0.0773697 
3.95056 0.111779 -0.39955 -3.0834 -0.0771654 
3.95421 0.112967 -0.399548 -3.08836 -0.0769593 
3.95785 0.114156 -0.399549 -3.09332 -0.0767512 
3.96147 0.115347 -0.399551 -3.09827 -0.0765413 
3.96507 0.116538 -0.399555 -3.10321 -0.0763293 
3.96866 0.11773 -0.39956 -3.10814 -0.0761155 
3.97223 0.118923 -0.399568 -3.11307 -0.0758996 
3.97578 0.120116 -0.399576 -3.11799 -0.0756817 
3.97932 0.121311 -0.399586 -3.12291 -0.0754619 
3.98284 0.122506 -0.399597 -3.12781 -0.0752399 
3.98634 0.123701 -0.39961 -3.13271 -0.075016 
3.98982 0.124898 -0.399623 -3.1376 -0.0747899 
3.99328 0.126094 -0.399638 -3.14248 -0.0745618 
3.99673 0.127292 -0.399654 -3.14735 -0.0743315 
4.00015 0.128489 -0.399671 -3.15222 -0.0740991 
4.00356 0.129687 -0.399688 -3.15707 -0.0738645 
4.00695 0.130886 -0.399707 -3.16192 -0.0736278 
4.01032 0.132084 -0.399726 -3.16676 -0.0733888 
4.01368 0.133284 -0.399746 -3.17159 -0.0731476 
4.01701 0.134483 -0.399767 -3.17642 -0.0729042 
4.02032 0.135683 -0.399789 -3.18123 -0.0726585 
4.02362 0.136883 -0.399811 -3.18604 -0.0724105 
4.02689 0.138083 -0.399834 -3.19084 -0.0721602 
4.03015 0.139284 -0.399858 -3.19564 -0.0719076 
4.03338 0.140485 -0.399882 -3.20042 -0.0716526 
4.0366 0.141686 -0.399906 -3.2052 -0.0713952 
4.0398 0.142888 -0.399931 -3.20997 -0.0711354 
4.04298 0.14409 -0.399957 -3.21473 -0.0708732 
4.04614 0.145292 -0.399983 -3.21949 -0.0706085 
4.04928 0.146494 -0.400009 -3.22423 -0.0703413 
4.05241 0.147697 -0.400036 -3.22897 -0.0700717 
4.05551 0.1489 -0.400063 -3.23371 -0.0697995 
4.0586 0.150103 -0.400091 -3.23843 -0.0695248 
4.06166 0.151306 -0.400119 -3.24315 -0.0692476 
4.06471 0.15251 -0.400147 -3.24787 -0.0689677 
4.06774 0.153714 -0.400176 -3.25257 -0.0686853 
4.07075 0.154919 -0.400205 -3.25727 -0.0684003 
4.07375 0.156124 -0.400234 -3.26197 -0.0681126 
4.07672 0.157329 -0.400263 -3.26665 -0.0678223 
4.07968 0.158535 -0.400293 -3.27134 -0.0675293 
4.08262 0.159741 -0.400323 -3.27601 -0.0672336 
4.08554 0.160947 -0.400353 -3.28068 -0.0669352 
4.08845 0.162154 -0.400383 -3.28534 -0.0666342 
4.09134 0.163361 -0.400414 -3.29 -0.0663304 
4.09421 0.164569 -0.400445 -3.29465 -0.0660238 
4.09707 0.165777 -0.400476 -3.2993 -0.0657146 
4.0999 0.166985 -0.400507 -3.30394 -0.0654026 
4.10273 0.168194 -0.400539 -3.30858 -0.0650878 
4.10553 0.169404 -0.400571 -3.31321 -0.0647703 
4.10832 0.170614 -0.400603 -3.31783 -0.06445 
4.11109 0.171824 -0.400635 -3.32245 -0.064127 
4.11385 0.173035 -0.400667 -3.32707 -0.0638012 
4.1166 0.174247 -0.400699 -3.33168 -0.0634727 
4.11932 0.175459 -0.400732 -3.33629 -0.0631414 
4.12203 0.176672 -0.400765 -3.34089 -0.0628074 
4.12473 0.177885 -0.400798 -3.34548 -0.0624707 
4.12741 0.179099 -0.400831 -3.35008 -0.0621312 
4.13008 0.180314 -0.400865 -3.35467 -0.0617891 
4.13274 0.181529 -0.400898 -3.35925 -0.0614443 
4.13538 0.182745 -0.400932 -3.36383 -0.0610968 
4.138 0.183961 -0.400966 -3.36841 -0.0607468 
4.14061 0.185178 -0.401 -3.37298 -0.0603941 
4.14321 0.186396 -0.401034 -3.37755 -0.0600388 
4.1458 0.187615 -0.401069 -3.38211 -0.0596811 
4.14837 0.188834 -0.401103 -3.38667 -0.0593208 
4.15093 0.190054 -0.401138 -3.39123 -0.0589581 
4.15348 0.191275 -0.401173 -3.39579 -0.0585929 
4.15601 0.192496 -0.401208 -3.40034 -0.0582254 
4.15853 0.193718 -0.401244 -3.40488 -0.0578556 
4.16104 0.194942 -0.401279 -3.40943 -0.0574835 
4.16354 0.196166 -0.401315 -3.41397 -0.0571092 
4.16602 0.19739 -0.401351 -3.41851 -0.0567328 
4.16849 0.198616 -0.401386 -3.42304 -0.0563542 
4.17095 0.199842 -0.401423 -3.42758 -0.0559737 
4.17341 0.20107 -0.401459 -3.43211 -0.0555912 
4.17584 0.202298 -0.401495 -3.43663 -0.0552068 
4.17827 0.203527 -0.401532 -3.44116 -0.0548206 
4.18069 0.204757 -0.401569 -3.44568 -0.0544326 
4.1831 0.205988 -0.401606 -3.4502 -0.054043 
4.18549 0.207219 -0.401643 -3.45472 -0.0536518 
4.18788 0.208452 -0.40168 -3.45923 -0.0532592 
4.19025 0.209686 -0.401717 -3.46375 -0.0528651 
4.19262 0.210921 -0.401755 -3.46826 -0.0524696 
4.19497 0.212156 -0.401792 -3.47277 -0.0520729 
4.19732 0.213393 -0.40183 -3.47728 -0.0516751 
4.19965 0.214631 -0.401868 -3.48178 -0.0512762 
4.20198 0.215869 -0.401906 -3.48629 -0.0508763 
4.2043 0.217109 -0.401944 -3.49079 -0.0504755 
4.20661 0.21835 -0.401982 -3.4953 -0.0500739 
4.2089 0.219592 -0.402021 -3.4998 -0.0496716 
4.21119 0.220835 -0.402059 -3.5043 -0.0492686 
4.21348 0.222079 -0.402098 -3.50879 -0.0488651 
4.21575 0.223324 -0.402137 -3.51329 -0.0484612 
4.21801 0.22457 -0.402175 -3.51779 -0.0480568 
4.22027 0.225817 -0.402214 -3.52229 -0.0476522 
4.22252 0.227066 -0.402253 -3.52678 -0.0472473 
4.22476 0.228315 -0.402292 -3.53128 -0.0468423 
4.22699 0.229566 -0.402332 -3.53577 -0.0464372 
4.22921 0.230818 -0.402371 -3.54026 -0.0460321 
4.23143 0.232071 -0.40241 -3.54476 -0.0456271 
4.23364 0.233325 -0.40245 -3.54925 -0.0452222 
4.23584 0.23458 -0.402489 -3.55374 -0.0448175 
4.23803 0.235837 -0.402529 -3.55824 -0.0444131 
4.24022 0.237095 -0.402568 -3.56273 -0.044009 
4.2424 0.238353 -0.402608 -3.56723 -0.0436053 
4.24457 0.239613 -0.402648 -3.57172 -0.043202 
4.24674 0.240875 -0.402687 -3.57621 -0.0427992 
4.2489 0.242137 -0.402727 -3.58071 -0.0423969 
4.25105 0.243401 -0.402767 -3.5852 -0.0419951 
4.2532 0.244666 -0.402807 -3.5897 -0.0415939 
4.25534 0.245932 -0.402847 -3.5942 -0.0411933 
4.25747 0.247199 -0.402887 -3.59869 -0.0407934 
4.2596 0.248468 -0.402926 -3.60319 -0.0403942 
4.26172 0.249738 -0.402966 -3.60769 -0.0399956 
4.26384 0.251009 -0.403006 -3.61219 -0.0395977 
4.26594 0.252281 -0.403046 -3.61669 -0.0392006 
4.26805 0.253555 -0.403086 -3.62119 -0.0388042 
4.27015 0.254829 -0.403126 -3.6257 -0.0384086 
4.27224 0.256105 -0.403165 -3.6302 -0.0380137 
4.27432 0.257383 -0.403205 -3.63471 -0.0376196 
4.2764 0.258661 -0.403245 -3.63922 -0.0372263 
4.27848 0.259941 -0.403285 -3.64373 -0.0368337 
4.28055 0.261222 -0.403324 -3.64824 -0.0364418 
4.28261 0.262504 -0.403364 -3.65275 -0.0360508 
4.28467 0.263787 -0.403404 -3.65726 -0.0356605 
4.28673 0.265072 -0.403443 -3.66178 -0.0352709 
4.28878 0.266358 -0.403483 -3.6663 -0.034882 
4.29082 0.267645 -0.403522 -3.67082 -0.0344939 
4.29286 0.268934 -0.403562 -3.67534 -0.0341065 
4.29489 0.270223 -0.403601 -3.67986 -0.0337198 
4.29692 0.271514 -0.40364 -3.68439 -0.0333338 
4.29895 0.272806 -0.40368 -3.68891 -0.0329484 
4.30097 0.2741 -0.403719 -3.69344 -0.0325637 
4.30298 0.275394 -0.403758 -3.69797 -0.0321796 
4.305 0.27669 -0.403797 -3.70251 -0.0317962 
4.307 0.277987 -0.403836 -3.70705 -0.0314133 
4.309 0.279285 -0.403875 -3.71158 -0.031031 
4.311 0.280585 -0.403913 -3.71612 -0.0306493 
4.31299 0.281885 -0.403952 -3.72067 -0.0302681 
4.31498 0.283187 -0.403991 -3.72521 -0.0298875 
4.31697 0.28449 -0.404029 -3.72976 -0.0295074 
4.31895 0.285794 -0.404068 -3.73431 -0.0291277 
4.32092 0.2871 -0.404106 -3.73887 -0.0287485 
4.3229 0.288406 -0.404145 -3.74342 -0.0283698 
4.32486 0.289714 -0.404183 -3.74798 -0.0279915 
4.32683 0.291023 -0.404221 -3.75254 -0.0276136 
4.32879 0.292333 -0.404259 -3.7571 -0.0272361 
4.33074 0.293645 -0.404297 -3.76167 -0.026859 
4.3327 0.294957 -0.404335 -3.76624 -0.0264822 
4.33464 0.296271 -0.404373 -3.77081 -0.0261058 
4.33659 0.297586 -0.404411 -3.77538 -0.0257297 
4.33853 0.298902 -0.404448 -3.77996 -0.0253539 
4.34047 0.300219 -0.404486 -3.78454 -0.0249784 
4.3424 0.301537 -0.404523 -3.78912 -0.0246032 
4.34433 0.302857 -0.40456 -3.79371 -0.0242282 
4.34626 0.304177 -0.404598 -3.7983 -0.0238535 
4.34818 0.305499 -0.404635 -3.80289 -0.023479 
4.3501 0.306822 -0.404672 -3.80748 -0.0231048 
4.35201 0.308145 -0.404709 -3.81208 -0.0227307 
4.35392 0.30947 -0.404746 -3.81668 -0.0223568 
4.35583 0.310797 -0.404783 -3.82128 -0.0219832 
4.35774 0.312124 -0.40482 -3.82589 -0.0216097 
4.35964 0.313452 -0.404856 -3.8305 -0.0212363 
4.36153 0.314781 -0.404893 -3.83511 -0.0208631 
4.36343 0.316112 -0.404929 -3.83972 -0.02049 
4.36532 0.317443 -0.404966 -3.84434 -0.0201171 
4.36721 0.318776 -0.405002 -3.84896 -0.0197443 
4.36909 0.320109 -0.405038 -3.85359 -0.0193715 
4.37097 0.321444 -0.405074 -3.85821 -0.0189989 
4.37285 0.32278 -0.40511 -3.86284 -0.0186264 
4.37472 0.324117 -0.405146 -3.86748 -0.0182539 
4.37659 0.325454 -0.405182 -3.87211 -0.0178816 
4.37846 0.326793 -0.405218 -3.87675 -0.0175093 
4.38033 0.328133 -0.405254 -3.88139 -0.017137 
4.38219 0.329474 -0.405289 -3.88604 -0.0167648 
4.38405 0.330816 -0.405325 -3.89069 -0.0163927 
4.3859 0.332159 -0.40536 -3.89534 -0.0160205 
4.38775 0.333503 -0.405395 -3.89999 -0.0156485 
4.3896 0.334847 -0.405431 -3.90465 -0.0152764 
4.39145 0.336193 -0.405466 -3.90931 -0.0149044 
4.39329 0.33754 -0.405501 -3.91398 -0.0145324 
4.39513 0.338888 -0.405536 -3.91864 -0.0141604 
4.39696 0.340237 -0.405571 -3.92331 -0.0137884 
4.3988 0.341587 -0.405606 -3.92799 -0.0134164 
4.40063 0.342938 -0.405641 -3.93266 -0.0130444 
4.40245 0.344289 -0.405676 -3.93734 -0.0126725 
4.40428 0.345642 -0.40571 -3.94203 -0.0123005 
4.4061 0.346996 -0.405745 -3.94671 -0.0119285 
4.40792 0.348351 -0.405779 -3.9514 -0.0115565 
4.40973 0.349706 -0.405814 -3.9561 -0.0111845 
4.41154 0.351063 -0.405848 -3.96079 -0.0108124 
4.41335 0.35242 -0.405882 -3.96549 -0.0104403 
4.41516 0.353779 -0.405917 -3.97019 -0.0100683 
4.41696 0.355138 -0.405951 -3.9749 -0.00969614 
4.41876 0.356499 -0.405985 -3.97961 -0.00932399 
4.42056 0.35786 -0.406019 -3.98432 -0.00895182 
4.42235 0.359222 -0.406053 -3.98903 -0.00857961 
4.42414 0.360586 -0.406087 -3.99375 -0.00820736 
4.42593 0.36195 -0.406121 -3.99847 -0.00783507 
4.42771 0.363315 -0.406154 -4.0032 -0.00746274 
4.42949 0.364681 -0.406188 -4.00793 -0.00709038 
4.43127 0.366048 -0.406222 -4.01266 -0.00671796 
4.43305 0.367416 -0.406255 -4.01739 -0.0063455 
4.43482 0.368785 -0.406289 -4.02213 -0.00597299 
4.43659 0.370155 -0.406322 -4.02687 -0.00560044 
4.43836 0.371525 -0.406356 -4.03162 -0.00522783 
4.44012 0.372897 -0.406389 -4.03637 -0.00485516 
4.44188 0.37427 -0.406422 -4.04112 -0.00448244 
4.44364 0.375643 -0.406456 -4.04587 -0.00410967 
4.4454 0.377018 -0.406489 -4.05063 -0.00373683 
4.44715 0.378394 -0.406522 -4.05539 -0.00336394 
4.4489 0.37977 -0.406555 -4.06016 -0.00299098 
4.45064 0.381148 -0.406588 -4.06492 -0.00261796 
4.45239 0.382526 -0.406621 -4.0697 -0.00224487 
4.45413 0.383906 -0.406654 -4.07447 -0.00187171 
4.45586 0.385286 -0.406687 -4.07925 -0.00149848 
4.4576 0.386667 -0.40672 -4.08403 -0.00112519 
4.45933 0.38805 -0.406753 -4.08882 -0.000751815 
4.46106 0.389433 -0.406786 -4.0936 -0.000378368 
4.46278 0.390818 -0.406818 -4.0984 -4.84435e-06 
4.46451 0.392203 -0.406851 -4.10319 0.000368759 
4.46623 0.39359 -0.406884 -4.10799 0.000742443 
4.46794 0.394977 -0.406916 -4.11279 0.00111621 
4.46966 0.396366 -0.406949 -4.1176 0.00149006 
4.47137 0.397755 -0.406982 -4.12241 0.001864 
4.47307 0.399146 -0.407014 -4.12722 0.00223803 
4.47478 0.400538 -0.407047 -4.13204 0.00261216 
4.47648 0.40193 -0.407079 -4.13686 0.00298637 
4.47818 0.403324 -0.407112 -4.14169 0.00336068 
4.47987 0.404719 -0.407144 -4.14651 0.00373509 
4.48157 0.406115 -0.407177 -4.15135 0.0041096 
4.48326 0.407512 -0.407209 -4.15618 0.00448422 
4.48494 0.408911 -0.407241 -4.16102 0.00485894 
4.48663 0.41031 -0.407274 -4.16586 0.00523377 
4.48831 0.411711 -0.407306 -4.17071 0.0056087 
4.48998 0.413112 -0.407339 -4.17556 0.00598375 
4.49166 0.414515 -0.407371 -4.18041 0.00635892 
4.49333 0.415919 -0.407403 -4.18527 0.0067342 
4.495 0.417324 -0.407436 -4.19013 0.00710961 
4.49666 0.418731 -0.407468 -4.195 0.00748514 
4.49833 0.420139 -0.4075 -4.19986 0.00786079 
4.49999 0.421547 -0.407533 -4.20474 0.00823657 
4.50164 0.422958 -0.407565 -4.20961 0.00861248 
4.50329 0.424369 -0.407597 -4.21449 0.00898852 
4.50494 0.425782 -0.40763 -4.21938 0.00936471 
4.50659 0.427196 -0.407662 -4.22426 0.00974103 
4.50823 0.428611 -0.407695 -4.22916 0.0101175 
4.50987 0.430027 -0.407727 -4.23405 0.0104941 
4.51151 0.431445 -0.407759 -4.23895 0.0108708 
4.51315 0.432865 -0.407792 -4.24385 0.0112477 
4.51478 0.434285 -0.407824 -4.24876 0.0116248 
4.51641 0.435707 -0.407857 -4.25367 0.012002 
4.51803 0.43713 -0.407889 -4.25859 0.0123794 
4.51965 0.438555 -0.407922 -4.26351 0.0127569 
4.52127 0.439981 -0.407954 -4.26843 0.0131346 
4.52288 0.441409 -0.407987 -4.27335 0.0135124 
4.5245 0.442838 -0.40802 -4.27828 0.0138904 
4.52611 0.444269 -0.408052 -4.28322 0.0142686 
4.52771 0.445701 -0.408085 -4.28816 0.014647 
4.52931 0.447134 -0.408118 -4.2931 0.0150255 
4.53091 0.448569 -0.40815 -4.29804 0.0154042 
4.53251 0.450006 -0.408183 -4.30299 0.0157831 
4.5341 0.451444 -0.408216 -4.30795 0.0161622 
4.53569 0.452883 -0.408249 -4.31291 0.0165414 
4.53728 0.454324 -0.408282 -4.31787 0.0169209 
4.53886 0.455767 -0.408315 -4.32283 0.0173005 
4.54044 0.457211 -0.408348 -4.3278 0.0176803 
4.54201 0.458657 -0.408382 -4.33277 0.0180603 
4.54359 0.460105 -0.408415 -4.33775 0.0184405 
4.54515 0.461554 -0.408448 -4.34273 0.0188209 
4.54672 0.463005 -0.408481 -4.34771 0.0192015 
4.54828 0.464457 -0.408515 -4.3527 0.0195823 
4.54984 0.465911 -0.408549 -4.35769 0.0199633 
4.5514 0.467367 -0.408582 -4.36269 0.0203445 
4.55295 0.468825 -0.408616 -4.36768 0.0207259 
4.5545 0.470284 -0.40865 -4.37269 0.0211075 
4.55604 0.471745 -0.408684 -4.37769 0.0214893 
4.55759 0.473207 -0.408718 -4.3827 0.0218713 
4.55912 0.474672 -0.408752 -4.38771 0.0222535 
4.56066 0.476138 -0.408786 -4.39273 0.0226359 
4.56219 0.477606 -0.40882 -4.39775 0.0230186 
4.56372 0.479075 -0.408855 -4.40277 0.0234014 
4.56524 0.480547 -0.408889 -4.40779 0.0237845 
4.56676 0.48202 -0.408924 -4.41282 0.0241677 
4.56828 0.483495 -0.408959 -4.41785 0.0245512 
4.56979 0.484971 -0.408994 -4.42289 0.0249349 
4.5713 0.48645 -0.409029 -4.42793 0.0253188 
4.57281 0.48793 -0.409064 -4.43297 0.025703 
4.57431 0.489412 -0.409099 -4.43801 0.0260873 
4.57581 0.490896 -0.409134 -4.44306 0.0264719 
4.57731 0.492382 -0.40917 -4.44811 0.0268566 
4.5788 0.49387 -0.409206 -4.45316 0.0272416 
4.58029 0.495359 -0.409242 -4.45821 0.0276268 
4.58177 0.49685 -0.409278 -4.46327 0.0280122 
4.58325 0.498343 -0.409314 -4.46833 0.0283979 
4.58473 0.499838 -0.40935 -4.47339 0.0287837 
4.5862 0.501335 -0.409387 -4.47845 0.0291698 
4.58767 0.502833 -0.409423 -4.48351 0.0295561 
4.58914 0.504334 -0.40946 -4.48858 0.0299425 
4.5906 0.505836 -0.409497 -4.49365 0.0303292 
4.59205 0.50734 -0.409535 -4.49872 0.0307161 
4.59351 0.508846 -0.409572 -4.50379 0.0311033 
4.59496 0.510353 -0.40961 -4.50887 0.0314906 
4.5964 0.511863 -0.409647 -4.51394 0.0318781 
4.59785 0.513374 -0.409685 -4.51902 0.0322659 
4.59929 0.514887 -0.409724 -4.5241 0.0326538 
4.60072 0.516402 -0.409762 -4.52918 0.033042 
4.60215 0.517918 -0.409801 -4.53426 0.0334303 
4.60358 0.519436 -0.409839 -4.53934 0.0338189 
4.605 0.520956 -0.409878 -4.54442 0.0342076 
4.60642 0.522478 -0.409918 -4.5495 0.0345966 
4.60783 0.524002 -0.409957 -4.55458 0.0349857 
4.60924 0.525527 -0.409997 -4.55967 0.0353751 
4.61065 0.527054 -0.410037 -4.56475 0.0357646 
4.61205 0.528582 -0.410077 -4.56983 0.0361543 
4.61345 0.530112 -0.410118 -4.57492 0.0365442 
4.61484 0.531644 -0.410158 -4.58 0.0369343 
4.61623 0.533178 -0.410199 -4.58508 0.0373246 
4.61761 0.534713 -0.41024 -4.59017 0.0377151 
4.619 0.536249 -0.410282 -4.59525 0.0381057 
4.62037 0.537788 -0.410324 -4.60033 0.0384965 
4.62175 0.539327 -0.410366 -4.60541 0.0388875 
4.62311 0.540869 -0.410408 -4.61049 0.0392786 
4.62448 0.542411 -0.41045 -4.61557 0.0396699 
4.62584 0.543956 -0.410493 -4.62064 0.0400614 
4.62719 0.545501 -0.410536 -4.62572 0.040453 
4.62854 0.547048 -0.41058 -4.63079 0.0408448 
4.62989 0.548597 -0.410624 -4.63586 0.0412367 
4.63123 0.550147 -0.410667 -4.64093 0.0416287 
4.63257 0.551698 -0.410712 -4.646 0.0420209 
4.6339 0.55325 -0.410756 -4.65107 0.0424133 
4.63523 0.554804 -0.410801 -4.65613 0.0428057 
4.63656 0.556359 -0.410846 -4.66119 0.0431983 
4.63788 0.557915 -0.410892 -4.66625 0.043591 
4.63919 0.559472 -0.410938 -4.6713 0.0439838 
4.6405 0.561031 -0.410984 -4.67636 0.0443767 
4.64181 0.56259 -0.41103 -4.68141 0.0447697 
4.64311 0.564151 -0.411077 -4.68645 0.0451627 
4.64441 0.565713 -0.411124 -4.69149 0.0455559 
4.6457 0.567275 -0.411171 -4.69653 0.0459491 
4.64699 0.568839 -0.411219 -4.70157 0.0463424 
4.64827 0.570403 -0.411267 -4.7066 0.0467358 
4.64955 0.571969 -0.411316 -4.71163 0.0471292 
4.65083 0.573535 -0.411364 -4.71665 0.0475227 
4.6521 0.575102 -0.411413 -4.72167 0.0479162 
4.65336 0.576669 -0.411463 -4.72669 0.0483097 
4.65462 0.578237 -0.411512 -4.7317 0.0487032 
4.65588 0.579806 -0.411562 -4.7367 0.0490967 
4.65713 0.581376 -0.411612 -4.7417 0.0494902 
4.65838 0.582946 -0.411663 -4.7467 0.0498837 
4.65962 0.584517 -0.411714 -4.75169 0.0502772 
4.66086 0.586088 -0.411765 -4.75667 0.0506706 
4.66209 0.58766 -0.411817 -4.76165 0.051064 
4.66332 0.589231 -0.411869 -4.76663 0.0514573 
4.66454 0.590804 -0.411921 -4.7716 0.0518505 
4.66576 0.592376 -0.411974 -4.77656 0.0522437 
4.66698 0.593949 -0.412026 -4.78151 0.0526367 
4.66819 0.595522 -0.41208 -4.78647 0.0530297 
4.66939 0.597095 -0.412133 -4.79141 0.0534225 
4.6706 0.598668 -0.412187 -4.79635 0.0538152 
4.67179 0.600242 -0.412241 -4.80128 0.0542077 
4.67299 0.601815 -0.412295 -4.8062 0.0546 
4.67417 0.603388 -0.41235 -4.81112 0.0549922 
4.67536 0.604961 -0.412405 -4.81603 0.0553842 
4.67654 0.606534 -0.41246 -4.82093 0.055776 
4.67771 0.608107 -0.412516 -4.82582 0.0561676 
4.67888 0.60968 -0.412572 -4.83071 0.0565589 
4.68005 0.611252 -0.412628 -4.83559 0.05695 
4.68121 0.612824 -0.412684 -4.84046 0.0573409 
4.68237 0.614396 -0.412741 -4.84533 0.0577314 
4.68352 0.615967 -0.412798 -4.85018 0.0581217 
4.68467 0.617538 -0.412855 -4.85503 0.0585117 
4.68581 0.619108 -0.412912 -4.85987 0.0589013 
4.68696 0.620678 -0.41297 -4.8647 0.0592906 
4.68809 0.622247 -0.413028 -4.86952 0.0596796 
4.68922 0.623815 -0.413086 -4.87434 0.0600682 
4.69035 0.625383 -0.413145 -4.87914 0.0604565 
4.69148 0.62695 -0.413203 -4.88394 0.0608444 
4.6926 0.628517 -0.413262 -4.88872 0.0612318 
4.69371 0.630082 -0.413321 -4.8935 0.0616189 
4.69483 0.631647 -0.41338 -4.89827 0.0620055 
4.69593 0.633211 -0.41344 -4.90303 0.0623917 
4.69704 0.634774 -0.4135 -4.90777 0.0627775 
4.69814 0.636336 -0.41356 -4.91251 0.0631627 
4.69924 0.637897 -0.41362 -4.91724 0.0635475 
4.70033 0.639457 -0.41368 -4.92196 0.0639319 
4.70142 0.641016 -0.41374 -4.92667 0.0643157 
4.70251 0.642574 -0.413801 -4.93137 0.064699 
4.70359 0.644131 -0.413862 -4.93605 0.0650817 
4.70467 0.645686 -0.413922 -4.94073 0.065464 
4.70574 0.647241 -0.413984 -4.9454 0.0658457 
4.70681 0.648794 -0.414045 -4.95005 0.0662268 
4.70788 0.650346 -0.414106 -4.9547 0.0666074 
4.70895 0.651897 -0.414168 -4.95934 0.0669874 
4.71001 0.653446 -0.414229 -4.96396 0.0673667 
4.71106 0.654994 -0.414291 -4.96857 0.0677455 
4.71212 0.656541 -0.414353 -4.97317 0.0681237 
4.71317 0.658086 -0.414415 -4.97776 0.0685013 
4.71422 0.65963 -0.414477 -4.98234 0.0688782 
4.71526 0.661173 -0.414539 -4.98691 0.0692545 
4.7163 0.662714 -0.414601 -4.99147 0.0696302 
4.71734 0.664254 -0.414663 -4.99601 0.0700052 
4.71838 0.665792 -0.414725 -5.00055 0.0703795 
4.71941 0.667328 -0.414788 -5.00507 0.0707532 
4.72044 0.668863 -0.41485 -5.00958 0.0711262 
4.72146 0.670397 -0.414913 -5.01408 0.0714985 
4.72249 0.671929 -0.414975 -5.01857 0.0718701 
4.72351 0.673459 -0.415038 -5.02304 0.072241 
4.72452 0.674988 -0.415101 -5.02751 0.0726113 
4.72554 0.676515 -0.415163 -5.03196 0.0729808 
4.72655 0.67804 -0.415226 -5.0364 0.0733496 
4.72756 0.679564 -0.415289 -5.04083 0.0737176 
4.72856 0.681086 -0.415351 -5.04524 0.074085 
4.72957 0.682607 -0.415414 -5.04965 0.0744516 
4.73057 0.684125 -0.415477 -5.05404 0.0748175 
4.73157 0.685642 -0.41554 -5.05842 0.0751826 
4.73256 0.687158 -0.415602 -5.06278 0.075547 
4.73355 0.688671 -0.415665 -5.06714 0.0759107 
4.73454 0.690183 -0.415728 -5.07148 0.0762736 
4.73553 0.691693 -0.415791 -5.07582 0.0766357 
4.73652 0.693201 -0.415853 -5.08014 0.0769971 
4.7375 0.694708 -0.415916 -5.08444 0.0773577 
4.73848 0.696213 -0.415979 -5.08874 0.0777176 
4.73946 0.697716 -0.416041 -5.09302 0.0780767 
4.74043 0.699217 -0.416104 -5.09729 0.078435 
4.7414 0.700716 -0.416166 -5.10155 0.0787926 
4.74238 0.702214 -0.416229 -5.1058 0.0791494 
4.74334 0.703709 -0.416291 -5.11003 0.0795054 
4.74431 0.705203 -0.416353 -5.11425 0.0798606 
4.74527 0.706695 -0.416415 -5.11846 0.0802151 
4.74624 0.708186 -0.416478 -5.12266 0.0805688 
4.7472 0.709674 -0.41654 -5.12684 0.0809217 
4.74815 0.711161 -0.416602 -5.13102 0.0812738 
4.74911 0.712645 -0.416664 -5.13518 0.0816252 
4.75006 0.714128 -0.416726 -5.13933 0.0819757 
4.75101 0.715609 -0.416787 -5.14347 0.0823255 
4.75196 0.717088 -0.416849 -5.14759 0.0826745 
4.75291 0.718566 -0.416911 -5.1517 0.0830227 
4.75385 0.720041 -0.416972 -5.1558 0.0833702 
4.7548 0.721515 -0.417033 -5.15989 0.0837169 
4.75574 0.722986 -0.417095 -5.16397 0.0840627 
4.75668 0.724456 -0.417156 -5.16803 0.0844079 
4.75762 0.725924 -0.417217 -5.17209 0.0847522 
4.75855 0.72739 -0.417278 -5.17613 0.0850957 
4.75948 0.728854 -0.417339 -5.18016 0.0854385 
4.76042 0.730317 -0.4174 -5.18417 0.0857805 
4.76135 0.731777 -0.41746 -5.18818 0.0861217 
4.76227 0.733236 -0.417521 -5.19217 0.0864621 
4.7632 0.734692 -0.417581 -5.19615 0.0868018 
4.76413 0.736147 -0.417641 -5.20012 0.0871406 
4.76505 0.7376 -0.417701 -5.20408 0.0874787 
4.76597 0.739051 -0.417761 -5.20802 0.0878161 
4.76689 0.7405 -0.417821 -5.21196 0.0881526 
4.76781 0.741947 -0.417881 -5.21588 0.0884884 
4.76872 0.743392 -0.41794 -5.21979 0.0888234 
4.76964 0.744836 -0.418 -5.22369 0.0891577 
4.77055 0.746277 -0.418059 -5.22757 0.0894911 
4.77146 0.747716 -0.418118 -5.23145 0.0898239 
4.77237 0.749154 -0.418177 -5.23531 0.0901558 
4.77328 0.75059 -0.418236 -5.23916 0.090487 
4.77419 0.752024 -0.418295 -5.243 0.0908174 
4.77509 0.753455 -0.418353 -5.24683 0.091147 
4.77599 0.754885 -0.418412 -5.25065 0.0914759 
4.77689 0.756313 -0.41847 -5.25445 0.091804 
4.7778 0.75774 -0.418528 -5.25825 0.0921314 
4.77869 0.759164 -0.418586 -5.26203 0.0924579 
4.77959 0.760586 -0.418644 -5.2658 0.0927838 
4.78049 0.762006 -0.418702 -5.26956 0.0931089 
4.78138 0.763425 -0.418759 -5.2733 0.0934332 
4.78227 0.764841 -0.418816 -5.27704 0.0937567 
4.78316 0.766256 -0.418874 -5.28076 0.0940795 
4.78405 0.767668 -0.418931 -5.28447 0.0944016 
4.78494 0.769079 -0.418987 -5.28818 0.0947229 
4.78583 0.770487 -0.419044 -5.29187 0.0950434 
4.78671 0.771894 -0.419101 -5.29554 0.0953632 
4.7876 0.773299 -0.419157 -5.29921 0.0956822 
4.78848 0.774702 -0.419213 -5.30286 0.0960005 
4.78936 0.776102 -0.419269 -5.30651 0.096318 
4.79024 0.777501 -0.419325 -5.31014 0.0966348 
4.79112 0.778898 -0.419381 -5.31376 0.0969508 
4.792 0.780293 -0.419436 -5.31737 0.0972661 
4.79287 0.781686 -0.419492 -5.32097 0.0975806 
4.79374 0.783077 -0.419547 -5.32455 0.0978943 
4.79462 0.784466 -0.419602 -5.32813 0.0982073 
4.79549 0.785852 -0.419657 -5.33169 0.0985196 
4.79636 0.787237 -0.419712 -5.33524 0.0988311 
4.79723 0.78862 -0.419766 -5.33878 0.0991419 
4.79809 0.790001 -0.419821 -5.34231 0.0994519 
4.79896 0.79138 -0.419875 -5.34583 0.0997611 
4.79982 0.792757 -0.419929 -5.34933 0.10007 
4.80069 0.794131 -0.419983 -5.35283 0.100377 
4.80155 0.795504 -0.420037 -5.35631 0.100684 
4.80241 0.796875 -0.420091 -5.35978 0.100991 
4.80327 0.798243 -0.420144 -5.36324 0.101296 
4.80412 0.79961 -0.420197 -5.36668 0.101601 
4.80498 0.800974 -0.420251 -5.37012 0.101905 
4.80584 0.802336 -0.420304 -5.37354 0.102208 
4.80669 0.803697 -0.420356 -5.37696 0.102511 
4.80754 0.805055 -0.420409 -5.38036 0.102812 
4.80839 0.806411 -0.420462 -5.38375 0.103113 
4.80924 0.807765 -0.420514 -5.38712 0.103414 
4.81009 0.809116 -0.420566 -5.39049 0.103713 
4.81094 0.810466 -0.420618 -5.39384 0.104012 
4.81178 0.811814 -0.42067 -5.39718 0.10431 
4.81262 0.813159 -0.420722 -5.40051 0.104607 
4.81347 0.814502 -0.420773 -5.40383 0.104903 
4.81431 0.815843 -0.420825 -5.40714 0.105199 
4.81515 0.817182 -0.420876 -5.41043 0.105494 
4.81599 0.818519 -0.420927 -5.41371 0.105788 
