-0.0428605 -0.0385823 0.109275 
0.136854 -0.0744077 -0.0346146 
0.292797 -0.0820283 -0.182936 
0.363481 -0.0428101 -0.292839 
0.396673 -0.00234016 -0.366501 
0.410708 0.0317351 -0.414611 
0.4153 0.060225 -0.447693 
0.417788 0.0814486 -0.471405 
0.422463 0.0942256 -0.488856 
0.431107 0.0986335 -0.501908 
0.443978 0.0955951 -0.511741 
0.460568 0.0863798 -0.519115 
0.480037 0.0722887 -0.524493 
0.501436 0.0545488 -0.528152 
0.523854 0.0343235 -0.530345 
0.546527 0.0127127 -0.531407 
0.568884 -0.00932408 -0.531728 
0.590535 -0.0310676 -0.531635 
0.611241 -0.0520593 -0.531349 
0.63088 -0.0720327 -0.531015 
0.649416 -0.0908255 -0.530758 
0.666867 -0.108315 -0.53072 
0.683285 -0.1244 -0.531053 
0.698735 -0.139026 -0.531877 
0.713276 -0.152215 -0.533229 
0.726957 -0.164057 -0.535068 
0.739809 -0.174688 -0.537289 
0.751844 -0.184267 -0.539746 
0.763061 -0.192948 -0.542281 
0.773453 -0.200871 -0.54475 
0.783018 -0.208156 -0.547029 
0.791764 -0.214912 -0.54902 
0.799714 -0.221237 -0.550645 
0.806905 -0.227215 -0.551858 
0.813385 -0.232914 -0.552638 
0.819212 -0.238391 -0.552989 
0.824451 -0.24369 -0.552929 
0.82917 -0.24885 -0.552488 
0.833438 -0.253894 -0.551712 
0.837325 -0.258834 -0.550659 
0.840896 -0.263662 -0.549402 
0.844213 -0.268355 -0.548026 
0.847331 -0.272881 -0.546618 
0.850296 -0.277203 -0.545261 
0.853149 -0.281296 -0.544022 
0.85592 -0.285144 -0.542944 
0.85863 -0.28875 -0.542047 
0.861291 -0.292135 -0.541324 
0.863913 -0.295329 -0.540751 
0.866496 -0.298369 -0.540296 
0.869043 -0.301288 -0.539923 
0.871555 -0.30412 -0.539603 
0.874031 -0.306892 -0.539307 
0.876474 -0.309631 -0.53901 
0.878883 -0.312358 -0.538693 
0.881261 -0.315091 -0.538338 
0.883608 -0.317839 -0.537937 
0.885924 -0.320606 -0.537486 
0.888208 -0.323388 -0.536987 
0.89046 -0.32618 -0.536448 
0.89268 -0.328973 -0.535876 
0.894868 -0.331754 -0.535282 
0.897021 -0.334509 -0.53468 
0.899141 -0.33722 -0.534089 
0.901226 -0.339863 -0.533531 
0.903277 -0.342416 -0.53303 
0.905296 -0.344865 -0.532598 
0.907282 -0.347219 -0.53223 
0.909237 -0.349516 -0.531889 
0.911161 -0.351813 -0.531517 
0.913056 -0.354164 -0.53106 
0.91492 -0.35662 -0.530469 
0.916755 -0.359247 -0.529676 
0.918555 -0.362154 -0.528569 
0.920306 -0.365469 -0.527005 
0.921979 -0.3693 -0.524847 
0.923542 -0.373691 -0.522019 
0.924983 -0.378599 -0.518552 
0.926314 -0.383817 -0.514665 
0.927551 -0.388932 -0.510787 
0.928707 -0.39371 -0.507165 
0.929793 -0.398155 -0.503806 
0.93082 -0.402318 -0.50067 
0.931795 -0.406254 -0.497709 
0.932721 -0.410016 -0.494873 
0.933599 -0.413649 -0.492118 
0.934428 -0.417196 -0.489399 
0.935204 -0.420697 -0.486675 
0.935925 -0.424191 -0.483902 
0.936585 -0.427714 -0.481039 
0.937181 -0.431302 -0.478047 
0.937708 -0.434981 -0.474895 
0.938165 -0.438766 -0.471567 
0.93855 -0.442656 -0.468063 
0.938865 -0.44663 -0.464403 
0.939109 -0.450645 -0.460632 
0.939285 -0.454638 -0.456816 
0.939398 -0.458541 -0.453024 
0.939451 -0.462296 -0.449323 
0.939455 -0.465858 -0.445765 
0.939417 -0.469203 -0.442382 
0.939352 -0.472337 -0.439182 
0.939273 -0.475291 -0.436151 
0.939198 -0.478097 -0.433269 
0.939147 -0.480789 -0.430525 
0.939133 -0.483519 -0.427782 
0.938999 -0.486644 -0.424523 
0.938711 -0.489097 -0.421782 
0.938429 -0.491602 -0.418995 
0.938205 -0.49446 -0.415912 
0.938027 -0.49718 -0.413015 
0.937887 -0.499536 -0.410519 
0.93779 -0.501367 -0.40859 
0.937733 -0.502818 -0.407083 
0.93771 -0.504005 -0.405872 
0.937709 -0.504987 -0.404891 
0.937719 -0.505798 -0.404089 
0.937719 -0.506471 -0.403415 
0.937689 -0.507043 -0.402814 
0.937616 -0.507561 -0.402223 
0.937498 -0.508118 -0.401548 
0.937337 -0.508832 -0.400672 
0.937141 -0.509734 -0.399575 
0.936927 -0.510752 -0.398342 
0.936703 -0.511805 -0.397066 
0.936477 -0.512845 -0.3958 
0.936254 -0.513852 -0.39457 
0.936036 -0.514823 -0.393381 
0.935824 -0.515766 -0.392225 
0.935618 -0.516699 -0.391087 
0.935419 -0.51764 -0.389947 
0.935225 -0.518609 -0.388783 
0.935033 -0.519624 -0.387577 
0.934842 -0.520696 -0.386314 
0.934649 -0.521828 -0.384988 
0.93445 -0.523018 -0.3836 
0.934242 -0.524254 -0.382156 
0.934023 -0.525526 -0.380664 
0.933788 -0.526821 -0.379135 
0.933536 -0.528134 -0.37757 
0.933263 -0.529465 -0.375967 
0.932969 -0.530821 -0.374316 
0.932649 -0.532216 -0.372601 
0.9323 -0.533672 -0.370796 
0.931919 -0.535219 -0.368869 
0.931501 -0.536895 -0.366774 
0.931037 -0.538751 -0.364454 
0.93052 -0.540853 -0.361835 
0.929938 -0.543275 -0.358831 
0.929278 -0.546088 -0.355358 
0.928527 -0.549333 -0.351361 
0.927672 -0.552992 -0.346848 
0.926707 -0.556985 -0.34189 
0.92563 -0.561198 -0.3366 
0.924445 -0.565512 -0.331101 
0.923159 -0.569827 -0.325501 
0.921781 -0.574059 -0.319891 
0.920323 -0.578146 -0.314345 
0.918795 -0.582042 -0.308921 
0.917211 -0.585715 -0.303664 
0.915584 -0.589144 -0.298608 
0.913926 -0.592318 -0.293776 
0.912248 -0.595235 -0.289181 
0.910562 -0.597899 -0.28483 
0.908876 -0.600319 -0.280724 
0.9072 -0.602508 -0.27686 
0.905541 -0.60448 -0.273229 
0.903905 -0.606251 -0.269823 
0.902299 -0.607837 -0.26663 
0.900727 -0.609256 -0.263639 
0.899193 -0.610522 -0.260839 
0.897699 -0.61165 -0.258217 
0.896248 -0.612654 -0.255762 
0.894843 -0.613548 -0.253463 
0.893485 -0.614342 -0.251311 
0.892174 -0.615048 -0.249294 
0.890911 -0.615675 -0.247405 
0.889697 -0.616232 -0.245634 
0.888533 -0.616726 -0.243974 
0.887417 -0.617167 -0.242418 
0.88635 -0.617559 -0.240958 
0.885331 -0.617909 -0.239589 
0.88436 -0.618223 -0.238304 
0.883436 -0.618505 -0.237098 
0.882558 -0.618761 -0.235966 
0.881726 -0.618993 -0.234901 
0.88094 -0.619207 -0.233901 
0.880197 -0.619405 -0.23296 
0.879497 -0.619591 -0.232074 
0.878839 -0.619767 -0.23124 
0.878223 -0.619937 -0.230454 
0.877646 -0.620103 -0.229711 
0.877109 -0.620267 -0.22901 
0.87661 -0.62043 -0.228348 
0.876148 -0.620595 -0.22772 
0.875721 -0.620764 -0.227125 
0.87533 -0.620937 -0.226561 
0.874973 -0.621116 -0.226024 
0.874649 -0.621303 -0.225514 
0.874356 -0.621497 -0.225027 
0.874095 -0.621701 -0.224562 
0.873864 -0.621913 -0.224118 
0.873661 -0.622136 -0.223693 
0.873487 -0.62237 -0.223285 
0.873341 -0.622615 -0.222894 
0.87322 -0.622871 -0.222517 
0.873125 -0.623138 -0.222155 
0.873055 -0.623418 -0.221805 
0.873009 -0.623709 -0.221468 
0.872986 -0.624012 -0.221142 
0.872986 -0.624327 -0.220827 
0.873007 -0.624654 -0.220521 
0.87305 -0.624993 -0.220225 
0.873113 -0.625343 -0.219938 
0.873195 -0.625705 -0.219658 
0.873297 -0.626078 -0.219387 
0.873417 -0.626462 -0.219123 
0.873556 -0.626857 -0.218867 
0.873712 -0.627263 -0.218617 
0.873884 -0.627679 -0.218374 
0.874074 -0.628105 -0.218137 
0.874279 -0.628541 -0.217906 
0.8745 -0.628986 -0.217682 
0.874736 -0.629442 -0.217463 
0.874987 -0.629906 -0.217249 
0.875252 -0.630379 -0.217042 
0.875532 -0.63086 -0.216839 
0.875825 -0.63135 -0.216642 
0.876131 -0.631849 -0.21645 
0.87645 -0.632355 -0.216263 
0.876782 -0.632868 -0.216082 
0.877127 -0.633389 -0.215905 
0.877483 -0.633917 -0.215734 
0.877852 -0.634453 -0.215567 
0.878232 -0.634995 -0.215405 
0.878623 -0.635543 -0.215248 
0.879026 -0.636098 -0.215096 
0.87944 -0.636659 -0.214948 
0.879864 -0.637226 -0.214806 
0.880299 -0.6378 -0.214667 
0.880745 -0.638379 -0.214534 
0.8812 -0.638963 -0.214405 
0.881666 -0.639553 -0.21428 
0.882141 -0.640149 -0.21416 
0.882626 -0.64075 -0.214044 
0.883121 -0.641357 -0.213932 
0.883625 -0.641968 -0.213825 
0.884138 -0.642585 -0.213721 
0.884661 -0.643207 -0.213622 
0.885192 -0.643834 -0.213526 
0.885732 -0.644466 -0.213433 
0.88628 -0.645104 -0.213344 
0.886837 -0.645747 -0.213258 
0.887402 -0.646395 -0.213176 
0.887976 -0.647048 -0.213096 
0.888557 -0.647706 -0.213019 
0.889147 -0.64837 -0.212944 
0.889743 -0.64904 -0.212872 
0.890348 -0.649715 -0.212801 
0.89096 -0.650396 -0.212732 
0.891579 -0.651083 -0.212664 
0.892205 -0.651776 -0.212597 
0.892838 -0.652475 -0.212531 
0.893478 -0.653181 -0.212465 
0.894124 -0.653894 -0.212398 
0.894777 -0.654613 -0.212331 
0.895436 -0.65534 -0.212263 
0.896101 -0.656075 -0.212194 
0.896771 -0.656817 -0.212122 
0.897447 -0.657567 -0.212048 
0.898129 -0.658326 -0.211971 
0.898815 -0.659094 -0.21189 
0.899507 -0.659871 -0.211804 
0.900204 -0.660658 -0.211714 
0.900905 -0.661455 -0.211617 
0.90161 -0.662263 -0.211515 
0.902319 -0.663083 -0.211404 
0.903033 -0.663915 -0.211286 
0.90375 -0.66476 -0.211158 
0.904471 -0.665619 -0.21102 
0.905195 -0.666492 -0.210871 
0.905923 -0.667381 -0.210709 
0.906653 -0.668287 -0.210534 
0.907386 -0.66921 -0.210344 
0.908122 -0.670152 -0.210138 
0.90886 -0.671114 -0.209914 
0.909601 -0.672097 -0.209671 
0.910343 -0.673103 -0.209408 
0.911088 -0.674133 -0.209122 
0.911834 -0.675188 -0.208814 
0.912581 -0.676268 -0.208481 
0.91333 -0.677375 -0.208122 
0.914079 -0.678509 -0.207738 
0.914829 -0.679669 -0.207329 
0.91558 -0.680854 -0.206894 
0.916331 -0.682065 -0.206434 
0.917082 -0.683299 -0.205951 
0.917833 -0.684556 -0.205445 
0.918584 -0.685835 -0.204917 
0.919334 -0.687134 -0.204368 
0.920084 -0.688453 -0.203799 
0.920833 -0.689789 -0.203212 
0.92158 -0.691141 -0.202608 
0.922326 -0.692507 -0.201987 
0.923071 -0.693886 -0.201352 
0.923813 -0.695277 -0.200704 
0.924554 -0.696677 -0.200045 
0.925292 -0.698084 -0.199376 
0.926028 -0.699499 -0.198697 
0.926761 -0.700918 -0.198012 
0.927492 -0.70234 -0.19732 
0.92822 -0.703765 -0.196623 
0.928946 -0.70519 -0.195923 
0.929668 -0.706616 -0.19522 
0.930387 -0.708039 -0.194516 
0.931103 -0.70946 -0.193812 
0.931817 -0.710877 -0.193108 
0.932527 -0.712289 -0.192405 
0.933234 -0.713696 -0.191706 
0.933937 -0.715096 -0.19101 
0.934638 -0.716488 -0.190318 
0.935336 -0.717873 -0.189631 
0.936031 -0.719248 -0.188951 
0.936723 -0.720613 -0.188278 
0.937412 -0.721968 -0.187612 
0.938098 -0.723312 -0.186954 
0.938782 -0.724644 -0.186306 
0.939463 -0.725963 -0.185668 
0.940141 -0.727269 -0.18504 
0.940818 -0.728562 -0.184424 
0.941492 -0.72984 -0.18382 
0.942164 -0.731103 -0.183229 
0.942834 -0.732351 -0.182651 
0.943502 -0.733583 -0.182087 
0.944169 -0.734798 -0.181539 
0.944835 -0.735997 -0.181006 
0.945499 -0.737177 -0.18049 
0.946162 -0.73834 -0.17999 
0.946825 -0.739484 -0.179509 
0.947486 -0.740609 -0.179046 
0.948148 -0.741714 -0.178602 
0.948809 -0.742799 -0.178178 
0.94947 -0.743863 -0.177775 
0.950132 -0.744907 -0.177393 
0.950794 -0.745929 -0.177033 
0.951457 -0.746929 -0.176696 
0.952121 -0.747907 -0.176381 
0.952786 -0.748863 -0.17609 
0.953453 -0.749797 -0.175823 
0.954121 -0.750709 -0.175581 
0.954792 -0.751598 -0.175362 
0.955465 -0.752466 -0.175167 
0.956141 -0.753312 -0.174996 
0.956819 -0.754139 -0.174849 
0.957501 -0.754946 -0.174723 
0.958186 -0.755735 -0.174619 
0.958875 -0.756509 -0.174534 
0.959568 -0.757269 -0.174467 
0.960265 -0.758018 -0.174415 
0.960967 -0.75876 -0.174375 
0.961674 -0.759498 -0.174344 
0.962385 -0.760235 -0.174318 
0.963102 -0.760977 -0.174293 
0.963824 -0.761728 -0.174264 
0.964551 -0.762492 -0.174227 
0.965284 -0.763276 -0.174176 
0.966023 -0.764084 -0.174107 
0.966768 -0.76492 -0.174016 
0.967519 -0.76579 -0.173897 
0.968276 -0.766697 -0.173747 
0.969039 -0.767645 -0.173563 
0.96981 -0.768635 -0.173342 
0.970586 -0.769671 -0.173083 
0.971369 -0.770752 -0.172785 
0.972159 -0.771881 -0.172446 
0.972956 -0.773057 -0.172066 
0.973759 -0.774282 -0.171645 
0.974568 -0.775554 -0.171182 
0.975384 -0.776875 -0.170676 
0.976206 -0.778244 -0.170129 
0.977034 -0.779662 -0.16954 
0.977868 -0.781127 -0.168909 
0.978709 -0.78264 -0.168236 
0.979555 -0.784201 -0.167522 
0.980407 -0.785808 -0.166767 
0.981266 -0.787457 -0.165976 
0.982131 -0.789141 -0.165158 
0.983003 -0.790846 -0.164326 
0.983886 -0.792565 -0.163488 
0.98478 -0.794323 -0.162625 
0.985675 -0.795908 -0.161935 
0.986615 -0.798481 -0.160303 
0.987519 -0.798518 -0.161168 
0.98852 -0.801954 -0.158734 
0.989458 -0.800394 -0.161231 
0.990558 -0.80311 -0.159616 
0.991514 -0.802994 -0.160688 
0.992512 -0.805766 -0.158914 
0.993438 -0.804636 -0.16097 
0.994548 -0.806443 -0.160273 
0.995505 -0.806814 -0.160859 
0.996374 -0.807697 -0.160844 
0.997455 -0.809287 -0.160336 
0.998384 -0.809371 -0.161181 
0.999209 -0.809973 -0.161405 
1.00027 -0.81025 -0.162192 
1.00112 -0.810577 -0.162712 
1.00217 -0.812337 -0.161997 
1.00308 -0.812277 -0.162967 
1.00385 -0.813998 -0.162021 
1.00466 -0.814241 -0.162583 
1.00585 -0.816507 -0.161511 
1.0068 -0.817799 -0.161173 
1.0076 -0.81817 -0.161593 
1.00859 -0.81806 -0.162702 
1.00939 -0.817829 -0.163731 
1.01012 -0.818686 -0.163606 
1.01129 -0.820764 -0.16269 
1.01221 -0.821738 -0.162643 
1.01298 -0.823033 -0.162113 
1.01391 -0.824731 -0.161348 
1.01474 -0.824578 -0.162326 
1.01571 -0.824445 -0.163431 
1.01652 -0.823312 -0.165375 
1.01725 -0.823251 -0.166165 
1.01798 -0.825219 -0.164931 
1.01905 -0.825217 -0.166006 
1.01984 -0.823896 -0.168108 
1.02094 -0.826639 -0.166468 
1.02177 -0.825728 -0.168214 
1.02256 -0.824982 -0.169747 
1.024 -0.81186 -0.18431 
1.02529 -0.819075 -0.178378 
1.02669 -0.830427 -0.168435 
1.02785 -0.850279 -0.149743 
1.02905 -0.869838 -0.131383 
1.02956 -0.901719 -0.100005 
1.02939 -0.931112 -0.0704453 
1.02874 -0.955443 -0.0454661 
1.02783 -0.973572 -0.0264218 
1.02676 -0.986263 -0.0126693 
1.02562 -0.995016 -0.00276793 
1.02441 -1.00106 0.00447773 
1.02317 -1.00525 0.00990648 
1.0219 -1.00816 0.0140916 
1.02062 -1.0102 0.0174188 
1.01932 -1.01163 0.020147 
1.01801 -1.01263 0.0224507 
1.01671 -1.01333 0.0244488 
1.01541 -1.0138 0.0262229 
1.01412 -1.01412 0.0278291 
1.01284 -1.01432 0.0293066 
1.01158 -1.01443 0.0306828 
1.01034 -1.01448 0.0319774 
1.00911 -1.01449 0.0332044 
1.00791 -1.01446 0.0343742 
1.00674 -1.0144 0.0354946 
1.00559 -1.01433 0.0365715 
1.00446 -1.01424 0.0376099 
1.00336 -1.01415 0.0386134 
1.00229 -1.01405 0.0395853 
1.00125 -1.01394 0.0405282 
1.00023 -1.01384 0.0414445 
0.999237 -1.01374 0.0423362 
0.99827 -1.01364 0.0432051 
0.997329 -1.01355 0.0440529 
0.996413 -1.01346 0.0448811 
0.995521 -1.01338 0.045691 
0.994652 -1.0133 0.046484 
0.993807 -1.01324 0.0472613 
0.992984 -1.01318 0.0480242 
0.992182 -1.01312 0.0487737 
0.991402 -1.01308 0.0495111 
0.990641 -1.01305 0.0502375 
0.9899 -1.01302 0.050954 
0.989177 -1.01301 0.0516617 
0.988473 -1.013 0.0523617 
0.987786 -1.01301 0.0530552 
0.987115 -1.01303 0.0537431 
0.986461 -1.01306 0.0544266 
0.985822 -1.0131 0.0551067 
0.985197 -1.01315 0.0557844 
0.984586 -1.01321 0.0564606 
0.983989 -1.01329 0.0571364 
0.983404 -1.01338 0.0578125 
0.982832 -1.01349 0.0584899 
0.982271 -1.01361 0.0591692 
0.981721 -1.01374 0.0598513 
0.981181 -1.01389 0.0605368 
0.980652 -1.01405 0.0612264 
0.980131 -1.01422 0.0619205 
0.97962 -1.01441 0.0626196 
0.979117 -1.01461 0.0633243 
0.978621 -1.01482 0.0640349 
0.978134 -1.01505 0.0647517 
0.977653 -1.0153 0.065475 
0.977178 -1.01555 0.0662051 
0.97671 -1.01582 0.0669421 
0.976248 -1.0161 0.0676862 
0.975791 -1.0164 0.0684375 
0.975339 -1.0167 0.0691961 
0.974892 -1.01702 0.0699619 
0.974449 -1.01735 0.0707351 
0.97401 -1.01769 0.0715156 
0.973575 -1.01805 0.0723032 
0.973143 -1.01841 0.0730981 
0.972715 -1.01878 0.0738999 
0.97229 -1.01917 0.0747087 
0.971867 -1.01956 0.0755244 
0.971447 -1.01996 0.0763466 
0.971029 -1.02037 0.0771754 
0.970613 -1.02079 0.0780105 
0.970199 -1.02122 0.0788516 
0.969786 -1.02165 0.0796988 
0.969375 -1.02209 0.0805516 
0.968966 -1.02254 0.08141 
0.968557 -1.023 0.0822737 
0.96815 -1.02346 0.0831424 
0.967744 -1.02393 0.0840161 
0.967338 -1.0244 0.0848944 
0.966933 -1.02488 0.0857772 
0.966528 -1.02536 0.0866642 
0.966125 -1.02585 0.0875552 
0.965721 -1.02634 0.08845 
0.965318 -1.02683 0.0893484 
0.964915 -1.02733 0.0902502 
0.964512 -1.02783 0.0911552 
0.964109 -1.02834 0.0920632 
0.963706 -1.02885 0.092974 
0.963303 -1.02936 0.0938874 
0.9629 -1.02987 0.0948032 
0.962498 -1.03039 0.0957213 
0.962094 -1.0309 0.0966415 
0.961691 -1.03142 0.0975636 
0.961288 -1.03194 0.0984874 
0.960884 -1.03247 0.0994129 
0.96048 -1.03299 0.10034 
0.960076 -1.03351 0.101268 
0.959672 -1.03404 0.102197 
0.959267 -1.03456 0.103128 
0.958863 -1.03509 0.104059 
0.958458 -1.03562 0.104991 
0.958052 -1.03614 0.105924 
0.957647 -1.03667 0.106857 
0.957241 -1.0372 0.10779 
0.956836 -1.03773 0.108724 
0.95643 -1.03826 0.109658 
0.956023 -1.03878 0.110592 
0.955617 -1.03931 0.111526 
0.955211 -1.03984 0.112461 
0.954804 -1.04037 0.113394 
0.954397 -1.04089 0.114328 
0.953991 -1.04142 0.115261 
0.953584 -1.04195 0.116194 
0.953178 -1.04247 0.117126 
0.952771 -1.043 0.118058 
0.952365 -1.04352 0.118988 
0.951958 -1.04404 0.119919 
0.951552 -1.04457 0.120848 
0.951146 -1.04509 0.121776 
0.95074 -1.04561 0.122704 
0.950334 -1.04613 0.12363 
0.949929 -1.04665 0.124555 
0.949524 -1.04717 0.125479 
0.949119 -1.04769 0.126402 
0.948715 -1.04821 0.127323 
0.948311 -1.04872 0.128243 
0.947907 -1.04924 0.129162 
0.947504 -1.04975 0.130079 
0.947102 -1.05026 0.130995 
0.9467 -1.05078 0.131909 
0.946298 -1.05129 0.132822 
0.945897 -1.0518 0.133732 
0.945497 -1.05231 0.134641 
0.945097 -1.05281 0.135548 
0.944698 -1.05332 0.136454 
0.944299 -1.05382 0.137357 
0.943902 -1.05433 0.138258 
0.943505 -1.05483 0.139158 
0.943108 -1.05533 0.140055 
0.942713 -1.05583 0.14095 
0.942318 -1.05633 0.141844 
0.941924 -1.05683 0.142735 
0.941531 -1.05732 0.143623 
0.941138 -1.05782 0.14451 
0.940746 -1.05831 0.145394 
0.940355 -1.0588 0.146276 
0.939965 -1.05929 0.147155 
0.939576 -1.05978 0.148032 
0.939187 -1.06026 0.148907 
0.9388 -1.06075 0.149779 
0.938413 -1.06123 0.150649 
0.938027 -1.06171 0.151517 
0.937641 -1.06219 0.152382 
0.937257 -1.06267 0.153244 
0.936873 -1.06314 0.154104 
0.93649 -1.06362 0.154961 
0.936108 -1.06409 0.155816 
0.935726 -1.06456 0.156669 
0.935345 -1.06503 0.157519 
0.934965 -1.0655 0.158366 
0.934586 -1.06597 0.159211 
0.934207 -1.06643 0.160054 
0.93383 -1.06689 0.160894 
0.933452 -1.06735 0.161731 
0.933076 -1.06781 0.162567 
0.9327 -1.06827 0.163399 
0.932324 -1.06872 0.16423 
0.931949 -1.06918 0.165058 
0.931575 -1.06963 0.165884 
0.931202 -1.07008 0.166708 
0.930828 -1.07053 0.167529 
0.930456 -1.07097 0.168349 
0.930084 -1.07142 0.169166 
0.929712 -1.07186 0.169981 
0.929341 -1.0723 0.170795 
0.92897 -1.07274 0.171606 
0.9286 -1.07318 0.172415 
0.92823 -1.07362 0.173223 
0.92786 -1.07406 0.174029 
0.927491 -1.07449 0.174833 
0.927122 -1.07492 0.175635 
0.926753 -1.07536 0.176436 
0.926385 -1.07579 0.177235 
0.926017 -1.07622 0.178033 
0.925649 -1.07665 0.17883 
0.925281 -1.07707 0.179625 
0.924914 -1.0775 0.180419 
0.924546 -1.07793 0.181212 
0.924179 -1.07835 0.182003 
0.923812 -1.07877 0.182794 
0.923445 -1.0792 0.183583 
0.923079 -1.07962 0.184372 
0.922712 -1.08004 0.18516 
0.922345 -1.08046 0.185947 
0.921979 -1.08088 0.186733 
0.921612 -1.0813 0.187519 
0.921245 -1.08172 0.188304 
0.920879 -1.08214 0.189089 
0.920512 -1.08255 0.189873 
0.920145 -1.08297 0.190657 
0.919778 -1.08339 0.19144 
0.919411 -1.0838 0.192223 
0.919044 -1.08422 0.193007 
0.918677 -1.08463 0.19379 
0.91831 -1.08505 0.194573 
0.917942 -1.08547 0.195356 
0.917574 -1.08588 0.196139 
0.917206 -1.0863 0.196923 
0.916838 -1.08671 0.197706 
0.916469 -1.08713 0.19849 
0.9161 -1.08754 0.199275 
0.915731 -1.08796 0.200059 
0.915362 -1.08837 0.200844 
0.914992 -1.08879 0.20163 
0.914621 -1.08921 0.202417 
0.914251 -1.08962 0.203204 
0.91388 -1.09004 0.203992 
0.913508 -1.09046 0.20478 
0.913136 -1.09087 0.20557 
0.912763 -1.09129 0.20636 
0.91239 -1.09171 0.207151 
0.912017 -1.09213 0.207944 
0.911643 -1.09255 0.208737 
0.911268 -1.09297 0.209532 
0.910893 -1.09339 0.210327 
0.910517 -1.09381 0.211124 
0.910141 -1.09423 0.211922 
0.909764 -1.09465 0.212722 
0.909386 -1.09508 0.213523 
0.909007 -1.0955 0.214325 
0.908628 -1.09592 0.215129 
0.908248 -1.09635 0.215934 
0.907867 -1.09678 0.216741 
0.907486 -1.0972 0.217549 
0.907103 -1.09763 0.218359 
0.90672 -1.09806 0.219171 
0.906336 -1.09849 0.219984 
0.905951 -1.09892 0.2208 
0.905566 -1.09935 0.221617 
0.905179 -1.09978 0.222436 
0.904791 -1.10022 0.223256 
0.904403 -1.10065 0.224079 
0.904013 -1.10109 0.224904 
0.903623 -1.10152 0.22573 
0.903231 -1.10196 0.226559 
0.902839 -1.1024 0.22739 
0.902445 -1.10284 0.228223 
0.90205 -1.10328 0.229058 
0.901654 -1.10372 0.229895 
0.901257 -1.10416 0.230734 
0.900859 -1.1046 0.231576 
0.90046 -1.10505 0.23242 
0.90006 -1.10549 0.233266 
0.899658 -1.10594 0.234114 
0.899255 -1.10639 0.234965 
0.898851 -1.10684 0.235818 
0.898446 -1.10729 0.236673 
0.898039 -1.10774 0.237531 
0.897631 -1.10819 0.238391 
0.897222 -1.10864 0.239254 
0.896811 -1.1091 0.240119 
0.896399 -1.10955 0.240987 
0.895986 -1.11001 0.241857 
0.895571 -1.11047 0.242729 
0.895155 -1.11093 0.243604 
0.894737 -1.11139 0.244482 
0.894318 -1.11185 0.245362 
0.893898 -1.11231 0.246245 
0.893476 -1.11277 0.24713 
0.893052 -1.11324 0.248018 
0.892627 -1.1137 0.248909 
0.892201 -1.11417 0.249802 
0.891773 -1.11464 0.250698 
0.891343 -1.11511 0.251596 
0.890912 -1.11558 0.252497 
0.890479 -1.11605 0.253401 
0.890045 -1.11652 0.254307 
0.889609 -1.11699 0.255216 
0.889171 -1.11747 0.256128 
0.888732 -1.11794 0.257042 
0.888291 -1.11842 0.257959 
0.887849 -1.1189 0.258879 
0.887405 -1.11937 0.259801 
0.886959 -1.11985 0.260726 
0.886511 -1.12033 0.261653 
0.886062 -1.12081 0.262583 
0.885611 -1.1213 0.263516 
0.885158 -1.12178 0.264452 
0.884704 -1.12226 0.26539 
0.884248 -1.12275 0.26633 
0.88379 -1.12323 0.267273 
0.88333 -1.12372 0.268219 
0.882869 -1.1242 0.269168 
0.882406 -1.12469 0.270119 
0.881941 -1.12518 0.271072 
0.881474 -1.12567 0.272028 
0.881006 -1.12616 0.272986 
0.880536 -1.12665 0.273947 
0.880064 -1.12714 0.274911 
0.87959 -1.12763 0.275877 
0.879115 -1.12813 0.276845 
0.878637 -1.12862 0.277816 
0.878158 -1.12911 0.278789 
0.877677 -1.12961 0.279764 
0.877195 -1.1301 0.280742 
0.87671 -1.1306 0.281722 
0.876224 -1.1311 0.282704 
0.875736 -1.13159 0.283689 
0.875246 -1.13209 0.284675 
0.874755 -1.13259 0.285664 
0.874262 -1.13308 0.286655 
0.873767 -1.13358 0.287648 
0.87327 -1.13408 0.288643 
0.872772 -1.13458 0.28964 
0.872272 -1.13508 0.290639 
0.87177 -1.13558 0.29164 
0.871266 -1.13608 0.292643 
0.870761 -1.13658 0.293647 
0.870254 -1.13708 0.294654 
0.869745 -1.13757 0.295662 
0.869235 -1.13807 0.296671 
0.868723 -1.13857 0.297682 
0.86821 -1.13907 0.298695 
0.867695 -1.13957 0.299709 
0.867178 -1.14007 0.300725 
0.86666 -1.14057 0.301742 
0.86614 -1.14107 0.30276 
0.865619 -1.14157 0.303779 
0.865096 -1.14206 0.304799 
0.864572 -1.14256 0.305821 
0.864046 -1.14306 0.306843 
0.863519 -1.14355 0.307866 
0.862991 -1.14405 0.30889 
0.862461 -1.14454 0.309914 
0.86193 -1.14504 0.31094 
0.861397 -1.14553 0.311965 
0.860864 -1.14602 0.312991 
0.860329 -1.14651 0.314018 
0.859793 -1.147 0.315044 
0.859255 -1.14749 0.316071 
0.858717 -1.14798 0.317098 
0.858178 -1.14847 0.318124 
0.857637 -1.14896 0.31915 
0.857096 -1.14944 0.320176 
0.856553 -1.14992 0.321202 
0.85601 -1.1504 0.322227 
0.855466 -1.15088 0.323251 
0.854921 -1.15136 0.324274 
0.854375 -1.15184 0.325296 
0.853829 -1.15231 0.326317 
0.853282 -1.15279 0.327337 
0.852734 -1.15326 0.328356 
0.852186 -1.15373 0.329373 
0.851637 -1.15419 0.330388 
0.851088 -1.15466 0.331402 
0.850539 -1.15512 0.332414 
0.849989 -1.15558 0.333423 
0.849439 -1.15604 0.33443 
0.848889 -1.15649 0.335435 
0.848339 -1.15694 0.336438 
0.847789 -1.15739 0.337437 
0.847239 -1.15784 0.338434 
0.846689 -1.15828 0.339428 
0.84614 -1.15873 0.340418 
0.84559 -1.15916 0.341405 
0.845041 -1.1596 0.342389 
0.844492 -1.16003 0.343369 
0.843944 -1.16046 0.344345 
0.843397 -1.16088 0.345317 
0.84285 -1.1613 0.346286 
0.842304 -1.16172 0.347249 
0.841759 -1.16214 0.348209 
0.841214 -1.16255 0.349164 
0.840671 -1.16295 0.350114 
0.840129 -1.16336 0.351059 
0.839588 -1.16375 0.351999 
0.839048 -1.16415 0.352934 
0.83851 -1.16454 0.353863 
0.837973 -1.16493 0.354787 
0.837438 -1.16531 0.355706 
0.836904 -1.16569 0.356618 
0.836372 -1.16606 0.357525 
0.835842 -1.16644 0.358426 
0.835313 -1.1668 0.35932 
0.834787 -1.16716 0.360209 
0.834263 -1.16752 0.361091 
0.833741 -1.16787 0.361966 
0.833221 -1.16822 0.362835 
0.832703 -1.16857 0.363697 
0.832188 -1.16891 0.364553 
0.831676 -1.16924 0.365401 
0.831166 -1.16958 0.366243 
0.830658 -1.1699 0.367077 
0.830154 -1.17023 0.367905 
0.829652 -1.17054 0.368725 
0.829153 -1.17086 0.369538 
0.828657 -1.17117 0.370344 
0.828164 -1.17147 0.371142 
0.827675 -1.17178 0.371933 
0.827188 -1.17207 0.372716 
0.826705 -1.17237 0.373492 
0.826225 -1.17265 0.374261 
0.825749 -1.17294 0.375022 
0.825276 -1.17322 0.375775 
0.824806 -1.1735 0.376521 
0.82434 -1.17377 0.37726 
0.823878 -1.17404 0.37799 
0.82342 -1.1743 0.378714 
0.822965 -1.17456 0.379429 
0.822514 -1.17482 0.380138 
0.822067 -1.17507 0.380838 
0.821623 -1.17532 0.381532 
0.821184 -1.17557 0.382217 
0.820749 -1.17581 0.382896 
0.820317 -1.17605 0.383566 
0.81989 -1.17629 0.38423 
0.819467 -1.17652 0.384886 
0.819048 -1.17675 0.385535 
0.818633 -1.17698 0.386177 
0.818222 -1.1772 0.386811 
0.817816 -1.17742 0.387439 
0.817413 -1.17764 0.388059 
0.817015 -1.17786 0.388672 
0.816621 -1.17807 0.389279 
0.816231 -1.17828 0.389878 
0.815846 -1.17848 0.390471 
0.815465 -1.17869 0.391057 
0.815088 -1.17889 0.391636 
0.814715 -1.17909 0.392208 
0.814347 -1.17929 0.392774 
0.813983 -1.17948 0.393334 
0.813623 -1.17968 0.393887 
0.813268 -1.17987 0.394433 
0.812916 -1.18006 0.394974 
0.81257 -1.18025 0.395508 
0.812227 -1.18043 0.396036 
0.811889 -1.18061 0.396557 
0.811555 -1.1808 0.397073 
0.811225 -1.18098 0.397583 
0.810899 -1.18115 0.398087 
0.810578 -1.18133 0.398585 
0.810261 -1.18151 0.399078 
0.809948 -1.18168 0.399564 
0.809639 -1.18185 0.400046 
0.809334 -1.18202 0.400521 
0.809034 -1.18219 0.400992 
0.808737 -1.18236 0.401456 
0.808445 -1.18253 0.401916 
0.808157 -1.18269 0.40237 
0.807872 -1.18286 0.402819 
0.807592 -1.18302 0.403263 
0.807316 -1.18319 0.403702 
0.807044 -1.18335 0.404136 
0.806776 -1.18351 0.404565 
0.806511 -1.18367 0.404989 
0.806251 -1.18383 0.405409 
0.805994 -1.18399 0.405823 
0.805742 -1.18414 0.406233 
0.805493 -1.1843 0.406638 
0.805247 -1.18445 0.407039 
0.805006 -1.18461 0.407436 
0.804768 -1.18476 0.407827 
0.804535 -1.18492 0.408215 
0.804304 -1.18507 0.408598 
0.804078 -1.18522 0.408977 
0.803855 -1.18537 0.409352 
0.803635 -1.18553 0.409722 
0.803419 -1.18568 0.410089 
0.803207 -1.18583 0.410451 
0.802998 -1.18598 0.41081 
0.802793 -1.18612 0.411164 
0.802591 -1.18627 0.411515 
0.802392 -1.18642 0.411862 
0.802197 -1.18657 0.412205 
0.802005 -1.18672 0.412544 
0.801816 -1.18686 0.41288 
0.801631 -1.18701 0.413211 
0.801449 -1.18716 0.41354 
0.80127 -1.1873 0.413865 
0.801094 -1.18745 0.414186 
0.800922 -1.18759 0.414504 
0.800752 -1.18774 0.414818 
0.800586 -1.18788 0.415129 
0.800423 -1.18803 0.415436 
0.800263 -1.18817 0.415741 
0.800105 -1.18831 0.416042 
0.799951 -1.18846 0.41634 
0.7998 -1.1886 0.416634 
0.799651 -1.18874 0.416926 
0.799506 -1.18889 0.417214 
0.799363 -1.18903 0.417499 
0.799223 -1.18917 0.417781 
0.799086 -1.18931 0.418061 
0.798952 -1.18946 0.418337 
0.79882 -1.1896 0.41861 
0.798692 -1.18974 0.41888 
0.798566 -1.18988 0.419148 
0.798442 -1.19002 0.419412 
0.798321 -1.19016 0.419674 
0.798203 -1.1903 0.419933 
0.798087 -1.19044 0.420189 
0.797974 -1.19058 0.420442 
0.797864 -1.19072 0.420693 
0.797756 -1.19086 0.420941 
0.79765 -1.191 0.421186 
0.797547 -1.19114 0.421429 
0.797446 -1.19128 0.421669 
0.797348 -1.19142 0.421906 
0.797252 -1.19156 0.422141 
0.797158 -1.1917 0.422373 
0.797067 -1.19184 0.422602 
0.796978 -1.19198 0.422829 
0.796891 -1.19211 0.423053 
0.796807 -1.19225 0.423275 
0.796725 -1.19239 0.423495 
0.796645 -1.19252 0.423712 
0.796567 -1.19266 0.423926 
0.796491 -1.1928 0.424138 
0.796418 -1.19293 0.424347 
0.796347 -1.19307 0.424554 
0.796277 -1.1932 0.424759 
0.79621 -1.19334 0.424961 
0.796145 -1.19347 0.42516 
0.796082 -1.19361 0.425358 
0.796021 -1.19374 0.425552 
0.795962 -1.19387 0.425745 
0.795905 -1.19401 0.425935 
0.79585 -1.19414 0.426122 
0.795796 -1.19427 0.426307 
0.795745 -1.1944 0.42649 
0.795696 -1.19453 0.42667 
0.795648 -1.19466 0.426848 
0.795603 -1.19479 0.427024 
0.795559 -1.19492 0.427197 
0.795517 -1.19505 0.427367 
0.795477 -1.19518 0.427535 
0.795439 -1.19531 0.427701 
0.795402 -1.19543 0.427864 
0.795368 -1.19556 0.428025 
0.795335 -1.19569 0.428183 
0.795304 -1.19581 0.428339 
0.795274 -1.19593 0.428492 
0.795246 -1.19606 0.428643 
0.79522 -1.19618 0.428791 
0.795196 -1.1963 0.428937 
0.795173 -1.19642 0.42908 
0.795152 -1.19654 0.429221 
0.795133 -1.19666 0.429359 
0.795115 -1.19678 0.429494 
0.795099 -1.19689 0.429627 
0.795084 -1.19701 0.429757 
0.795071 -1.19712 0.429884 
0.79506 -1.19724 0.430008 
0.79505 -1.19735 0.43013 
0.795042 -1.19746 0.430249 
0.795035 -1.19757 0.430365 
0.79503 -1.19768 0.430479 
0.795027 -1.19778 0.430589 
0.795025 -1.19789 0.430696 
