0.0998831 -0.255248 0.403974 
0.112065 -0.290878 0.387728 
0.122369 -0.289345 0.372888 
0.131144 -0.286011 0.359452 
0.138729 -0.282723 0.347245 
0.145378 -0.279523 0.336062 
0.151279 -0.276404 0.325718 
0.156572 -0.273358 0.316065 
0.161364 -0.270377 0.306981 
0.165737 -0.267453 0.298372 
0.169754 -0.264581 0.290162 
0.173468 -0.261755 0.282292 
0.176919 -0.258969 0.274714 
0.180141 -0.25622 0.267389 
0.183161 -0.253503 0.260286 
0.186003 -0.250815 0.253378 
0.188686 -0.248152 0.246644 
0.191226 -0.245513 0.240067 
0.193637 -0.242893 0.23363 
0.195933 -0.240293 0.227322 
0.198122 -0.237708 0.221131 
0.200215 -0.235139 0.215048 
0.202219 -0.232582 0.209065 
0.204141 -0.230038 0.203175 
0.205989 -0.227505 0.197371 
0.207766 -0.224982 0.191649 
0.209479 -0.222468 0.186004 
0.211132 -0.219962 0.18043 
0.212728 -0.217464 0.174926 
0.214272 -0.214973 0.169487 
0.215767 -0.212489 0.16411 
0.217215 -0.21001 0.158794 
0.218621 -0.207538 0.153534 
0.219985 -0.205071 0.148329 
0.22131 -0.202609 0.143178 
0.222599 -0.200152 0.138078 
0.223854 -0.1977 0.133027 
0.225075 -0.195252 0.128024 
0.226266 -0.192808 0.123067 
0.227427 -0.190368 0.118156 
0.22856 -0.187933 0.113288 
0.229665 -0.185501 0.108463 
0.230746 -0.183073 0.103679 
0.231802 -0.180648 0.0989361 
0.232834 -0.178227 0.0942324 
0.233844 -0.17581 0.0895672 
0.234833 -0.173396 0.0849396 
0.235801 -0.170985 0.0803487 
0.236749 -0.168578 0.0757939 
0.237678 -0.166174 0.0712742 
0.23859 -0.163774 0.066789 
0.239483 -0.161376 0.0623376 
0.24036 -0.158982 0.0579192 
0.241221 -0.156591 0.0535333 
0.242066 -0.154203 0.0491791 
0.242896 -0.151818 0.0448561 
0.243711 -0.149436 0.0405638 
0.244513 -0.147057 0.0363014 
0.2453 -0.144681 0.0320686 
0.246075 -0.142309 0.0278648 
0.246837 -0.139939 0.0236894 
0.247587 -0.137573 0.019542 
0.248324 -0.135209 0.015422 
0.249051 -0.132849 0.0113291 
0.249766 -0.130491 0.0072627 
0.25047 -0.128137 0.00322245 
0.251164 -0.125785 -0.000792117 
0.251847 -0.123436 -0.00478141 
0.252521 -0.121091 -0.00874585 
0.253185 -0.118748 -0.0126858 
0.253839 -0.116408 -0.0166017 
0.254485 -0.114072 -0.0204939 
0.255122 -0.111738 -0.0243628 
0.25575 -0.109407 -0.0282087 
0.256369 -0.107079 -0.0320319 
0.256981 -0.104754 -0.0358329 
0.257584 -0.102431 -0.039612 
0.25818 -0.100112 -0.0433694 
0.258769 -0.0977957 -0.0471055 
0.25935 -0.0954821 -0.0508207 
0.259923 -0.0931715 -0.0545151 
0.26049 -0.0908637 -0.0581892 
0.26105 -0.0885588 -0.0618433 
0.261603 -0.0862568 -0.0654775 
0.26215 -0.0839576 -0.0690922 
0.26269 -0.0816612 -0.0726876 
0.263225 -0.0793677 -0.0762641 
0.263753 -0.0770771 -0.0798219 
0.264275 -0.0747892 -0.0833612 
0.264791 -0.0725042 -0.0868823 
0.265302 -0.070222 -0.0903854 
0.265807 -0.0679426 -0.0938709 
0.266307 -0.065666 -0.0973389 
0.266801 -0.0633922 -0.10079 
0.26729 -0.0611212 -0.104223 
0.267775 -0.0588529 -0.10764 
0.268254 -0.0565875 -0.111041 
0.268728 -0.0543248 -0.114425 
0.269197 -0.0520648 -0.117793 
0.269662 -0.0498077 -0.121144 
0.270122 -0.0475532 -0.124481 
0.270578 -0.0453015 -0.127801 
0.271029 -0.0430525 -0.131107 
0.271476 -0.0408063 -0.134397 
0.271919 -0.0385628 -0.137672 
0.272357 -0.0363219 -0.140933 
0.272791 -0.0340838 -0.144178 
0.273222 -0.0318484 -0.14741 
0.273648 -0.0296156 -0.150627 
0.274071 -0.0273855 -0.15383 
0.274489 -0.0251581 -0.15702 
0.274904 -0.0229334 -0.160195 
0.275316 -0.0207113 -0.163357 
0.275723 -0.0184919 -0.166506 
0.276128 -0.0162751 -0.169641 
0.276528 -0.0140609 -0.172763 
0.276926 -0.0118494 -0.175873 
0.277319 -0.00964049 -0.178969 
0.27771 -0.00743418 -0.182053 
0.278097 -0.00523048 -0.185124 
0.278482 -0.00302937 -0.188183 
0.278863 -0.000830843 -0.19123 
0.279241 0.0013651 -0.194265 
0.279615 0.00355848 -0.197287 
0.279987 0.00574929 -0.200298 
0.280356 0.00793755 -0.203298 
0.280722 0.0101233 -0.206285 
0.281086 0.0123064 -0.209262 
0.281446 0.0144871 -0.212227 
0.281804 0.0166652 -0.21518 
0.282158 0.0188408 -0.218123 
0.282511 0.0210139 -0.221055 
0.28286 0.0231844 -0.223976 
0.283207 0.0253525 -0.226886 
0.283552 0.0275181 -0.229785 
0.283893 0.0296813 -0.232674 
0.284233 0.0318419 -0.235553 
0.28457 0.0340001 -0.238422 
0.284904 0.0361559 -0.24128 
0.285237 0.0383092 -0.244128 
0.285566 0.04046 -0.246966 
0.285894 0.0426085 -0.249795 
0.286219 0.0447545 -0.252613 
0.286542 0.0468981 -0.255422 
0.286863 0.0490392 -0.258222 
0.287181 0.051178 -0.261011 
0.287498 0.0533144 -0.263792 
0.287812 0.0554484 -0.266563 
0.288124 0.05758 -0.269325 
0.288434 0.0597093 -0.272078 
0.288742 0.0618362 -0.274822 
0.289048 0.0639607 -0.277557 
0.289352 0.0660829 -0.280283 
0.289654 0.0682028 -0.283 
0.289954 0.0703203 -0.285709 
0.290253 0.0724355 -0.288409 
0.290549 0.0745484 -0.2911 
0.290843 0.076659 -0.293783 
0.291136 0.0787673 -0.296458 
0.291427 0.0808733 -0.299124 
0.291716 0.082977 -0.301783 
0.292003 0.0850784 -0.304433 
0.292289 0.0871775 -0.307075 
0.292572 0.0892744 -0.309709 
0.292854 0.0913691 -0.312335 
0.293135 0.0934614 -0.314953 
0.293413 0.0955516 -0.317564 
0.29369 0.0976395 -0.320166 
0.293966 0.0997252 -0.322761 
0.294239 0.101809 -0.325349 
0.294512 0.10389 -0.327929 
0.294782 0.105969 -0.330502 
0.295051 0.108046 -0.333067 
0.295319 0.11012 -0.335625 
0.295585 0.112193 -0.338175 
0.295849 0.114263 -0.340719 
0.296112 0.116331 -0.343255 
0.296374 0.118397 -0.345784 
0.296634 0.120461 -0.348307 
0.296893 0.122523 -0.350822 
0.29715 0.124582 -0.35333 
0.297406 0.12664 -0.355832 
0.29766 0.128695 -0.358327 
0.297913 0.130748 -0.360815 
0.298165 0.132799 -0.363296 
0.298415 0.134848 -0.365771 
0.298665 0.136895 -0.368239 
0.298912 0.13894 -0.370701 
0.299159 0.140982 -0.373157 
0.299404 0.143023 -0.375605 
0.299648 0.145061 -0.378048 
0.29989 0.147098 -0.380484 
0.300132 0.149132 -0.382914 
0.300372 0.151164 -0.385338 
0.300611 0.153195 -0.387756 
0.300848 0.155223 -0.390167 
0.301085 0.157249 -0.392573 
0.30132 0.159273 -0.394972 
0.301554 0.161295 -0.397366 
0.301787 0.163316 -0.399753 
0.302019 0.165334 -0.402135 
0.30225 0.16735 -0.404511 
0.30248 0.169364 -0.406881 
0.302708 0.171376 -0.409246 
0.302935 0.173386 -0.411604 
0.303162 0.175395 -0.413957 
0.303387 0.177401 -0.416305 
0.303611 0.179405 -0.418647 
0.303834 0.181408 -0.420983 
0.304056 0.183408 -0.423314 
0.304277 0.185406 -0.425639 
0.304497 0.187403 -0.427959 
0.304716 0.189397 -0.430274 
0.304934 0.19139 -0.432583 
0.305151 0.193381 -0.434887 
0.305366 0.19537 -0.437186 
0.305581 0.197357 -0.439479 
0.305795 0.199342 -0.441767 
0.306008 0.201325 -0.444051 
0.30622 0.203306 -0.446329 
0.306431 0.205285 -0.448602 
0.306641 0.207263 -0.45087 
0.306851 0.209238 -0.453133 
0.307059 0.211212 -0.455391 
0.307266 0.213184 -0.457644 
0.307473 0.215154 -0.459892 
0.307678 0.217122 -0.462135 
0.307883 0.219089 -0.464374 
0.308087 0.221053 -0.466607 
0.308289 0.223016 -0.468836 
0.308492 0.224977 -0.47106 
0.308693 0.226936 -0.47328 
0.308893 0.228893 -0.475495 
0.309092 0.230849 -0.477705 
0.309291 0.232802 -0.47991 
0.309489 0.234754 -0.482111 
0.309686 0.236704 -0.484308 
0.309882 0.238653 -0.4865 
0.310077 0.240599 -0.488687 
0.310272 0.242544 -0.49087 
0.310466 0.244487 -0.493049 
0.310659 0.246428 -0.495223 
0.310851 0.248367 -0.497392 
0.311042 0.250305 -0.499558 
0.311233 0.252241 -0.501719 
0.311423 0.254175 -0.503876 
0.311612 0.256108 -0.506028 
0.3118 0.258038 -0.508177 
0.311988 0.259967 -0.510321 
0.312174 0.261895 -0.512461 
0.31236 0.26382 -0.514596 
0.312546 0.265744 -0.516728 
0.312731 0.267666 -0.518856 
0.312914 0.269587 -0.520979 
0.313098 0.271506 -0.523098 
0.31328 0.273423 -0.525214 
0.313462 0.275338 -0.527325 
0.313643 0.277252 -0.529432 
0.313824 0.279164 -0.531536 
0.314003 0.281074 -0.533635 
0.314183 0.282983 -0.535731 
0.314361 0.28489 -0.537823 
0.314539 0.286796 -0.53991 
0.314716 0.288699 -0.541994 
0.314892 0.290602 -0.544074 
0.315068 0.292502 -0.546151 
0.315243 0.294401 -0.548223 
0.315417 0.296298 -0.550292 
0.315591 0.298194 -0.552357 
0.315765 0.300088 -0.554419 
0.315937 0.30198 -0.556477 
0.316109 0.303871 -0.558531 
0.31628 0.30576 -0.560581 
0.316451 0.307648 -0.562628 
0.316621 0.309534 -0.564671 
0.316791 0.311418 -0.566711 
0.31696 0.313301 -0.568747 
0.317128 0.315182 -0.570779 
0.317296 0.317061 -0.572808 
0.317463 0.31894 -0.574834 
0.317629 0.320816 -0.576856 
0.317795 0.322691 -0.578874 
0.31796 0.324564 -0.580889 
0.318125 0.326436 -0.582901 
0.318289 0.328306 -0.584909 
0.318453 0.330175 -0.586914 
0.318616 0.332042 -0.588916 
0.318779 0.333908 -0.590914 
0.318941 0.335772 -0.592909 
0.319102 0.337634 -0.594901 
0.319263 0.339495 -0.596889 
0.319423 0.341355 -0.598874 
0.319583 0.343213 -0.600856 
0.319742 0.345069 -0.602834 
0.319901 0.346924 -0.604809 
0.320059 0.348778 -0.606781 
0.320217 0.35063 -0.60875 
0.320374 0.35248 -0.610716 
0.320531 0.354329 -0.612678 
0.320687 0.356177 -0.614638 
0.320843 0.358023 -0.616594 
0.320998 0.359867 -0.618547 
0.321152 0.36171 -0.620497 
0.321307 0.363552 -0.622444 
0.32146 0.365392 -0.624388 
0.321613 0.36723 -0.626329 
0.321766 0.369068 -0.628267 
0.321918 0.370903 -0.630202 
0.32207 0.372738 -0.632134 
0.322221 0.37457 -0.634063 
0.322372 0.376402 -0.635989 
0.322522 0.378232 -0.637912 
0.322672 0.38006 -0.639832 
0.322821 0.381887 -0.641749 
0.32297 0.383713 -0.643663 
0.323118 0.385537 -0.645575 
0.323266 0.38736 -0.647483 
0.323414 0.389181 -0.649389 
0.323561 0.391001 -0.651292 
0.323707 0.39282 -0.653192 
0.323853 0.394637 -0.655089 
0.323999 0.396453 -0.656983 
0.324144 0.398267 -0.658875 
0.324289 0.40008 -0.660763 
0.324433 0.401892 -0.662649 
0.324577 0.403702 -0.664532 
0.324721 0.405511 -0.666413 
0.324864 0.407318 -0.668291 
0.325006 0.409124 -0.670166 
0.325149 0.410929 -0.672038 
0.32529 0.412732 -0.673908 
0.325432 0.414534 -0.675775 
0.325573 0.416334 -0.677639 
0.325713 0.418134 -0.679501 
0.325853 0.419931 -0.68136 
0.325993 0.421728 -0.683216 
0.326132 0.423523 -0.68507 
0.326271 0.425317 -0.686921 
0.32641 0.427109 -0.68877 
0.326548 0.4289 -0.690616 
0.326686 0.43069 -0.69246 
0.326823 0.432478 -0.694301 
0.32696 0.434266 -0.696139 
0.327096 0.436051 -0.697975 
0.327233 0.437836 -0.699808 
0.327368 0.439619 -0.701639 
0.327504 0.441401 -0.703467 
0.327639 0.443181 -0.705293 
0.327773 0.44496 -0.707117 
0.327908 0.446738 -0.708938 
0.328041 0.448515 -0.710756 
0.328175 0.45029 -0.712572 
0.328308 0.452064 -0.714386 
0.328441 0.453837 -0.716197 
0.328573 0.455608 -0.718006 
0.328705 0.457378 -0.719813 
0.328837 0.459147 -0.721617 
0.328968 0.460915 -0.723418 
0.329099 0.462681 -0.725218 
0.32923 0.464446 -0.727015 
0.32936 0.46621 -0.728809 
0.32949 0.467972 -0.730602 
0.329619 0.469733 -0.732392 
0.329749 0.471493 -0.734179 
0.329877 0.473252 -0.735965 
0.330006 0.475009 -0.737748 
0.330134 0.476765 -0.739529 
0.330262 0.47852 -0.741307 
0.330389 0.480274 -0.743083 
0.330516 0.482026 -0.744857 
0.330643 0.483777 -0.746629 
0.33077 0.485527 -0.748399 
0.330896 0.487276 -0.750166 
0.331022 0.489024 -0.751931 
0.331147 0.49077 -0.753694 
0.331272 0.492515 -0.755455 
0.331397 0.494259 -0.757213 
0.331522 0.496001 -0.75897 
0.331646 0.497742 -0.760724 
0.33177 0.499482 -0.762476 
0.331893 0.501221 -0.764226 
0.332017 0.502959 -0.765974 
0.332139 0.504696 -0.767719 
0.332262 0.506431 -0.769463 
0.332384 0.508165 -0.771204 
0.332506 0.509898 -0.772943 
0.332628 0.511629 -0.77468 
0.332749 0.51336 -0.776416 
0.332871 0.515089 -0.778149 
0.332991 0.516817 -0.779879 
0.333112 0.518544 -0.781608 
0.333232 0.52027 -0.783335 
0.333352 0.521994 -0.78506 
0.333471 0.523718 -0.786783 
0.333591 0.52544 -0.788503 
0.33371 0.527161 -0.790222 
0.333828 0.528881 -0.791939 
0.333947 0.530599 -0.793653 
0.334065 0.532317 -0.795366 
0.334183 0.534033 -0.797077 
0.3343 0.535748 -0.798785 
0.334417 0.537462 -0.800492 
0.334534 0.539175 -0.802197 
0.334651 0.540887 -0.8039 
0.334768 0.542598 -0.8056 
0.334884 0.544307 -0.807299 
0.335 0.546015 -0.808996 
0.335115 0.547722 -0.810691 
0.33523 0.549428 -0.812384 
0.335345 0.551133 -0.814076 
0.33546 0.552837 -0.815765 
0.335575 0.554539 -0.817452 
0.335689 0.556241 -0.819138 
0.335803 0.557941 -0.820821 
0.335916 0.55964 -0.822503 
0.33603 0.561338 -0.824183 
0.336143 0.563035 -0.825861 
0.336256 0.564731 -0.827537 
0.336369 0.566426 -0.829211 
0.336481 0.568119 -0.830884 
0.336593 0.569812 -0.832554 
0.336705 0.571503 -0.834223 
0.336816 0.573194 -0.83589 
0.336928 0.574883 -0.837555 
0.337039 0.576571 -0.839219 
0.33715 0.578258 -0.84088 
0.33726 0.579944 -0.84254 
0.33737 0.581628 -0.844198 
0.337481 0.583312 -0.845854 
0.33759 0.584995 -0.847508 
0.3377 0.586676 -0.849161 
0.337809 0.588356 -0.850812 
0.337918 0.590036 -0.852461 
0.338027 0.591714 -0.854108 
0.338136 0.593391 -0.855754 
0.338244 0.595067 -0.857398 
0.338352 0.596742 -0.85904 
0.33846 0.598416 -0.86068 
0.338568 0.600089 -0.862319 
0.338675 0.601761 -0.863956 
0.338782 0.603431 -0.865591 
0.338889 0.605101 -0.867225 
0.338996 0.60677 -0.868857 
0.339102 0.608437 -0.870487 
0.339208 0.610104 -0.872116 
0.339314 0.611769 -0.873742 
0.33942 0.613433 -0.875368 
0.339526 0.615097 -0.876991 
0.339631 0.616759 -0.878613 
0.339736 0.61842 -0.880233 
0.339841 0.62008 -0.881852 
0.339946 0.621739 -0.883469 
0.34005 0.623397 -0.885084 
0.340154 0.625054 -0.886697 
0.340258 0.62671 -0.888309 
0.340362 0.628365 -0.88992 
0.340465 0.630019 -0.891529 
0.340569 0.631672 -0.893136 
0.340672 0.633324 -0.894741 
0.340774 0.634975 -0.896345 
0.340877 0.636625 -0.897948 
0.340979 0.638273 -0.899549 
0.341082 0.639921 -0.901148 
0.341184 0.641568 -0.902745 
0.341285 0.643214 -0.904341 
0.341387 0.644858 -0.905936 
0.341488 0.646502 -0.907529 
0.341589 0.648145 -0.90912 
0.34169 0.649786 -0.91071 
0.341791 0.651427 -0.912298 
0.341892 0.653067 -0.913885 
0.341992 0.654705 -0.91547 
0.342092 0.656343 -0.917054 
0.342192 0.65798 -0.918636 
0.342292 0.659615 -0.920217 
0.342391 0.66125 -0.921796 
0.34249 0.662883 -0.923374 
0.34259 0.664516 -0.92495 
0.342688 0.666148 -0.926524 
0.342787 0.667778 -0.928098 
0.342886 0.669408 -0.929669 
0.342984 0.671037 -0.931239 
0.343082 0.672664 -0.932808 
0.34318 0.674291 -0.934375 
0.343278 0.675917 -0.935941 
0.343375 0.677542 -0.937505 
0.343472 0.679165 -0.939068 
0.343569 0.680788 -0.940629 
0.343666 0.68241 -0.942189 
0.343763 0.684031 -0.943748 
0.34386 0.685651 -0.945305 
0.343956 0.68727 -0.94686 
0.344052 0.688888 -0.948415 
0.344148 0.690505 -0.949967 
0.344244 0.692121 -0.951519 
0.34434 0.693736 -0.953068 
0.344435 0.69535 -0.954617 
0.34453 0.696963 -0.956164 
0.344625 0.698575 -0.95771 
0.34472 0.700186 -0.959254 
0.344815 0.701797 -0.960797 
0.344909 0.703406 -0.962338 
0.345004 0.705014 -0.963878 
0.345098 0.706622 -0.965417 
0.345192 0.708228 -0.966954 
0.345285 0.709834 -0.96849 
0.345379 0.711438 -0.970025 
0.345472 0.713042 -0.971558 
0.345566 0.714645 -0.97309 
0.345659 0.716246 -0.97462 
0.345752 0.717847 -0.976149 
0.345844 0.719447 -0.977677 
0.345937 0.721046 -0.979204 
0.346029 0.722644 -0.980729 
0.346121 0.724241 -0.982252 
0.346213 0.725837 -0.983775 
0.346305 0.727433 -0.985296 
0.346397 0.729027 -0.986816 
0.346488 0.73062 -0.988334 
0.34658 0.732213 -0.989851 
0.346671 0.733804 -0.991367 
0.346762 0.735395 -0.992881 
0.346853 0.736985 -0.994395 
0.346943 0.738573 -0.995906 
0.347034 0.740161 -0.997417 
0.347124 0.741748 -0.998926 
0.347214 0.743334 -1.00043 
0.347304 0.744919 -1.00194 
0.347394 0.746504 -1.00345 
0.347484 0.748087 -1.00495 
0.347573 0.749669 -1.00645 
0.347663 0.751251 -1.00796 
0.347752 0.752831 -1.00946 
0.347841 0.754411 -1.01095 
0.34793 0.75599 -1.01245 
0.348018 0.757568 -1.01395 
0.348107 0.759145 -1.01544 
0.348195 0.760721 -1.01694 
0.348283 0.762296 -1.01843 
0.348372 0.763871 -1.01992 
0.348459 0.765444 -1.02141 
0.348547 0.767017 -1.0229 
0.348635 0.768588 -1.02439 
0.348722 0.770159 -1.02588 
0.348809 0.771729 -1.02736 
0.348897 0.773298 -1.02885 
0.348984 0.774866 -1.03033 
0.34907 0.776433 -1.03181 
0.349157 0.778 -1.03329 
0.349244 0.779565 -1.03477 
0.34933 0.78113 -1.03625 
0.349416 0.782693 -1.03773 
0.349502 0.784256 -1.0392 
0.349588 0.785818 -1.04068 
0.349674 0.787379 -1.04215 
0.349759 0.788939 -1.04362 
0.349845 0.790499 -1.04509 
0.34993 0.792057 -1.04656 
0.350015 0.793615 -1.04803 
0.3501 0.795172 -1.0495 
0.350185 0.796728 -1.05096 
0.35027 0.798283 -1.05243 
0.350355 0.799837 -1.05389 
0.350439 0.80139 -1.05536 
0.350523 0.802943 -1.05682 
0.350607 0.804494 -1.05828 
0.350691 0.806045 -1.05974 
0.350775 0.807595 -1.0612 
0.350859 0.809144 -1.06265 
0.350943 0.810692 -1.06411 
0.351026 0.812239 -1.06556 
0.351109 0.813786 -1.06702 
0.351193 0.815332 -1.06847 
0.351276 0.816876 -1.06992 
0.351358 0.81842 -1.07137 
0.351441 0.819963 -1.07282 
0.351524 0.821506 -1.07427 
0.351606 0.823047 -1.07571 
0.351689 0.824588 -1.07716 
0.351771 0.826127 -1.0786 
0.351853 0.827666 -1.08005 
0.351935 0.829204 -1.08149 
0.352016 0.830742 -1.08293 
0.352098 0.832278 -1.08437 
0.35218 0.833814 -1.08581 
0.352261 0.835348 -1.08725 
0.352342 0.836882 -1.08869 
0.352423 0.838415 -1.09012 
0.352504 0.839948 -1.09156 
0.352585 0.841479 -1.09299 
0.352666 0.84301 -1.09442 
0.352746 0.844539 -1.09585 
0.352827 0.846068 -1.09728 
0.352907 0.847596 -1.09871 
0.352987 0.849124 -1.10014 
0.353068 0.85065 -1.10157 
0.353147 0.852176 -1.10299 
0.353227 0.853701 -1.10442 
0.353307 0.855225 -1.10584 
0.353386 0.856748 -1.10727 
0.353466 0.85827 -1.10869 
0.353545 0.859792 -1.11011 
0.353624 0.861313 -1.11153 
0.353703 0.862833 -1.11295 
0.353782 0.864352 -1.11437 
0.353861 0.86587 -1.11578 
0.35394 0.867388 -1.1172 
0.354018 0.868905 -1.11861 
0.354097 0.870421 -1.12003 
0.354175 0.871936 -1.12144 
0.354253 0.87345 -1.12285 
0.354331 0.874964 -1.12426 
0.354409 0.876476 -1.12567 
0.354487 0.877988 -1.12708 
0.354565 0.879499 -1.12849 
0.354642 0.88101 -1.12989 
0.35472 0.882519 -1.1313 
0.354797 0.884028 -1.1327 
0.354874 0.885536 -1.13411 
0.354951 0.887043 -1.13551 
0.355028 0.88855 -1.13691 
0.355105 0.890055 -1.13831 
0.355182 0.89156 -1.13971 
0.355258 0.893064 -1.14111 
0.355335 0.894567 -1.1425 
0.355411 0.89607 -1.1439 
0.355487 0.897571 -1.1453 
0.355564 0.899072 -1.14669 
0.35564 0.900572 -1.14808 
0.355716 0.902072 -1.14948 
0.355791 0.90357 -1.15087 
0.355867 0.905068 -1.15226 
0.355943 0.906565 -1.15365 
0.356018 0.908061 -1.15504 
0.356093 0.909557 -1.15642 
0.356169 0.911051 -1.15781 
0.356244 0.912545 -1.1592 
0.356319 0.914038 -1.16058 
0.356393 0.915531 -1.16197 
0.356468 0.917022 -1.16335 
0.356543 0.918513 -1.16473 
0.356617 0.920003 -1.16611 
0.356692 0.921492 -1.16749 
0.356766 0.922981 -1.16887 
0.35684 0.924468 -1.17025 
0.356914 0.925955 -1.17163 
0.356988 0.927442 -1.173 
0.357062 0.928927 -1.17438 
0.357136 0.930412 -1.17575 
0.35721 0.931896 -1.17712 
0.357283 0.933379 -1.1785 
0.357357 0.934861 -1.17987 
0.35743 0.936343 -1.18124 
0.357503 0.937824 -1.18261 
0.357576 0.939304 -1.18398 
0.357649 0.940783 -1.18535 
0.357722 0.942262 -1.18671 
0.357795 0.94374 -1.18808 
0.357868 0.945217 -1.18944 
0.35794 0.946693 -1.19081 
0.358013 0.948169 -1.19217 
0.358085 0.949644 -1.19353 
0.358158 0.951118 -1.19489 
0.35823 0.952591 -1.19625 
0.358302 0.954064 -1.19761 
0.358374 0.955536 -1.19897 
0.358446 0.957007 -1.20033 
0.358517 0.958477 -1.20169 
0.358589 0.959947 -1.20304 
0.358661 0.961416 -1.2044 
0.358732 0.962884 -1.20575 
0.358803 0.964351 -1.20711 
0.358875 0.965818 -1.20846 
0.358946 0.967284 -1.20981 
0.359017 0.968749 -1.21116 
0.359088 0.970214 -1.21251 
0.359159 0.971677 -1.21386 
0.359229 0.97314 -1.21521 
0.3593 0.974603 -1.21656 
0.35937 0.976064 -1.2179 
0.359441 0.977525 -1.21925 
0.359511 0.978985 -1.22059 
0.359581 0.980444 -1.22194 
0.359652 0.981903 -1.22328 
0.359722 0.983361 -1.22462 
0.359792 0.984818 -1.22596 
0.359861 0.986275 -1.2273 
0.359931 0.98773 -1.22864 
0.360001 0.989185 -1.22998 
0.36007 0.99064 -1.23132 
0.36014 0.992093 -1.23265 
0.360209 0.993546 -1.23399 
0.360278 0.994998 -1.23533 
0.360348 0.99645 -1.23666 
0.360417 0.9979 -1.23799 
0.360486 0.99935 -1.23933 
0.360555 1.0008 -1.24066 
0.360623 1.00225 -1.24199 
0.360692 1.0037 -1.24332 
0.360761 1.00514 -1.24465 
0.360829 1.00659 -1.24598 
0.360898 1.00803 -1.2473 
0.360966 1.00948 -1.24863 
0.361034 1.01092 -1.24996 
0.361102 1.01237 -1.25128 
0.36117 1.01381 -1.25261 
0.361238 1.01525 -1.25393 
0.361306 1.01669 -1.25525 
0.361374 1.01813 -1.25658 
0.361442 1.01957 -1.2579 
0.361509 1.02101 -1.25922 
0.361577 1.02245 -1.26054 
0.361644 1.02389 -1.26185 
0.361711 1.02533 -1.26317 
0.361779 1.02676 -1.26449 
0.361846 1.0282 -1.26581 
0.361913 1.02963 -1.26712 
0.36198 1.03107 -1.26844 
0.362047 1.0325 -1.26975 
0.362113 1.03394 -1.27106 
0.36218 1.03537 -1.27237 
0.362247 1.0368 -1.27369 
0.362313 1.03823 -1.275 
0.36238 1.03966 -1.27631 
0.362446 1.04109 -1.27762 
0.362512 1.04252 -1.27892 
0.362578 1.04395 -1.28023 
0.362645 1.04537 -1.28154 
0.36271 1.0468 -1.28284 
0.362776 1.04823 -1.28415 
0.362842 1.04965 -1.28545 
0.362908 1.05108 -1.28676 
0.362974 1.0525 -1.28806 
0.363039 1.05393 -1.28936 
0.363105 1.05535 -1.29066 
0.36317 1.05677 -1.29196 
0.363235 1.05819 -1.29326 
0.363301 1.05961 -1.29456 
0.363366 1.06103 -1.29586 
0.363431 1.06245 -1.29716 
0.363496 1.06387 -1.29845 
0.363561 1.06529 -1.29975 
0.363625 1.0667 -1.30105 
0.36369 1.06812 -1.30234 
0.363755 1.06954 -1.30363 
0.363819 1.07095 -1.30493 
0.363884 1.07237 -1.30622 
0.363948 1.07378 -1.30751 
0.364012 1.07519 -1.3088 
0.364077 1.07661 -1.31009 
0.364141 1.07802 -1.31138 
0.364205 1.07943 -1.31267 
0.364269 1.08084 -1.31395 
0.364333 1.08225 -1.31524 
0.364397 1.08366 -1.31653 
0.36446 1.08507 -1.31781 
0.364524 1.08647 -1.3191 
0.364588 1.08788 -1.32038 
0.364651 1.08929 -1.32166 
0.364714 1.09069 -1.32295 
0.364778 1.0921 -1.32423 
0.364841 1.0935 -1.32551 
0.364904 1.09491 -1.32679 
0.364967 1.09631 -1.32807 
0.36503 1.09771 -1.32935 
0.365093 1.09911 -1.33063 
0.365156 1.10051 -1.3319 
0.365219 1.10191 -1.33318 
0.365282 1.10331 -1.33446 
0.365344 1.10471 -1.33573 
0.365407 1.10611 -1.337 
0.365469 1.10751 -1.33828 
0.365532 1.10891 -1.33955 
0.365594 1.1103 -1.34082 
0.365656 1.1117 -1.34209 
0.365718 1.11309 -1.34337 
0.365781 1.11449 -1.34464 
0.365843 1.11588 -1.3459 
0.365904 1.11728 -1.34717 
0.365966 1.11867 -1.34844 
0.366028 1.12006 -1.34971 
0.36609 1.12145 -1.35098 
0.366151 1.12284 -1.35224 
0.366213 1.12423 -1.35351 
0.366275 1.12562 -1.35477 
0.366336 1.12701 -1.35603 
0.366397 1.1284 -1.3573 
0.366459 1.12978 -1.35856 
0.36652 1.13117 -1.35982 
0.366581 1.13256 -1.36108 
0.366642 1.13394 -1.36234 
0.366703 1.13533 -1.3636 
0.366764 1.13671 -1.36486 
0.366825 1.13809 -1.36612 
0.366885 1.13948 -1.36738 
0.366946 1.14086 -1.36863 
0.367007 1.14224 -1.36989 
0.367067 1.14362 -1.37115 
0.367128 1.145 -1.3724 
0.367188 1.14638 -1.37365 
0.367248 1.14776 -1.37491 
0.367309 1.14914 -1.37616 
0.367369 1.15052 -1.37741 
0.367429 1.15189 -1.37866 
0.367489 1.15327 -1.37991 
0.367549 1.15465 -1.38116 
0.367609 1.15602 -1.38241 
0.367668 1.1574 -1.38366 
0.367728 1.15877 -1.38491 
0.367788 1.16014 -1.38616 
0.367847 1.16152 -1.3874 
0.367907 1.16289 -1.38865 
0.367966 1.16426 -1.3899 
0.368026 1.16563 -1.39114 
0.368085 1.167 -1.39238 
0.368144 1.16837 -1.39363 
0.368204 1.16974 -1.39487 
0.368263 1.17111 -1.39611 
0.368322 1.17247 -1.39735 
0.368381 1.17384 -1.39859 
0.36844 1.17521 -1.39983 
0.368499 1.17657 -1.40107 
0.368557 1.17794 -1.40231 
0.368616 1.1793 -1.40355 
0.368675 1.18067 -1.40479 
0.368733 1.18203 -1.40602 
0.368792 1.18339 -1.40726 
0.36885 1.18475 -1.4085 
0.368909 1.18611 -1.40973 
0.368967 1.18748 -1.41097 
0.369025 1.18884 -1.4122 
0.369083 1.19019 -1.41343 
0.369141 1.19155 -1.41466 
0.369199 1.19291 -1.4159 
0.369257 1.19427 -1.41713 
0.369315 1.19563 -1.41836 
0.369373 1.19698 -1.41959 
0.369431 1.19834 -1.42082 
0.369489 1.19969 -1.42204 
0.369546 1.20105 -1.42327 
0.369604 1.2024 -1.4245 
0.369661 1.20376 -1.42573 
0.369719 1.20511 -1.42695 
0.369776 1.20646 -1.42818 
0.369834 1.20781 -1.4294 
0.369891 1.20916 -1.43063 
0.369948 1.21051 -1.43185 
0.370005 1.21186 -1.43307 
0.370062 1.21321 -1.43429 
0.370119 1.21456 -1.43552 
0.370176 1.21591 -1.43674 
0.370233 1.21725 -1.43796 
0.37029 1.2186 -1.43918 
0.370347 1.21995 -1.4404 
0.370403 1.22129 -1.44161 
0.37046 1.22264 -1.44283 
0.370516 1.22398 -1.44405 
0.370573 1.22532 -1.44527 
0.370629 1.22667 -1.44648 
0.370686 1.22801 -1.4477 
0.370742 1.22935 -1.44891 
0.370798 1.23069 -1.45013 
0.370854 1.23203 -1.45134 
0.370911 1.23337 -1.45255 
0.370967 1.23471 -1.45376 
0.371023 1.23605 -1.45498 
0.371079 1.23739 -1.45619 
0.371134 1.23873 -1.4574 
0.37119 1.24006 -1.45861 
0.371246 1.2414 -1.45982 
0.371302 1.24274 -1.46103 
0.371357 1.24407 -1.46223 
0.371413 1.24541 -1.46344 
0.371468 1.24674 -1.46465 
0.371524 1.24807 -1.46585 
0.371579 1.24941 -1.46706 
0.371635 1.25074 -1.46827 
0.37169 1.25207 -1.46947 
0.371745 1.2534 -1.47067 
0.3718 1.25473 -1.47188 
0.371855 1.25606 -1.47308 
0.37191 1.25739 -1.47428 
0.371965 1.25872 -1.47548 
0.37202 1.26005 -1.47668 
0.372075 1.26137 -1.47789 
0.37213 1.2627 -1.47908 
0.372185 1.26403 -1.48028 
0.372239 1.26535 -1.48148 
0.372294 1.26668 -1.48268 
0.372348 1.268 -1.48388 
0.372403 1.26933 -1.48508 
0.372457 1.27065 -1.48627 
0.372512 1.27197 -1.48747 
0.372566 1.27329 -1.48866 
0.37262 1.27462 -1.48986 
0.372675 1.27594 -1.49105 
0.372729 1.27726 -1.49224 
0.372783 1.27858 -1.49344 
0.372837 1.2799 -1.49463 
0.372891 1.28121 -1.49582 
0.372945 1.28253 -1.49701 
0.372999 1.28385 -1.4982 
0.373052 1.28517 -1.49939 
0.373106 1.28648 -1.50058 
0.37316 1.2878 -1.50177 
0.373214 1.28911 -1.50296 
0.373267 1.29043 -1.50415 
0.373321 1.29174 -1.50533 
0.373374 1.29306 -1.50652 
0.373428 1.29437 -1.50771 
0.373481 1.29568 -1.50889 
0.373534 1.29699 -1.51008 
0.373587 1.2983 -1.51126 
0.373641 1.29961 -1.51245 
0.373694 1.30092 -1.51363 
0.373747 1.30223 -1.51481 
0.3738 1.30354 -1.51599 
0.373853 1.30485 -1.51718 
0.373906 1.30616 -1.51836 
0.373959 1.30747 -1.51954 
0.374012 1.30877 -1.52072 
0.374064 1.31008 -1.5219 
0.374117 1.31138 -1.52308 
0.37417 1.31269 -1.52425 
0.374222 1.31399 -1.52543 
0.374275 1.3153 -1.52661 
0.374327 1.3166 -1.52779 
0.37438 1.3179 -1.52896 
0.374432 1.3192 -1.53014 
0.374484 1.32051 -1.53131 
0.374537 1.32181 -1.53249 
0.374589 1.32311 -1.53366 
0.374641 1.32441 -1.53483 
0.374693 1.32571 -1.53601 
0.374745 1.327 -1.53718 
0.374797 1.3283 -1.53835 
0.374849 1.3296 -1.53952 
0.374901 1.3309 -1.54069 
0.374953 1.33219 -1.54186 
0.375005 1.33349 -1.54303 
0.375057 1.33478 -1.5442 
0.375108 1.33608 -1.54537 
0.37516 1.33737 -1.54654 
0.375211 1.33867 -1.54771 
0.375263 1.33996 -1.54887 
0.375315 1.34125 -1.55004 
0.375366 1.34254 -1.5512 
0.375417 1.34383 -1.55237 
0.375469 1.34512 -1.55353 
0.37552 1.34641 -1.5547 
0.375571 1.3477 -1.55586 
0.375622 1.34899 -1.55703 
0.375674 1.35028 -1.55819 
0.375725 1.35157 -1.55935 
0.375776 1.35286 -1.56051 
0.375827 1.35414 -1.56167 
0.375878 1.35543 -1.56283 
0.375928 1.35672 -1.56399 
0.375979 1.358 -1.56515 
0.37603 1.35929 -1.56631 
0.376081 1.36057 -1.56747 
0.376131 1.36185 -1.56863 
0.376182 1.36314 -1.56979 
0.376233 1.36442 -1.57094 
0.376283 1.3657 -1.5721 
0.376334 1.36698 -1.57326 
0.376384 1.36826 -1.57441 
0.376434 1.36954 -1.57557 
0.376485 1.37082 -1.57672 
0.376535 1.3721 -1.57787 
0.376585 1.37338 -1.57903 
0.376635 1.37466 -1.58018 
0.376686 1.37594 -1.58133 
0.376736 1.37721 -1.58249 
0.376786 1.37849 -1.58364 
0.376836 1.37976 -1.58479 
0.376886 1.38104 -1.58594 
0.376936 1.38231 -1.58709 
0.376985 1.38359 -1.58824 
0.377035 1.38486 -1.58939 
0.377085 1.38613 -1.59053 
0.377135 1.38741 -1.59168 
0.377184 1.38868 -1.59283 
0.377234 1.38995 -1.59398 
0.377283 1.39122 -1.59512 
0.377333 1.39249 -1.59627 
0.377382 1.39376 -1.59741 
0.377432 1.39503 -1.59856 
0.377481 1.3963 -1.5997 
0.377531 1.39757 -1.60085 
0.37758 1.39884 -1.60199 
0.377629 1.4001 -1.60313 
0.377678 1.40137 -1.60427 
0.377727 1.40264 -1.60542 
0.377776 1.4039 -1.60656 
0.377825 1.40517 -1.6077 
0.377874 1.40643 -1.60884 
0.377923 1.40769 -1.60998 
0.377972 1.40896 -1.61112 
0.378021 1.41022 -1.61226 
